<?xml version="1.0"?>
<opencv_storage>
<my_svm type_id="opencv-ml-svm">
  <svm_type>C_SVC</svm_type>
  <kernel><type>RBF</type>
    <gamma>2.5000000000000000e-001</gamma></kernel>
  <C>8.</C>
  <term_criteria><epsilon>2.2204460492503131e-016</epsilon>
    <iterations>10000</iterations></term_criteria>
  <var_all>20</var_all>
  <var_count>20</var_count>
  <class_count>2</class_count>
  <class_labels type_id="opencv-matrix">
    <rows>1</rows>
    <cols>2</cols>
    <dt>i</dt>
    <data>
      0 1</data></class_labels>
  <sv_total>110</sv_total>
  <support_vectors>
    <_>
      2.86190701e+000 2.83956909e+000 2.84708309e+000 2.86395693e+000
      2.82170701e+000 2.76308894e+000 2.68039703e+000 2.58014488e+000
      2.48665404e+000 2.35872793e+000 2.40185809e+000 2.60196090e+000
      2.87202001e+000 3.08884192e+000 3.19000506e+000 3.20427799e+000
      3.12980199e+000 2.98480701e+000 2.79935694e+000 2.54338598e+000</_>
    <_>
      3.31615210e+000 3.31702709e+000 3.30019593e+000 3.26364303e+000
      3.20627093e+000 3.12716889e+000 3.02149796e+000 2.89530492e+000
      2.74946308e+000 2.67243004e+000 2.67599010e+000 2.71473908e+000
      2.75538993e+000 2.79666400e+000 2.85006595e+000 2.90732288e+000
      2.94953203e+000 3.01494598e+000 3.06443310e+000 3.11962700e+000</_>
    <_>
      3.35072708e+000 3.35221410e+000 3.30664611e+000 3.20411396e+000
      3.03147101e+000 2.80316806e+000 2.53383589e+000 2.22845101e+000
      1.91006804e+000 1.60663998e+000 1.87652004e+000 2.18108296e+000
      2.49254489e+000 2.77630997e+000 3.01838112e+000 3.19680405e+000
      3.30168295e+000 3.34996891e+000 3.35117602e+000 3.31609607e+000</_>
    <_>
      3.33820009e+000 3.27217889e+000 3.18356705e+000 2.98543096e+000
      2.65587997e+000 2.23043108e+000 1.82053399e+000 1.39042199e+000
      1.04787600e+000 8.61131012e-001 1.32284904e+000 1.80684805e+000
      2.30879593e+000 2.73212409e+000 3.05994606e+000 3.22344398e+000
      3.26640797e+000 3.21996188e+000 3.13508797e+000 3.04288912e+000</_>
    <_>
      3.31474590e+000 3.29719090e+000 3.26985693e+000 3.17819810e+000
      3.04076099e+000 2.87849402e+000 2.63665795e+000 2.39687991e+000
      2.18636298e+000 2.11509800e+000 2.24781704e+000 2.41006708e+000
      2.59991097e+000 2.80582690e+000 3.00234389e+000 3.14829898e+000
      3.23219109e+000 3.28835297e+000 3.29901600e+000 3.29268098e+000</_>
    <_>
      3.13908410e+000 3.15588093e+000 3.15749192e+000 3.14539909e+000
      3.11780000e+000 3.07271791e+000 3.00430393e+000 2.91286302e+000
      2.80103302e+000 2.67371798e+000 2.78627491e+000 2.85131311e+000
      2.93281507e+000 3.01863098e+000 3.09397101e+000 3.15290403e+000
      3.19418502e+000 3.21111989e+000 3.21340394e+000 3.19460511e+000</_>
    <_>
      2.68677807e+000 2.69257498e+000 2.69487190e+000 2.62708211e+000
      2.51192188e+000 2.39819002e+000 2.29850698e+000 2.18429804e+000
      2.05333591e+000 1.96691501e+000 2.25149989e+000 2.56731606e+000
      2.82928896e+000 3.02918601e+000 3.17112803e+000 3.26130605e+000
      3.31263304e+000 3.32761598e+000 3.31491494e+000 3.28780508e+000</_>
    <_>
      1.54825401e+000 2.31315088e+000 3.02388406e+000 3.30670094e+000
      3.21243095e+000 2.75854492e+000 2.10900688e+000 1.46730602e+000
      1.32234204e+000 1.29811096e+000 1.38066900e+000 1.57187605e+000
      1.94192100e+000 2.36380696e+000 2.74904609e+000 3.02776408e+000
      3.15094209e+000 3.16403103e+000 3.18810105e+000 3.18133712e+000</_>
    <_>
      3.00830412e+000 3.15927601e+000 3.27726007e+000 3.34361410e+000
      3.32588005e+000 3.22976899e+000 3.06948900e+000 2.88292503e+000
      2.79252005e+000 2.74726009e+000 2.85127711e+000 2.96132588e+000
      3.03535390e+000 3.14493203e+000 3.23221993e+000 3.25602698e+000
      3.30120301e+000 3.31975198e+000 3.32554412e+000 3.32883501e+000</_>
    <_>
      3.32759500e+000 3.33104205e+000 3.31062007e+000 3.27275991e+000
      3.19945502e+000 3.10226893e+000 2.95922709e+000 2.80181789e+000
      2.71571302e+000 2.65553188e+000 2.70411897e+000 2.79842210e+000
      2.85764289e+000 2.87216592e+000 2.88087702e+000 2.89336705e+000
      2.97087407e+000 3.06463289e+000 3.18738008e+000 3.28119397e+000</_>
    <_>
      3.18924809e+000 3.23437905e+000 3.24592495e+000 3.20284104e+000
      3.15330911e+000 3.05895805e+000 2.92986608e+000 2.79901910e+000
      2.71625900e+000 2.64786506e+000 2.73647094e+000 2.81987906e+000
      2.86513495e+000 2.92242002e+000 3.02371407e+000 3.08727598e+000
      3.10038900e+000 3.10730910e+000 3.14215994e+000 3.21448302e+000</_>
    <_>
      3.37638211e+000 3.38368392e+000 3.36645699e+000 3.32152200e+000
      3.24515104e+000 3.12767911e+000 2.98544312e+000 2.81298089e+000
      2.61761904e+000 2.48195601e+000 2.52370310e+000 2.55866194e+000
      2.57410908e+000 2.58002496e+000 2.57658911e+000 2.51727509e+000
      2.51194811e+000 2.51250291e+000 2.53492093e+000 2.61290789e+000</_>
    <_>
      3.25956511e+000 3.24494195e+000 3.21185803e+000 3.14438796e+000
      3.03701210e+000 2.90317512e+000 2.74731994e+000 2.56279302e+000
      2.42061305e+000 2.38290095e+000 2.43805408e+000 2.55537605e+000
      2.68558407e+000 2.79319406e+000 2.89607692e+000 2.97113109e+000
      3.01870203e+000 3.06156397e+000 3.08060908e+000 3.09831190e+000</_>
    <_>
      3.40251207e+000 3.44605994e+000 3.42213011e+000 3.28682995e+000
      3.01116991e+000 2.62117100e+000 2.13828301e+000 1.62589800e+000
      1.13752699e+000 7.16868997e-001 1.10706496e+000 1.55747104e+000
      2.02553105e+000 2.48016500e+000 2.88749695e+000 3.18347812e+000
      3.36724806e+000 3.42593598e+000 3.40263104e+000 3.33662200e+000</_>
    <_>
      3.13356495e+000 3.15585709e+000 3.15027094e+000 3.12062407e+000
      3.07447791e+000 3.00869608e+000 2.93065310e+000 2.85530901e+000
      2.80394912e+000 2.79014492e+000 2.80037808e+000 2.83831096e+000
      2.90972900e+000 3.00842810e+000 3.10884500e+000 3.19158196e+000
      3.25016403e+000 3.29234600e+000 3.31845689e+000 3.32307410e+000</_>
    <_>
      3.18387604e+000 3.14303303e+000 3.10750294e+000 3.08237696e+000
      3.03525996e+000 2.95964503e+000 2.87182999e+000 2.77504706e+000
      2.68143296e+000 2.64246702e+000 2.68657708e+000 2.76244402e+000
      2.87542200e+000 2.98768711e+000 3.08735108e+000 3.17746091e+000
      3.24352002e+000 3.28594303e+000 3.31010509e+000 3.31886005e+000</_>
    <_>
      2.88460302e+000 2.89803410e+000 2.83568192e+000 2.74510098e+000
      2.59554100e+000 2.43387198e+000 2.25025892e+000 2.04375505e+000
      1.81661606e+000 1.66139197e+000 1.94837701e+000 2.30397296e+000
      2.63022709e+000 2.90513992e+000 3.11495996e+000 3.25164700e+000
      3.32972288e+000 3.34967399e+000 3.33360291e+000 3.30063105e+000</_>
    <_>
      2.36439395e+000 2.37611198e+000 2.38166308e+000 2.37987804e+000
      2.36764598e+000 2.36842299e+000 2.37902188e+000 2.37152100e+000
      2.34097695e+000 2.30585194e+000 2.30796599e+000 2.32428503e+000
      2.33855605e+000 2.35908294e+000 2.43280697e+000 2.59041905e+000
      2.80655098e+000 2.97728300e+000 3.10537291e+000 3.19459200e+000</_>
    <_>
      3.34425306e+000 3.33465099e+000 3.32745790e+000 3.28228402e+000
      3.20806289e+000 3.13813591e+000 2.99707603e+000 2.87954092e+000
      2.80793810e+000 2.77710295e+000 2.82344508e+000 3.00830412e+000
      3.15927601e+000 3.27726007e+000 3.34361410e+000 3.32588005e+000
      3.22976899e+000 3.06948900e+000 2.88292503e+000 2.79252005e+000</_>
    <_>
      3.22637010e+000 3.19494510e+000 3.14774299e+000 3.09441590e+000
      3.02210498e+000 2.90136790e+000 2.82282305e+000 2.74302411e+000
      2.69863391e+000 2.66730309e+000 2.78059912e+000 2.91643596e+000
      3.01896501e+000 3.08725309e+000 3.11945105e+000 3.10323191e+000
      3.09164405e+000 3.05371499e+000 3.05121803e+000 3.03996491e+000</_>
    <_>
      3.07776594e+000 3.18865299e+000 3.25816798e+000 3.26266289e+000
      3.19361210e+000 3.06136799e+000 2.90646505e+000 2.73397803e+000
      2.54865193e+000 2.39606094e+000 2.40299010e+000 2.54465604e+000
      2.74015594e+000 2.91537404e+000 3.07185507e+000 3.19199800e+000
      3.27175403e+000 3.31554508e+000 3.32705998e+000 3.31684804e+000</_>
    <_>
      3.32858992e+000 3.33938909e+000 3.29519606e+000 3.19578910e+000
      3.02601504e+000 2.79987597e+000 2.52523303e+000 2.22155595e+000
      1.90496194e+000 1.59395802e+000 1.90785599e+000 2.22075009e+000
      2.52241397e+000 2.79228401e+000 3.01868701e+000 3.19268894e+000
      3.29673910e+000 3.33571601e+000 3.33016610e+000 3.29023600e+000</_>
    <_>
      3.42320299e+000 3.46399498e+000 3.46175694e+000 3.38906288e+000
      3.16341496e+000 2.76347089e+000 2.23423791e+000 1.66357303e+000
      1.12318599e+000 1.02768600e+000 1.08314097e+000 1.26600003e+000
      1.62122500e+000 2.14662600e+000 2.67585397e+000 3.10748911e+000
      3.36605906e+000 3.44519401e+000 3.40927100e+000 3.36315608e+000</_>
    <_>
      3.30113101e+000 3.35306001e+000 3.35162497e+000 3.27178407e+000
      3.09965491e+000 2.83620691e+000 2.51588202e+000 2.15867996e+000
      1.79797006e+000 1.54928505e+000 1.60777605e+000 1.94921303e+000
      2.30540800e+000 2.65169406e+000 2.95341110e+000 3.18133497e+000
      3.32033205e+000 3.37857890e+000 3.37136006e+000 3.33063602e+000</_>
    <_>
      3.31002212e+000 3.30078697e+000 3.28716302e+000 3.26991010e+000
      3.25854993e+000 3.22316289e+000 3.15086603e+000 3.06527400e+000
      2.92360091e+000 2.78098512e+000 2.88489008e+000 2.95272303e+000
      3.02507210e+000 3.08943295e+000 3.15155292e+000 3.20460796e+000
      3.24348211e+000 3.27848196e+000 3.24388099e+000 3.13998604e+000</_>
    <_>
      3.31298590e+000 3.33516693e+000 3.31196094e+000 3.21896911e+000
      3.05573201e+000 2.81592798e+000 2.52004600e+000 2.19485092e+000
      1.85778797e+000 1.83985806e+000 1.92384505e+000 2.20500994e+000
      2.50196505e+000 2.77944207e+000 3.01711988e+000 3.16995192e+000
      3.25012803e+000 3.27818203e+000 3.25771499e+000 3.23065305e+000</_>
    <_>
      2.33097506e+000 2.43071508e+000 2.61331606e+000 2.70610094e+000
      2.72805190e+000 2.67622209e+000 2.56351209e+000 2.48834705e+000
      2.36572003e+000 2.32128191e+000 2.45988202e+000 2.67230392e+000
      2.88675404e+000 3.05603909e+000 3.17715311e+000 3.25327611e+000
      3.30754304e+000 3.33112311e+000 3.32091594e+000 3.30634189e+000</_>
    <_>
      3.32025409e+000 3.32788801e+000 3.31067705e+000 3.27124691e+000
      3.20667100e+000 3.11258197e+000 3.00302911e+000 2.87346005e+000
      2.72602296e+000 2.56088400e+000 2.56496000e+000 2.72924209e+000
      2.88415003e+000 3.02364612e+000 3.14080691e+000 3.23308992e+000
      3.29811001e+000 3.33853889e+000 3.35360789e+000 3.34640408e+000</_>
    <_>
      2.95018005e+000 2.87855792e+000 2.78703499e+000 2.69301200e+000
      2.59225392e+000 2.53890896e+000 2.48850107e+000 2.41866589e+000
      2.32464194e+000 2.28851104e+000 2.40727901e+000 2.57715607e+000
      2.75102997e+000 2.91633701e+000 3.04847193e+000 3.14236403e+000
      3.19286609e+000 3.20674109e+000 3.19043493e+000 3.16808891e+000</_>
    <_>
      2.60196090e+000 2.87202001e+000 3.08884192e+000 3.19000506e+000
      3.20427799e+000 3.12980199e+000 2.98480701e+000 2.79935694e+000
      2.54338598e+000 2.38386011e+000 2.47321391e+000 2.65535212e+000
      2.83282709e+000 2.95072198e+000 3.02833605e+000 3.10136199e+000
      3.16087008e+000 3.21591210e+000 3.23634410e+000 3.24576902e+000</_>
    <_>
      3.43052006e+000 3.43694210e+000 3.36013603e+000 3.15397811e+000
      2.74607801e+000 2.15129495e+000 1.44948399e+000 7.68181026e-001
      4.55992997e-001 3.83960992e-001 5.11740029e-001 7.18455017e-001
      9.61386025e-001 1.28659403e+000 1.61228001e+000 1.88131297e+000
      2.05148101e+000 2.08532691e+000 2.14231396e+000 2.16369295e+000</_>
    <_>
      3.11596990e+000 3.19871807e+000 3.23993897e+000 3.23829293e+000
      3.12782407e+000 2.94292212e+000 2.73061800e+000 2.49335098e+000
      2.38041806e+000 2.21908998e+000 2.25727296e+000 2.39463401e+000
      2.59725595e+000 2.87679005e+000 2.99686909e+000 3.08367205e+000
      3.07914495e+000 3.03450894e+000 3.17391610e+000 3.18069601e+000</_>
    <_>
      3.13998604e+000 3.11440206e+000 3.09375596e+000 3.09138608e+000
      3.08717895e+000 3.07995391e+000 3.03839898e+000 2.98188305e+000
      2.89445996e+000 2.78079891e+000 2.84373999e+000 2.94658709e+000
      3.05015111e+000 3.17344499e+000 3.26493502e+000 3.31695294e+000
      3.30064988e+000 3.21320009e+000 3.05780005e+000 2.85447598e+000</_>
    <_>
      3.31827497e+000 3.32649589e+000 3.25708795e+000 3.06859899e+000
      2.88853693e+000 2.76024294e+000 2.63105702e+000 2.53635001e+000
      2.35753703e+000 2.14709711e+000 2.16174197e+000 2.25691700e+000
      2.40573096e+000 2.51456809e+000 2.59661293e+000 2.63770890e+000
      2.71435404e+000 2.79792690e+000 2.85197401e+000 2.87246609e+000</_>
    <_>
      3.02087903e+000 3.05935311e+000 3.03638101e+000 2.96101809e+000
      2.84941101e+000 2.71534491e+000 2.53766704e+000 2.31046891e+000
      2.07385492e+000 1.99470699e+000 2.10037398e+000 2.35101700e+000
      2.54846597e+000 2.69403791e+000 2.80078101e+000 2.87684393e+000
      2.93192291e+000 2.92289209e+000 2.90826702e+000 2.91981411e+000</_>
    <_>
      3.20599008e+000 3.19793010e+000 3.16116810e+000 3.10100794e+000
      3.01199698e+000 2.89580798e+000 2.78854895e+000 2.71986294e+000
      2.64311194e+000 2.61218309e+000 2.66173196e+000 2.75846791e+000
      2.83720708e+000 2.89282203e+000 2.97560191e+000 3.03311801e+000
      3.09558892e+000 3.14433098e+000 3.15810490e+000 3.16524410e+000</_>
    <_>
      3.37183309e+000 3.40340900e+000 3.39540410e+000 3.29832697e+000
      3.09631205e+000 2.78950500e+000 2.41396093e+000 2.00834107e+000
      1.60191703e+000 1.50312805e+000 1.54658997e+000 1.83597398e+000
      2.23261690e+000 2.60771894e+000 2.91852903e+000 3.13234496e+000
      3.25482512e+000 3.30635309e+000 3.29275703e+000 3.25306702e+000</_>
    <_>
      2.94552588e+000 2.97329092e+000 2.98215008e+000 2.96540689e+000
      2.93531799e+000 2.85787296e+000 2.76546597e+000 2.64215112e+000
      2.50610995e+000 2.37711692e+000 2.49572206e+000 2.64737892e+000
      2.79362106e+000 2.93843889e+000 3.07776594e+000 3.18865299e+000
      3.25816798e+000 3.26266289e+000 3.19361210e+000 3.06136799e+000</_>
    <_>
      3.25666094e+000 3.21871400e+000 3.15977597e+000 3.07547092e+000
      2.96668291e+000 2.87899303e+000 2.79148793e+000 2.75616002e+000
      2.73050404e+000 2.69895792e+000 2.71644998e+000 2.77100301e+000
      2.81887507e+000 2.91428494e+000 3.00732708e+000 3.10607505e+000
      3.19290900e+000 3.25695205e+000 3.29398608e+000 3.30001807e+000</_>
    <_>
      3.33345699e+000 3.33941793e+000 3.29533696e+000 3.20982599e+000
      3.09306693e+000 2.95908594e+000 2.84230494e+000 2.74828506e+000
      2.70707107e+000 2.68428612e+000 2.72375798e+000 2.78526711e+000
      2.81862092e+000 2.92793989e+000 3.04436707e+000 3.11465812e+000
      3.19797206e+000 3.25175095e+000 3.26389194e+000 3.27909803e+000</_>
    <_>
      2.14811301e+000 2.50659204e+000 2.82919002e+000 3.04318500e+000
      3.08537197e+000 2.94377398e+000 2.63289094e+000 2.24807596e+000
      2.00839090e+000 1.91490197e+000 1.92252302e+000 1.97083998e+000
      2.09700799e+000 2.21140003e+000 2.29714108e+000 2.35093307e+000
      2.35965490e+000 2.35683799e+000 2.37818789e+000 2.39628291e+000</_>
    <_>
      3.34332609e+000 3.33082700e+000 3.28201199e+000 3.14398789e+000
      2.90829396e+000 2.62882590e+000 2.31617308e+000 1.99286997e+000
      1.68072796e+000 1.50399995e+000 1.61484504e+000 1.83321905e+000
      2.16075397e+000 2.48670697e+000 2.76352501e+000 3.00389099e+000
      3.15939808e+000 3.25332093e+000 3.28102589e+000 3.27469110e+000</_>
    <_>
      2.86790204e+000 3.06243205e+000 3.20980000e+000 3.30706191e+000
      3.34962201e+000 3.31466794e+000 3.19959998e+000 3.04642296e+000
      2.83540511e+000 2.70725799e+000 2.83281803e+000 2.94706011e+000
      3.02488589e+000 3.11450291e+000 3.19102097e+000 3.23339510e+000
      3.21185803e+000 3.19831491e+000 3.23005700e+000 3.25636196e+000</_>
    <_>
      3.33875203e+000 3.33393908e+000 3.31537604e+000 3.25253892e+000
      3.16005397e+000 3.04736900e+000 2.87907910e+000 2.71083403e+000
      2.56527591e+000 2.55841398e+000 2.80560303e+000 2.98510504e+000
      3.14523602e+000 3.24521804e+000 3.24635196e+000 3.12876892e+000
      2.97178793e+000 2.83935308e+000 2.77260494e+000 2.86790204e+000</_>
    <_>
      2.85139203e+000 2.82411790e+000 2.76291895e+000 2.69270110e+000
      2.64916706e+000 2.60411906e+000 2.48478198e+000 2.28698301e+000
      2.03558493e+000 1.94116497e+000 2.12275600e+000 2.41350603e+000
      2.68005610e+000 2.91501188e+000 3.11235309e+000 3.25808001e+000
      3.33457303e+000 3.35401797e+000 3.32626295e+000 3.30925488e+000</_>
    <_>
      3.36560702e+000 3.35680294e+000 3.31934500e+000 3.25409198e+000
      3.14211202e+000 2.98126602e+000 2.78067708e+000 2.55193210e+000
      2.30762291e+000 2.27958894e+000 2.35423112e+000 2.51595807e+000
      2.70008397e+000 2.90393090e+000 3.07662511e+000 3.19154406e+000
      3.26550293e+000 3.30322099e+000 3.28742194e+000 3.27547598e+000</_>
    <_>
      3.16089702e+000 3.23780298e+000 3.24859500e+000 3.17691398e+000
      3.02859902e+000 2.81183505e+000 2.56046510e+000 2.28950906e+000
      2.01553798e+000 1.86834896e+000 2.11068702e+000 2.38876700e+000
      2.65742493e+000 2.88041806e+000 3.05914998e+000 3.17495394e+000
      3.23689795e+000 3.24701095e+000 3.22316003e+000 3.18424201e+000</_>
    <_>
      3.15770006e+000 3.12670398e+000 3.00400996e+000 2.77590299e+000
      2.45754194e+000 2.11720991e+000 1.79607403e+000 1.51632202e+000
      1.27098405e+000 1.10316205e+000 1.49123394e+000 1.96983194e+000
      2.41697097e+000 2.80230904e+000 3.06756496e+000 3.22266889e+000
      3.28361511e+000 3.28228998e+000 3.22386909e+000 3.15642691e+000</_>
    <_>
      3.33788204e+000 3.31496191e+000 3.25517702e+000 3.15307593e+000
      2.97227812e+000 2.71702909e+000 2.39828992e+000 2.10560298e+000
      1.83303201e+000 1.58051300e+000 1.58517599e+000 1.65451097e+000
      1.77635896e+000 2.02120399e+000 2.22888589e+000 2.41546202e+000
      2.62240100e+000 2.75684309e+000 2.83544707e+000 2.89223003e+000</_>
    <_>
      3.07077408e+000 3.23366189e+000 3.32681990e+000 3.34111404e+000
      3.32429004e+000 3.30358005e+000 3.23591399e+000 3.11647797e+000
      2.93419600e+000 2.78999591e+000 2.99434805e+000 3.15312004e+000
      3.23870802e+000 3.29072905e+000 3.31705403e+000 3.31044197e+000
      3.36022902e+000 3.34710097e+000 3.25838208e+000 3.15891600e+000</_>
    <_>
      3.19955707e+000 3.16998506e+000 3.11561799e+000 2.99492407e+000
      2.80414510e+000 2.55844688e+000 2.24591303e+000 1.88112998e+000
      1.55704498e+000 1.43788195e+000 1.46904302e+000 1.66097701e+000
      2.10625696e+000 2.52916193e+000 2.89444590e+000 3.17218494e+000
      3.33803296e+000 3.39321494e+000 3.37012506e+000 3.33771396e+000</_>
    <_>
      3.02425504e+000 3.00733089e+000 2.96684694e+000 2.87661910e+000
      2.77812696e+000 2.64378190e+000 2.45127797e+000 2.27703094e+000
      2.08755207e+000 1.97650194e+000 2.05838990e+000 2.13215899e+000
      2.37523293e+000 2.59639001e+000 2.78531194e+000 2.93191600e+000
      3.03014708e+000 3.10447598e+000 3.13947201e+000 3.16794109e+000</_>
    <_>
      3.18961692e+000 3.19609499e+000 3.18026805e+000 3.14491701e+000
      3.07841706e+000 3.02309489e+000 2.94124699e+000 2.82841802e+000
      2.68877006e+000 2.53387094e+000 2.69789600e+000 2.82944298e+000
      2.93606591e+000 3.03035903e+000 3.09359908e+000 3.19213200e+000
      3.23667097e+000 3.26362896e+000 3.25902700e+000 3.25604606e+000</_>
    <_>
      3.18764710e+000 3.23740911e+000 3.27651596e+000 3.28538609e+000
      3.26522708e+000 3.21111894e+000 3.12158108e+000 2.99921298e+000
      2.84803200e+000 2.69755197e+000 2.77266788e+000 2.84622908e+000
      2.91736698e+000 3.06714106e+000 3.19586110e+000 3.30195093e+000
      3.37241006e+000 3.41065407e+000 3.41823006e+000 3.40059209e+000</_>
    <_>
      3.22861409e+000 3.22748399e+000 3.18849897e+000 3.10540605e+000
      2.96267200e+000 2.74522209e+000 2.54482293e+000 2.31312108e+000
      2.06925201e+000 1.86082399e+000 2.01921391e+000 2.31756306e+000
      2.60647297e+000 2.85028911e+000 3.03532290e+000 3.14822292e+000
      3.19972706e+000 3.19233489e+000 3.14930201e+000 3.08161092e+000</_>
    <_>
      3.39559507e+000 3.44732094e+000 3.43440700e+000 3.31358290e+000
      3.00484610e+000 2.51801109e+000 1.92318499e+000 1.31803501e+000
      7.73177981e-001 3.06764007e-001 5.76345980e-001 9.89256024e-001
      1.49823594e+000 2.10503888e+000 2.65341711e+000 3.08775496e+000
      3.34043694e+000 3.41912699e+000 3.39615107e+000 3.32970905e+000</_>
    <_>
      3.21117592e+000 3.22066092e+000 3.20736408e+000 3.17033696e+000
      3.10987306e+000 3.02895594e+000 2.93125892e+000 2.81794500e+000
      2.69412899e+000 2.56130505e+000 2.72084403e+000 2.86459589e+000
      2.98700094e+000 3.08591509e+000 3.16165900e+000 3.21476889e+000
      3.24644494e+000 3.25844193e+000 3.25511289e+000 3.24006104e+000</_>
    <_>
      3.28775191e+000 3.23883104e+000 3.14738393e+000 3.09384704e+000
      2.96753192e+000 2.86407590e+000 2.78322601e+000 2.68305612e+000
      2.50769591e+000 2.26956201e+000 2.43097901e+000 2.57175493e+000
      2.65981698e+000 2.67841506e+000 2.62350988e+000 2.66178393e+000
      2.77609491e+000 2.93849897e+000 3.01947498e+000 2.99762297e+000</_>
    <_>
      3.31102204e+000 3.35285997e+000 3.31982398e+000 3.19220996e+000
      2.94703889e+000 2.57554603e+000 2.11372495e+000 1.61234999e+000
      1.12501001e+000 6.77542984e-001 1.01636100e+000 1.32229495e+000
      1.66711497e+000 2.04093909e+000 2.42149210e+000 2.76861000e+000
      3.04576206e+000 3.20195198e+000 3.26722693e+000 3.25089693e+000</_>
    <_>
      3.09551811e+000 3.10181689e+000 3.08896399e+000 3.04149508e+000
      2.95753598e+000 2.84158397e+000 2.70805407e+000 2.53344989e+000
      2.36196303e+000 2.20219707e+000 2.43532991e+000 2.65084410e+000
      2.83674312e+000 2.99092603e+000 3.11413288e+000 3.19728088e+000
      3.24512911e+000 3.25518894e+000 3.23581600e+000 3.19583392e+000</_>
    <_>
      3.37528300e+000 3.40631890e+000 3.36938310e+000 3.21460295e+000
      2.92919803e+000 2.56833601e+000 2.19167399e+000 1.78196502e+000
      1.41374695e+000 1.12049794e+000 1.54885697e+000 2.01063395e+000
      2.42551899e+000 2.72699594e+000 2.84752011e+000 2.86883497e+000
      2.87818098e+000 2.78489900e+000 2.72770905e+000 2.70451307e+000</_>
    <_>
      3.02042389e+000 3.06053209e+000 3.05520391e+000 2.99014401e+000
      2.85283303e+000 2.68677711e+000 2.47655106e+000 2.22600198e+000
      1.95487404e+000 1.66818905e+000 1.86854100e+000 2.17364812e+000
      2.46596599e+000 2.74596000e+000 2.97123909e+000 3.13806391e+000
      3.25512695e+000 3.30895090e+000 3.30566692e+000 3.26596308e+000</_>
    <_>
      3.26769090e+000 3.28275609e+000 3.27865195e+000 3.25219989e+000
      3.20150590e+000 3.12571192e+000 3.02745891e+000 2.90286207e+000
      2.75731301e+000 2.59521008e+000 2.72349501e+000 2.84844208e+000
      2.96819711e+000 3.07926989e+000 3.17030191e+000 3.24175406e+000
      3.28599405e+000 3.30258107e+000 3.29178810e+000 3.25843692e+000</_>
    <_>
      3.22920299e+000 3.23921299e+000 3.22886109e+000 3.20337510e+000
      3.16093612e+000 3.09751511e+000 3.01362300e+000 2.91720796e+000
      2.80038500e+000 2.67254210e+000 2.80103302e+000 2.91204906e+000
      3.00442195e+000 3.08003211e+000 3.14598989e+000 3.20030594e+000
      3.24125195e+000 3.26620007e+000 3.27248597e+000 3.26146102e+000</_>
    <_>
      2.92563105e+000 3.03933811e+000 3.01742291e+000 2.78362799e+000
      2.35203910e+000 1.87667298e+000 1.45562005e+000 1.07289004e+000
      7.30543017e-001 4.08392012e-001 9.06831980e-001 1.48364699e+000
      2.10064197e+000 2.66308689e+000 3.06513309e+000 3.31388211e+000
      3.42259312e+000 3.43384910e+000 3.38975000e+000 3.31775808e+000</_>
    <_>
      3.20667911e+000 3.14471102e+000 3.01302910e+000 2.86274600e+000
      2.68481708e+000 2.40885806e+000 2.12937593e+000 1.84102094e+000
      1.56229198e+000 1.35407495e+000 1.77161396e+000 2.16129589e+000
      2.51123190e+000 2.81726789e+000 3.03763390e+000 3.16353011e+000
      3.22471809e+000 3.21954298e+000 3.18644094e+000 3.13218594e+000</_>
    <_>
      3.19618297e+000 3.24391603e+000 3.23535991e+000 3.14273310e+000
      2.95618510e+000 2.69126892e+000 2.37284493e+000 2.02534389e+000
      1.67582905e+000 1.41611004e+000 1.76529801e+000 2.13045001e+000
      2.48899102e+000 2.81443191e+000 3.07669401e+000 3.26217198e+000
      3.36467600e+000 3.39407802e+000 3.37113905e+000 3.31871200e+000</_>
    <_>
      3.37453294e+000 3.43049407e+000 3.40281606e+000 3.26553607e+000
      2.99216700e+000 2.60866809e+000 2.16441607e+000 1.67584801e+000
      1.19042897e+000 7.53306985e-001 1.04402804e+000 1.37451100e+000
      1.73448205e+000 2.06024504e+000 2.32287788e+000 2.54418993e+000
      2.68764496e+000 2.82432890e+000 2.85820889e+000 2.85578895e+000</_>
    <_>
      3.40044594e+000 3.42996812e+000 3.40558004e+000 3.31692100e+000
      3.11756802e+000 2.76856089e+000 2.30643606e+000 1.79118896e+000
      1.28565300e+000 8.26025009e-001 1.09117901e+000 1.35187101e+000
      1.66046000e+000 2.10890889e+000 2.60208607e+000 3.00785494e+000
      3.26946712e+000 3.37774611e+000 3.37268400e+000 3.30673599e+000</_>
    <_>
      3.05997300e+000 3.04945993e+000 2.99897909e+000 2.90647292e+000
      2.77959895e+000 2.61156702e+000 2.43243098e+000 2.23115492e+000
      2.01599097e+000 1.77956402e+000 2.08585191e+000 2.38479900e+000
      2.65666795e+000 2.88690805e+000 3.07037401e+000 3.19388294e+000
      3.26705503e+000 3.28802299e+000 3.27228808e+000 3.22696996e+000</_>
    <_>
      3.33281589e+000 3.33759189e+000 3.30314994e+000 3.22536898e+000
      3.10968804e+000 2.95965695e+000 2.78663611e+000 2.58391595e+000
      2.35008788e+000 2.20165396e+000 2.38881993e+000 2.53241205e+000
      2.60820508e+000 2.61486912e+000 2.57652092e+000 2.53631496e+000
      2.49574089e+000 2.47363400e+000 2.50445294e+000 2.57762790e+000</_>
    <_>
      3.26325011e+000 3.29201508e+000 3.26711702e+000 3.14637804e+000
      2.93993402e+000 2.65210700e+000 2.31343007e+000 1.95075595e+000
      1.58219004e+000 1.23138201e+000 1.51671505e+000 1.83735597e+000
      2.19270706e+000 2.56258512e+000 2.88858008e+000 3.15102100e+000
      3.31772709e+000 3.38455701e+000 3.37934303e+000 3.33012509e+000</_>
    <_>
      3.25482988e+000 3.27557611e+000 3.25407410e+000 3.17698407e+000
      3.03661394e+000 2.85051799e+000 2.60955691e+000 2.33465195e+000
      2.07732391e+000 1.80901897e+000 2.01000404e+000 2.25689292e+000
      2.53385496e+000 2.78695798e+000 2.99886703e+000 3.16934991e+000
      3.27570295e+000 3.32975888e+000 3.34435797e+000 3.31999111e+000</_>
    <_>
      3.35607290e+000 3.38136911e+000 3.37743306e+000 3.32717991e+000
      3.20386600e+000 3.00170898e+000 2.72702408e+000 2.40183401e+000
      2.05457711e+000 1.70540798e+000 1.74451602e+000 1.91215801e+000
      2.17834902e+000 2.51359701e+000 2.81557894e+000 3.06826591e+000
      3.24342895e+000 3.33477902e+000 3.36229706e+000 3.33346295e+000</_>
    <_>
      3.00441790e+000 3.06006002e+000 3.09086609e+000 3.07928491e+000
      3.02400899e+000 2.93712497e+000 2.81209993e+000 2.65741491e+000
      2.47287989e+000 2.26312208e+000 2.39554191e+000 2.56698394e+000
      2.72369409e+000 2.85851097e+000 2.97507310e+000 3.06740999e+000
      3.13325500e+000 3.18071508e+000 3.19263291e+000 3.16904211e+000</_>
    <_>
      2.79725599e+000 2.76579499e+000 2.73491001e+000 2.69914198e+000
      2.64833999e+000 2.57059002e+000 2.45082211e+000 2.28304410e+000
      2.07608199e+000 1.83767295e+000 2.12436295e+000 2.38518310e+000
      2.61617589e+000 2.80212092e+000 2.94257402e+000 3.06106091e+000
      3.13321710e+000 3.16231704e+000 3.14846492e+000 3.09252310e+000</_>
    <_>
      3.34321499e+000 3.34948802e+000 3.33245897e+000 3.29436398e+000
      3.21508408e+000 3.08649111e+000 2.90714788e+000 2.67438698e+000
      2.40962505e+000 2.11837506e+000 2.13221788e+000 2.17331100e+000
      2.24848104e+000 2.41156793e+000 2.60346293e+000 2.80640292e+000
      2.98228407e+000 3.10654092e+000 3.19736409e+000 3.23830891e+000</_>
    <_>
      3.34815502e+000 3.34517789e+000 3.32257891e+000 3.27864289e+000
      3.21265411e+000 3.12691903e+000 3.02231312e+000 2.90423489e+000
      2.77294803e+000 2.63448596e+000 2.78548408e+000 2.92090797e+000
      3.03646898e+000 3.12849092e+000 3.19904089e+000 3.24203801e+000
      3.26144695e+000 3.26194096e+000 3.24825191e+000 3.22557402e+000</_>
    <_>
      3.27426410e+000 3.28813100e+000 3.29209709e+000 3.25948191e+000
      3.19714308e+000 3.11235595e+000 3.01003408e+000 2.87369990e+000
      2.72643900e+000 2.58710909e+000 2.73827696e+000 2.88384008e+000
      3.00952101e+000 3.10213995e+000 3.14319205e+000 3.12808299e+000
      3.17918301e+000 3.20134807e+000 3.21101689e+000 3.21816897e+000</_>
    <_>
      3.34224105e+000 3.33828306e+000 3.32316494e+000 3.28522205e+000
      3.23516512e+000 3.16883993e+000 3.08511996e+000 2.98174405e+000
      2.85610199e+000 2.71610594e+000 2.76150107e+000 2.84376192e+000
      2.92001510e+000 2.97544289e+000 3.04421711e+000 3.11054492e+000
      3.17019701e+000 3.21968508e+000 3.23741603e+000 3.24485898e+000</_>
    <_>
      3.24423099e+000 3.25376201e+000 3.24917197e+000 3.22263503e+000
      3.16903901e+000 3.08487201e+000 2.97370005e+000 2.83688092e+000
      2.67793608e+000 2.50366497e+000 2.64665198e+000 2.78166199e+000
      2.90239501e+000 3.00351501e+000 3.08796000e+000 3.15377593e+000
      3.19785595e+000 3.22584701e+000 3.23433495e+000 3.22178102e+000</_>
    <_>
      3.14413905e+000 3.15290189e+000 3.14259505e+000 3.10602999e+000
      3.03520894e+000 2.93497300e+000 2.79965091e+000 2.65265799e+000
      2.52922797e+000 2.45356011e+000 2.60699010e+000 2.75078011e+000
      2.87201595e+000 2.97830391e+000 3.06401801e+000 3.12248707e+000
      3.14917397e+000 3.15687609e+000 3.14904189e+000 3.13247609e+000</_>
    <_>
      2.83460498e+000 2.77565694e+000 2.71194601e+000 2.62901211e+000
      2.55563307e+000 2.48495698e+000 2.37456012e+000 2.23623300e+000
      2.09258199e+000 1.91952503e+000 2.23756099e+000 2.51033807e+000
      2.74527311e+000 2.93084311e+000 3.06220698e+000 3.13894701e+000
      3.16462493e+000 3.14799094e+000 3.10352898e+000 3.02532101e+000</_>
    <_>
      3.33279705e+000 3.36976004e+000 3.37509799e+000 3.29330492e+000
      3.08369398e+000 2.74548602e+000 2.29607201e+000 1.79609299e+000
      1.30870402e+000 8.62742007e-001 9.34572995e-001 1.23609495e+000
      1.67141497e+000 2.14652491e+000 2.61366200e+000 3.00748610e+000
      3.23700595e+000 3.35546494e+000 3.36489606e+000 3.30317807e+000</_>
    <_>
      3.34301901e+000 3.34015393e+000 3.31919003e+000 3.27774000e+000
      3.21476698e+000 3.13154197e+000 3.03243399e+000 2.91488910e+000
      2.78308511e+000 2.64642596e+000 2.76815701e+000 2.88497591e+000
      2.98643708e+000 3.08334494e+000 3.16170406e+000 3.22800803e+000
      3.27953601e+000 3.30674195e+000 3.31175494e+000 3.29661703e+000</_>
    <_>
      3.36999297e+000 3.37788796e+000 3.32713890e+000 3.20035100e+000
      2.99134493e+000 2.70833993e+000 2.37619710e+000 2.02062201e+000
      1.66467094e+000 1.43809605e+000 1.78322804e+000 2.13407111e+000
      2.47092009e+000 2.77447295e+000 3.01702404e+000 3.18080091e+000
      3.26387811e+000 3.27991199e+000 3.23833609e+000 3.18222094e+000</_>
    <_>
      2.94420791e+000 2.96636701e+000 2.96545792e+000 2.96234608e+000
      2.90328097e+000 2.83370900e+000 2.74666500e+000 2.64531112e+000
      2.53385210e+000 2.38102889e+000 2.55561996e+000 2.73788309e+000
      2.89290905e+000 3.02110291e+000 3.11618805e+000 3.18491101e+000
      3.23162103e+000 3.25606108e+000 3.25049901e+000 3.22495699e+000</_>
    <_>
      3.22351098e+000 3.21157408e+000 3.16476107e+000 3.05598092e+000
      2.84925294e+000 2.57413292e+000 2.24624491e+000 1.89821398e+000
      1.57626700e+000 1.26698804e+000 1.63058698e+000 2.00639796e+000
      2.38187099e+000 2.72400594e+000 3.02018094e+000 3.23339200e+000
      3.35610509e+000 3.39915109e+000 3.38452911e+000 3.33158898e+000</_>
    <_>
      3.35879588e+000 3.36748290e+000 3.33606601e+000 3.26492596e+000
      3.14808202e+000 2.97503400e+000 2.75545001e+000 2.50068998e+000
      2.21472406e+000 1.91644001e+000 2.07463098e+000 2.22697806e+000
      2.35593295e+000 2.48009801e+000 2.59802294e+000 2.66467094e+000
      2.69298005e+000 2.70163703e+000 2.66451907e+000 2.60892606e+000</_>
    <_>
      3.31622791e+000 3.32384706e+000 3.28325009e+000 3.18093801e+000
      3.01316595e+000 2.80097008e+000 2.57639694e+000 2.33439207e+000
      2.08609700e+000 1.84101903e+000 2.06162190e+000 2.32769108e+000
      2.58260989e+000 2.80409789e+000 2.98729491e+000 3.11988902e+000
      3.20695996e+000 3.24209094e+000 3.24974990e+000 3.24192595e+000</_>
    <_>
      3.20494294e+000 3.23745894e+000 3.21097302e+000 3.15911102e+000
      3.03419590e+000 2.78082609e+000 2.45018291e+000 2.09519410e+000
      1.75379300e+000 1.37923300e+000 1.49269199e+000 1.73921895e+000
      1.93705904e+000 2.28410792e+000 2.71074700e+000 3.01504898e+000
      3.20112205e+000 3.30514193e+000 3.29376602e+000 3.21961403e+000</_>
    <_>
      3.20157194e+000 3.21787095e+000 3.20963907e+000 3.17735291e+000
      3.12282491e+000 3.04634404e+000 2.94802999e+000 2.82977700e+000
      2.69752598e+000 2.55095601e+000 2.69952106e+000 2.82751703e+000
      2.93871808e+000 3.03730106e+000 3.11899590e+000 3.17929411e+000
      3.21506596e+000 3.22969198e+000 3.22241902e+000 3.19272304e+000</_>
    <_>
      3.31610489e+000 3.32224393e+000 3.30974603e+000 3.27203894e+000
      3.21191692e+000 3.12746501e+000 3.02741289e+000 2.90215707e+000
      2.76094699e+000 2.61223602e+000 2.73479295e+000 2.86602902e+000
      2.97321701e+000 3.05574608e+000 3.11750793e+000 3.15842009e+000
      3.19142103e+000 3.21152401e+000 3.24054289e+000 3.25759697e+000</_>
    <_>
      3.19045997e+000 3.20462704e+000 3.19885612e+000 3.17014408e+000
      3.11921000e+000 3.04208207e+000 2.93864894e+000 2.80908203e+000
      2.66186404e+000 2.50270200e+000 2.67619395e+000 2.83295798e+000
      2.96868610e+000 3.08017206e+000 3.16391802e+000 3.22076201e+000
      3.25026488e+000 3.25150204e+000 3.22710490e+000 3.18532801e+000</_>
    <_>
      3.27426410e+000 3.27807093e+000 3.26344299e+000 3.22860003e+000
      3.17462111e+000 3.09559798e+000 2.99221206e+000 2.87146401e+000
      2.73950696e+000 2.59127688e+000 2.71186304e+000 2.81930089e+000
      2.91809511e+000 3.00401902e+000 3.06540298e+000 3.10074210e+000
      3.11312008e+000 3.11325502e+000 3.12603688e+000 3.13530493e+000</_>
    <_>
      3.29198694e+000 3.29372001e+000 3.27977896e+000 3.24861002e+000
      3.19584489e+000 3.11753607e+000 3.01865911e+000 2.91024899e+000
      2.78053188e+000 2.63142204e+000 2.75201607e+000 2.85612297e+000
      2.93454289e+000 3.01036811e+000 3.05753493e+000 3.09862208e+000
      3.12477207e+000 3.15057111e+000 3.17602491e+000 3.19360304e+000</_>
    <_>
      3.06536388e+000 3.07641006e+000 3.03405094e+000 2.92804003e+000
      2.76119494e+000 2.54258895e+000 2.28728700e+000 2.01390100e+000
      1.73733306e+000 1.46638095e+000 1.81754804e+000 2.17729497e+000
      2.52329898e+000 2.83066893e+000 3.07994294e+000 3.25609589e+000
      3.35427594e+000 3.38882494e+000 3.37281299e+000 3.32222199e+000</_>
    <_>
      3.06106091e+000 3.13321710e+000 3.16231704e+000 3.14846492e+000
      3.09252310e+000 3.06873703e+000 3.02260494e+000 2.95639491e+000
      2.87640905e+000 2.78469205e+000 2.88582206e+000 2.97677898e+000
      3.05314112e+000 3.11604595e+000 3.16964102e+000 3.21177292e+000
      3.23414302e+000 3.24407601e+000 3.24194598e+000 3.22531390e+000</_>
    <_>
      3.32614994e+000 3.30368400e+000 3.24816489e+000 3.13130403e+000
      2.98806405e+000 2.87811089e+000 2.73470998e+000 2.64898705e+000
      2.53906488e+000 2.38416195e+000 2.52508807e+000 2.66720390e+000
      2.81215191e+000 2.93398905e+000 3.05086899e+000 3.13806891e+000
      3.22639108e+000 3.26465702e+000 3.29697609e+000 3.29648495e+000</_>
    <_>
      3.08427691e+000 3.12106204e+000 3.16095710e+000 3.18974090e+000
      3.17364812e+000 3.12975001e+000 3.04838705e+000 2.94803309e+000
      2.82507205e+000 2.66360402e+000 2.69865704e+000 2.81862092e+000
      2.93934393e+000 3.03496599e+000 3.11914706e+000 3.19443011e+000
      3.24651694e+000 3.29969501e+000 3.32470202e+000 3.32088399e+000</_>
    <_>
      3.41515994e+000 3.47078705e+000 3.46780801e+000 3.30381989e+000
      2.97670197e+000 2.48090911e+000 1.91618800e+000 1.42026901e+000
      9.52063024e-001 5.09633005e-001 8.82897019e-001 1.36293495e+000
      1.88155103e+000 2.42757392e+000 2.95261097e+000 3.29183507e+000
      3.43804502e+000 3.43970299e+000 3.32285905e+000 3.21098590e+000</_>
    <_>
      3.32300401e+000 3.32879090e+000 3.30878901e+000 3.26502609e+000
      3.19906092e+000 3.11185098e+000 3.01820993e+000 2.90649009e+000
      2.78462100e+000 2.65541291e+000 2.76076388e+000 2.89612198e+000
      3.01297402e+000 3.11447811e+000 3.19441700e+000 3.25435090e+000
      3.30060410e+000 3.32528591e+000 3.32521701e+000 3.30646396e+000</_>
    <_>
      3.07919908e+000 3.07502294e+000 3.07296491e+000 3.06114793e+000
      3.03619003e+000 2.97583890e+000 2.86982799e+000 2.72177005e+000
      2.53173494e+000 2.31202888e+000 2.41554189e+000 2.50415111e+000
      2.67403889e+000 2.84891891e+000 3.00580692e+000 3.13787794e+000
      3.21593904e+000 3.24555898e+000 3.21205497e+000 3.13128591e+000</_>
    <_>
      2.33186007e+000 2.39563298e+000 2.50190496e+000 2.62610602e+000
      2.69491005e+000 2.69644594e+000 2.64348197e+000 2.55487394e+000
      2.43226004e+000 2.26670694e+000 2.39128089e+000 2.52998400e+000
      2.68016505e+000 2.83951998e+000 2.98776507e+000 3.11686301e+000
      3.21275997e+000 3.27318501e+000 3.28818989e+000 3.26343107e+000</_>
    <_>
      3.26784110e+000 3.26874495e+000 3.24495602e+000 3.20098710e+000
      3.13347793e+000 3.04351091e+000 2.93227601e+000 2.80173993e+000
      2.65411711e+000 2.49232411e+000 2.64119601e+000 2.77881408e+000
      2.88961291e+000 2.98039198e+000 3.05452895e+000 3.11255693e+000
      3.15063906e+000 3.17175508e+000 3.17469096e+000 3.16227102e+000</_>
    <_>
      3.36233902e+000 3.42320299e+000 3.39760900e+000 3.22884107e+000
      2.87008405e+000 2.35441089e+000 1.76772106e+000 1.19945300e+000
      6.93660975e-001 2.58439004e-001 7.11238027e-001 1.23790097e+000
      1.82192600e+000 2.42017007e+000 2.93525910e+000 3.28747010e+000
      3.45368195e+000 3.47839499e+000 3.42259502e+000 3.33841991e+000</_>
    <_>
      3.33171701e+000 3.36045694e+000 3.34177995e+000 3.26867390e+000
      3.16551900e+000 3.02268600e+000 2.83172989e+000 2.63554597e+000
      2.43277192e+000 2.22907901e+000 2.42978907e+000 2.65939808e+000
      2.84963608e+000 2.95472097e+000 3.02893901e+000 3.00480008e+000
      2.92112398e+000 2.86978793e+000 2.89082408e+000 2.90007091e+000</_>
    <_>
      3.25030303e+000 3.25629091e+000 3.20945191e+000 3.09533906e+000
      2.90649104e+000 2.64923501e+000 2.35242891e+000 2.03757691e+000
      1.72266197e+000 1.49362695e+000 1.83473301e+000 2.18190694e+000
      2.51697993e+000 2.81353807e+000 3.05159092e+000 3.21480107e+000
      3.30205393e+000 3.32053089e+000 3.28610802e+000 3.22602296e+000</_>
    <_>
      3.34710789e+000 3.35249805e+000 3.33631492e+000 3.28355289e+000
      3.18704104e+000 3.02714300e+000 2.80372810e+000 2.52344298e+000
      2.21461010e+000 1.89871001e+000 1.92972898e+000 2.04650688e+000
      2.24751806e+000 2.51756692e+000 2.83671308e+000 3.08868599e+000
      3.26304698e+000 3.35428691e+000 3.37987494e+000 3.36152411e+000</_>
    <_>
      3.39113903e+000 3.41759300e+000 3.39413595e+000 3.29847693e+000
      3.11370111e+000 2.84238601e+000 2.50913692e+000 2.13429499e+000
      1.75165200e+000 1.45751095e+000 1.61093199e+000 1.93579400e+000
      2.27833509e+000 2.62230611e+000 2.92641401e+000 3.15646195e+000
      3.31141400e+000 3.37910509e+000 3.37504911e+000 3.33654404e+000</_></support_vectors>
  <decision_functions>
    <_>
      <sv_count>110</sv_count>
      <rho>-1.2726629781813985e+000</rho>
      <alpha>
        1.7597153037332278e+000 8. 8. 8. 8. 8. 8.
        7.0806642137567044e-001 8. 8. 8. 6.5674398816613886e+000 8. 8.
        3.9226732237827795e+000 8. 8. 4.0215248074649945e-001
        1.3841460692261549e+000 8. 8. 8. 8. 8. 8. 8.
        2.6114926260714406e+000 8. 2.5395074673349685e+000 8.
        9.3074564273352960e-003 8. 5.3997852415316441e+000 8. 8.
        5.0887464975730534e+000 8. 8. 8. 8. 7.0040960000035291e-002 8.
        1.1438642573783422e+000 8. 8. 8. 8. 7.9215875594314769e+000
        5.1312305015729853e+000 8. 8. 2.8179345574098766e+000 8. 8. 8.
        8. -8. -8. -1.9991592617862874e+000 -8. -3.1399439550877228e+000
        -5.2025365788174600e+000 -8. -8. -5.4792555831038179e+000 -8.
        -2.5932905240820485e+000 -2.9348582753041224e+000
        -3.5617266482189307e+000 -8. -8. -7.0247828654590636e+000
        -5.4774310925244665e+000 -8.1537988464977151e-001 -8. -8. -8.
        -2.4563361959437753e+000 -8. -8. -1.1469988160010793e+000 -8.
        -8. -8. -7.8625352337190630e+000 -8. -8. -8.
        -6.1635185376596509e+000 -8. -4.5762033715784858e+000 -8. -8.
        -8. -8. -8. -8. -8. -8. -8. -8. -8. -8. -8. -8.
        -4.1252859110409421e+000 -8. -8. -6.9184477702801948e+000 -8.</alpha>
      <index>
        0 1 2 3 4 5 6 7 8 9 10 11 12 13 14 15 16 17 18 19 20 21 22 23 24
        25 26 27 28 29 30 31 32 33 34 35 36 37 38 39 40 41 42 43 44 45
        46 47 48 49 50 51 52 53 54 55 56 57 58 59 60 61 62 63 64 65 66
        67 68 69 70 71 72 73 74 75 76 77 78 79 80 81 82 83 84 85 86 87
        88 89 90 91 92 93 94 95 96 97 98 99 100 101 102 103 104 105 106
        107 108 109</index></_></decision_functions></my_svm>
</opencv_storage>
