<?xml version="1.0"?>
<opencv_storage>
<my_svm type_id="opencv-ml-svm">
  <svm_type>C_SVC</svm_type>
  <kernel><type>RBF</type>
    <gamma>4.</gamma></kernel>
  <C>8.</C>
  <term_criteria><epsilon>2.2204460492503131e-016</epsilon>
    <iterations>10000</iterations></term_criteria>
  <var_all>20</var_all>
  <var_count>20</var_count>
  <class_count>2</class_count>
  <class_labels type_id="opencv-matrix">
    <rows>1</rows>
    <cols>2</cols>
    <dt>i</dt>
    <data>
      0 1</data></class_labels>
  <sv_total>68</sv_total>
  <support_vectors>
    <_>
      3.35730290e+000 3.31878901e+000 3.22506499e+000 3.07465196e+000
      2.86282802e+000 2.60336995e+000 2.30837703e+000 1.99222100e+000
      1.67774105e+000 1.91979802e+000 2.16676211e+000 2.38602209e+000
      2.57007003e+000 2.73739100e+000 2.86150599e+000 2.94210792e+000
      3.00128198e+000 3.04588389e+000 3.05229092e+000 3.12751698e+000</_>
    <_>
      3.15616298e+000 3.12636709e+000 3.08305502e+000 3.02552295e+000
      2.94876409e+000 2.85863590e+000 2.77175689e+000 2.70338893e+000
      2.68957806e+000 2.67093205e+000 2.70269799e+000 2.76301289e+000
      2.80799890e+000 2.86287689e+000 2.89180803e+000 2.92501497e+000
      2.96830010e+000 2.98586607e+000 3.00360298e+000 3.00070810e+000</_>
    <_>
      2.65980506e+000 2.67727399e+000 2.74618411e+000 2.82780004e+000
      2.88130498e+000 2.88238692e+000 2.82881808e+000 2.73475194e+000
      2.61710811e+000 2.51869702e+000 2.46725297e+000 2.47783804e+000
      2.55000496e+000 2.67839694e+000 2.82433295e+000 2.94654107e+000
      3.02960396e+000 3.07434201e+000 3.08320689e+000 3.08289003e+000</_>
    <_>
      3.11947799e+000 3.09759212e+000 3.05394197e+000 2.97241712e+000
      2.86035490e+000 2.75058103e+000 2.66226101e+000 2.59854889e+000
      2.56813097e+000 2.59246707e+000 2.65089011e+000 2.76293802e+000
      2.89997101e+000 3.02321792e+000 3.12126493e+000 3.18435192e+000
      3.21762991e+000 3.21872592e+000 3.19946408e+000 3.17162204e+000</_>
    <_>
      3.08637810e+000 3.14837790e+000 3.16364503e+000 3.10986304e+000
      2.99462104e+000 2.82269502e+000 2.61058402e+000 2.37025595e+000
      2.11460304e+000 1.86324406e+000 2.14815402e+000 2.42623997e+000
      2.68754601e+000 2.91278911e+000 3.09850597e+000 3.23506308e+000
      3.32033205e+000 3.35426092e+000 3.34738708e+000 3.31194496e+000</_>
    <_>
      3.31615210e+000 3.31702709e+000 3.30019593e+000 3.26364303e+000
      3.20627093e+000 3.12716889e+000 3.02149796e+000 2.89530492e+000
      2.74946308e+000 2.67243004e+000 2.67599010e+000 2.71473908e+000
      2.75538993e+000 2.79666400e+000 2.85006595e+000 2.90732288e+000
      2.94953203e+000 3.01494598e+000 3.06443310e+000 3.11962700e+000</_>
    <_>
      2.89355397e+000 2.88288999e+000 2.90390301e+000 2.94807410e+000
      2.97323298e+000 2.95783401e+000 2.90350199e+000 2.82429910e+000
      2.71147394e+000 2.60897303e+000 2.53697610e+000 2.51852012e+000
      2.55183196e+000 2.58984804e+000 2.68851900e+000 2.76481199e+000
      2.88893104e+000 2.99449897e+000 3.06392288e+000 3.10746193e+000</_>
    <_>
      3.14414406e+000 3.10753989e+000 3.02859592e+000 2.93471408e+000
      2.79344296e+000 2.61577010e+000 2.40536809e+000 2.18004608e+000
      1.93760502e+000 2.20269489e+000 2.45656800e+000 2.69968700e+000
      2.91009307e+000 3.09084105e+000 3.21980810e+000 3.30153894e+000
      3.33147597e+000 3.32799792e+000 3.29859209e+000 3.30144095e+000</_>
    <_>
      3.31929708e+000 3.33484101e+000 3.33480096e+000 3.30999589e+000
      3.25838089e+000 3.17519593e+000 3.06012106e+000 2.91496301e+000
      2.74249697e+000 2.56470108e+000 2.37358499e+000 2.53394198e+000
      2.68875599e+000 2.83146811e+000 2.96167994e+000 3.06024790e+000
      3.14077592e+000 3.24456906e+000 3.28469205e+000 3.26195693e+000</_>
    <_>
      3.05997300e+000 3.04945993e+000 2.99897909e+000 2.90647292e+000
      2.77959895e+000 2.61156702e+000 2.43243098e+000 2.23115492e+000
      2.01599097e+000 1.77956402e+000 2.08585191e+000 2.38479900e+000
      2.65666795e+000 2.88690805e+000 3.07037401e+000 3.19388294e+000
      3.26705503e+000 3.28802299e+000 3.27228808e+000 3.22696996e+000</_>
    <_>
      3.15290189e+000 3.14259505e+000 3.10602999e+000 3.03520894e+000
      2.93497300e+000 2.79965091e+000 2.65265799e+000 2.52922797e+000
      2.45356011e+000 2.60699010e+000 2.75078011e+000 2.87201595e+000
      2.97830391e+000 3.06401801e+000 3.12248707e+000 3.14917397e+000
      3.15687609e+000 3.14904189e+000 3.13247609e+000 3.13578010e+000</_>
    <_>
      3.36742401e+000 3.37934899e+000 3.34352112e+000 3.24567294e+000
      3.07944012e+000 2.83859611e+000 2.54044604e+000 2.20725989e+000
      1.86013401e+000 1.52371502e+000 1.79098201e+000 2.06986403e+000
      2.34901905e+000 2.61075997e+000 2.83033800e+000 2.97330499e+000
      3.03917599e+000 3.03578997e+000 2.98626399e+000 2.92224097e+000</_>
    <_>
      2.72024703e+000 2.64175606e+000 2.60230207e+000 2.60412002e+000
      2.66083789e+000 2.71898794e+000 2.78404999e+000 2.83615899e+000
      2.85705900e+000 2.85049605e+000 2.81708002e+000 2.78891301e+000
      2.77750897e+000 2.79117298e+000 2.81588101e+000 2.85402393e+000
      2.90248895e+000 2.94480491e+000 2.94411302e+000 2.94376397e+000</_>
    <_>
      3.05105710e+000 3.03419495e+000 3.01624990e+000 2.99144411e+000
      2.96974111e+000 2.93575907e+000 2.90390301e+000 2.87801194e+000
      2.85949397e+000 2.84916592e+000 2.85771894e+000 2.91601992e+000
      2.97704196e+000 3.03738308e+000 3.09107304e+000 3.12934804e+000
      3.14870191e+000 3.14865398e+000 3.13009906e+000 3.11259103e+000</_>
    <_>
      3.17160106e+000 3.09202600e+000 2.99566102e+000 2.89982605e+000
      2.80921102e+000 2.73037410e+000 2.65418005e+000 2.58123207e+000
      2.53210402e+000 2.53240895e+000 2.54022098e+000 2.56616902e+000
      2.59191990e+000 2.65248489e+000 2.76120496e+000 2.87736797e+000
      2.97824907e+000 3.05714202e+000 3.12465000e+000 3.17365694e+000</_>
    <_>
      3.06309795e+000 2.96280789e+000 2.85934305e+000 2.78931999e+000
      2.73498392e+000 2.71966791e+000 2.71007490e+000 2.71161008e+000
      2.70338202e+000 2.72566104e+000 2.75770092e+000 2.81923199e+000
      2.85561895e+000 2.88727307e+000 2.90680504e+000 2.94681811e+000
      2.94481993e+000 2.95882010e+000 2.95775700e+000 2.96373105e+000</_>
    <_>
      2.89734602e+000 2.80815792e+000 2.72612405e+000 2.63698101e+000
      2.59023905e+000 2.58725095e+000 2.59416389e+000 2.58223891e+000
      2.51766610e+000 2.50220108e+000 2.55149508e+000 2.61254692e+000
      2.71519995e+000 2.79364610e+000 2.84011412e+000 2.87377000e+000
      2.90460992e+000 2.92754793e+000 2.94403791e+000 2.98200989e+000</_>
    <_>
      2.95080900e+000 2.98545790e+000 3.02213311e+000 3.06151009e+000
      3.08652592e+000 3.09179401e+000 3.07993698e+000 3.05103803e+000
      3.00902510e+000 2.97393203e+000 2.94809008e+000 2.95828509e+000
      2.97709608e+000 2.98971295e+000 2.99517703e+000 2.98425794e+000
      2.99713802e+000 2.99797702e+000 3.00396299e+000 3.03849792e+000</_>
    <_>
      2.90075493e+000 2.91693902e+000 2.95051908e+000 2.94533396e+000
      2.92287898e+000 2.85424495e+000 2.81569099e+000 2.75229096e+000
      2.69580507e+000 2.64252806e+000 2.64873910e+000 2.64620304e+000
      2.64488006e+000 2.63982511e+000 2.67972898e+000 2.70777702e+000
      2.75801802e+000 2.81838202e+000 2.86437106e+000 2.91053605e+000</_>
    <_>
      3.24120092e+000 3.18010592e+000 3.06662893e+000 2.91419291e+000
      2.74547601e+000 2.57448697e+000 2.38639402e+000 2.17562103e+000
      1.94672501e+000 2.22778201e+000 2.49076200e+000 2.73142695e+000
      2.93716002e+000 3.09932303e+000 3.22057605e+000 3.29839611e+000
      3.33423090e+000 3.33141994e+000 3.30024004e+000 3.30509996e+000</_>
    <_>
      3.32392812e+000 3.36999297e+000 3.37788796e+000 3.32713890e+000
      3.20035100e+000 2.99134493e+000 2.70833993e+000 2.37619710e+000
      2.02062201e+000 1.66467094e+000 1.43809605e+000 1.78322804e+000
      2.13407111e+000 2.47092009e+000 2.77447295e+000 3.01702404e+000
      3.18080091e+000 3.26387811e+000 3.27991199e+000 3.23833609e+000</_>
    <_>
      3.33759189e+000 3.30314994e+000 3.22536898e+000 3.10968804e+000
      2.95965695e+000 2.78663611e+000 2.58391595e+000 2.35008788e+000
      2.20165396e+000 2.38881993e+000 2.53241205e+000 2.60820508e+000
      2.61486912e+000 2.57652092e+000 2.53631496e+000 2.49574089e+000
      2.47363400e+000 2.50445294e+000 2.57762790e+000 2.73422790e+000</_>
    <_>
      2.89603305e+000 2.96126103e+000 2.99516296e+000 2.97413206e+000
      2.89399195e+000 2.74009204e+000 2.52949190e+000 2.26685596e+000
      1.98047602e+000 1.68366301e+000 1.98627496e+000 2.29020000e+000
      2.58301806e+000 2.84812689e+000 3.06908488e+000 3.23057199e+000
      3.32537794e+000 3.36203098e+000 3.35029507e+000 3.30673194e+000</_>
    <_>
      3.37491703e+000 3.37965202e+000 3.33527398e+000 3.22943902e+000
      3.05577898e+000 2.81926990e+000 2.53384900e+000 2.22032809e+000
      1.90003097e+000 1.63587904e+000 1.92727196e+000 2.23988295e+000
      2.54259109e+000 2.81207609e+000 3.03039193e+000 3.18537307e+000
      3.27157092e+000 3.29703808e+000 3.28424501e+000 3.23970294e+000</_>
    <_>
      3.23458290e+000 3.26104093e+000 3.24996090e+000 3.19027400e+000
      3.08249688e+000 2.93703508e+000 2.74802399e+000 2.52537298e+000
      2.27781892e+000 2.01804495e+000 1.77542698e+000 2.06953907e+000
      2.36329794e+000 2.64112306e+000 2.88439989e+000 3.08467698e+000
      3.22816205e+000 3.31885099e+000 3.35137892e+000 3.35134292e+000</_>
    <_>
      3.32666111e+000 3.37318492e+000 3.38488007e+000 3.34899902e+000
      3.24864101e+000 3.08425093e+000 2.85485005e+000 2.56990409e+000
      2.24706602e+000 1.90723002e+000 1.57791197e+000 1.85741103e+000
      2.12148499e+000 2.35700607e+000 2.58068490e+000 2.80420995e+000
      2.98449802e+000 3.10414004e+000 3.15905809e+000 3.15616894e+000</_>
    <_>
      3.19278693e+000 3.22792792e+000 3.19300604e+000 3.12627697e+000
      2.97648597e+000 2.75689411e+000 2.46225691e+000 2.08200192e+000
      1.66485596e+000 1.49224806e+000 1.48756599e+000 1.66323602e+000
      1.77866101e+000 2.03307199e+000 2.29663205e+000 2.53445911e+000
      2.82061195e+000 3.00783610e+000 3.10486603e+000 3.16409302e+000</_>
    <_>
      3.23934197e+000 3.17489100e+000 3.08876610e+000 2.99686003e+000
      2.90151191e+000 2.82311010e+000 2.78379893e+000 2.78815198e+000
      2.80195093e+000 2.83271694e+000 2.84828997e+000 2.86800599e+000
      2.87729311e+000 2.90692401e+000 2.94567394e+000 2.98903990e+000
      3.03878403e+000 3.10206199e+000 3.15731096e+000 3.20366096e+000</_>
    <_>
      3.32080889e+000 3.35478711e+000 3.35992694e+000 3.32840800e+000
      3.25454402e+000 3.14252591e+000 2.98450708e+000 2.78025889e+000
      2.53783298e+000 2.27384996e+000 2.00098801e+000 2.21359801e+000
      2.41206098e+000 2.58138704e+000 2.74479008e+000 2.90256596e+000
      3.04241395e+000 3.13955307e+000 3.18632603e+000 3.18123388e+000</_>
    <_>
      2.87050605e+000 2.78289509e+000 2.67316508e+000 2.81754804e+000
      2.88828897e+000 2.87222099e+000 2.77687907e+000 2.63731003e+000
      2.51799703e+000 2.43973708e+000 2.40828204e+000 2.41963291e+000
      2.45051503e+000 2.55196095e+000 2.65562701e+000 2.74721694e+000
      2.81989908e+000 2.85848999e+000 2.85864806e+000 2.84020996e+000</_>
    <_>
      2.32980800e+000 2.33186007e+000 2.39563298e+000 2.50190496e+000
      2.62610602e+000 2.69491005e+000 2.69644594e+000 2.64348197e+000
      2.55487394e+000 2.43226004e+000 2.26670694e+000 2.39128089e+000
      2.52998400e+000 2.68016505e+000 2.83951998e+000 2.98776507e+000
      3.11686301e+000 3.21275997e+000 3.27318501e+000 3.28818989e+000</_>
    <_>
      3.06011009e+000 3.08003712e+000 3.09876204e+000 3.11032796e+000
      3.09645510e+000 3.04324698e+000 2.93460202e+000 2.76953506e+000
      2.55884099e+000 2.32250309e+000 2.07652402e+000 2.31627393e+000
      2.54886389e+000 2.76403904e+000 2.95306396e+000 3.11234903e+000
      3.23299909e+000 3.30891705e+000 3.34277201e+000 3.34701109e+000</_>
    <_>
      3.36881399e+000 3.33871889e+000 3.24166799e+000 3.07224298e+000
      2.82965112e+000 2.51947188e+000 2.16600895e+000 1.79695797e+000
      1.43511999e+000 1.72049797e+000 2.00846910e+000 2.27266908e+000
      2.51699710e+000 2.74167800e+000 2.92761993e+000 3.03604698e+000
      3.08204198e+000 3.08320808e+000 3.04566693e+000 3.05305195e+000</_>
    <_>
      3.12493801e+000 3.12256694e+000 3.08152604e+000 2.98852706e+000
      2.81636190e+000 2.58668709e+000 2.30747199e+000 1.98566699e+000
      1.66030002e+000 1.34609199e+000 1.70242000e+000 2.06756401e+000
      2.42318511e+000 2.74550796e+000 2.99610710e+000 3.19071102e+000
      3.29840302e+000 3.32288504e+000 3.28530693e+000 3.20210409e+000</_>
    <_>
      3.30196500e+000 3.35249996e+000 3.36611295e+000 3.33122802e+000
      3.22585297e+000 3.03640604e+000 2.76729894e+000 2.43609095e+000
      2.06856799e+000 1.68606496e+000 1.31542301e+000 1.63016105e+000
      1.95277905e+000 2.27107000e+000 2.57720804e+000 2.84612894e+000
      3.04758406e+000 3.17383003e+000 3.22455597e+000 3.21156907e+000</_>
    <_>
      3.17480302e+000 3.19236898e+000 3.20180297e+000 3.20071793e+000
      3.17350411e+000 3.11188793e+000 3.03193402e+000 2.91740108e+000
      2.77772999e+000 2.64238095e+000 2.63522196e+000 2.61567807e+000
      2.63320494e+000 2.71919703e+000 2.84843612e+000 2.95310092e+000
      3.04493690e+000 3.13490510e+000 3.19389296e+000 3.17488790e+000</_>
    <_>
      3.18610191e+000 3.20667911e+000 3.14471102e+000 3.01302910e+000
      2.86274600e+000 2.68481708e+000 2.40885806e+000 2.12937593e+000
      1.84102094e+000 1.56229198e+000 1.35407495e+000 1.77161396e+000
      2.16129589e+000 2.51123190e+000 2.81726789e+000 3.03763390e+000
      3.16353011e+000 3.22471809e+000 3.21954298e+000 3.18644094e+000</_>
    <_>
      3.32074308e+000 3.29688311e+000 3.23846412e+000 3.12854409e+000
      2.96665096e+000 2.75380301e+000 2.50660801e+000 2.29907799e+000
      2.16035700e+000 2.14264202e+000 2.24648690e+000 2.43209004e+000
      2.66966796e+000 2.87379599e+000 3.05359411e+000 3.17711091e+000
      3.24539995e+000 3.28071690e+000 3.28534198e+000 3.27855897e+000</_>
    <_>
      3.04205203e+000 2.92745709e+000 2.75624394e+000 2.58783007e+000
      2.48527789e+000 2.30379391e+000 2.17062902e+000 2.08211803e+000
      2.03050900e+000 2.05881810e+000 2.16457295e+000 2.41007090e+000
      2.65657902e+000 2.87379789e+000 3.05861712e+000 3.17410898e+000
      3.24753189e+000 3.29388404e+000 3.31000900e+000 3.31013107e+000</_>
    <_>
      3.04869008e+000 3.00168610e+000 2.94817305e+000 2.87555194e+000
      2.78093410e+000 2.63990211e+000 2.55522203e+000 2.51043105e+000
      2.49498010e+000 2.50252295e+000 2.54077506e+000 2.61622596e+000
      2.76674294e+000 2.92534494e+000 3.04601598e+000 3.12865901e+000
      3.18349290e+000 3.22028399e+000 3.24138999e+000 3.25213695e+000</_>
    <_>
      3.23910904e+000 3.20241189e+000 3.16541004e+000 3.12480402e+000
      3.07280207e+000 3.03445101e+000 3.01416707e+000 3.00683188e+000
      3.00680590e+000 3.02214193e+000 3.02544999e+000 3.05388594e+000
      3.07923198e+000 3.10706401e+000 3.12474990e+000 3.14663601e+000
      3.16386199e+000 3.18492699e+000 3.19855690e+000 3.20789790e+000</_>
    <_>
      3.24246693e+000 3.18099809e+000 3.08226204e+000 2.95036507e+000
      2.74974489e+000 2.52487111e+000 2.43884301e+000 2.28222799e+000
      2.20997810e+000 2.17869711e+000 2.16445494e+000 2.24175692e+000
      2.37113309e+000 2.59221697e+000 2.79026508e+000 2.96203399e+000
      3.08075809e+000 3.14247108e+000 3.16314793e+000 3.17747903e+000</_>
    <_>
      3.04557896e+000 2.97848010e+000 2.86660695e+000 2.71964598e+000
      2.60281992e+000 2.44875693e+000 2.35922003e+000 2.29575109e+000
      2.25793910e+000 2.30715203e+000 2.36749792e+000 2.43540192e+000
      2.53848100e+000 2.60822392e+000 2.71885490e+000 2.77059889e+000
      2.77723098e+000 2.76054311e+000 2.70764709e+000 2.67995405e+000</_>
    <_>
      3.29100108e+000 3.33317208e+000 3.34157395e+000 3.30952311e+000
      3.22995400e+000 3.09522390e+000 2.88894105e+000 2.62844205e+000
      2.33912492e+000 2.03673196e+000 1.72190297e+000 1.97651398e+000
      2.21356606e+000 2.43771601e+000 2.64601302e+000 2.79206300e+000
      2.85112691e+000 2.84848499e+000 2.83652306e+000 2.82815790e+000</_>
    <_>
      3.15858603e+000 3.16202211e+000 3.14026594e+000 3.06858110e+000
      2.95574307e+000 2.79564810e+000 2.58994102e+000 2.34116411e+000
      2.07547903e+000 1.86930799e+000 2.14887094e+000 2.42338395e+000
      2.68131399e+000 2.90973902e+000 3.09919000e+000 3.23664594e+000
      3.31514502e+000 3.33678102e+000 3.31428909e+000 3.27204394e+000</_>
    <_>
      2.86011600e+000 2.80496502e+000 2.71098590e+000 2.56760502e+000
      2.39035606e+000 2.26508689e+000 2.19316196e+000 2.14368892e+000
      2.12701702e+000 2.18379807e+000 2.29086089e+000 2.46191502e+000
      2.67048502e+000 2.80554700e+000 2.83513308e+000 2.82097602e+000
      2.78896308e+000 2.75444603e+000 2.71179390e+000 2.65536404e+000</_>
    <_>
      3.37623000e+000 3.30518198e+000 3.08796000e+000 2.66848803e+000
      2.10023189e+000 1.53630304e+000 1.15010405e+000 9.75161016e-001
      9.27739978e-001 1.12111104e+000 1.60831404e+000 2.27125597e+000
      2.73987699e+000 2.80360293e+000 2.52388310e+000 2.05090404e+000
      1.53954101e+000 1.14634895e+000 9.62935984e-001 1.00244498e+000</_>
    <_>
      3.03933811e+000 3.01742291e+000 2.78362799e+000 2.35203910e+000
      1.87667298e+000 1.45562005e+000 1.07289004e+000 7.30543017e-001
      4.08392012e-001 9.06831980e-001 1.48364699e+000 2.10064197e+000
      2.66308689e+000 3.06513309e+000 3.31388211e+000 3.42259312e+000
      3.43384910e+000 3.38975000e+000 3.31775808e+000 3.31966090e+000</_>
    <_>
      3.24450493e+000 3.20034504e+000 3.13262200e+000 3.03883600e+000
      2.92107296e+000 2.77529812e+000 2.63632989e+000 2.57207894e+000
      2.53427291e+000 2.54576612e+000 2.58544207e+000 2.59725189e+000
      2.62367511e+000 2.67395210e+000 2.74243999e+000 2.80265808e+000
      2.86882901e+000 2.94874692e+000 3.02347207e+000 3.09417391e+000</_>
    <_>
      3.14995503e+000 3.18894601e+000 3.20460200e+000 3.18305898e+000
      3.11485004e+000 2.98130989e+000 2.78186011e+000 2.53842306e+000
      2.27741694e+000 2.00553012e+000 1.73790300e+000 2.03633308e+000
      2.32906294e+000 2.60539889e+000 2.84503198e+000 3.03298998e+000
      3.15508294e+000 3.21315098e+000 3.22491097e+000 3.19776201e+000</_>
    <_>
      3.34881091e+000 3.33297300e+000 3.28596902e+000 3.20245695e+000
      3.07789898e+000 2.92521095e+000 2.73190999e+000 2.51533890e+000
      2.28445697e+000 2.44763589e+000 2.60897899e+000 2.76110792e+000
      2.90739298e+000 3.01424909e+000 3.09192991e+000 3.14769602e+000
      3.14863992e+000 3.14555693e+000 3.13678598e+000 3.17126608e+000</_>
    <_>
      3.18173504e+000 3.09463692e+000 2.93863392e+000 2.70052099e+000
      2.38429189e+000 2.12113595e+000 1.94399905e+000 1.83546400e+000
      1.77577806e+000 1.75630200e+000 1.83656299e+000 2.01030898e+000
      2.29024696e+000 2.59943104e+000 2.86988592e+000 3.06303501e+000
      3.19512105e+000 3.27726603e+000 3.31619191e+000 3.32696104e+000</_>
    <_>
      3.32190394e+000 3.28874898e+000 3.21771193e+000 3.08972907e+000
      2.90551400e+000 2.67931604e+000 2.42753506e+000 2.14973998e+000
      1.86364698e+000 2.07752109e+000 2.30226588e+000 2.51515293e+000
      2.71954489e+000 2.89460301e+000 3.00929594e+000 3.06639791e+000
      3.07637906e+000 3.03848505e+000 2.95786810e+000 2.92107606e+000</_>
    <_>
      3.31411600e+000 3.31515908e+000 3.27488399e+000 3.19122195e+000
      3.05452108e+000 2.87225008e+000 2.64481211e+000 2.38658690e+000
      2.10807705e+000 1.89974105e+000 2.13789701e+000 2.37015605e+000
      2.57455707e+000 2.75893688e+000 2.90243006e+000 3.01659608e+000
      3.07596898e+000 3.09113312e+000 3.08800697e+000 3.07676196e+000</_>
    <_>
      2.55895996e+000 2.46595693e+000 2.40783691e+000 2.34609199e+000
      2.31893492e+000 2.34394789e+000 2.35625505e+000 2.35573506e+000
      2.29331708e+000 2.25901890e+000 2.22485900e+000 2.19883299e+000
      2.23104310e+000 2.28660488e+000 2.43135810e+000 2.63158703e+000
      2.86030793e+000 3.03984904e+000 3.15719104e+000 3.23567200e+000</_>
    <_>
      3.24391603e+000 3.23535991e+000 3.14273310e+000 2.95618510e+000
      2.69126892e+000 2.37284493e+000 2.02534389e+000 1.67582905e+000
      1.41611004e+000 1.76529801e+000 2.13045001e+000 2.48899102e+000
      2.81443191e+000 3.07669401e+000 3.26217198e+000 3.36467600e+000
      3.39407802e+000 3.37113905e+000 3.31871200e+000 3.31640005e+000</_>
    <_>
      3.15770006e+000 3.12670398e+000 3.00400996e+000 2.77590299e+000
      2.45754194e+000 2.11720991e+000 1.79607403e+000 1.51632202e+000
      1.27098405e+000 1.10316205e+000 1.49123394e+000 1.96983194e+000
      2.41697097e+000 2.80230904e+000 3.06756496e+000 3.22266889e+000
      3.28361511e+000 3.28228998e+000 3.22386909e+000 3.15642691e+000</_>
    <_>
      2.90856409e+000 2.89488912e+000 2.85389590e+000 2.76769304e+000
      2.66560507e+000 2.52217007e+000 2.38743901e+000 2.30296302e+000
      2.26005197e+000 2.29072905e+000 2.32067704e+000 2.32929802e+000
      2.35735011e+000 2.39750195e+000 2.53377604e+000 2.64972496e+000
      2.76844692e+000 2.83354497e+000 2.86128306e+000 2.94313192e+000</_>
    <_>
      2.65822911e+000 2.68677807e+000 2.69257498e+000 2.69487190e+000
      2.62708211e+000 2.51192188e+000 2.39819002e+000 2.29850698e+000
      2.18429804e+000 2.05333591e+000 1.96691501e+000 2.25149989e+000
      2.56731606e+000 2.82928896e+000 3.02918601e+000 3.17112803e+000
      3.26130605e+000 3.31263304e+000 3.32761598e+000 3.31491494e+000</_>
    <_>
      2.88460302e+000 2.89803410e+000 2.83568192e+000 2.74510098e+000
      2.59554100e+000 2.43387198e+000 2.25025892e+000 2.04375505e+000
      1.81661606e+000 1.66139197e+000 1.94837701e+000 2.30397296e+000
      2.63022709e+000 2.90513992e+000 3.11495996e+000 3.25164700e+000
      3.32972288e+000 3.34967399e+000 3.33360291e+000 3.30063105e+000</_>
    <_>
      3.33820009e+000 3.27217889e+000 3.18356705e+000 2.98543096e+000
      2.65587997e+000 2.23043108e+000 1.82053399e+000 1.39042199e+000
      1.04787600e+000 8.61131012e-001 1.32284904e+000 1.80684805e+000
      2.30879593e+000 2.73212409e+000 3.05994606e+000 3.22344398e+000
      3.26640797e+000 3.21996188e+000 3.13508797e+000 3.04288912e+000</_>
    <_>
      3.16089702e+000 3.23780298e+000 3.24859500e+000 3.17691398e+000
      3.02859902e+000 2.81183505e+000 2.56046510e+000 2.28950906e+000
      2.01553798e+000 1.86834896e+000 2.11068702e+000 2.38876700e+000
      2.65742493e+000 2.88041806e+000 3.05914998e+000 3.17495394e+000
      3.23689795e+000 3.24701095e+000 3.22316003e+000 3.18424201e+000</_>
    <_>
      3.22748399e+000 3.18849897e+000 3.10540605e+000 2.96267200e+000
      2.74522209e+000 2.54482293e+000 2.31312108e+000 2.06925201e+000
      1.86082399e+000 2.01921391e+000 2.31756306e+000 2.60647297e+000
      2.85028911e+000 3.03532290e+000 3.14822292e+000 3.19972706e+000
      3.19233489e+000 3.14930201e+000 3.08161092e+000 3.07635689e+000</_>
    <_>
      2.85139203e+000 2.82411790e+000 2.76291895e+000 2.69270110e+000
      2.64916706e+000 2.60411906e+000 2.48478198e+000 2.28698301e+000
      2.03558493e+000 1.94116497e+000 2.12275600e+000 2.41350603e+000
      2.68005610e+000 2.91501188e+000 3.11235309e+000 3.25808001e+000
      3.33457303e+000 3.35401797e+000 3.32626295e+000 3.30925488e+000</_>
    <_>
      3.19955707e+000 3.16998506e+000 3.11561799e+000 2.99492407e+000
      2.80414510e+000 2.55844688e+000 2.24591303e+000 1.88112998e+000
      1.55704498e+000 1.43788195e+000 1.46904302e+000 1.66097701e+000
      2.10625696e+000 2.52916193e+000 2.89444590e+000 3.17218494e+000
      3.33803296e+000 3.39321494e+000 3.37012506e+000 3.33771396e+000</_>
    <_>
      3.30113101e+000 3.35306001e+000 3.35162497e+000 3.27178407e+000
      3.09965491e+000 2.83620691e+000 2.51588202e+000 2.15867996e+000
      1.79797006e+000 1.54928505e+000 1.60777605e+000 1.94921303e+000
      2.30540800e+000 2.65169406e+000 2.95341110e+000 3.18133497e+000
      3.32033205e+000 3.37857890e+000 3.37136006e+000 3.33063602e+000</_>
    <_>
      3.19494510e+000 3.14774299e+000 3.09441590e+000 3.02210498e+000
      2.90136790e+000 2.82282305e+000 2.74302411e+000 2.69863391e+000
      2.66730309e+000 2.78059912e+000 2.91643596e+000 3.01896501e+000
      3.08725309e+000 3.11945105e+000 3.10323191e+000 3.09164405e+000
      3.05371499e+000 3.05121803e+000 3.03996491e+000 3.08180904e+000</_>
    <_>
      2.94552588e+000 2.97329092e+000 2.98215008e+000 2.96540689e+000
      2.93531799e+000 2.85787296e+000 2.76546597e+000 2.64215112e+000
      2.50610995e+000 2.37711692e+000 2.49572206e+000 2.64737892e+000
      2.79362106e+000 2.93843889e+000 3.07776594e+000 3.18865299e+000
      3.25816798e+000 3.26266289e+000 3.19361210e+000 3.06136799e+000</_></support_vectors>
  <decision_functions>
    <_>
      <sv_count>68</sv_count>
      <rho>-6.5423672772916563e-001</rho>
      <alpha>
        7.9820243117441805e-002 1.6080030087590422e-001
        3.0748160739742425e-001 4.1052049554415332e-001
        6.6015932183962256e-001 1.6442138438549461e-001
        8.1534449872159492e-002 4.1641436024288642e-001
        2.3784569499171948e-001 1.4072548193755561e+000
        1.3491219205234577e+000 1.5880787315335290e-001
        2.4426174202854775e-001 9.8300331292689480e-001
        4.0681286925495774e-002 2.3955228108274029e-001
        1.4768678221539203e-001 5.8502188649959326e-002
        8.4567739916493023e-002 4.3103389494568822e-001
        6.0365302905929885e-001 3.3940450879092521e-001
        2.0031099471279440e-001 2.1998106083240008e+000
        2.1320569840568845e-001 1.0710235155191743e-001
        3.3670048352106319e-001 6.6318253493336254e-001
        2.0952369000729923e-001 3.2423844627760467e-001
        3.4037376338635533e-001 3.6600863943414347e-001
        2.5699488679422683e-001 7.3927823385539537e-001
        5.4298703007330723e-002 3.0657748021727559e-002
        9.2444244764646244e-001 1.1196355474968820e+000
        1.1609889028151847e+000 7.3991655647510279e-001
        2.7470364237781941e-001 1.7292352610307690e-001
        9.2933191711405849e-001 2.8831062039240501e-001
        2.6667119559144719e+000 1.9170735466962538e-001
        3.4576327227083370e-001 3.4576634965611303e-001
        1.0285135406218750e-001 3.2925829583470352e-002
        5.2427631257089737e-003 3.9410240237475991e-001
        1.3940107491598110e+000 1.5203958067001522e+000
        3.6557013873089333e-001 4.4023820202494041e-001
        -1.3800555760308408e+000 -2.0121086755555631e+000
        -1.0410186729451074e+000 -1.8031513920960975e+000
        -1.3758189537446592e+000 -6.4688700560511414e+000
        -2.4825724876436168e+000 -1.6274970966268913e+000
        -1.8582703483124949e+000 -2.3728458256783385e+000
        -3.0656904032729613e+000 -2.5758558708297632e+000</alpha>
      <index>
        0 1 2 3 4 5 6 7 8 9 10 11 12 13 14 15 16 17 18 19 20 21 22 23 24
        25 26 27 28 29 30 31 32 33 34 35 36 37 38 39 40 41 42 43 44 45
        46 47 48 49 50 51 52 53 54 55 56 57 58 59 60 61 62 63 64 65 66
        67</index></_></decision_functions></my_svm>
</opencv_storage>
