<?xml version="1.0"?>
<opencv_storage>
<my_svm type_id="opencv-ml-svm">
  <svm_type>C_SVC</svm_type>
  <kernel><type>RBF</type>
    <gamma>4.</gamma></kernel>
  <C>8.</C>
  <term_criteria><epsilon>2.2204460492503131e-016</epsilon>
    <iterations>10000</iterations></term_criteria>
  <var_all>20</var_all>
  <var_count>20</var_count>
  <class_count>2</class_count>
  <class_labels type_id="opencv-matrix">
    <rows>1</rows>
    <cols>2</cols>
    <dt>i</dt>
    <data>
      0 1</data></class_labels>
  <sv_total>41</sv_total>
  <support_vectors>
    <_>
      1.34245300e+000 1.35609698e+000 1.34089506e+000 1.35161400e+000
      1.35138798e+000 1.33795905e+000 1.34335494e+000 1.33754802e+000
      1.32176495e+000 1.33254802e+000 1.33233094e+000 1.35291696e+000
      1.36747003e+000 1.37837505e+000 1.40251994e+000 1.41619003e+000
      1.42589402e+000 1.44324195e+000 1.45077896e+000 1.46388805e+000</_>
    <_>
      1.32323694e+000 1.25815403e+000 1.20995998e+000 1.16646099e+000
      1.09403396e+000 1.04035103e+000 9.98076975e-001 9.71563995e-001
      9.68769014e-001 9.74294007e-001 1.00823605e+000 1.04772794e+000
      1.07788301e+000 1.13377595e+000 1.18103600e+000 1.21853197e+000
      1.27281404e+000 1.32213998e+000 1.35979700e+000 1.40670800e+000</_>
    <_>
      1.35899496e+000 1.36303699e+000 1.35326505e+000 1.34566295e+000
      1.34513605e+000 1.33340597e+000 1.32867897e+000 1.32568502e+000
      1.31536400e+000 1.32236004e+000 1.32869697e+000 1.34414506e+000
      1.38605797e+000 1.42388904e+000 1.44643199e+000 1.47347796e+000
      1.48694396e+000 1.49266398e+000 1.50345099e+000 1.50644898e+000</_>
    <_>
      1.42120004e+000 1.39899600e+000 1.37169600e+000 1.34285998e+000
      1.30971205e+000 1.28437102e+000 1.26597905e+000 1.25706697e+000
      1.25564897e+000 1.27512705e+000 1.29234695e+000 1.32852805e+000
      1.39325905e+000 1.40838897e+000 1.44116902e+000 1.48320794e+000
      1.49622202e+000 1.51264501e+000 1.52151501e+000 1.52452803e+000</_>
    <_>
      1.24052405e+000 1.22688699e+000 1.21176004e+000 1.20960295e+000
      1.19085097e+000 1.16121399e+000 1.14403498e+000 1.12404001e+000
      1.08939600e+000 1.09102702e+000 1.09396899e+000 1.09892905e+000
      1.12932301e+000 1.14276695e+000 1.18617702e+000 1.21530700e+000
      1.26075697e+000 1.30070496e+000 1.32699394e+000 1.36283004e+000</_>
    <_>
      1.24505496e+000 1.24063098e+000 1.20781100e+000 1.08682299e+000
      1.08480000e+000 1.08298600e+000 9.39516008e-001 9.38481987e-001
      9.35226023e-001 1.11767495e+000 1.11824906e+000 1.12014997e+000
      1.27465796e+000 1.27953196e+000 1.27938199e+000 1.40632999e+000
      1.40866399e+000 1.41116798e+000 1.51024699e+000 1.51254594e+000</_>
    <_>
      1.37336004e+000 1.36040902e+000 1.34081101e+000 1.28712595e+000
      1.27163100e+000 1.23749304e+000 1.17604303e+000 1.17746997e+000
      1.16753900e+000 1.24004400e+000 1.24351203e+000 1.25109398e+000
      1.30997503e+000 1.31574798e+000 1.32439005e+000 1.36631095e+000
      1.37130797e+000 1.38057196e+000 1.41427696e+000 1.42233598e+000</_>
    <_>
      1.21695995e+000 1.16724002e+000 1.14177597e+000 1.11997902e+000
      1.10028005e+000 1.10473895e+000 1.09399104e+000 1.07726395e+000
      1.07497203e+000 1.09173298e+000 1.12113500e+000 1.13707495e+000
      1.17375398e+000 1.20565903e+000 1.21874499e+000 1.24856806e+000
      1.28628802e+000 1.31177497e+000 1.34780204e+000 1.39873695e+000</_>
    <_>
      1.27302396e+000 1.26916897e+000 1.25632095e+000 1.23814595e+000
      1.22329998e+000 1.19998002e+000 1.19572401e+000 1.17147100e+000
      1.15633702e+000 1.16372395e+000 1.17003500e+000 1.15872896e+000
      1.17052603e+000 1.18838406e+000 1.21081197e+000 1.23021305e+000
      1.25759900e+000 1.29192603e+000 1.31260705e+000 1.34091306e+000</_>
    <_>
      1.30557501e+000 1.29665101e+000 1.09378505e+000 1.08956397e+000
      1.08714402e+000 8.63610029e-001 8.66810024e-001 8.67431998e-001
      6.18882000e-001 6.19372010e-001 6.24445975e-001 8.70306015e-001
      8.66123974e-001 8.65554988e-001 1.07737195e+000 1.06868398e+000
      1.06654203e+000 1.24104702e+000 1.23734999e+000 1.24029303e+000</_>
    <_>
      1.15334404e+000 1.07603097e+000 1.08318698e+000 1.09071600e+000
      9.87447023e-001 9.88858998e-001 9.95809972e-001 8.54107022e-001
      8.52384984e-001 8.52985978e-001 1.08213794e+000 1.08149397e+000
      1.08106899e+000 1.27770901e+000 1.27570403e+000 1.27485800e+000
      1.43091500e+000 1.42923105e+000 1.42591703e+000 1.53894198e+000</_>
    <_>
      1.19780004e+000 1.12191904e+000 1.05472004e+000 9.72007990e-001
      8.82184029e-001 8.21732998e-001 7.19097972e-001 6.16558015e-001
      5.50549984e-001 5.95986009e-001 6.03443980e-001 6.52375996e-001
      6.87252998e-001 7.72741973e-001 8.48322988e-001 9.07579005e-001
      1.03849602e+000 1.10991704e+000 1.16868496e+000 1.27835798e+000</_>
    <_>
      1.30304396e+000 1.27508605e+000 1.25866497e+000 1.28038895e+000
      1.26236498e+000 1.23703206e+000 1.22351205e+000 1.20685101e+000
      1.20144296e+000 1.20804501e+000 1.22113895e+000 1.24432898e+000
      1.27030301e+000 1.29453194e+000 1.33136904e+000 1.37328601e+000
      1.40320301e+000 1.43316305e+000 1.45981801e+000 1.47973800e+000</_>
    <_>
      1.20513594e+000 1.20199597e+000 1.19858503e+000 9.71819997e-001
      9.67846990e-001 9.62848008e-001 7.07795024e-001 7.03411996e-001
      6.99436009e-001 8.83082986e-001 8.77233982e-001 8.74074996e-001
      1.04630601e+000 1.04960001e+000 1.05700898e+000 1.20680797e+000
      1.21653295e+000 1.22776699e+000 1.35546303e+000 1.36307096e+000</_>
    <_>
      1.21511102e+000 1.05572701e+000 1.05670404e+000 1.05893195e+000
      8.70770991e-001 8.68845999e-001 8.69288027e-001 6.49793983e-001
      6.47180021e-001 6.51036024e-001 9.08944011e-001 9.06211019e-001
      9.09596980e-001 1.13254797e+000 1.12682498e+000 1.13133299e+000
      1.30955505e+000 1.30114901e+000 1.29993606e+000 1.42940903e+000</_>
    <_>
      1.25095296e+000 1.21047902e+000 1.05992305e+000 1.09424305e+000
      1.06377494e+000 9.14107978e-001 9.11512971e-001 8.72864008e-001
      7.02166021e-001 7.14281976e-001 7.17992008e-001 9.83676016e-001
      9.93447006e-001 1.00187600e+000 1.22492802e+000 1.22941995e+000
      1.23885906e+000 1.41149795e+000 1.41107404e+000 1.44073701e+000</_>
    <_>
      1.32134700e+000 1.27340996e+000 1.22454202e+000 1.16835499e+000
      1.10796201e+000 1.04961205e+000 9.86144006e-001 9.54014003e-001
      9.44047987e-001 9.70227003e-001 1.02803302e+000 1.07164502e+000
      1.13494301e+000 1.18730998e+000 1.23411095e+000 1.28916097e+000
      1.33320796e+000 1.37626100e+000 1.41910303e+000 1.45582795e+000</_>
    <_>
      1.18583906e+000 1.16682601e+000 1.14454806e+000 1.15026402e+000
      1.13853502e+000 1.13887298e+000 1.13846302e+000 1.14158404e+000
      1.12190199e+000 1.14394903e+000 1.18542898e+000 1.18396997e+000
      1.20928800e+000 1.25334597e+000 1.27955198e+000 1.29645205e+000
      1.34118795e+000 1.37544203e+000 1.38311100e+000 1.42098403e+000</_>
    <_>
      1.12018394e+000 1.03422904e+000 9.91119981e-001 9.44235981e-001
      9.03778970e-001 8.51167977e-001 8.35475028e-001 8.31376016e-001
      8.18795025e-001 8.64956021e-001 9.28840995e-001 1.01385796e+000
      1.08039796e+000 1.14662898e+000 1.22279894e+000 1.28020501e+000
      1.34060895e+000 1.40339899e+000 1.44777298e+000 1.49389303e+000</_>
    <_>
      1.26339197e+000 1.23872602e+000 1.17434800e+000 1.06823897e+000
      1.03675604e+000 9.73174989e-001 9.60102975e-001 9.23838973e-001
      9.07256007e-001 9.18855011e-001 9.09726024e-001 9.52170014e-001
      1.01391804e+000 1.07589900e+000 1.13122904e+000 1.19909406e+000
      1.24455500e+000 1.28359604e+000 1.33775198e+000 1.37139595e+000</_>
    <_>
      1.36070395e+000 1.33112705e+000 1.29999101e+000 1.25622594e+000
      1.23022199e+000 1.19272304e+000 1.16825604e+000 1.16006303e+000
      1.14159596e+000 1.15714705e+000 1.16209197e+000 1.15183794e+000
      1.18260705e+000 1.18318200e+000 1.19457304e+000 1.21332598e+000
      1.20533395e+000 1.21692300e+000 1.22352898e+000 1.22340405e+000</_>
    <_>
      1.29524601e+000 1.23489106e+000 1.19133401e+000 1.11660302e+000
      1.04824698e+000 9.99630988e-001 1.01049805e+000 9.99987006e-001
      9.93936002e-001 1.02883899e+000 1.05722201e+000 1.08240700e+000
      1.15529001e+000 1.20810795e+000 1.24214399e+000 1.30190599e+000
      1.34662902e+000 1.37551498e+000 1.42102003e+000 1.45999205e+000</_>
    <_>
      1.33172297e+000 1.22724700e+000 1.23289502e+000 1.22730899e+000
      1.10067999e+000 1.09920394e+000 1.09104800e+000 9.35644984e-001
      9.32645023e-001 9.60523009e-001 1.14003694e+000 1.13978803e+000
      1.16660297e+000 1.32036102e+000 1.32216001e+000 1.34330595e+000
      1.46731496e+000 1.47171497e+000 1.48997498e+000 1.58066404e+000</_>
    <_>
      1.13031495e+000 1.11071002e+000 1.05890501e+000 1.01424396e+000
      1.00280297e+000 9.79156971e-001 9.47050989e-001 9.36932027e-001
      9.33568001e-001 9.70785975e-001 1.01256204e+000 1.06639802e+000
      1.12195599e+000 1.12878501e+000 1.15112805e+000 1.17333603e+000
      1.15882099e+000 1.15463603e+000 1.14843798e+000 1.12495303e+000</_>
    <_>
      8.04787993e-001 8.07253003e-001 7.76280999e-001 5.98872006e-001
      5.83887994e-001 5.75112998e-001 3.71461987e-001 3.63884002e-001
      3.62863004e-001 8.25668991e-001 8.18922997e-001 8.12017024e-001
      1.22998500e+000 1.21081305e+000 1.18830204e+000 1.50696194e+000
      1.48683596e+000 1.46295702e+000 1.67837501e+000 1.66604102e+000</_>
    <_>
      1.08271098e+000 1.01247394e+000 9.26455975e-001 8.23532999e-001
      7.51012981e-001 7.05752015e-001 6.74875975e-001 6.66243017e-001
      6.65938020e-001 6.70861006e-001 7.27110982e-001 7.94304013e-001
      8.83078992e-001 9.77611005e-001 1.06842506e+000 1.15287495e+000
      1.23741698e+000 1.31689894e+000 1.38941705e+000 1.45547402e+000</_>
    <_>
      1.30868697e+000 1.30595398e+000 1.30477595e+000 1.13740396e+000
      1.13371396e+000 1.13191998e+000 9.37529981e-001 9.30298984e-001
      9.27308023e-001 1.05715203e+000 1.05873895e+000 1.06073403e+000
      1.17177999e+000 1.17188001e+000 1.16896796e+000 1.28452504e+000
      1.28324604e+000 1.27852499e+000 1.35468698e+000 1.35106695e+000</_>
    <_>
      1.37519705e+000 1.26011097e+000 1.25756299e+000 1.22571003e+000
      1.08931303e+000 1.08954096e+000 1.05008805e+000 8.97597015e-001
      8.94472003e-001 8.98404002e-001 1.03718603e+000 1.03486395e+000
      1.03902304e+000 1.15889800e+000 1.15809500e+000 1.16834795e+000
      1.26151705e+000 1.26204801e+000 1.27953994e+000 1.35775602e+000</_>
    <_>
      1.04920900e+000 9.87572014e-001 9.06002998e-001 9.30787027e-001
      9.09868002e-001 8.84838998e-001 8.99905026e-001 8.94482970e-001
      8.83709013e-001 9.27940011e-001 9.38036025e-001 9.47932005e-001
      1.02603996e+000 1.06625998e+000 1.15240002e+000 1.25530005e+000
      1.33046496e+000 1.41627002e+000 1.48472905e+000 1.53715599e+000</_>
    <_>
      1.08737195e+000 1.08523095e+000 1.05246699e+000 8.96409988e-001
      8.91921997e-001 8.41997027e-001 6.75243974e-001 6.71832979e-001
      6.64321005e-001 9.21195984e-001 9.21702981e-001 9.23201978e-001
      1.14975095e+000 1.15198398e+000 1.16080797e+000 1.34698105e+000
      1.34901500e+000 1.36313498e+000 1.49776900e+000 1.50054598e+000</_>
    <_>
      1.09351206e+000 9.17756021e-001 8.77573013e-001 8.55180025e-001
      6.69229984e-001 6.51943028e-001 6.57487988e-001 4.85060006e-001
      4.84068006e-001 5.27086973e-001 7.52673984e-001 8.01235974e-001
      8.35165977e-001 1.04323494e+000 1.08487701e+000 1.10972500e+000
      1.27642095e+000 1.31419396e+000 1.32370305e+000 1.45155799e+000</_>
    <_>
      1.19789898e+000 1.17719805e+000 1.15365696e+000 1.12083900e+000
      1.08553100e+000 1.04016304e+000 1.01422703e+000 1.01030803e+000
      9.95760977e-001 1.03236604e+000 1.03914404e+000 1.01241505e+000
      1.07275498e+000 1.09520900e+000 1.13852799e+000 1.20193195e+000
      1.23705804e+000 1.28205001e+000 1.32029605e+000 1.33740199e+000</_>
    <_>
      1.12725306e+000 1.12129605e+000 1.05562794e+000 1.04501998e+000
      1.03563702e+000 9.60841000e-001 9.74678993e-001 9.90070999e-001
      8.92484009e-001 9.23201978e-001 9.68204975e-001 1.13838601e+000
      1.19488394e+000 1.23191798e+000 1.37198496e+000 1.40789104e+000
      1.43573594e+000 1.53908002e+000 1.56785703e+000 1.59001899e+000</_>
    <_>
      1.08881402e+000 9.92415011e-001 9.59141016e-001 9.55269992e-001
      8.57388020e-001 8.53788018e-001 8.64232004e-001 7.61669993e-001
      7.55394995e-001 7.95758009e-001 9.57826972e-001 9.99038994e-001
      1.04081595e+000 1.18648803e+000 1.22714901e+000 1.26082206e+000
      1.38563097e+000 1.42042601e+000 1.44372106e+000 1.53890204e+000</_>
    <_>
      1.29762602e+000 1.23918998e+000 1.22858703e+000 1.19109905e+000
      1.10681105e+000 1.09506500e+000 1.05781496e+000 9.53881979e-001
      9.42561984e-001 9.80027974e-001 1.10214698e+000 1.11569405e+000
      1.16068399e+000 1.25737596e+000 1.27260303e+000 1.31078303e+000
      1.38705504e+000 1.39691603e+000 1.43153000e+000 1.48418903e+000</_>
    <_>
      1.22704101e+000 1.18021405e+000 1.17359400e+000 1.09874105e+000
      1.03623796e+000 1.03291094e+000 9.69031990e-001 8.85064006e-001
      8.71371984e-001 1.05639195e+000 1.05938196e+000 1.07430804e+000
      1.21658397e+000 1.20970201e+000 1.23660100e+000 1.33763802e+000
      1.32333803e+000 1.33259106e+000 1.39874899e+000 1.42171800e+000</_>
    <_>
      1.07749200e+000 1.01670396e+000 1.00022697e+000 9.71122980e-001
      9.30097997e-001 9.26972985e-001 8.78683984e-001 8.10886025e-001
      7.99079001e-001 8.61478984e-001 9.84782994e-001 1.04707098e+000
      1.10719502e+000 1.22502506e+000 1.27430904e+000 1.32597399e+000
      1.42604399e+000 1.45941103e+000 1.49625194e+000 1.57713604e+000</_>
    <_>
      1.09998500e+000 1.07503498e+000 1.02555597e+000 9.19889987e-001
      8.78215015e-001 8.36215973e-001 7.09719002e-001 6.40932024e-001
      6.36734009e-001 6.40293002e-001 6.58071995e-001 7.76557982e-001
      9.57275987e-001 9.78138030e-001 1.08503604e+000 1.22308004e+000
      1.24295700e+000 1.33497298e+000 1.42799497e+000 1.42500806e+000</_>
    <_>
      1.23842597e+000 1.14582205e+000 1.08927405e+000 1.05949402e+000
      9.50173020e-001 8.93013000e-001 8.48043025e-001 7.26745009e-001
      6.76418006e-001 6.78474009e-001 7.69976020e-001 9.11532998e-001
      9.25320029e-001 1.01750505e+000 1.13861704e+000 1.15803599e+000
      1.24240804e+000 1.33296001e+000 1.35483098e+000 1.42560399e+000</_>
    <_>
      1.37949097e+000 1.37037301e+000 1.33419204e+000 1.31483102e+000
      1.29397202e+000 1.28466499e+000 1.28439295e+000 1.28111005e+000
      1.27336204e+000 1.34426403e+000 1.35908306e+000 1.35915005e+000
      1.40335798e+000 1.40735805e+000 1.41658700e+000 1.45928895e+000
      1.45962203e+000 1.47607303e+000 1.50190496e+000 1.52108598e+000</_>
    <_>
      1.28071105e+000 1.25243795e+000 1.25062597e+000 1.25243998e+000
      1.21752596e+000 1.20403099e+000 1.20988703e+000 1.15436399e+000
      1.14548302e+000 1.16259694e+000 1.23628700e+000 1.24658895e+000
      1.26149905e+000 1.30642796e+000 1.30743504e+000 1.30894196e+000
      1.32954001e+000 1.32661200e+000 1.30841899e+000 1.29917300e+000</_></support_vectors>
  <decision_functions>
    <_>
      <sv_count>41</sv_count>
      <rho>-9.5547466092812527e-001</rho>
      <alpha>
        2.3080644714748684e+000 4.7477873189199360e-001
        2.9448534903590140e+000 1.8760449384465359e+000
        8.3897354894574205e-001 4.3026220687197103e+000
        3.9032863840108982e+000 5.9240807763480383e+000
        8.5257272233093373e-001 1.1068833190963376e+000 8.
        2.7411784531773042e-001 4.2252333492897370e-001
        5.6021101581222532e-001 5.3702429033507331e+000
        3.4085483561888692e+000 2.5408780926745496e+000
        9.2573791587102783e-001 8. 1.5512667739046151e+000
        1.1179817277405764e+000 1.3380911221346661e+000
        1.7471691557805038e+000 1.2778299028938449e+000
        7.3863143384249416e-002 5.3496641728536254e+000
        3.2085710676769810e+000 5.3420483133156016e-001
        1.2585418188733122e+000 1.8975756143014484e+000
        -3.8517502404829029e+000 -8. -3.8166900274721867e+000 -8. -8.
        -8. -5.8019751383356715e+000 -3.9187638403528062e+000 -8. -8.
        -8.</alpha>
      <index>
        0 1 2 3 4 5 6 7 8 9 10 11 12 13 14 15 16 17 18 19 20 21 22 23 24
        25 26 27 28 29 30 31 32 33 34 35 36 37 38 39 40</index></_></decision_functions></my_svm>
</opencv_storage>
