<?xml version="1.0"?>
<opencv_storage>
<my_svm type_id="opencv-ml-svm">
  <svm_type>C_SVC</svm_type>
  <kernel><type>RBF</type>
    <gamma>1.2500000000000000e-001</gamma></kernel>
  <C>8.</C>
  <term_criteria><epsilon>2.2204460492503131e-016</epsilon>
    <iterations>10000</iterations></term_criteria>
  <var_all>60</var_all>
  <var_count>60</var_count>
  <class_count>2</class_count>
  <class_labels type_id="opencv-matrix">
    <rows>1</rows>
    <cols>2</cols>
    <dt>i</dt>
    <data>
      0 1</data></class_labels>
  <sv_total>48</sv_total>
  <support_vectors>
    <_>
      3.15469694e+000 3.14414406e+000 3.10753989e+000 3.02859592e+000
      2.93471408e+000 2.79344296e+000 2.61577010e+000 2.40536809e+000
      2.18004608e+000 1.93760502e+000 2.20269489e+000 2.45656800e+000
      2.69968700e+000 2.91009307e+000 3.09084105e+000 3.21980810e+000
      3.30153894e+000 3.33147597e+000 3.32799792e+000 3.29859209e+000
      1.35078895e+000 1.24505496e+000 1.24063098e+000 1.20781100e+000
      1.08682299e+000 1.08480000e+000 1.08298600e+000 9.39516008e-001
      9.38481987e-001 9.35226023e-001 1.11767495e+000 1.11824906e+000
      1.12014997e+000 1.27465796e+000 1.27953196e+000 1.27938199e+000
      1.40632999e+000 1.40866399e+000 1.41116798e+000 1.51024699e+000
      6.31950974e-001 6.27668023e-001 6.25174999e-001 6.27511024e-001
      6.29301012e-001 5.34295976e-001 5.25974989e-001 5.24740994e-001
      5.26619017e-001 5.25702000e-001 6.77465975e-001 6.69191003e-001
      6.72676980e-001 6.73026025e-001 6.74511015e-001 7.82402992e-001
      7.71459997e-001 7.71667004e-001 7.72632003e-001 7.75397003e-001</_>
    <_>
      3.03087497e+000 3.05997300e+000 3.04945993e+000 2.99897909e+000
      2.90647292e+000 2.77959895e+000 2.61156702e+000 2.43243098e+000
      2.23115492e+000 2.01599097e+000 1.77956402e+000 2.08585191e+000
      2.38479900e+000 2.65666795e+000 2.88690805e+000 3.07037401e+000
      3.19388294e+000 3.26705503e+000 3.28802299e+000 3.27228808e+000
      1.27267504e+000 1.26408803e+000 1.16196299e+000 1.15336895e+000
      1.14548695e+000 1.02865505e+000 1.02181101e+000 1.02405703e+000
      8.85385990e-001 8.84615004e-001 8.84913981e-001 1.09134996e+000
      1.09087002e+000 1.09313500e+000 1.26249301e+000 1.26381195e+000
      1.26430702e+000 1.40055799e+000 1.40307701e+000 1.40729594e+000
      6.58762991e-001 5.89789987e-001 5.85862994e-001 5.82844973e-001
      5.78096986e-001 5.78926027e-001 4.81676012e-001 4.81115997e-001
      4.82122988e-001 4.81319010e-001 4.80637014e-001 6.43552005e-001
      6.41551018e-001 6.43190026e-001 6.40689015e-001 6.40681028e-001
      7.52044976e-001 7.52745986e-001 7.53531992e-001 7.53140986e-001</_>
    <_>
      3.14413905e+000 3.15290189e+000 3.14259505e+000 3.10602999e+000
      3.03520894e+000 2.93497300e+000 2.79965091e+000 2.65265799e+000
      2.52922797e+000 2.45356011e+000 2.60699010e+000 2.75078011e+000
      2.87201595e+000 2.97830391e+000 3.06401801e+000 3.12248707e+000
      3.14917397e+000 3.15687609e+000 3.14904189e+000 3.13247609e+000
      1.41386294e+000 1.37336004e+000 1.36040902e+000 1.34081101e+000
      1.28712595e+000 1.27163100e+000 1.23749304e+000 1.17604303e+000
      1.17746997e+000 1.16753900e+000 1.24004400e+000 1.24351203e+000
      1.25109398e+000 1.30997503e+000 1.31574798e+000 1.32439005e+000
      1.36631095e+000 1.37130797e+000 1.38057196e+000 1.41427696e+000
      6.82128012e-001 6.79367006e-001 6.79772019e-001 6.71787977e-001
      6.58436000e-001 6.19051993e-001 6.14057004e-001 6.13418996e-001
      6.16324008e-001 6.22395992e-001 6.76371992e-001 6.76261008e-001
      6.77797019e-001 6.81244016e-001 6.86231971e-001 7.21529007e-001
      7.22684026e-001 7.25844026e-001 7.30672002e-001 7.34929025e-001</_>
    <_>
      3.32445693e+000 3.36742401e+000 3.37934899e+000 3.34352112e+000
      3.24567294e+000 3.07944012e+000 2.83859611e+000 2.54044604e+000
      2.20725989e+000 1.86013401e+000 1.52371502e+000 1.79098201e+000
      2.06986403e+000 2.34901905e+000 2.61075997e+000 2.83033800e+000
      2.97330499e+000 3.03917599e+000 3.03578997e+000 2.98626399e+000
      1.39625204e+000 1.39038897e+000 1.20844805e+000 1.20472705e+000
      1.19923401e+000 9.79604006e-001 9.77509975e-001 9.73541975e-001
      7.25089014e-001 7.23025024e-001 7.27091014e-001 9.08659995e-001
      9.22052979e-001 9.37942028e-001 1.10878205e+000 1.11805606e+000
      1.13229203e+000 1.27390504e+000 1.26470006e+000 1.27437401e+000
      7.75442004e-001 6.23613000e-001 6.18924975e-001 6.18979990e-001
      6.19943976e-001 6.19463980e-001 4.12993014e-001 4.08713996e-001
      4.10335004e-001 4.13096011e-001 4.16173011e-001 5.54997027e-001
      5.56158006e-001 5.58595002e-001 5.58224976e-001 5.59567988e-001
      6.67877972e-001 6.65700972e-001 6.62542999e-001 6.62016988e-001</_>
    <_>
      2.96654510e+000 2.89734602e+000 2.80815792e+000 2.72612405e+000
      2.63698101e+000 2.59023905e+000 2.58725095e+000 2.59416389e+000
      2.58223891e+000 2.51766610e+000 2.50220108e+000 2.55149508e+000
      2.61254692e+000 2.71519995e+000 2.79364610e+000 2.84011412e+000
      2.87377000e+000 2.90460992e+000 2.92754793e+000 2.94403791e+000
      1.24369502e+000 1.21695995e+000 1.16724002e+000 1.14177597e+000
      1.11997902e+000 1.10028005e+000 1.10473895e+000 1.09399104e+000
      1.07726395e+000 1.07497203e+000 1.09173298e+000 1.12113500e+000
      1.13707495e+000 1.17375398e+000 1.20565903e+000 1.21874499e+000
      1.24856806e+000 1.28628802e+000 1.31177497e+000 1.34780204e+000
      6.18044972e-001 5.89869976e-001 5.68754017e-001 5.57720006e-001
      5.58308005e-001 5.69297016e-001 5.61356008e-001 5.47224998e-001
      5.39716005e-001 5.38941979e-001 5.73055983e-001 5.95553994e-001
      5.97249985e-001 6.08204007e-001 6.15845978e-001 6.40843987e-001
      6.64005995e-001 6.75921023e-001 6.95192993e-001 7.17410982e-001</_>
    <_>
      3.20627093e+000 3.20599008e+000 3.19793010e+000 3.16116810e+000
      3.10100794e+000 3.01199698e+000 2.89580798e+000 2.78854895e+000
      2.71986294e+000 2.64311194e+000 2.61218309e+000 2.66173196e+000
      2.75846791e+000 2.83720708e+000 2.89282203e+000 2.97560191e+000
      3.03311801e+000 3.09558892e+000 3.14433098e+000 3.15810490e+000
      1.38524604e+000 1.37312305e+000 1.34057105e+000 1.31090605e+000
      1.29294395e+000 1.24859297e+000 1.21487296e+000 1.20862496e+000
      1.19575906e+000 1.16856396e+000 1.19393694e+000 1.22806895e+000
      1.23683596e+000 1.26256502e+000 1.29190803e+000 1.32307398e+000
      1.34591901e+000 1.37932503e+000 1.40691304e+000 1.41979694e+000
      7.31849015e-001 7.19682992e-001 7.02555001e-001 6.81505024e-001
      6.70118988e-001 6.51405990e-001 6.36415005e-001 6.25846028e-001
      6.28714025e-001 6.26675010e-001 6.34386003e-001 6.56840980e-001
      6.71666980e-001 6.77586019e-001 6.83930993e-001 7.05920994e-001
      7.23106027e-001 7.41739988e-001 7.43853986e-001 7.46917009e-001</_>
    <_>
      2.97006011e+000 2.96295595e+000 2.98499703e+000 3.01354694e+000
      3.07911396e+000 3.12492704e+000 3.13809299e+000 3.12176490e+000
      3.07091689e+000 2.99892092e+000 2.98540401e+000 2.96178007e+000
      3.00891209e+000 3.02820396e+000 3.02892303e+000 3.01956201e+000
      3.07063890e+000 3.09970403e+000 3.12039995e+000 3.15409088e+000
      1.40322495e+000 1.38454998e+000 1.38931501e+000 1.39081001e+000
      1.38829100e+000 1.40253603e+000 1.40144098e+000 1.38827598e+000
      1.38868403e+000 1.38398898e+000 1.38982499e+000 1.38737202e+000
      1.40834200e+000 1.40404403e+000 1.40672803e+000 1.42570102e+000
      1.44674301e+000 1.45302296e+000 1.46439195e+000 1.48696494e+000
      7.65087008e-001 7.63909996e-001 7.55934000e-001 7.59539008e-001
      7.66269028e-001 7.69098997e-001 7.64415026e-001 7.52856016e-001
      7.47377992e-001 7.50566006e-001 7.68705010e-001 7.59378016e-001
      7.66987026e-001 7.64572978e-001 7.62872994e-001 7.77159989e-001
      7.91181982e-001 7.95063972e-001 7.94281006e-001 8.00067008e-001</_>
    <_>
      2.93086791e+000 2.95080900e+000 2.98545790e+000 3.02213311e+000
      3.06151009e+000 3.08652592e+000 3.09179401e+000 3.07993698e+000
      3.05103803e+000 3.00902510e+000 2.97393203e+000 2.94809008e+000
      2.95828509e+000 2.97709608e+000 2.98971295e+000 2.99517703e+000
      2.98425794e+000 2.99713802e+000 2.99797702e+000 3.00396299e+000
      1.37401998e+000 1.36477804e+000 1.36091900e+000 1.36566603e+000
      1.36026299e+000 1.35569406e+000 1.35327697e+000 1.34589005e+000
      1.33816004e+000 1.33104098e+000 1.33497798e+000 1.33644402e+000
      1.34106898e+000 1.35726404e+000 1.36348903e+000 1.36233604e+000
      1.37246001e+000 1.38423204e+000 1.38691294e+000 1.41293204e+000
      7.32644975e-001 7.31377006e-001 7.32034028e-001 7.35328019e-001
      7.37650990e-001 7.27536976e-001 7.27249026e-001 7.18146980e-001
      7.13966012e-001 7.17585981e-001 7.20293999e-001 7.28946984e-001
      7.25004017e-001 7.27496028e-001 7.37523973e-001 7.42695987e-001
      7.42525995e-001 7.47512996e-001 7.54875004e-001 7.73532987e-001</_>
    <_>
      3.24211693e+000 3.24120092e+000 3.18010592e+000 3.06662893e+000
      2.91419291e+000 2.74547601e+000 2.57448697e+000 2.38639402e+000
      2.17562103e+000 1.94672501e+000 2.22778201e+000 2.49076200e+000
      2.73142695e+000 2.93716002e+000 3.09932303e+000 3.22057605e+000
      3.29839611e+000 3.33423090e+000 3.33141994e+000 3.30024004e+000
      1.38003099e+000 1.30963099e+000 1.30851197e+000 1.29680204e+000
      1.20121205e+000 1.19917297e+000 1.17903697e+000 1.05530202e+000
      1.05156696e+000 1.01101005e+000 1.21745300e+000 1.21321201e+000
      1.17261803e+000 1.34402299e+000 1.33866894e+000 1.29312205e+000
      1.42882395e+000 1.42632306e+000 1.42948198e+000 1.53164601e+000
      6.24934018e-001 6.22869015e-001 6.17461979e-001 6.17528975e-001
      6.16828978e-001 5.46422005e-001 5.49018979e-001 5.45687020e-001
      5.31422019e-001 5.29244006e-001 6.79709017e-001 6.81842983e-001
      6.81335986e-001 6.80571973e-001 6.76953018e-001 7.83083975e-001
      7.84593999e-001 7.86940992e-001 7.92659998e-001 7.90533006e-001</_>
    <_>
      3.31262398e+000 3.32392812e+000 3.36999297e+000 3.37788796e+000
      3.32713890e+000 3.20035100e+000 2.99134493e+000 2.70833993e+000
      2.37619710e+000 2.02062201e+000 1.66467094e+000 1.43809605e+000
      1.78322804e+000 2.13407111e+000 2.47092009e+000 2.77447295e+000
      3.01702404e+000 3.18080091e+000 3.26387811e+000 3.27991199e+000
      1.33152902e+000 1.33565199e+000 1.30127096e+000 1.14433897e+000
      1.16053498e+000 1.17481101e+000 9.86339986e-001 1.00029194e+000
      9.94014978e-001 7.78303981e-001 7.90802002e-001 8.63766015e-001
      1.03957498e+000 1.04931200e+000 1.10129201e+000 1.23975098e+000
      1.24587202e+000 1.26889896e+000 1.36444902e+000 1.36573696e+000
      7.73460984e-001 7.41792977e-001 6.18609011e-001 6.21268988e-001
      6.26809001e-001 6.32983983e-001 5.86206019e-001 4.19791996e-001
      4.22262996e-001 4.26108986e-001 4.49634999e-001 4.63629991e-001
      5.72848022e-001 5.72751999e-001 5.72308004e-001 5.76013029e-001
      5.84976971e-001 6.45539999e-001 6.42669976e-001 6.37589991e-001</_>
    <_>
      3.22824788e+000 3.18852806e+000 3.20880699e+000 3.18816495e+000
      3.11119199e+000 2.98081303e+000 2.78853393e+000 2.53458309e+000
      2.23473692e+000 1.90424597e+000 1.56441200e+000 1.24296498e+000
      1.63016999e+000 2.02612209e+000 2.39833093e+000 2.72182798e+000
      2.96414590e+000 3.11402106e+000 3.17342401e+000 3.16352296e+000
      1.30808401e+000 1.30557501e+000 1.29665101e+000 1.09378505e+000
      1.08956397e+000 1.08714402e+000 8.63610029e-001 8.66810024e-001
      8.67431998e-001 6.18882000e-001 6.19372010e-001 6.24445975e-001
      8.70306015e-001 8.66123974e-001 8.65554988e-001 1.07737195e+000
      1.06868398e+000 1.06654203e+000 1.24104702e+000 1.23734999e+000
      6.83043003e-001 6.76591992e-001 5.25050998e-001 5.25569975e-001
      5.27903020e-001 5.32603025e-001 5.32576025e-001 3.37460995e-001
      3.40615988e-001 3.40932012e-001 3.42525989e-001 3.46926987e-001
      5.40796995e-001 5.43081999e-001 5.41060984e-001 5.40847003e-001
      5.42020023e-001 6.80476010e-001 6.79804027e-001 6.78433001e-001</_>
    <_>
      2.80497599e+000 2.89603305e+000 2.96126103e+000 2.99516296e+000
      2.97413206e+000 2.89399195e+000 2.74009204e+000 2.52949190e+000
      2.26685596e+000 1.98047602e+000 1.68366301e+000 1.98627496e+000
      2.29020000e+000 2.58301806e+000 2.84812689e+000 3.06908488e+000
      3.23057199e+000 3.32537794e+000 3.36203098e+000 3.35029507e+000
      1.14675605e+000 1.15334404e+000 1.07603097e+000 1.08318698e+000
      1.09071600e+000 9.87447023e-001 9.88858998e-001 9.95809972e-001
      8.54107022e-001 8.52384984e-001 8.52985978e-001 1.08213794e+000
      1.08149397e+000 1.08106899e+000 1.27770901e+000 1.27570403e+000
      1.27485800e+000 1.43091500e+000 1.42923105e+000 1.42591703e+000
      5.79629004e-001 5.27239978e-001 5.27853012e-001 5.33170998e-001
      5.35040021e-001 5.38779020e-001 4.43529993e-001 4.43576992e-001
      4.45533007e-001 4.46814001e-001 4.45971996e-001 6.22089982e-001
      6.22884989e-001 6.24068975e-001 6.25518978e-001 6.24835014e-001
      7.52855003e-001 7.52775013e-001 7.55177975e-001 7.56402016e-001</_>
    <_>
      3.33844709e+000 3.37491703e+000 3.37965202e+000 3.33527398e+000
      3.22943902e+000 3.05577898e+000 2.81926990e+000 2.53384900e+000
      2.22032809e+000 1.90003097e+000 1.63587904e+000 1.92727196e+000
      2.23988295e+000 2.54259109e+000 2.81207609e+000 3.03039193e+000
      3.18537307e+000 3.27157092e+000 3.29703808e+000 3.28424501e+000
      1.36212695e+000 1.34528804e+000 1.19253802e+000 1.18906999e+000
      1.16528797e+000 9.91618991e-001 9.86980021e-001 9.57190990e-001
      7.68154025e-001 7.63539016e-001 7.68334985e-001 9.68690991e-001
      9.69469011e-001 9.74596024e-001 1.15192902e+000 1.15069199e+000
      1.15710998e+000 1.30645204e+000 1.30439997e+000 1.31561899e+000
      6.89221978e-001 5.77409029e-001 5.74617982e-001 5.74202001e-001
      5.74185014e-001 5.50508022e-001 4.07160014e-001 4.03046995e-001
      4.02480990e-001 4.02312994e-001 4.05454993e-001 5.58252990e-001
      5.57910025e-001 5.56083977e-001 5.54588974e-001 5.58570981e-001
      6.73142016e-001 6.70885026e-001 6.69290006e-001 6.70508981e-001</_>
    <_>
      3.24159598e+000 3.23458290e+000 3.26104093e+000 3.24996090e+000
      3.19027400e+000 3.08249688e+000 2.93703508e+000 2.74802399e+000
      2.52537298e+000 2.27781892e+000 2.01804495e+000 1.77542698e+000
      2.06953907e+000 2.36329794e+000 2.64112306e+000 2.88439989e+000
      3.08467698e+000 3.22816205e+000 3.31885099e+000 3.35137892e+000
      1.31397402e+000 1.30779898e+000 1.29687798e+000 1.16006303e+000
      1.15552700e+000 1.14695299e+000 9.97202992e-001 9.98622000e-001
      9.94349003e-001 8.26620996e-001 8.31516027e-001 8.39929998e-001
      1.03428805e+000 1.04010296e+000 1.04905200e+000 1.22037697e+000
      1.22648203e+000 1.23139596e+000 1.37730098e+000 1.37869000e+000
      6.84539020e-001 6.77797019e-001 5.78718007e-001 5.74518025e-001
      5.72530985e-001 5.71364999e-001 5.69768012e-001 4.41478997e-001
      4.40396994e-001 4.41011012e-001 4.41929996e-001 4.49918985e-001
      5.95609009e-001 5.95040023e-001 5.96704006e-001 5.96544981e-001
      6.03349984e-001 7.09991992e-001 7.10452974e-001 7.09020972e-001</_>
    <_>
      2.41980290e+000 2.32980800e+000 2.33186007e+000 2.39563298e+000
      2.50190496e+000 2.62610602e+000 2.69491005e+000 2.69644594e+000
      2.64348197e+000 2.55487394e+000 2.43226004e+000 2.26670694e+000
      2.39128089e+000 2.52998400e+000 2.68016505e+000 2.83951998e+000
      2.98776507e+000 3.11686301e+000 3.21275997e+000 3.27318501e+000
      1.21004105e+000 1.18708706e+000 1.17578197e+000 1.16376805e+000
      1.16217101e+000 1.16792405e+000 1.14022398e+000 1.13248706e+000
      1.13796401e+000 1.10668004e+000 1.10769403e+000 1.10985696e+000
      1.24224102e+000 1.25860798e+000 1.26798999e+000 1.38118696e+000
      1.40430701e+000 1.42548096e+000 1.51718497e+000 1.54295802e+000
      6.06468022e-001 6.05656028e-001 6.24309003e-001 6.25602007e-001
      6.13779008e-001 6.05660021e-001 6.08833015e-001 6.06768012e-001
      6.04161024e-001 6.04398012e-001 6.02841973e-001 6.08560979e-001
      7.21427023e-001 7.27952003e-001 7.38186002e-001 7.48724997e-001
      7.58180022e-001 8.31990004e-001 8.36820006e-001 8.48520994e-001</_>
    <_>
      3.34844089e+000 3.36881399e+000 3.33871889e+000 3.24166799e+000
      3.07224298e+000 2.82965112e+000 2.51947188e+000 2.16600895e+000
      1.79695797e+000 1.43511999e+000 1.72049797e+000 2.00846910e+000
      2.27266908e+000 2.51699710e+000 2.74167800e+000 2.92761993e+000
      3.03604698e+000 3.08204198e+000 3.08320808e+000 3.04566693e+000
      1.39358902e+000 1.20513594e+000 1.20199597e+000 1.19858503e+000
      9.71819997e-001 9.67846990e-001 9.62848008e-001 7.07795024e-001
      7.03411996e-001 6.99436009e-001 8.83082986e-001 8.77233982e-001
      8.74074996e-001 1.04630601e+000 1.04960001e+000 1.05700898e+000
      1.20680797e+000 1.21653295e+000 1.22776699e+000 1.35546303e+000
      5.82587004e-001 5.86399972e-001 5.88841975e-001 5.85941970e-001
      5.83880007e-001 3.85028988e-001 3.84564996e-001 3.85226011e-001
      3.81920010e-001 3.80876988e-001 5.20178020e-001 5.18146992e-001
      5.22777975e-001 5.29841006e-001 5.36894977e-001 6.44829988e-001
      6.40830994e-001 6.47386014e-001 6.56651020e-001 6.60727978e-001</_>
    <_>
      3.09709501e+000 3.12493801e+000 3.12256694e+000 3.08152604e+000
      2.98852706e+000 2.81636190e+000 2.58668709e+000 2.30747199e+000
      1.98566699e+000 1.66030002e+000 1.34609199e+000 1.70242000e+000
      2.06756401e+000 2.42318511e+000 2.74550796e+000 2.99610710e+000
      3.19071102e+000 3.29840302e+000 3.32288504e+000 3.28530693e+000
      1.21828401e+000 1.21511102e+000 1.05572701e+000 1.05670404e+000
      1.05893195e+000 8.70770991e-001 8.68845999e-001 8.69288027e-001
      6.49793983e-001 6.47180021e-001 6.51036024e-001 9.08944011e-001
      9.06211019e-001 9.09596980e-001 1.13254797e+000 1.12682498e+000
      1.13133299e+000 1.30955505e+000 1.30114901e+000 1.29993606e+000
      6.21414006e-001 5.03719985e-001 5.03969014e-001 5.09277999e-001
      5.08952022e-001 5.07470012e-001 3.46587002e-001 3.44862014e-001
      3.45741004e-001 3.46062988e-001 3.44377995e-001 5.50446987e-001
      5.49673975e-001 5.51656008e-001 5.52029014e-001 5.48651993e-001
      6.97084010e-001 6.91996992e-001 6.93045020e-001 6.91884995e-001</_>
    <_>
      3.19895792e+000 3.18610191e+000 3.20667911e+000 3.14471102e+000
      3.01302910e+000 2.86274600e+000 2.68481708e+000 2.40885806e+000
      2.12937593e+000 1.84102094e+000 1.56229198e+000 1.35407495e+000
      1.77161396e+000 2.16129589e+000 2.51123190e+000 2.81726789e+000
      3.03763390e+000 3.16353011e+000 3.22471809e+000 3.21954298e+000
      1.22680104e+000 1.25095296e+000 1.21047902e+000 1.05992305e+000
      1.09424305e+000 1.06377494e+000 9.14107978e-001 9.11512971e-001
      8.72864008e-001 7.02166021e-001 7.14281976e-001 7.17992008e-001
      9.83676016e-001 9.93447006e-001 1.00187600e+000 1.22492802e+000
      1.22941995e+000 1.23885906e+000 1.41149795e+000 1.41107404e+000
      6.46237016e-001 6.07982993e-001 5.16277015e-001 5.31352997e-001
      5.35854995e-001 5.56285977e-001 5.15618980e-001 3.70231986e-001
      3.91149014e-001 3.97848994e-001 4.04085994e-001 3.98591995e-001
      6.03610992e-001 6.26287997e-001 6.34299994e-001 6.34405017e-001
      6.28807008e-001 7.81185985e-001 8.06149006e-001 8.12420011e-001</_>
    <_>
      2.93377900e+000 2.91320896e+000 2.90937996e+000 2.88264298e+000
      2.86147594e+000 2.84910107e+000 2.85411191e+000 2.83283401e+000
      2.82399893e+000 2.76971412e+000 2.73012400e+000 2.75044990e+000
      2.79806399e+000 2.82761002e+000 2.86077094e+000 2.93917298e+000
      2.98512506e+000 3.03443503e+000 3.09241390e+000 3.11452508e+000
      1.19209695e+000 1.18583906e+000 1.16682601e+000 1.14454806e+000
      1.15026402e+000 1.13853502e+000 1.13887298e+000 1.13846302e+000
      1.14158404e+000 1.12190199e+000 1.14394903e+000 1.18542898e+000
      1.18396997e+000 1.20928800e+000 1.25334597e+000 1.27955198e+000
      1.29645205e+000 1.34118795e+000 1.37544203e+000 1.38311100e+000
      6.11774981e-001 5.88962018e-001 5.91552019e-001 5.78411996e-001
      5.85390985e-001 5.80385029e-001 5.81319988e-001 5.79822004e-001
      5.87249994e-001 5.85555017e-001 5.88815987e-001 6.21075988e-001
      6.37812018e-001 6.44872010e-001 6.54092014e-001 6.78655982e-001
      6.97347999e-001 7.17875004e-001 7.36311018e-001 7.40561008e-001</_>
    <_>
      3.11210704e+000 3.04205203e+000 2.92745709e+000 2.75624394e+000
      2.58783007e+000 2.48527789e+000 2.30379391e+000 2.17062902e+000
      2.08211803e+000 2.03050900e+000 2.05881810e+000 2.16457295e+000
      2.41007090e+000 2.65657902e+000 2.87379789e+000 3.05861712e+000
      3.17410898e+000 3.24753189e+000 3.29388404e+000 3.31000900e+000
      1.18280602e+000 1.12018394e+000 1.03422904e+000 9.91119981e-001
      9.44235981e-001 9.03778970e-001 8.51167977e-001 8.35475028e-001
      8.31376016e-001 8.18795025e-001 8.64956021e-001 9.28840995e-001
      1.01385796e+000 1.08039796e+000 1.14662898e+000 1.22279894e+000
      1.28020501e+000 1.34060895e+000 1.40339899e+000 1.44777298e+000
      5.51469028e-001 5.33020973e-001 5.01263022e-001 4.82811987e-001
      4.67779994e-001 4.52847987e-001 4.26306993e-001 4.15838003e-001
      4.30646002e-001 4.46727991e-001 4.79054987e-001 5.11164010e-001
      5.74437976e-001 6.00732028e-001 6.18048012e-001 6.47135019e-001
      6.70562983e-001 7.16553986e-001 7.35639989e-001 7.48638988e-001</_>
    <_>
      3.07137799e+000 3.04869008e+000 3.00168610e+000 2.94817305e+000
      2.87555194e+000 2.78093410e+000 2.63990211e+000 2.55522203e+000
      2.51043105e+000 2.49498010e+000 2.50252295e+000 2.54077506e+000
      2.61622596e+000 2.76674294e+000 2.92534494e+000 3.04601598e+000
      3.12865901e+000 3.18349290e+000 3.22028399e+000 3.24138999e+000
      1.33223701e+000 1.30260706e+000 1.28159106e+000 1.25665295e+000
      1.21922302e+000 1.18930101e+000 1.15818095e+000 1.15266502e+000
      1.14290404e+000 1.13625503e+000 1.14823401e+000 1.17187500e+000
      1.20635796e+000 1.27051401e+000 1.30616200e+000 1.33525503e+000
      1.38734996e+000 1.41280901e+000 1.43789101e+000 1.47624195e+000
      6.88431978e-001 6.75759971e-001 6.53312981e-001 6.38364017e-001
      6.30972981e-001 6.27479017e-001 6.11500025e-001 6.06206000e-001
      6.04773998e-001 6.11365974e-001 6.27533019e-001 6.43697977e-001
      6.69007003e-001 7.02880979e-001 7.19080985e-001 7.29076982e-001
      7.44684994e-001 7.62024999e-001 7.83815026e-001 7.95480013e-001</_>
    <_>
      3.22405505e+000 3.22533798e+000 3.22279906e+000 3.21317601e+000
      3.19052601e+000 3.16209698e+000 3.12607789e+000 3.08161998e+000
      3.04299808e+000 2.99419904e+000 2.93913794e+000 2.92337704e+000
      2.99521804e+000 3.05727601e+000 3.10771608e+000 3.14762211e+000
      3.17290711e+000 3.18856406e+000 3.19779491e+000 3.19463611e+000
      1.43331599e+000 1.43155205e+000 1.41971004e+000 1.40267003e+000
      1.39886606e+000 1.38413405e+000 1.36453497e+000 1.36225498e+000
      1.35041404e+000 1.32714701e+000 1.32880294e+000 1.33588398e+000
      1.36888301e+000 1.37079000e+000 1.37819600e+000 1.40599799e+000
      1.40900004e+000 1.41897798e+000 1.44482696e+000 1.44816804e+000
      7.51933992e-001 7.45356023e-001 7.32369006e-001 7.31028974e-001
      7.30782986e-001 7.30356991e-001 7.18277991e-001 7.03134000e-001
      7.05410004e-001 7.05690026e-001 7.08657980e-001 7.11813986e-001
      7.37442970e-001 7.39921987e-001 7.41856992e-001 7.45189011e-001
      7.47263014e-001 7.65982985e-001 7.70641983e-001 7.71984994e-001</_>
    <_>
      3.13485503e+000 3.15858603e+000 3.16202211e+000 3.14026594e+000
      3.06858110e+000 2.95574307e+000 2.79564810e+000 2.58994102e+000
      2.34116411e+000 2.07547903e+000 1.86930799e+000 2.14887094e+000
      2.42338395e+000 2.68131399e+000 2.90973902e+000 3.09919000e+000
      3.23664594e+000 3.31514502e+000 3.33678102e+000 3.31428909e+000
      1.33171201e+000 1.33172297e+000 1.22724700e+000 1.23289502e+000
      1.22730899e+000 1.10067999e+000 1.09920394e+000 1.09104800e+000
      9.35644984e-001 9.32645023e-001 9.60523009e-001 1.14003694e+000
      1.13978803e+000 1.16660297e+000 1.32036102e+000 1.32216001e+000
      1.34330595e+000 1.46731496e+000 1.47171497e+000 1.48997498e+000
      7.62881994e-001 6.82573020e-001 6.84826016e-001 6.89449012e-001
      6.91393018e-001 6.84445024e-001 5.59152007e-001 5.61076999e-001
      5.62174976e-001 5.60052991e-001 5.80335021e-001 7.43337989e-001
      7.43853986e-001 7.45047987e-001 7.37222016e-001 7.47783005e-001
      8.61064970e-001 8.54214013e-001 8.48064005e-001 8.29801977e-001</_>
    <_>
      3.34010696e+000 3.34881091e+000 3.33297300e+000 3.28596902e+000
      3.20245695e+000 3.07789898e+000 2.92521095e+000 2.73190999e+000
      2.51533890e+000 2.28445697e+000 2.44763589e+000 2.60897899e+000
      2.76110792e+000 2.90739298e+000 3.01424909e+000 3.09192991e+000
      3.14769602e+000 3.14863992e+000 3.14555693e+000 3.13678598e+000
      1.51211298e+000 1.39611006e+000 1.40553200e+000 1.40964699e+000
      1.26492798e+000 1.27237701e+000 1.27315795e+000 1.10174000e+000
      1.10818994e+000 1.10148394e+000 1.19025505e+000 1.20933902e+000
      1.20519602e+000 1.28599799e+000 1.29482806e+000 1.29501700e+000
      1.37369800e+000 1.37037504e+000 1.36909497e+000 1.44613397e+000
      7.16364026e-001 7.16463983e-001 7.18865991e-001 7.14924991e-001
      7.18626976e-001 5.88963985e-001 5.83377004e-001 5.83096981e-001
      5.79923987e-001 5.85546017e-001 6.50493979e-001 6.51174009e-001
      6.48522973e-001 6.54577017e-001 6.60896003e-001 7.02440977e-001
      7.01321006e-001 6.98433995e-001 7.05425978e-001 7.14595973e-001</_>
    <_>
      3.22677588e+000 3.18173504e+000 3.09463692e+000 2.93863392e+000
      2.70052099e+000 2.38429189e+000 2.12113595e+000 1.94399905e+000
      1.83546400e+000 1.77577806e+000 1.75630200e+000 1.83656299e+000
      2.01030898e+000 2.29024696e+000 2.59943104e+000 2.86988592e+000
      3.06303501e+000 3.19512105e+000 3.27726603e+000 3.31619191e+000
      1.17270803e+000 1.08271098e+000 1.01247394e+000 9.26455975e-001
      8.23532999e-001 7.51012981e-001 7.05752015e-001 6.74875975e-001
      6.66243017e-001 6.65938020e-001 6.70861006e-001 7.27110982e-001
      7.94304013e-001 8.83078992e-001 9.77611005e-001 1.06842506e+000
      1.15287495e+000 1.23741698e+000 1.31689894e+000 1.38941705e+000
      5.45112014e-001 5.08551002e-001 4.51301008e-001 4.04567003e-001
      3.75903010e-001 3.53686005e-001 3.42485994e-001 3.38173002e-001
      3.38791996e-001 3.47016990e-001 3.57140988e-001 3.97058010e-001
      4.44577008e-001 5.05357027e-001 5.42151988e-001 5.69890976e-001
      6.03410006e-001 6.43399000e-001 6.88953996e-001 7.13739991e-001</_>
    <_>
      3.28464603e+000 3.31411600e+000 3.31515908e+000 3.27488399e+000
      3.19122195e+000 3.05452108e+000 2.87225008e+000 2.64481211e+000
      2.38658690e+000 2.10807705e+000 1.89974105e+000 2.13789701e+000
      2.37015605e+000 2.57455707e+000 2.75893688e+000 2.90243006e+000
      3.01659608e+000 3.07596898e+000 3.09113312e+000 3.08800697e+000
      1.39932799e+000 1.37519705e+000 1.26011097e+000 1.25756299e+000
      1.22571003e+000 1.08931303e+000 1.08954096e+000 1.05008805e+000
      8.97597015e-001 8.94472003e-001 8.98404002e-001 1.03718603e+000
      1.03486395e+000 1.03902304e+000 1.15889800e+000 1.15809500e+000
      1.16834795e+000 1.26151705e+000 1.26204801e+000 1.27953994e+000
      7.25920975e-001 6.33733988e-001 6.33081019e-001 6.33529007e-001
      6.33619010e-001 5.98309994e-001 4.77187008e-001 4.76752996e-001
      4.79662001e-001 4.79701996e-001 4.75995004e-001 5.73351979e-001
      5.73975980e-001 5.76533020e-001 5.76862991e-001 5.74241996e-001
      6.46229029e-001 6.44115984e-001 6.48531020e-001 6.54008985e-001</_>
    <_>
      3.19618297e+000 3.24391603e+000 3.23535991e+000 3.14273310e+000
      2.95618510e+000 2.69126892e+000 2.37284493e+000 2.02534389e+000
      1.67582905e+000 1.41611004e+000 1.76529801e+000 2.13045001e+000
      2.48899102e+000 2.81443191e+000 3.07669401e+000 3.26217198e+000
      3.36467600e+000 3.39407802e+000 3.37113905e+000 3.31871200e+000
      1.26651096e+000 1.08737195e+000 1.08523095e+000 1.05246699e+000
      8.96409988e-001 8.91921997e-001 8.41997027e-001 6.75243974e-001
      6.71832979e-001 6.64321005e-001 9.21195984e-001 9.21702981e-001
      9.23201978e-001 1.14975095e+000 1.15198398e+000 1.16080797e+000
      1.34698105e+000 1.34901500e+000 1.36313498e+000 1.49776900e+000
      5.67189991e-001 5.70715010e-001 5.70549011e-001 5.68929017e-001
      5.25934994e-001 3.97958010e-001 3.97359014e-001 3.94385993e-001
      3.94409001e-001 3.78280014e-001 6.02764010e-001 6.03942990e-001
      6.00569010e-001 6.00004971e-001 5.82369983e-001 7.40953028e-001
      7.41509974e-001 7.38211989e-001 7.37712979e-001 7.08850980e-001</_>
    <_>
      3.32838607e+000 3.33820009e+000 3.27217889e+000 3.18356705e+000
      2.98543096e+000 2.65587997e+000 2.23043108e+000 1.82053399e+000
      1.39042199e+000 1.04787600e+000 8.61131012e-001 1.32284904e+000
      1.80684805e+000 2.30879593e+000 2.73212409e+000 3.05994606e+000
      3.22344398e+000 3.26640797e+000 3.21996188e+000 3.13508797e+000
      1.14408803e+000 1.07831705e+000 9.35712993e-001 9.12006021e-001
      8.62066984e-001 6.89383984e-001 6.33198977e-001 6.07532024e-001
      4.11071986e-001 3.99361014e-001 4.64626014e-001 7.46258020e-001
      7.33941019e-001 8.02797973e-001 1.02863598e+000 1.02769899e+000
      1.08342302e+000 1.25330305e+000 1.24203503e+000 1.28109205e+000
      5.55464029e-001 4.34038013e-001 4.33432996e-001 4.58483011e-001
      4.04695988e-001 3.68259013e-001 2.10646003e-001 2.24794999e-001
      2.27245003e-001 2.15921998e-001 2.45031998e-001 4.67063010e-001
      4.71960992e-001 4.80928987e-001 4.79131997e-001 4.91955996e-001
      6.39356971e-001 6.41517997e-001 6.49941027e-001 6.70574009e-001</_>
    <_>
      3.05251789e+000 3.16089702e+000 3.23780298e+000 3.24859500e+000
      3.17691398e+000 3.02859902e+000 2.81183505e+000 2.56046510e+000
      2.28950906e+000 2.01553798e+000 1.86834896e+000 2.11068702e+000
      2.38876700e+000 2.65742493e+000 2.88041806e+000 3.05914998e+000
      3.17495394e+000 3.23689795e+000 3.24701095e+000 3.22316003e+000
      1.31900501e+000 1.29762602e+000 1.23918998e+000 1.22858703e+000
      1.19109905e+000 1.10681105e+000 1.09506500e+000 1.05781496e+000
      9.53881979e-001 9.42561984e-001 9.80027974e-001 1.10214698e+000
      1.11569405e+000 1.16068399e+000 1.25737596e+000 1.27260303e+000
      1.31078303e+000 1.38705504e+000 1.39691603e+000 1.43153000e+000
      6.85128987e-001 6.40383005e-001 6.26348972e-001 6.18865013e-001
      6.20392025e-001 5.90570986e-001 5.13581991e-001 5.06488025e-001
      4.99554992e-001 5.00685990e-001 5.30664980e-001 6.17516994e-001
      6.32435024e-001 6.36951029e-001 6.39544010e-001 6.66574001e-001
      7.24583030e-001 7.35687017e-001 7.41517007e-001 7.45634973e-001</_>
    <_>
      3.22861409e+000 3.22748399e+000 3.18849897e+000 3.10540605e+000
      2.96267200e+000 2.74522209e+000 2.54482293e+000 2.31312108e+000
      2.06925201e+000 1.86082399e+000 2.01921391e+000 2.31756306e+000
      2.60647297e+000 2.85028911e+000 3.03532290e+000 3.14822292e+000
      3.19972706e+000 3.19233489e+000 3.14930201e+000 3.08161092e+000
      1.30713999e+000 1.22704101e+000 1.18021405e+000 1.17359400e+000
      1.09874105e+000 1.03623796e+000 1.03291094e+000 9.69031990e-001
      8.85064006e-001 8.71371984e-001 1.05639195e+000 1.05938196e+000
      1.07430804e+000 1.21658397e+000 1.20970201e+000 1.23660100e+000
      1.33763802e+000 1.32333803e+000 1.33259106e+000 1.39874899e+000
      6.16223991e-001 5.94509006e-001 5.90867996e-001 5.75317025e-001
      5.48624992e-001 5.08265972e-001 4.94177014e-001 4.91317987e-001
      4.71129000e-001 4.28584993e-001 5.72193027e-001 6.13555014e-001
      6.17367983e-001 6.24632001e-001 6.00040019e-001 6.79341018e-001
      7.04895020e-001 7.06476986e-001 7.35239983e-001 7.25771010e-001</_>
    <_>
      2.87862992e+000 2.85139203e+000 2.82411790e+000 2.76291895e+000
      2.69270110e+000 2.64916706e+000 2.60411906e+000 2.48478198e+000
      2.28698301e+000 2.03558493e+000 1.94116497e+000 2.12275600e+000
      2.41350603e+000 2.68005610e+000 2.91501188e+000 3.11235309e+000
      3.25808001e+000 3.33457303e+000 3.35401797e+000 3.32626295e+000
      1.12005401e+000 1.07749200e+000 1.01670396e+000 1.00022697e+000
      9.71122980e-001 9.30097997e-001 9.26972985e-001 8.78683984e-001
      8.10886025e-001 7.99079001e-001 8.61478984e-001 9.84782994e-001
      1.04707098e+000 1.10719502e+000 1.22502506e+000 1.27430904e+000
      1.32597399e+000 1.42604399e+000 1.45941103e+000 1.49625194e+000
      5.59273005e-001 5.07654011e-001 5.04962027e-001 5.19524992e-001
      5.32339990e-001 5.05922973e-001 4.40097988e-001 4.32031989e-001
      4.31502014e-001 4.38520014e-001 4.90285993e-001 5.75581014e-001
      6.28938973e-001 6.26962006e-001 6.31470978e-001 6.69013023e-001
      7.35064030e-001 7.67673016e-001 7.61617005e-001 7.59714007e-001</_>
    <_>
      3.21962404e+000 3.19955707e+000 3.16998506e+000 3.11561799e+000
      2.99492407e+000 2.80414510e+000 2.55844688e+000 2.24591303e+000
      1.88112998e+000 1.55704498e+000 1.43788195e+000 1.46904302e+000
      1.66097701e+000 2.10625696e+000 2.52916193e+000 2.89444590e+000
      3.17218494e+000 3.33803296e+000 3.39321494e+000 3.37012506e+000
      1.19322097e+000 1.09998500e+000 1.07503498e+000 1.02555597e+000
      9.19889987e-001 8.78215015e-001 8.36215973e-001 7.09719002e-001
      6.40932024e-001 6.36734009e-001 6.40293002e-001 6.58071995e-001
      7.76557982e-001 9.57275987e-001 9.78138030e-001 1.08503604e+000
      1.22308004e+000 1.24295700e+000 1.33497298e+000 1.42799497e+000
      6.19508028e-001 5.66765010e-001 5.48852980e-001 5.14427006e-001
      5.00805020e-001 4.64711994e-001 4.01915014e-001 3.64876002e-001
      3.12518001e-001 3.28013986e-001 3.98258001e-001 4.09375995e-001
      4.74923998e-001 5.73723018e-001 5.81142008e-001 6.40263021e-001
      6.67738020e-001 6.91778004e-001 7.44808972e-001 7.46752977e-001</_>
    <_>
      3.22668195e+000 3.30113101e+000 3.35306001e+000 3.35162497e+000
      3.27178407e+000 3.09965491e+000 2.83620691e+000 2.51588202e+000
      2.15867996e+000 1.79797006e+000 1.54928505e+000 1.60777605e+000
      1.94921303e+000 2.30540800e+000 2.65169406e+000 2.95341110e+000
      3.18133497e+000 3.32033205e+000 3.37857890e+000 3.37136006e+000
      1.24954700e+000 1.23842597e+000 1.14582205e+000 1.08927405e+000
      1.05949402e+000 9.50173020e-001 8.93013000e-001 8.48043025e-001
      7.26745009e-001 6.76418006e-001 6.78474009e-001 7.69976020e-001
      9.11532998e-001 9.25320029e-001 1.01750505e+000 1.13861704e+000
      1.15803599e+000 1.24240804e+000 1.33296001e+000 1.35483098e+000
      6.22961998e-001 5.53439975e-001 5.20738006e-001 5.24159014e-001
      5.22132993e-001 4.84335989e-001 3.90987009e-001 3.54303986e-001
      3.57071996e-001 3.56954008e-001 3.52196008e-001 4.21943992e-001
      5.33855975e-001 5.40175021e-001 5.42469025e-001 5.44234991e-001
      6.01786017e-001 6.79753006e-001 6.83439016e-001 6.84777021e-001</_>
    <_>
      3.22637010e+000 3.19494510e+000 3.14774299e+000 3.09441590e+000
      3.02210498e+000 2.90136790e+000 2.82282305e+000 2.74302411e+000
      2.69863391e+000 2.66730309e+000 2.78059912e+000 2.91643596e+000
      3.01896501e+000 3.08725309e+000 3.11945105e+000 3.10323191e+000
      3.09164405e+000 3.05371499e+000 3.05121803e+000 3.03996491e+000
      1.40815997e+000 1.37949097e+000 1.37037301e+000 1.33419204e+000
      1.31483102e+000 1.29397202e+000 1.28466499e+000 1.28439295e+000
      1.28111005e+000 1.27336204e+000 1.34426403e+000 1.35908306e+000
      1.35915005e+000 1.40335798e+000 1.40735805e+000 1.41658700e+000
      1.45928895e+000 1.45962203e+000 1.47607303e+000 1.50190496e+000
      7.03256011e-001 6.84325993e-001 6.95082009e-001 7.07027018e-001
      6.93238020e-001 6.61625981e-001 6.61229014e-001 6.74234986e-001
      7.03644991e-001 6.81993008e-001 7.15295017e-001 7.27702975e-001
      7.37711012e-001 7.56394982e-001 7.46693015e-001 7.65263021e-001
      7.88968027e-001 7.89281011e-001 8.22704017e-001 8.18421006e-001</_>
    <_>
      2.93910599e+000 2.94552588e+000 2.97329092e+000 2.98215008e+000
      2.96540689e+000 2.93531799e+000 2.85787296e+000 2.76546597e+000
      2.64215112e+000 2.50610995e+000 2.37711692e+000 2.49572206e+000
      2.64737892e+000 2.79362106e+000 2.93843889e+000 3.07776594e+000
      3.18865299e+000 3.25816798e+000 3.26266289e+000 3.19361210e+000
      1.27671695e+000 1.28071105e+000 1.25243795e+000 1.25062597e+000
      1.25243998e+000 1.21752596e+000 1.20403099e+000 1.20988703e+000
      1.15436399e+000 1.14548302e+000 1.16259694e+000 1.23628700e+000
      1.24658895e+000 1.26149905e+000 1.30642796e+000 1.30743504e+000
      1.30894196e+000 1.32954001e+000 1.32661200e+000 1.30841899e+000
      6.57428980e-001 6.36524022e-001 6.27080977e-001 6.28206015e-001
      6.29736006e-001 6.32884979e-001 5.92029989e-001 5.80384016e-001
      5.79144001e-001 5.86426020e-001 5.99209011e-001 6.43275976e-001
      6.40756011e-001 6.43666029e-001 6.52032018e-001 6.50219023e-001
      6.66091979e-001 6.62002027e-001 6.63133025e-001 6.65199995e-001</_>
    <_>
      3.05251789e+000 3.16089702e+000 3.23780298e+000 3.24859500e+000
      3.17691398e+000 3.02859902e+000 2.81183505e+000 2.56046510e+000
      2.28950906e+000 2.01553798e+000 1.86834896e+000 2.11068702e+000
      2.38876700e+000 2.65742493e+000 2.88041806e+000 3.05914998e+000
      3.17495394e+000 3.23689795e+000 3.24701095e+000 3.22316003e+000
      1.31900501e+000 1.29762602e+000 1.23918998e+000 1.22858703e+000
      1.19109905e+000 1.10681105e+000 1.09506500e+000 1.05781496e+000
      9.53881979e-001 9.42561984e-001 9.80027974e-001 1.10214698e+000
      1.11569405e+000 1.16068399e+000 1.25737596e+000 1.27260303e+000
      1.31078303e+000 1.38705504e+000 1.39691603e+000 1.43153000e+000
      6.85128987e-001 6.40383005e-001 6.26348972e-001 6.18865013e-001
      6.20392025e-001 5.90570986e-001 5.13581991e-001 5.06488025e-001
      4.99554992e-001 5.00685990e-001 5.30664980e-001 6.17516994e-001
      6.32435024e-001 6.36951029e-001 6.39544010e-001 6.66574001e-001
      7.24583030e-001 7.35687017e-001 7.41517007e-001 7.45634973e-001</_>
    <_>
      3.22861409e+000 3.22748399e+000 3.18849897e+000 3.10540605e+000
      2.96267200e+000 2.74522209e+000 2.54482293e+000 2.31312108e+000
      2.06925201e+000 1.86082399e+000 2.01921391e+000 2.31756306e+000
      2.60647297e+000 2.85028911e+000 3.03532290e+000 3.14822292e+000
      3.19972706e+000 3.19233489e+000 3.14930201e+000 3.08161092e+000
      1.30713999e+000 1.22704101e+000 1.18021405e+000 1.17359400e+000
      1.09874105e+000 1.03623796e+000 1.03291094e+000 9.69031990e-001
      8.85064006e-001 8.71371984e-001 1.05639195e+000 1.05938196e+000
      1.07430804e+000 1.21658397e+000 1.20970201e+000 1.23660100e+000
      1.33763802e+000 1.32333803e+000 1.33259106e+000 1.39874899e+000
      6.16223991e-001 5.94509006e-001 5.90867996e-001 5.75317025e-001
      5.48624992e-001 5.08265972e-001 4.94177014e-001 4.91317987e-001
      4.71129000e-001 4.28584993e-001 5.72193027e-001 6.13555014e-001
      6.17367983e-001 6.24632001e-001 6.00040019e-001 6.79341018e-001
      7.04895020e-001 7.06476986e-001 7.35239983e-001 7.25771010e-001</_>
    <_>
      2.87862992e+000 2.85139203e+000 2.82411790e+000 2.76291895e+000
      2.69270110e+000 2.64916706e+000 2.60411906e+000 2.48478198e+000
      2.28698301e+000 2.03558493e+000 1.94116497e+000 2.12275600e+000
      2.41350603e+000 2.68005610e+000 2.91501188e+000 3.11235309e+000
      3.25808001e+000 3.33457303e+000 3.35401797e+000 3.32626295e+000
      1.12005401e+000 1.07749200e+000 1.01670396e+000 1.00022697e+000
      9.71122980e-001 9.30097997e-001 9.26972985e-001 8.78683984e-001
      8.10886025e-001 7.99079001e-001 8.61478984e-001 9.84782994e-001
      1.04707098e+000 1.10719502e+000 1.22502506e+000 1.27430904e+000
      1.32597399e+000 1.42604399e+000 1.45941103e+000 1.49625194e+000
      5.59273005e-001 5.07654011e-001 5.04962027e-001 5.19524992e-001
      5.32339990e-001 5.05922973e-001 4.40097988e-001 4.32031989e-001
      4.31502014e-001 4.38520014e-001 4.90285993e-001 5.75581014e-001
      6.28938973e-001 6.26962006e-001 6.31470978e-001 6.69013023e-001
      7.35064030e-001 7.67673016e-001 7.61617005e-001 7.59714007e-001</_>
    <_>
      3.21962404e+000 3.19955707e+000 3.16998506e+000 3.11561799e+000
      2.99492407e+000 2.80414510e+000 2.55844688e+000 2.24591303e+000
      1.88112998e+000 1.55704498e+000 1.43788195e+000 1.46904302e+000
      1.66097701e+000 2.10625696e+000 2.52916193e+000 2.89444590e+000
      3.17218494e+000 3.33803296e+000 3.39321494e+000 3.37012506e+000
      1.19322097e+000 1.09998500e+000 1.07503498e+000 1.02555597e+000
      9.19889987e-001 8.78215015e-001 8.36215973e-001 7.09719002e-001
      6.40932024e-001 6.36734009e-001 6.40293002e-001 6.58071995e-001
      7.76557982e-001 9.57275987e-001 9.78138030e-001 1.08503604e+000
      1.22308004e+000 1.24295700e+000 1.33497298e+000 1.42799497e+000
      6.19508028e-001 5.66765010e-001 5.48852980e-001 5.14427006e-001
      5.00805020e-001 4.64711994e-001 4.01915014e-001 3.64876002e-001
      3.12518001e-001 3.28013986e-001 3.98258001e-001 4.09375995e-001
      4.74923998e-001 5.73723018e-001 5.81142008e-001 6.40263021e-001
      6.67738020e-001 6.91778004e-001 7.44808972e-001 7.46752977e-001</_>
    <_>
      3.22668195e+000 3.30113101e+000 3.35306001e+000 3.35162497e+000
      3.27178407e+000 3.09965491e+000 2.83620691e+000 2.51588202e+000
      2.15867996e+000 1.79797006e+000 1.54928505e+000 1.60777605e+000
      1.94921303e+000 2.30540800e+000 2.65169406e+000 2.95341110e+000
      3.18133497e+000 3.32033205e+000 3.37857890e+000 3.37136006e+000
      1.24954700e+000 1.23842597e+000 1.14582205e+000 1.08927405e+000
      1.05949402e+000 9.50173020e-001 8.93013000e-001 8.48043025e-001
      7.26745009e-001 6.76418006e-001 6.78474009e-001 7.69976020e-001
      9.11532998e-001 9.25320029e-001 1.01750505e+000 1.13861704e+000
      1.15803599e+000 1.24240804e+000 1.33296001e+000 1.35483098e+000
      6.22961998e-001 5.53439975e-001 5.20738006e-001 5.24159014e-001
      5.22132993e-001 4.84335989e-001 3.90987009e-001 3.54303986e-001
      3.57071996e-001 3.56954008e-001 3.52196008e-001 4.21943992e-001
      5.33855975e-001 5.40175021e-001 5.42469025e-001 5.44234991e-001
      6.01786017e-001 6.79753006e-001 6.83439016e-001 6.84777021e-001</_>
    <_>
      3.22637010e+000 3.19494510e+000 3.14774299e+000 3.09441590e+000
      3.02210498e+000 2.90136790e+000 2.82282305e+000 2.74302411e+000
      2.69863391e+000 2.66730309e+000 2.78059912e+000 2.91643596e+000
      3.01896501e+000 3.08725309e+000 3.11945105e+000 3.10323191e+000
      3.09164405e+000 3.05371499e+000 3.05121803e+000 3.03996491e+000
      1.40815997e+000 1.37949097e+000 1.37037301e+000 1.33419204e+000
      1.31483102e+000 1.29397202e+000 1.28466499e+000 1.28439295e+000
      1.28111005e+000 1.27336204e+000 1.34426403e+000 1.35908306e+000
      1.35915005e+000 1.40335798e+000 1.40735805e+000 1.41658700e+000
      1.45928895e+000 1.45962203e+000 1.47607303e+000 1.50190496e+000
      7.03256011e-001 6.84325993e-001 6.95082009e-001 7.07027018e-001
      6.93238020e-001 6.61625981e-001 6.61229014e-001 6.74234986e-001
      7.03644991e-001 6.81993008e-001 7.15295017e-001 7.27702975e-001
      7.37711012e-001 7.56394982e-001 7.46693015e-001 7.65263021e-001
      7.88968027e-001 7.89281011e-001 8.22704017e-001 8.18421006e-001</_>
    <_>
      2.93910599e+000 2.94552588e+000 2.97329092e+000 2.98215008e+000
      2.96540689e+000 2.93531799e+000 2.85787296e+000 2.76546597e+000
      2.64215112e+000 2.50610995e+000 2.37711692e+000 2.49572206e+000
      2.64737892e+000 2.79362106e+000 2.93843889e+000 3.07776594e+000
      3.18865299e+000 3.25816798e+000 3.26266289e+000 3.19361210e+000
      1.27671695e+000 1.28071105e+000 1.25243795e+000 1.25062597e+000
      1.25243998e+000 1.21752596e+000 1.20403099e+000 1.20988703e+000
      1.15436399e+000 1.14548302e+000 1.16259694e+000 1.23628700e+000
      1.24658895e+000 1.26149905e+000 1.30642796e+000 1.30743504e+000
      1.30894196e+000 1.32954001e+000 1.32661200e+000 1.30841899e+000
      6.57428980e-001 6.36524022e-001 6.27080977e-001 6.28206015e-001
      6.29736006e-001 6.32884979e-001 5.92029989e-001 5.80384016e-001
      5.79144001e-001 5.86426020e-001 5.99209011e-001 6.43275976e-001
      6.40756011e-001 6.43666029e-001 6.52032018e-001 6.50219023e-001
      6.66091979e-001 6.62002027e-001 6.63133025e-001 6.65199995e-001</_>
    <_>
      3.05251789e+000 3.16089702e+000 3.23780298e+000 3.24859500e+000
      3.17691398e+000 3.02859902e+000 2.81183505e+000 2.56046510e+000
      2.28950906e+000 2.01553798e+000 1.86834896e+000 2.11068702e+000
      2.38876700e+000 2.65742493e+000 2.88041806e+000 3.05914998e+000
      3.17495394e+000 3.23689795e+000 3.24701095e+000 3.22316003e+000
      1.31900501e+000 1.29762602e+000 1.23918998e+000 1.22858703e+000
      1.19109905e+000 1.10681105e+000 1.09506500e+000 1.05781496e+000
      9.53881979e-001 9.42561984e-001 9.80027974e-001 1.10214698e+000
      1.11569405e+000 1.16068399e+000 1.25737596e+000 1.27260303e+000
      1.31078303e+000 1.38705504e+000 1.39691603e+000 1.43153000e+000
      6.85128987e-001 6.40383005e-001 6.26348972e-001 6.18865013e-001
      6.20392025e-001 5.90570986e-001 5.13581991e-001 5.06488025e-001
      4.99554992e-001 5.00685990e-001 5.30664980e-001 6.17516994e-001
      6.32435024e-001 6.36951029e-001 6.39544010e-001 6.66574001e-001
      7.24583030e-001 7.35687017e-001 7.41517007e-001 7.45634973e-001</_>
    <_>
      3.22861409e+000 3.22748399e+000 3.18849897e+000 3.10540605e+000
      2.96267200e+000 2.74522209e+000 2.54482293e+000 2.31312108e+000
      2.06925201e+000 1.86082399e+000 2.01921391e+000 2.31756306e+000
      2.60647297e+000 2.85028911e+000 3.03532290e+000 3.14822292e+000
      3.19972706e+000 3.19233489e+000 3.14930201e+000 3.08161092e+000
      1.30713999e+000 1.22704101e+000 1.18021405e+000 1.17359400e+000
      1.09874105e+000 1.03623796e+000 1.03291094e+000 9.69031990e-001
      8.85064006e-001 8.71371984e-001 1.05639195e+000 1.05938196e+000
      1.07430804e+000 1.21658397e+000 1.20970201e+000 1.23660100e+000
      1.33763802e+000 1.32333803e+000 1.33259106e+000 1.39874899e+000
      6.16223991e-001 5.94509006e-001 5.90867996e-001 5.75317025e-001
      5.48624992e-001 5.08265972e-001 4.94177014e-001 4.91317987e-001
      4.71129000e-001 4.28584993e-001 5.72193027e-001 6.13555014e-001
      6.17367983e-001 6.24632001e-001 6.00040019e-001 6.79341018e-001
      7.04895020e-001 7.06476986e-001 7.35239983e-001 7.25771010e-001</_>
    <_>
      2.87862992e+000 2.85139203e+000 2.82411790e+000 2.76291895e+000
      2.69270110e+000 2.64916706e+000 2.60411906e+000 2.48478198e+000
      2.28698301e+000 2.03558493e+000 1.94116497e+000 2.12275600e+000
      2.41350603e+000 2.68005610e+000 2.91501188e+000 3.11235309e+000
      3.25808001e+000 3.33457303e+000 3.35401797e+000 3.32626295e+000
      1.12005401e+000 1.07749200e+000 1.01670396e+000 1.00022697e+000
      9.71122980e-001 9.30097997e-001 9.26972985e-001 8.78683984e-001
      8.10886025e-001 7.99079001e-001 8.61478984e-001 9.84782994e-001
      1.04707098e+000 1.10719502e+000 1.22502506e+000 1.27430904e+000
      1.32597399e+000 1.42604399e+000 1.45941103e+000 1.49625194e+000
      5.59273005e-001 5.07654011e-001 5.04962027e-001 5.19524992e-001
      5.32339990e-001 5.05922973e-001 4.40097988e-001 4.32031989e-001
      4.31502014e-001 4.38520014e-001 4.90285993e-001 5.75581014e-001
      6.28938973e-001 6.26962006e-001 6.31470978e-001 6.69013023e-001
      7.35064030e-001 7.67673016e-001 7.61617005e-001 7.59714007e-001</_>
    <_>
      3.22668195e+000 3.30113101e+000 3.35306001e+000 3.35162497e+000
      3.27178407e+000 3.09965491e+000 2.83620691e+000 2.51588202e+000
      2.15867996e+000 1.79797006e+000 1.54928505e+000 1.60777605e+000
      1.94921303e+000 2.30540800e+000 2.65169406e+000 2.95341110e+000
      3.18133497e+000 3.32033205e+000 3.37857890e+000 3.37136006e+000
      1.24954700e+000 1.23842597e+000 1.14582205e+000 1.08927405e+000
      1.05949402e+000 9.50173020e-001 8.93013000e-001 8.48043025e-001
      7.26745009e-001 6.76418006e-001 6.78474009e-001 7.69976020e-001
      9.11532998e-001 9.25320029e-001 1.01750505e+000 1.13861704e+000
      1.15803599e+000 1.24240804e+000 1.33296001e+000 1.35483098e+000
      6.22961998e-001 5.53439975e-001 5.20738006e-001 5.24159014e-001
      5.22132993e-001 4.84335989e-001 3.90987009e-001 3.54303986e-001
      3.57071996e-001 3.56954008e-001 3.52196008e-001 4.21943992e-001
      5.33855975e-001 5.40175021e-001 5.42469025e-001 5.44234991e-001
      6.01786017e-001 6.79753006e-001 6.83439016e-001 6.84777021e-001</_>
    <_>
      3.22637010e+000 3.19494510e+000 3.14774299e+000 3.09441590e+000
      3.02210498e+000 2.90136790e+000 2.82282305e+000 2.74302411e+000
      2.69863391e+000 2.66730309e+000 2.78059912e+000 2.91643596e+000
      3.01896501e+000 3.08725309e+000 3.11945105e+000 3.10323191e+000
      3.09164405e+000 3.05371499e+000 3.05121803e+000 3.03996491e+000
      1.40815997e+000 1.37949097e+000 1.37037301e+000 1.33419204e+000
      1.31483102e+000 1.29397202e+000 1.28466499e+000 1.28439295e+000
      1.28111005e+000 1.27336204e+000 1.34426403e+000 1.35908306e+000
      1.35915005e+000 1.40335798e+000 1.40735805e+000 1.41658700e+000
      1.45928895e+000 1.45962203e+000 1.47607303e+000 1.50190496e+000
      7.03256011e-001 6.84325993e-001 6.95082009e-001 7.07027018e-001
      6.93238020e-001 6.61625981e-001 6.61229014e-001 6.74234986e-001
      7.03644991e-001 6.81993008e-001 7.15295017e-001 7.27702975e-001
      7.37711012e-001 7.56394982e-001 7.46693015e-001 7.65263021e-001
      7.88968027e-001 7.89281011e-001 8.22704017e-001 8.18421006e-001</_>
    <_>
      2.93910599e+000 2.94552588e+000 2.97329092e+000 2.98215008e+000
      2.96540689e+000 2.93531799e+000 2.85787296e+000 2.76546597e+000
      2.64215112e+000 2.50610995e+000 2.37711692e+000 2.49572206e+000
      2.64737892e+000 2.79362106e+000 2.93843889e+000 3.07776594e+000
      3.18865299e+000 3.25816798e+000 3.26266289e+000 3.19361210e+000
      1.27671695e+000 1.28071105e+000 1.25243795e+000 1.25062597e+000
      1.25243998e+000 1.21752596e+000 1.20403099e+000 1.20988703e+000
      1.15436399e+000 1.14548302e+000 1.16259694e+000 1.23628700e+000
      1.24658895e+000 1.26149905e+000 1.30642796e+000 1.30743504e+000
      1.30894196e+000 1.32954001e+000 1.32661200e+000 1.30841899e+000
      6.57428980e-001 6.36524022e-001 6.27080977e-001 6.28206015e-001
      6.29736006e-001 6.32884979e-001 5.92029989e-001 5.80384016e-001
      5.79144001e-001 5.86426020e-001 5.99209011e-001 6.43275976e-001
      6.40756011e-001 6.43666029e-001 6.52032018e-001 6.50219023e-001
      6.66091979e-001 6.62002027e-001 6.63133025e-001 6.65199995e-001</_></support_vectors>
  <decision_functions>
    <_>
      <sv_count>48</sv_count>
      <rho>-1.6431341371490866e+000</rho>
      <alpha>
        8. 8. 8. 1.5008970024270468e-001 1.6108473135070622e+000
        3.0287040064303032e+000 2.6979750593176073e+000
        3.4003911818845411e+000 8. 1.5086939180056316e+000
        5.3791919983470446e+000 8. 8. 4.3048137072179058e+000
        2.9720793783208932e+000 5.2673898207305081e+000 8. 8. 8. 8. 8.
        4.0914045175775655e+000 8. 8. 3.2536440827331119e+000
        4.5716062897622143e+000 8. -3.0669039307719728e+000 -8. -8.
        -7.5844147924166663e+000 -7.0059843300248854e+000
        -7.9984973884189960e+000 -8. -8. -8. -8. -8.
        -6.5946021929689982e+000 -8. -8. -8. -8. -8.
        -6.4822105218134656e+000 -3.5042178176620973e+000 -8. -8.</alpha>
      <index>
        0 1 2 3 4 5 6 7 8 9 10 11 12 13 14 15 16 17 18 19 20 21 22 23 24
        25 26 27 28 29 30 31 32 33 34 35 36 37 38 39 40 41 42 43 44 45
        46 47</index></_></decision_functions></my_svm>
</opencv_storage>
