<?xml version="1.0"?>
<opencv_storage>
<my_svm type_id="opencv-ml-svm">
  <svm_type>C_SVC</svm_type>
  <kernel><type>RBF</type>
    <gamma>4.</gamma></kernel>
  <C>8.</C>
  <term_criteria><epsilon>2.2204460492503131e-016</epsilon>
    <iterations>10000</iterations></term_criteria>
  <var_all>20</var_all>
  <var_count>20</var_count>
  <class_count>2</class_count>
  <class_labels type_id="opencv-matrix">
    <rows>1</rows>
    <cols>2</cols>
    <dt>i</dt>
    <data>
      0 1</data></class_labels>
  <sv_total>42</sv_total>
  <support_vectors>
    <_>
      6.20001018e-001 6.10783994e-001 6.10925972e-001 6.11730993e-001
      5.95683992e-001 5.78456998e-001 5.63562989e-001 5.58466971e-001
      5.57524979e-001 5.55854976e-001 5.56605995e-001 5.73123991e-001
      5.86410999e-001 5.97325027e-001 6.25434995e-001 6.29648983e-001
      6.67312980e-001 6.79651022e-001 6.88710988e-001 7.09798992e-001</_>
    <_>
      6.93132997e-001 6.92224979e-001 6.87171996e-001 6.86398029e-001
      6.55613005e-001 5.50432026e-001 5.50006986e-001 5.46419978e-001
      5.43698013e-001 5.50970972e-001 6.25694990e-001 6.27524018e-001
      6.24468982e-001 6.26026988e-001 6.28687024e-001 6.78246021e-001
      6.80579007e-001 6.81132019e-001 6.81554973e-001 6.77519023e-001</_>
    <_>
      5.89789987e-001 5.85862994e-001 5.82844973e-001 5.78096986e-001
      5.78926027e-001 4.81676012e-001 4.81115997e-001 4.82122988e-001
      4.81319010e-001 4.80637014e-001 6.43552005e-001 6.41551018e-001
      6.43190026e-001 6.40689015e-001 6.40681028e-001 7.52044976e-001
      7.52745986e-001 7.53531992e-001 7.53140986e-001 7.53686011e-001</_>
    <_>
      6.79367006e-001 6.79772019e-001 6.71787977e-001 6.58436000e-001
      6.19051993e-001 6.14057004e-001 6.13418996e-001 6.16324008e-001
      6.22395992e-001 6.76371992e-001 6.76261008e-001 6.77797019e-001
      6.81244016e-001 6.86231971e-001 7.21529007e-001 7.22684026e-001
      7.25844026e-001 7.30672002e-001 7.34929025e-001 7.56797016e-001</_>
    <_>
      7.56380975e-001 7.42200017e-001 7.45939016e-001 7.43552029e-001
      7.64454007e-001 7.71354973e-001 7.56507993e-001 7.56250024e-001
      7.58198977e-001 7.77103007e-001 7.80825019e-001 7.71844983e-001
      8.03367019e-001 8.18553984e-001 8.36968005e-001 8.57223988e-001
      8.48206997e-001 8.57053995e-001 8.60875010e-001 8.77340019e-001</_>
    <_>
      7.68176019e-001 7.61775017e-001 7.58870006e-001 7.53140986e-001
      7.50747979e-001 7.43036985e-001 7.44867027e-001 7.41204977e-001
      7.42402971e-001 7.41069019e-001 7.52210021e-001 7.63942003e-001
      7.78450012e-001 7.81992972e-001 7.81158984e-001 7.85381973e-001
      7.92954981e-001 8.00595999e-001 8.01210999e-001 7.96512008e-001</_>
    <_>
      5.89869976e-001 5.68754017e-001 5.57720006e-001 5.58308005e-001
      5.69297016e-001 5.61356008e-001 5.47224998e-001 5.39716005e-001
      5.38941979e-001 5.73055983e-001 5.95553994e-001 5.97249985e-001
      6.08204007e-001 6.15845978e-001 6.40843987e-001 6.64005995e-001
      6.75921023e-001 6.95192993e-001 7.17410982e-001 7.47636020e-001</_>
    <_>
      6.22869015e-001 6.17461979e-001 6.17528975e-001 6.16828978e-001
      5.46422005e-001 5.49018979e-001 5.45687020e-001 5.31422019e-001
      5.29244006e-001 6.79709017e-001 6.81842983e-001 6.81335986e-001
      6.80571973e-001 6.76953018e-001 7.83083975e-001 7.84593999e-001
      7.86940992e-001 7.92659998e-001 7.90533006e-001 8.55817020e-001</_>
    <_>
      6.76591992e-001 5.25050998e-001 5.25569975e-001 5.27903020e-001
      5.32603025e-001 5.32576025e-001 3.37460995e-001 3.40615988e-001
      3.40932012e-001 3.42525989e-001 3.46926987e-001 5.40796995e-001
      5.43081999e-001 5.41060984e-001 5.40847003e-001 5.42020023e-001
      6.80476010e-001 6.79804027e-001 6.78433001e-001 6.77329004e-001</_>
    <_>
      5.27239978e-001 5.27853012e-001 5.33170998e-001 5.35040021e-001
      5.38779020e-001 4.43529993e-001 4.43576992e-001 4.45533007e-001
      4.46814001e-001 4.45971996e-001 6.22089982e-001 6.22884989e-001
      6.24068975e-001 6.25518978e-001 6.24835014e-001 7.52855003e-001
      7.52775013e-001 7.55177975e-001 7.56402016e-001 7.56928980e-001</_>
    <_>
      5.77409029e-001 5.74617982e-001 5.74202001e-001 5.74185014e-001
      5.50508022e-001 4.07160014e-001 4.03046995e-001 4.02480990e-001
      4.02312994e-001 4.05454993e-001 5.58252990e-001 5.57910025e-001
      5.56083977e-001 5.54588974e-001 5.58570981e-001 6.73142016e-001
      6.70885026e-001 6.69290006e-001 6.70508981e-001 6.74984992e-001</_>
    <_>
      5.28490007e-001 4.90015000e-001 4.92536008e-001 4.75461990e-001
      3.95379990e-001 3.50630999e-001 2.95933008e-001 2.95643002e-001
      2.70150989e-001 2.99791008e-001 3.40131998e-001 3.70905012e-001
      3.69821012e-001 4.10797000e-001 4.59904999e-001 5.09540975e-001
      5.70546985e-001 5.72066009e-001 6.03794992e-001 6.43610001e-001</_>
    <_>
      7.01703012e-001 6.98545992e-001 6.94611013e-001 7.03963995e-001
      6.95614994e-001 6.80992007e-001 6.69610977e-001 6.67171001e-001
      6.68715000e-001 6.80944026e-001 6.90505028e-001 7.02778995e-001
      7.18131006e-001 7.34911978e-001 7.51899004e-001 7.73836017e-001
      7.89728999e-001 8.02416027e-001 8.04351985e-001 7.95422971e-001</_>
    <_>
      6.05656028e-001 6.24309003e-001 6.25602007e-001 6.13779008e-001
      6.05660021e-001 6.08833015e-001 6.06768012e-001 6.04161024e-001
      6.04398012e-001 6.02841973e-001 6.08560979e-001 7.21427023e-001
      7.27952003e-001 7.38186002e-001 7.48724997e-001 7.58180022e-001
      8.31990004e-001 8.36820006e-001 8.48520994e-001 8.57008994e-001</_>
    <_>
      5.86399972e-001 5.88841975e-001 5.85941970e-001 5.83880007e-001
      3.85028988e-001 3.84564996e-001 3.85226011e-001 3.81920010e-001
      3.80876988e-001 5.20178020e-001 5.18146992e-001 5.22777975e-001
      5.29841006e-001 5.36894977e-001 6.44829988e-001 6.40830994e-001
      6.47386014e-001 6.56651020e-001 6.60727978e-001 7.41663992e-001</_>
    <_>
      5.03719985e-001 5.03969014e-001 5.09277999e-001 5.08952022e-001
      5.07470012e-001 3.46587002e-001 3.44862014e-001 3.45741004e-001
      3.46062988e-001 3.44377995e-001 5.50446987e-001 5.49673975e-001
      5.51656008e-001 5.52029014e-001 5.48651993e-001 6.97084010e-001
      6.91996992e-001 6.93045020e-001 6.91884995e-001 6.86846972e-001</_>
    <_>
      6.07982993e-001 5.16277015e-001 5.31352997e-001 5.35854995e-001
      5.56285977e-001 5.15618980e-001 3.70231986e-001 3.91149014e-001
      3.97848994e-001 4.04085994e-001 3.98591995e-001 6.03610992e-001
      6.26287997e-001 6.34299994e-001 6.34405017e-001 6.28807008e-001
      7.81185985e-001 8.06149006e-001 8.12420011e-001 8.08659971e-001</_>
    <_>
      6.73177004e-001 6.60699010e-001 6.34657979e-001 6.10423982e-001
      5.73269010e-001 5.38327992e-001 5.19674003e-001 5.14658988e-001
      5.30420005e-001 5.64704001e-001 6.04960024e-001 6.29962981e-001
      6.56085014e-001 6.69986010e-001 7.04626024e-001 7.35531986e-001
      7.52716005e-001 7.73015976e-001 7.81524003e-001 8.08349013e-001</_>
    <_>
      5.88962018e-001 5.91552019e-001 5.78411996e-001 5.85390985e-001
      5.80385029e-001 5.81319988e-001 5.79822004e-001 5.87249994e-001
      5.85555017e-001 5.88815987e-001 6.21075988e-001 6.37812018e-001
      6.44872010e-001 6.54092014e-001 6.78655982e-001 6.97347999e-001
      7.17875004e-001 7.36311018e-001 7.40561008e-001 7.63175011e-001</_>
    <_>
      5.33020973e-001 5.01263022e-001 4.82811987e-001 4.67779994e-001
      4.52847987e-001 4.26306993e-001 4.15838003e-001 4.30646002e-001
      4.46727991e-001 4.79054987e-001 5.11164010e-001 5.74437976e-001
      6.00732028e-001 6.18048012e-001 6.47135019e-001 6.70562983e-001
      7.16553986e-001 7.35639989e-001 7.48638988e-001 7.70668983e-001</_>
    <_>
      6.46762013e-001 5.72974026e-001 5.64512014e-001 5.31383991e-001
      5.11444986e-001 5.01554012e-001 4.90159988e-001 4.74682987e-001
      4.77979988e-001 4.79804993e-001 4.95974988e-001 5.26462018e-001
      5.58597028e-001 6.04700983e-001 6.19596004e-001 6.38378978e-001
      6.61909997e-001 6.84350014e-001 7.12222993e-001 7.18532979e-001</_>
    <_>
      6.65476024e-001 6.47989988e-001 6.26793981e-001 6.17139995e-001
      6.04121983e-001 5.94425976e-001 5.94554007e-001 5.86862028e-001
      5.96092999e-001 6.10762000e-001 6.13565981e-001 6.17267013e-001
      6.21991992e-001 6.30021989e-001 6.56355977e-001 6.53774023e-001
      6.50593996e-001 6.51979029e-001 6.62671983e-001 6.84219003e-001</_>
    <_>
      6.82573020e-001 6.84826016e-001 6.89449012e-001 6.91393018e-001
      6.84445024e-001 5.59152007e-001 5.61076999e-001 5.62174976e-001
      5.60052991e-001 5.80335021e-001 7.43337989e-001 7.43853986e-001
      7.45047987e-001 7.37222016e-001 7.47783005e-001 8.61064970e-001
      8.54214013e-001 8.48064005e-001 8.29801977e-001 8.28540027e-001</_>
    <_>
      6.10476017e-001 5.81638992e-001 5.63149989e-001 5.41139007e-001
      5.26246011e-001 5.26022971e-001 5.05523026e-001 4.92655009e-001
      4.90749002e-001 5.39442003e-001 5.92215002e-001 6.23740017e-001
      6.31942987e-001 6.02259994e-001 6.27655983e-001 6.40870988e-001
      6.54317975e-001 6.46511018e-001 6.08808994e-001 6.21137023e-001</_>
    <_>
      3.74096006e-001 3.58718991e-001 3.31663996e-001 3.13876003e-001
      1.87557995e-001 1.89536005e-001 1.89885005e-001 1.85811996e-001
      1.83715001e-001 5.26726007e-001 5.35152018e-001 5.36008000e-001
      5.37057996e-001 5.44580996e-001 7.95958996e-001 8.06614995e-001
      8.14809024e-001 8.26224983e-001 8.42037022e-001 9.88817990e-001</_>
    <_>
      7.35467017e-001 7.29156971e-001 7.20979989e-001 7.34965026e-001
      7.36500978e-001 7.28084981e-001 7.20130980e-001 7.14379013e-001
      7.18500972e-001 7.28492022e-001 7.27964997e-001 7.32156992e-001
      7.31530011e-001 7.31935978e-001 7.49931991e-001 7.55017996e-001
      7.66966999e-001 7.69348979e-001 7.75888026e-001 7.87579000e-001</_>
    <_>
      5.08551002e-001 4.51301008e-001 4.04567003e-001 3.75903010e-001
      3.53686005e-001 3.42485994e-001 3.38173002e-001 3.38791996e-001
      3.47016990e-001 3.57140988e-001 3.97058010e-001 4.44577008e-001
      5.05357027e-001 5.42151988e-001 5.69890976e-001 6.03410006e-001
      6.43399000e-001 6.88953996e-001 7.13739991e-001 7.33582973e-001</_>
    <_>
      6.81792974e-001 6.78744018e-001 6.75863028e-001 6.70677006e-001
      5.20968020e-001 5.19689023e-001 5.18499970e-001 5.15110016e-001
      5.09553015e-001 6.09768987e-001 6.06082976e-001 6.05199993e-001
      6.06818020e-001 6.03649974e-001 6.66550994e-001 6.49860024e-001
      6.49713993e-001 6.48887992e-001 6.44994974e-001 6.84628010e-001</_>
    <_>
      4.55388993e-001 4.52991992e-001 4.43560004e-001 4.49900001e-001
      4.37370002e-001 4.34439003e-001 4.36720014e-001 4.47495997e-001
      4.49869007e-001 4.57825989e-001 4.73520994e-001 4.80868995e-001
      5.27410984e-001 5.56079984e-001 6.08367026e-001 6.56513989e-001
      6.90613985e-001 7.34203994e-001 7.53149986e-001 7.89862990e-001</_>
    <_>
      5.70715010e-001 5.70549011e-001 5.68929017e-001 5.25934994e-001
      3.97958010e-001 3.97359014e-001 3.94385993e-001 3.94409001e-001
      3.78280014e-001 6.02764010e-001 6.03942990e-001 6.00569010e-001
      6.00004971e-001 5.82369983e-001 7.40953028e-001 7.41509974e-001
      7.38211989e-001 7.37712979e-001 7.08850980e-001 8.08193028e-001</_>
    <_>
      4.49090004e-001 4.28310007e-001 4.03717995e-001 4.04875010e-001
      3.97482991e-001 2.70682991e-001 2.60416001e-001 2.58322001e-001
      2.67304987e-001 2.95406997e-001 4.85958010e-001 5.13378978e-001
      5.08431017e-001 5.13315022e-001 5.30709982e-001 6.73094988e-001
      6.92686021e-001 6.94624007e-001 6.85908973e-001 7.01884985e-001</_>
    <_>
      6.10367000e-001 6.03164017e-001 5.83833992e-001 5.66443980e-001
      5.24717987e-001 5.21604002e-001 5.16350985e-001 5.24517000e-001
      5.37204027e-001 5.28186977e-001 5.51091015e-001 5.39663970e-001
      5.55652976e-001 5.89359999e-001 6.34853005e-001 6.52495980e-001
      6.57980025e-001 6.69054985e-001 6.93991005e-001 7.29560971e-001</_>
    <_>
      5.78361988e-001 5.27484000e-001 5.20798981e-001 5.07763982e-001
      5.18616974e-001 5.27711987e-001 4.79626000e-001 4.82414007e-001
      4.71828997e-001 4.95655000e-001 5.33863008e-001 6.82530999e-001
      7.06068993e-001 7.05314994e-001 7.21391022e-001 7.48811007e-001
      8.45311999e-001 8.52986991e-001 8.58641028e-001 8.67595017e-001</_>
    <_>
      4.83855993e-001 4.64233994e-001 4.46796000e-001 4.59553003e-001
      4.62642014e-001 3.99399996e-001 3.87035012e-001 3.78755003e-001
      3.84638011e-001 4.13650990e-001 5.40491998e-001 5.62994003e-001
      5.63624024e-001 5.67791998e-001 5.90698004e-001 6.87421978e-001
      7.05018997e-001 7.09547997e-001 7.13792026e-001 7.28231013e-001</_>
    <_>
      4.34038013e-001 4.33432996e-001 4.58483011e-001 4.04695988e-001
      3.68259013e-001 2.10646003e-001 2.24794999e-001 2.27245003e-001
      2.15921998e-001 2.45031998e-001 4.67063010e-001 4.71960992e-001
      4.80928987e-001 4.79131997e-001 4.91955996e-001 6.39356971e-001
      6.41517997e-001 6.49941027e-001 6.70574009e-001 6.54025972e-001</_>
    <_>
      6.40383005e-001 6.26348972e-001 6.18865013e-001 6.20392025e-001
      5.90570986e-001 5.13581991e-001 5.06488025e-001 4.99554992e-001
      5.00685990e-001 5.30664980e-001 6.17516994e-001 6.32435024e-001
      6.36951029e-001 6.39544010e-001 6.66574001e-001 7.24583030e-001
      7.35687017e-001 7.41517007e-001 7.45634973e-001 7.64694989e-001</_>
    <_>
      5.94509006e-001 5.90867996e-001 5.75317025e-001 5.48624992e-001
      5.08265972e-001 4.94177014e-001 4.91317987e-001 4.71129000e-001
      4.28584993e-001 5.72193027e-001 6.13555014e-001 6.17367983e-001
      6.24632001e-001 6.00040019e-001 6.79341018e-001 7.04895020e-001
      7.06476986e-001 7.35239983e-001 7.25771010e-001 7.58724988e-001</_>
    <_>
      5.07654011e-001 5.04962027e-001 5.19524992e-001 5.32339990e-001
      5.05922973e-001 4.40097988e-001 4.32031989e-001 4.31502014e-001
      4.38520014e-001 4.90285993e-001 5.75581014e-001 6.28938973e-001
      6.26962006e-001 6.31470978e-001 6.69013023e-001 7.35064030e-001
      7.67673016e-001 7.61617005e-001 7.59714007e-001 7.89940000e-001</_>
    <_>
      5.66765010e-001 5.48852980e-001 5.14427006e-001 5.00805020e-001
      4.64711994e-001 4.01915014e-001 3.64876002e-001 3.12518001e-001
      3.28013986e-001 3.98258001e-001 4.09375995e-001 4.74923998e-001
      5.73723018e-001 5.81142008e-001 6.40263021e-001 6.67738020e-001
      6.91778004e-001 7.44808972e-001 7.46752977e-001 7.90888011e-001</_>
    <_>
      5.53439975e-001 5.20738006e-001 5.24159014e-001 5.22132993e-001
      4.84335989e-001 3.90987009e-001 3.54303986e-001 3.57071996e-001
      3.56954008e-001 3.52196008e-001 4.21943992e-001 5.33855975e-001
      5.40175021e-001 5.42469025e-001 5.44234991e-001 6.01786017e-001
      6.79753006e-001 6.83439016e-001 6.84777021e-001 6.90470994e-001</_>
    <_>
      6.84325993e-001 6.95082009e-001 7.07027018e-001 6.93238020e-001
      6.61625981e-001 6.61229014e-001 6.74234986e-001 7.03644991e-001
      6.81993008e-001 7.15295017e-001 7.27702975e-001 7.37711012e-001
      7.56394982e-001 7.46693015e-001 7.65263021e-001 7.88968027e-001
      7.89281011e-001 8.22704017e-001 8.18421006e-001 8.24898005e-001</_>
    <_>
      6.36524022e-001 6.27080977e-001 6.28206015e-001 6.29736006e-001
      6.32884979e-001 5.92029989e-001 5.80384016e-001 5.79144001e-001
      5.86426020e-001 5.99209011e-001 6.43275976e-001 6.40756011e-001
      6.43666029e-001 6.52032018e-001 6.50219023e-001 6.66091979e-001
      6.62002027e-001 6.63133025e-001 6.65199995e-001 6.47062004e-001</_></support_vectors>
  <decision_functions>
    <_>
      <sv_count>42</sv_count>
      <rho>-1.3767822564564338e+000</rho>
      <alpha>
        1.3266496454832026e+000 1.5850974459303286e+000
        3.8436072778576960e+000 3.3622428089063883e-001
        4.0477874387513457e-001 1.8870996436330436e+000
        5.3507139535284480e+000 3.4773136969873115e+000
        1.2530895714631352e+000 8. 1.6976442975498651e+000
        1.0775913463981568e+000 1.3822596833452208e+000
        4.5547024388066024e+000 2.5145776147763121e+000 8.
        7.1826155176877151e+000 2.5453838011391707e+000
        5.1275232244680513e-001 8. 6.4194317441563287e-001
        5.6881092211040301e+000 1.9607178618776394e-002
        9.9537581877837988e-001 2.9258077260445664e-001
        8.0759957359003964e-001 8. 1.0083887910086942e+000
        3.6590863067335277e-001 3.9479689799841644e+000
        -5.4740367094043565e+000 -8. -8. -8. -1.2255467131719431e+000
        -8. -8. -8. -8. -8. -8. -8.</alpha>
      <index>
        0 1 2 3 4 5 6 7 8 9 10 11 12 13 14 15 16 17 18 19 20 21 22 23 24
        25 26 27 28 29 30 31 32 33 34 35 36 37 38 39 40 41</index></_></decision_functions></my_svm>
</opencv_storage>
