<?xml version="1.0"?>
<opencv_storage>
<my_svm type_id="opencv-ml-svm">
  <svm_type>C_SVC</svm_type>
  <kernel><type>RBF</type>
    <gamma>1.2500000000000000e-001</gamma></kernel>
  <C>8.</C>
  <term_criteria><epsilon>2.2204460492503131e-016</epsilon>
    <iterations>10000</iterations></term_criteria>
  <var_all>20</var_all>
  <var_count>20</var_count>
  <class_count>2</class_count>
  <class_labels type_id="opencv-matrix">
    <rows>1</rows>
    <cols>2</cols>
    <dt>i</dt>
    <data>
      0 1</data></class_labels>
  <sv_total>315</sv_total>
  <support_vectors>
    <_>
      7.82181025e-001 7.80324996e-001 7.79179990e-001 7.80506015e-001
      7.73708999e-001 7.75759995e-001 7.60834992e-001 7.70644009e-001
      7.58611977e-001 7.44800985e-001 7.57704020e-001 7.65579998e-001
      7.70668030e-001 7.57064998e-001 7.51712024e-001 7.68612981e-001
      7.76463985e-001 8.03193986e-001 8.04729998e-001 8.04282010e-001</_>
    <_>
      7.04126000e-001 7.01166987e-001 6.75131977e-001 6.55420005e-001
      6.52745008e-001 6.50031984e-001 6.54174984e-001 6.64600015e-001
      6.67845011e-001 6.72547996e-001 6.83556974e-001 6.89549029e-001
      6.98543012e-001 6.99060977e-001 6.94045007e-001 6.88984990e-001
      6.87116981e-001 7.05962002e-001 7.08218992e-001 7.15204000e-001</_>
    <_>
      8.09722006e-001 7.90665984e-001 7.83608019e-001 7.77996004e-001
      7.73930013e-001 7.78469980e-001 7.71526992e-001 7.65425980e-001
      7.63327003e-001 7.56030023e-001 7.53304005e-001 7.43462980e-001
      7.32722998e-001 7.27285028e-001 7.19937980e-001 7.16473997e-001
      7.18364000e-001 7.31570005e-001 7.54738986e-001 7.76202977e-001</_>
    <_>
      7.62467027e-001 7.44198978e-001 7.26518989e-001 7.28468001e-001
      7.26199985e-001 7.39217997e-001 6.99635983e-001 6.71676993e-001
      6.76742017e-001 6.77905977e-001 6.79553986e-001 6.80155993e-001
      6.77021980e-001 6.64765000e-001 6.72649026e-001 6.78506017e-001
      6.75754011e-001 6.54124022e-001 6.29809022e-001 6.40852988e-001</_>
    <_>
      6.93239987e-001 6.92086995e-001 6.93947017e-001 6.85048997e-001
      6.60241008e-001 6.53818011e-001 6.50761008e-001 6.50795996e-001
      6.37516975e-001 7.25601971e-001 7.23717988e-001 7.23892987e-001
      7.21620023e-001 7.21964002e-001 7.74770021e-001 7.75586009e-001
      7.77410984e-001 7.75904000e-001 7.80439019e-001 8.12282026e-001</_>
    <_>
      6.03331029e-001 6.07029974e-001 6.09233975e-001 6.11855984e-001
      4.42676991e-001 4.52681988e-001 4.58716005e-001 4.60429996e-001
      4.63845998e-001 5.68844974e-001 5.77364028e-001 5.85409999e-001
      5.85842013e-001 5.88787973e-001 6.62364006e-001 6.72007978e-001
      6.80001974e-001 6.81385994e-001 6.86681986e-001 7.41735995e-001</_>
    <_>
      5.89789987e-001 5.85862994e-001 5.82844973e-001 5.78096986e-001
      5.78926027e-001 4.81676012e-001 4.81115997e-001 4.82122988e-001
      4.81319010e-001 4.80637014e-001 6.43552005e-001 6.41551018e-001
      6.43190026e-001 6.40689015e-001 6.40681028e-001 7.52044976e-001
      7.52745986e-001 7.53531992e-001 7.53140986e-001 7.53686011e-001</_>
    <_>
      6.79367006e-001 6.79772019e-001 6.71787977e-001 6.58436000e-001
      6.19051993e-001 6.14057004e-001 6.13418996e-001 6.16324008e-001
      6.22395992e-001 6.76371992e-001 6.76261008e-001 6.77797019e-001
      6.81244016e-001 6.86231971e-001 7.21529007e-001 7.22684026e-001
      7.25844026e-001 7.30672002e-001 7.34929025e-001 7.56797016e-001</_>
    <_>
      6.71929002e-001 6.61131024e-001 6.48104012e-001 6.20122015e-001
      6.10221982e-001 5.96759021e-001 6.02599978e-001 6.11360013e-001
      6.16356015e-001 6.23234987e-001 6.30096018e-001 6.48294985e-001
      6.75159991e-001 7.03685999e-001 7.17501998e-001 7.25943029e-001
      7.43695021e-001 7.63674021e-001 7.82859981e-001 7.87928998e-001</_>
    <_>
      6.50889993e-001 6.56920016e-001 6.53276026e-001 6.59942985e-001
      6.62644029e-001 6.64556026e-001 6.57151997e-001 6.56877995e-001
      6.58393025e-001 6.70578003e-001 6.70599997e-001 6.74072027e-001
      6.71600997e-001 6.81478024e-001 6.87252998e-001 6.90102994e-001
      6.90909982e-001 6.95922971e-001 7.05923975e-001 7.16852009e-001</_>
    <_>
      6.45666003e-001 6.38584971e-001 6.31600976e-001 6.23760998e-001
      6.17899001e-001 6.18758976e-001 6.33399010e-001 6.34909987e-001
      6.51555002e-001 6.45033002e-001 6.54820979e-001 6.76922023e-001
      6.96982026e-001 7.07565010e-001 7.17197001e-001 7.25179017e-001
      7.40495026e-001 7.66984999e-001 7.83667982e-001 7.99293995e-001</_>
    <_>
      5.68754017e-001 5.57720006e-001 5.58308005e-001 5.69297016e-001
      5.61356008e-001 5.47224998e-001 5.39716005e-001 5.38941979e-001
      5.73055983e-001 5.95553994e-001 5.97249985e-001 6.08204007e-001
      6.15845978e-001 6.40843987e-001 6.64005995e-001 6.75921023e-001
      6.95192993e-001 7.17410982e-001 7.47636020e-001 7.70612001e-001</_>
    <_>
      6.87049985e-001 6.86342001e-001 6.66299999e-001 6.63179994e-001
      6.61045015e-001 6.63336992e-001 6.55200005e-001 6.45385027e-001
      6.39551997e-001 6.38773024e-001 6.34007990e-001 6.23616993e-001
      6.10346973e-001 6.14081979e-001 6.03655994e-001 6.06976986e-001
      5.99631011e-001 6.12860024e-001 6.22766018e-001 6.32278979e-001</_>
    <_>
      5.44187009e-001 5.39470971e-001 5.35444021e-001 5.31391025e-001
      5.23214996e-001 5.62820971e-001 5.50557971e-001 5.40831983e-001
      5.38111985e-001 5.33545017e-001 5.68188012e-001 5.79029977e-001
      5.86803019e-001 6.07299984e-001 6.22085989e-001 6.52073979e-001
      6.59574986e-001 6.68644011e-001 6.74683988e-001 6.84873998e-001</_>
    <_>
      5.25569975e-001 5.27903020e-001 5.32603025e-001 5.32576025e-001
      3.37460995e-001 3.40615988e-001 3.40932012e-001 3.42525989e-001
      3.46926987e-001 5.40796995e-001 5.43081999e-001 5.41060984e-001
      5.40847003e-001 5.42020023e-001 6.80476010e-001 6.79804027e-001
      6.78433001e-001 6.77329004e-001 6.95999026e-001 7.96869993e-001</_>
    <_>
      6.05650008e-001 5.78213990e-001 5.78181028e-001 5.78872025e-001
      5.79629004e-001 5.27239978e-001 5.27853012e-001 5.33170998e-001
      5.35040021e-001 5.38779020e-001 4.43529993e-001 4.43576992e-001
      4.45533007e-001 4.46814001e-001 4.45971996e-001 6.22089982e-001
      6.22884989e-001 6.24068975e-001 6.25518978e-001 6.24835014e-001</_>
    <_>
      5.74617982e-001 5.74202001e-001 5.74185014e-001 5.50508022e-001
      4.07160014e-001 4.03046995e-001 4.02480990e-001 4.02312994e-001
      4.05454993e-001 5.58252990e-001 5.57910025e-001 5.56083977e-001
      5.54588974e-001 5.58570981e-001 6.73142016e-001 6.70885026e-001
      6.69290006e-001 6.70508981e-001 6.74984992e-001 7.55227983e-001</_>
    <_>
      5.74518025e-001 5.72530985e-001 5.71364999e-001 5.69768012e-001
      4.41478997e-001 4.40396994e-001 4.41011012e-001 4.41929996e-001
      4.49918985e-001 5.95609009e-001 5.95040023e-001 5.96704006e-001
      5.96544981e-001 6.03349984e-001 7.09991992e-001 7.10452974e-001
      7.09020972e-001 7.10722983e-001 7.13526011e-001 7.86606014e-001</_>
    <_>
      6.00126982e-001 5.99236012e-001 5.96454024e-001 4.05606002e-001
      4.08432007e-001 4.11927998e-001 4.11375999e-001 4.14362997e-001
      5.24600983e-001 5.23706973e-001 5.21182001e-001 5.30176997e-001
      5.42793989e-001 6.25055015e-001 6.25380993e-001 6.23816013e-001
      6.28902972e-001 6.35237992e-001 6.93877995e-001 6.89808011e-001</_>
    <_>
      6.64297998e-001 6.39028013e-001 6.41664982e-001 6.49625003e-001
      6.45951986e-001 6.49403989e-001 6.49047971e-001 6.56156003e-001
      6.77078009e-001 6.87901020e-001 7.06462979e-001 7.17369974e-001
      7.22303987e-001 7.23416984e-001 7.19126999e-001 7.34525979e-001
      7.48166025e-001 7.48095989e-001 7.37536013e-001 7.32141018e-001</_>
    <_>
      7.08135009e-001 7.00345993e-001 6.96555018e-001 7.04253972e-001
      7.00482011e-001 6.89031005e-001 6.85136020e-001 6.91670001e-001
      7.04756021e-001 7.15538025e-001 7.20824003e-001 7.33065009e-001
      7.47451007e-001 7.52520025e-001 7.54468024e-001 7.51803994e-001
      7.53549993e-001 7.50644982e-001 7.42956996e-001 7.34736979e-001</_>
    <_>
      5.03969014e-001 5.09277999e-001 5.08952022e-001 5.07470012e-001
      3.46587002e-001 3.44862014e-001 3.45741004e-001 3.46062988e-001
      3.44377995e-001 5.50446987e-001 5.49673975e-001 5.51656008e-001
      5.52029014e-001 5.48651993e-001 6.97084010e-001 6.91996992e-001
      6.93045020e-001 6.91884995e-001 6.86846972e-001 7.80538976e-001</_>
    <_>
      5.58906019e-001 5.58754027e-001 5.57214975e-001 5.55682003e-001
      3.39578003e-001 3.45829010e-001 3.46655011e-001 3.44321012e-001
      3.47763002e-001 5.03681004e-001 5.11330009e-001 5.16852975e-001
      5.23181975e-001 5.29830992e-001 6.50076985e-001 6.57386005e-001
      6.57260001e-001 6.58464015e-001 6.64008021e-001 7.57281005e-001</_>
    <_>
      5.16277015e-001 5.31352997e-001 5.35854995e-001 5.56285977e-001
      5.15618980e-001 3.70231986e-001 3.91149014e-001 3.97848994e-001
      4.04085994e-001 3.98591995e-001 6.03610992e-001 6.26287997e-001
      6.34299994e-001 6.34405017e-001 6.28807008e-001 7.81185985e-001
      8.06149006e-001 8.12420011e-001 8.08659971e-001 8.06102991e-001</_>
    <_>
      7.34568000e-001 7.25750983e-001 6.85769975e-001 6.39742017e-001
      6.25074983e-001 6.33641005e-001 6.43989980e-001 6.16128027e-001
      6.08307004e-001 6.05765998e-001 6.14431024e-001 6.12441003e-001
      6.12281978e-001 6.11141980e-001 6.35538995e-001 6.57766998e-001
      6.84179008e-001 7.01331019e-001 7.21549988e-001 7.52759993e-001</_>
    <_>
      7.90378988e-001 7.87213981e-001 7.71583021e-001 7.68971980e-001
      7.53884017e-001 7.33304024e-001 7.29445994e-001 7.30904996e-001
      7.25169003e-001 7.22769976e-001 7.16323018e-001 7.15013981e-001
      7.23197997e-001 7.23583996e-001 7.25355029e-001 7.23986983e-001
      7.29080975e-001 7.35579014e-001 7.40372002e-001 7.41932988e-001</_>
    <_>
      5.88962018e-001 5.91552019e-001 5.78411996e-001 5.85390985e-001
      5.80385029e-001 5.81319988e-001 5.79822004e-001 5.87249994e-001
      5.85555017e-001 5.88815987e-001 6.21075988e-001 6.37812018e-001
      6.44872010e-001 6.54092014e-001 6.78655982e-001 6.97347999e-001
      7.17875004e-001 7.36311018e-001 7.40561008e-001 7.63175011e-001</_>
    <_>
      6.63350999e-001 6.71935976e-001 6.75653994e-001 6.86389029e-001
      6.96780980e-001 7.09308982e-001 7.16832995e-001 7.16952980e-001
      7.13845015e-001 7.14976013e-001 7.18333006e-001 7.28956997e-001
      7.30741024e-001 7.22286999e-001 7.17920005e-001 7.14550972e-001
      7.12463021e-001 7.10816026e-001 7.14489996e-001 7.08702981e-001</_>
    <_>
      5.96092999e-001 6.10762000e-001 6.13565981e-001 6.17267013e-001
      6.21991992e-001 6.30021989e-001 6.56355977e-001 6.53774023e-001
      6.50593996e-001 6.51979029e-001 6.62671983e-001 6.84219003e-001
      6.77609026e-001 6.85508013e-001 6.86253011e-001 7.03099012e-001
      7.24569023e-001 7.36661017e-001 7.40041018e-001 7.51486003e-001</_>
    <_>
      4.65440005e-001 4.61517990e-001 4.63180006e-001 4.69498008e-001
      4.69159007e-001 5.54473996e-001 5.47318995e-001 5.42510986e-001
      5.41015983e-001 5.34335971e-001 5.86202025e-001 5.83643019e-001
      5.94558001e-001 6.04071021e-001 6.04119003e-001 6.41662002e-001
      6.49951994e-001 6.57263994e-001 6.60058022e-001 6.58842981e-001</_>
    <_>
      6.74391985e-001 6.77501976e-001 6.76469982e-001 6.78020000e-001
      6.82847977e-001 7.00794995e-001 7.04347014e-001 6.91766977e-001
      6.92312002e-001 7.08382010e-001 7.50748992e-001 7.71969020e-001
      7.76769996e-001 7.79383004e-001 7.92971015e-001 8.16679001e-001
      8.27036023e-001 8.21474016e-001 8.19483995e-001 8.32825005e-001</_>
    <_>
      6.31942987e-001 6.02259994e-001 6.27655983e-001 6.40870988e-001
      6.54317975e-001 6.46511018e-001 6.08808994e-001 6.21137023e-001
      6.10859990e-001 6.36991024e-001 6.51072025e-001 6.71774983e-001
      6.85037971e-001 6.93552017e-001 7.32538998e-001 7.48638988e-001
      7.67946005e-001 7.78609991e-001 7.81062007e-001 8.12624991e-001</_>
    <_>
      5.19710004e-001 5.35045028e-001 5.41243970e-001 5.78179002e-001
      5.53218007e-001 5.28698981e-001 5.40540993e-001 5.68229020e-001
      6.31572008e-001 6.51856005e-001 6.51158988e-001 6.66468024e-001
      6.88902020e-001 7.17096984e-001 7.23513007e-001 7.13012993e-001
      7.52133012e-001 7.80321002e-001 8.39482009e-001 8.74170005e-001</_>
    <_>
      6.15715981e-001 5.79907000e-001 5.29635012e-001 4.74721998e-001
      4.37889010e-001 4.43553001e-001 4.37884986e-001 4.45562005e-001
      4.46595997e-001 4.43275988e-001 4.43572015e-001 4.40010995e-001
      4.44579989e-001 4.38252985e-001 4.33342010e-001 3.82735997e-001
      3.74096006e-001 3.58718991e-001 3.31663996e-001 3.13876003e-001</_>
    <_>
      3.82735997e-001 3.74096006e-001 3.58718991e-001 3.31663996e-001
      3.13876003e-001 1.87557995e-001 1.89536005e-001 1.89885005e-001
      1.85811996e-001 1.83715001e-001 5.26726007e-001 5.35152018e-001
      5.36008000e-001 5.37057996e-001 5.44580996e-001 7.95958996e-001
      8.06614995e-001 8.14809024e-001 8.26224983e-001 8.42037022e-001</_>
    <_>
      5.92356980e-001 5.94021022e-001 5.94875991e-001 5.94811976e-001
      4.53590989e-001 4.58157986e-001 4.61194992e-001 4.64002997e-001
      4.66749996e-001 5.98522007e-001 6.00118995e-001 6.00349009e-001
      6.01830006e-001 6.04394972e-001 6.93910003e-001 6.93304002e-001
      6.94002986e-001 6.96718991e-001 6.98395014e-001 7.55282998e-001</_>
    <_>
      6.48887992e-001 6.44994974e-001 6.84628010e-001 6.62546992e-001
      6.63501978e-001 6.73804998e-001 6.76461995e-001 7.10101008e-001
      6.80737019e-001 6.82174027e-001 6.93102002e-001 6.97403014e-001
      7.22801983e-001 6.74947023e-001 6.76962018e-001 6.88875020e-001
      6.97080016e-001 7.07682014e-001 6.35102987e-001 6.29141986e-001</_>
    <_>
      6.33081019e-001 6.33529007e-001 6.33619010e-001 5.98309994e-001
      4.77187008e-001 4.76752996e-001 4.79662001e-001 4.79701996e-001
      4.75995004e-001 5.73351979e-001 5.73975980e-001 5.76533020e-001
      5.76862991e-001 5.74241996e-001 6.46229029e-001 6.44115984e-001
      6.48531020e-001 6.54008985e-001 6.54718995e-001 7.02252984e-001</_>
    <_>
      6.82319999e-001 6.81258976e-001 6.82011008e-001 6.61572993e-001
      5.84906995e-001 6.00335002e-001 5.89617014e-001 5.82516015e-001
      5.67237020e-001 6.40675008e-001 6.61378980e-001 6.73708975e-001
      6.60409987e-001 6.44402981e-001 7.14173019e-001 7.24395990e-001
      7.23316014e-001 7.14985013e-001 7.02818990e-001 7.61141002e-001</_>
    <_>
      5.50863981e-001 5.44342995e-001 5.58426023e-001 5.49057007e-001
      5.59147000e-001 5.74666977e-001 5.75021982e-001 5.90340018e-001
      6.18111014e-001 6.38095975e-001 6.64624989e-001 6.81406975e-001
      6.88296974e-001 7.13280022e-001 7.47029006e-001 7.76362002e-001
      8.06050003e-001 8.43230009e-001 8.66819024e-001 8.94829988e-001</_>
    <_>
      3.27138990e-001 3.30422997e-001 3.54934007e-001 3.60525995e-001
      3.65283012e-001 3.87510985e-001 4.03061002e-001 4.12894994e-001
      4.27702010e-001 4.43015009e-001 4.52055991e-001 4.75234985e-001
      4.99706000e-001 5.02743006e-001 5.23461998e-001 5.45203984e-001
      5.58444023e-001 5.96813023e-001 6.08443975e-001 6.18438005e-001</_>
    <_>
      6.42192006e-001 6.43782973e-001 6.45621002e-001 6.46761000e-001
      6.48671985e-001 6.48091018e-001 6.50511026e-001 6.52778029e-001
      6.53491020e-001 6.57877028e-001 6.62370980e-001 6.60117984e-001
      6.62006974e-001 6.67303026e-001 6.74407005e-001 6.75471008e-001
      6.79723978e-001 6.86775029e-001 7.00757027e-001 7.17667997e-001</_>
    <_>
      5.47619998e-001 5.40427983e-001 5.37464976e-001 5.38074017e-001
      5.25708973e-001 5.25241017e-001 5.31692028e-001 5.33807993e-001
      5.38715005e-001 5.48336983e-001 5.42683005e-001 5.37688017e-001
      5.53205013e-001 5.53903997e-001 5.52335978e-001 5.67879975e-001
      5.62564015e-001 5.68886995e-001 5.78796029e-001 5.63400984e-001</_>
    <_>
      4.73782003e-001 4.77459013e-001 4.79093999e-001 4.86838996e-001
      4.92386997e-001 5.02350986e-001 5.14703989e-001 5.22643983e-001
      5.23634017e-001 5.31238019e-001 5.50450981e-001 5.56379974e-001
      5.67786992e-001 5.76233029e-001 5.79281986e-001 6.03434980e-001
      6.20640993e-001 6.25288010e-001 6.44529998e-001 6.50776029e-001</_>
    <_>
      5.30026972e-001 5.26916981e-001 5.20048976e-001 5.13629973e-001
      5.10932982e-001 5.08581996e-001 5.10855973e-001 5.13871014e-001
      5.18491030e-001 5.24520993e-001 5.31068981e-001 5.42477012e-001
      5.49701989e-001 5.58629990e-001 5.69598973e-001 5.81169009e-001
      5.97539008e-001 6.10738993e-001 6.23528004e-001 6.36238992e-001</_>
    <_>
      6.22644007e-001 6.24382019e-001 6.23718023e-001 6.19140029e-001
      6.29976988e-001 6.28111005e-001 6.26649976e-001 6.30348980e-001
      6.25694990e-001 6.29354000e-001 6.30863011e-001 6.33391023e-001
      6.38164997e-001 6.41331971e-001 6.49518013e-001 6.55458987e-001
      6.64802015e-001 6.68807983e-001 6.68485999e-001 6.78672016e-001</_>
    <_>
      4.55790997e-001 4.44380999e-001 4.40544009e-001 4.29513007e-001
      4.36659992e-001 4.39579010e-001 4.39695001e-001 4.48329002e-001
      4.55280989e-001 4.69392002e-001 4.81956005e-001 4.91328001e-001
      5.20932019e-001 5.46725988e-001 5.78350008e-001 6.06428981e-001
      6.44074023e-001 6.80272996e-001 7.03945994e-001 7.23802984e-001</_>
    <_>
      7.12384999e-001 6.62662983e-001 6.49507999e-001 6.33027017e-001
      6.24684989e-001 6.21986985e-001 5.62509000e-001 5.71304977e-001
      5.78388989e-001 5.91944993e-001 5.97239017e-001 5.03037989e-001
      5.07775009e-001 5.22058010e-001 5.36458015e-001 5.38070977e-001
      4.06343013e-001 4.08358008e-001 4.13439006e-001 4.22578007e-001</_>
    <_>
      6.06263995e-001 5.97483993e-001 5.97433984e-001 6.00172997e-001
      5.43106019e-001 5.51478028e-001 5.56326985e-001 5.53793013e-001
      5.48494995e-001 6.06249988e-001 6.13027990e-001 6.17923021e-001
      6.16711020e-001 6.15851998e-001 6.60292983e-001 6.67869985e-001
      6.73958004e-001 6.80203021e-001 6.83459997e-001 7.19475985e-001</_>
    <_>
      5.55402994e-001 5.51173985e-001 5.44687986e-001 5.45985997e-001
      4.29535002e-001 4.28104013e-001 4.25832987e-001 4.25983012e-001
      4.25783008e-001 5.84042013e-001 5.82910001e-001 5.80995977e-001
      5.79775989e-001 5.79837024e-001 6.97960973e-001 6.96518004e-001
      6.94139004e-001 6.93674982e-001 6.93338990e-001 7.74477005e-001</_>
    <_>
      5.98462999e-001 5.66422999e-001 5.45175016e-001 5.25511980e-001
      5.19075990e-001 5.30099988e-001 5.36271989e-001 5.52583992e-001
      5.73916972e-001 5.94713986e-001 6.14943981e-001 6.45973027e-001
      6.57863021e-001 6.84327006e-001 7.11742997e-001 7.22351015e-001
      7.44807005e-001 7.65942991e-001 7.84156024e-001 8.03315997e-001</_>
    <_>
      6.36205971e-001 6.35725021e-001 5.23720980e-001 5.21857977e-001
      5.17880976e-001 5.20672023e-001 5.20680010e-001 5.98680973e-001
      6.04812026e-001 6.16834998e-001 6.17812991e-001 6.20482981e-001
      6.75705016e-001 6.78812027e-001 6.86764002e-001 6.86617970e-001
      6.87089026e-001 7.22976983e-001 7.27379024e-001 7.30751991e-001</_>
    <_>
      6.73425972e-001 6.52993977e-001 6.39831007e-001 6.24592006e-001
      6.10004008e-001 6.10204995e-001 6.11970007e-001 6.19759977e-001
      6.37349010e-001 6.47489011e-001 6.65139973e-001 6.87286973e-001
      6.99011028e-001 7.13981986e-001 7.29424000e-001 7.45863974e-001
      7.61107981e-001 7.71669984e-001 7.81432986e-001 7.92728007e-001</_>
    <_>
      5.39817989e-001 5.38052022e-001 3.51159006e-001 3.49399000e-001
      3.42489988e-001 3.38923991e-001 3.37363005e-001 4.78504002e-001
      4.77310985e-001 4.81213003e-001 4.84151006e-001 4.83388990e-001
      6.00655973e-001 6.03254974e-001 6.06721997e-001 6.12951994e-001
      6.11822009e-001 6.97106004e-001 7.01902986e-001 7.04343975e-001</_>
    <_>
      6.33193016e-001 6.30499005e-001 6.28834009e-001 5.36886990e-001
      5.31964004e-001 5.27599990e-001 5.24784029e-001 5.21824002e-001
      6.29742026e-001 6.28579021e-001 6.32725000e-001 6.32880986e-001
      6.32381976e-001 7.10804999e-001 7.11233974e-001 7.16490984e-001
      7.17517018e-001 7.17064023e-001 7.74448991e-001 7.77083993e-001</_>
    <_>
      3.88370991e-001 3.86287987e-001 3.71262014e-001 3.56667995e-001
      3.47429007e-001 3.42884004e-001 3.54759991e-001 3.54153991e-001
      3.60359997e-001 3.51541013e-001 3.61297995e-001 3.89593989e-001
      4.16808993e-001 4.54780012e-001 5.39946973e-001 5.73608994e-001
      5.98639011e-001 6.23750985e-001 6.52862012e-001 7.13258028e-001</_>
    <_>
      5.79532027e-001 4.96376008e-001 4.38674986e-001 4.26369995e-001
      4.13136989e-001 4.21229988e-001 4.61026996e-001 4.90765005e-001
      5.00653982e-001 5.00140011e-001 5.08197010e-001 5.45340002e-001
      5.78737020e-001 5.83953023e-001 5.81008017e-001 5.83629012e-001
      6.10946000e-001 6.33194029e-001 6.36752009e-001 6.25653028e-001</_>
    <_>
      7.24807024e-001 7.09223986e-001 6.89746022e-001 6.69291019e-001
      6.65610015e-001 6.82932973e-001 6.79340005e-001 6.65154994e-001
      6.57787025e-001 6.63836002e-001 6.91248000e-001 6.97938979e-001
      6.95151985e-001 6.88160002e-001 6.91802979e-001 7.10180998e-001
      7.04351008e-001 6.94562972e-001 6.87750995e-001 6.92829013e-001</_>
    <_>
      7.29278028e-001 7.14368999e-001 7.00752020e-001 6.99253023e-001
      7.00586975e-001 6.94396019e-001 6.85369015e-001 6.74504995e-001
      6.84616029e-001 7.02983022e-001 7.05227017e-001 7.00542986e-001
      6.89356983e-001 6.95901990e-001 7.07472026e-001 7.00567007e-001
      6.99405015e-001 6.87955022e-001 6.94580019e-001 7.33554006e-001</_>
    <_>
      5.14079988e-001 4.98937994e-001 4.84699994e-001 4.74234998e-001
      4.67128009e-001 4.65772986e-001 4.69258010e-001 4.75822985e-001
      4.86052990e-001 4.98847008e-001 5.16031027e-001 5.43357015e-001
      5.71734011e-001 6.01046979e-001 6.27813995e-001 6.55407012e-001
      6.83009982e-001 7.09628999e-001 7.41375983e-001 7.59662986e-001</_>
    <_>
      3.31752986e-001 3.17335010e-001 3.01833004e-001 2.92510986e-001
      2.65635014e-001 2.58049011e-001 2.57205009e-001 2.46849999e-001
      2.48043001e-001 2.37639993e-001 2.32832000e-001 2.41657004e-001
      2.48165995e-001 2.49592006e-001 2.60286003e-001 2.55432993e-001
      2.79554993e-001 3.06914002e-001 3.28090012e-001 4.23992991e-001</_>
    <_>
      4.15363014e-001 4.04567003e-001 4.22423989e-001 4.43058997e-001
      4.72297013e-001 4.76114005e-001 4.79252011e-001 5.15241027e-001
      5.54969013e-001 5.97676992e-001 6.18221998e-001 6.63340986e-001
      7.37659991e-001 8.14392984e-001 9.11336005e-001 9.74115014e-001
      1.07260704e+000 1.11028898e+000 1.14315498e+000 1.18302906e+000</_>
    <_>
      3.39547008e-001 3.12472999e-001 3.05191010e-001 2.96415001e-001
      2.85591006e-001 2.73108006e-001 2.57752001e-001 2.63410985e-001
      2.72370994e-001 2.71445006e-001 2.69066006e-001 2.55878001e-001
      2.76708007e-001 3.20122004e-001 3.92603993e-001 4.66118008e-001
      5.20501018e-001 5.36777973e-001 5.69790006e-001 6.26450002e-001</_>
    <_>
      5.61448991e-001 5.54975986e-001 5.46169996e-001 5.45574009e-001
      5.53471982e-001 5.58320999e-001 5.56770980e-001 5.51913977e-001
      5.55863976e-001 5.67174017e-001 5.83971024e-001 6.09872997e-001
      6.75049007e-001 6.77951992e-001 6.90880001e-001 7.06022024e-001
      7.23994017e-001 7.66650975e-001 7.69182026e-001 7.82552004e-001</_>
    <_>
      2.83398986e-001 2.85546988e-001 2.86772013e-001 3.02987993e-001
      3.07494998e-001 3.03364009e-001 3.08990002e-001 3.22497994e-001
      3.42997998e-001 3.48955005e-001 3.56896996e-001 3.70366991e-001
      3.91344994e-001 4.13062990e-001 4.31979001e-001 4.53464001e-001
      4.74922001e-001 5.08120000e-001 5.52685022e-001 5.97563982e-001</_>
    <_>
      3.30197006e-001 3.23745996e-001 3.14357013e-001 3.06553990e-001
      2.92095989e-001 2.75240988e-001 2.73530006e-001 2.74224997e-001
      2.65071988e-001 2.56116003e-001 2.49409005e-001 2.49142006e-001
      2.53969014e-001 2.54229009e-001 2.54830986e-001 2.51026005e-001
      2.69115001e-001 3.11821014e-001 3.59986991e-001 4.36753005e-001</_>
    <_>
      4.97489989e-001 5.15501022e-001 5.31242013e-001 5.40359020e-001
      5.47581971e-001 5.61551988e-001 5.80622017e-001 5.91404021e-001
      6.02243006e-001 6.10156000e-001 6.19379997e-001 6.38554990e-001
      6.48425996e-001 6.53755009e-001 6.65943027e-001 6.70431018e-001
      6.75893009e-001 6.89467013e-001 6.95222020e-001 7.02620983e-001</_>
    <_>
      5.21746993e-001 5.07517993e-001 5.25240004e-001 5.10188997e-001
      5.05312979e-001 5.42692006e-001 5.27006984e-001 5.43883979e-001
      5.90003014e-001 5.81444979e-001 6.15871012e-001 6.47848010e-001
      6.60806000e-001 7.05312014e-001 7.42451012e-001 7.72777975e-001
      8.09578001e-001 8.41031015e-001 8.75917017e-001 9.07971025e-001</_>
    <_>
      6.71563029e-001 6.61387026e-001 6.66047990e-001 6.69101000e-001
      6.62604988e-001 6.68622017e-001 6.69022024e-001 6.64559007e-001
      6.70911014e-001 6.70217991e-001 6.67127013e-001 6.74974978e-001
      6.73137009e-001 6.68807030e-001 6.75072014e-001 6.73514009e-001
      6.69552982e-001 6.71797991e-001 6.72376990e-001 6.68188989e-001</_>
    <_>
      5.70949972e-001 5.69290996e-001 5.67577004e-001 5.64993978e-001
      5.69823980e-001 5.68418026e-001 5.71142972e-001 5.78172028e-001
      5.81763983e-001 5.87280989e-001 5.95757008e-001 6.03686988e-001
      6.12955987e-001 6.25478029e-001 6.35082006e-001 6.42368019e-001
      6.54767990e-001 6.64277971e-001 6.74740016e-001 6.87694013e-001</_>
    <_>
      6.00220978e-001 5.73466003e-001 5.49678981e-001 5.23490012e-001
      5.16960979e-001 4.92123008e-001 4.65003014e-001 4.66320992e-001
      4.34193999e-001 4.43733007e-001 4.57125992e-001 4.14499015e-001
      4.01111990e-001 4.08349007e-001 4.41024005e-001 4.75454986e-001
      4.89015996e-001 4.86066997e-001 4.96333003e-001 5.09141982e-001</_>
    <_>
      4.35660005e-001 4.53020006e-001 4.57464010e-001 4.63907003e-001
      4.72014010e-001 4.78554010e-001 4.99839991e-001 5.08206010e-001
      5.21444976e-001 5.47188997e-001 5.70511997e-001 5.83617985e-001
      5.95232010e-001 6.33512974e-001 6.66126013e-001 7.01938987e-001
      7.53798008e-001 7.76131988e-001 8.11146975e-001 8.56773973e-001</_>
    <_>
      5.33681989e-001 5.31427026e-001 5.31370997e-001 5.28002977e-001
      5.33062994e-001 5.35260022e-001 5.37057996e-001 5.47105014e-001
      5.52913010e-001 5.61070025e-001 5.74779987e-001 5.85976005e-001
      5.97576976e-001 6.13485992e-001 6.28349006e-001 6.42732024e-001
      6.59415007e-001 6.74717009e-001 6.92489028e-001 7.11176991e-001</_>
    <_>
      6.14980996e-001 6.20846987e-001 6.20925009e-001 6.24634027e-001
      6.28241003e-001 6.31223023e-001 6.35145009e-001 6.44393981e-001
      6.45425975e-001 6.49829984e-001 6.57498002e-001 6.59702003e-001
      6.65051997e-001 6.72203004e-001 6.74277008e-001 6.81008995e-001
      6.88512027e-001 6.92031980e-001 6.96798027e-001 7.00605989e-001</_>
    <_>
      5.56019008e-001 5.49450994e-001 5.38034976e-001 5.33029974e-001
      5.29883027e-001 5.24937987e-001 5.25229990e-001 5.27225971e-001
      5.29331982e-001 5.36080003e-001 5.46343982e-001 5.53586006e-001
      5.66146016e-001 5.82778990e-001 5.99044025e-001 6.22636020e-001
      6.45460010e-001 6.72354996e-001 6.96106970e-001 7.17513025e-001</_>
    <_>
      6.08169019e-001 6.03096008e-001 5.98950028e-001 5.97800016e-001
      5.95646977e-001 5.96346974e-001 6.00773990e-001 6.07933998e-001
      6.14044011e-001 6.18533015e-001 6.27843022e-001 6.37907982e-001
      6.48150980e-001 6.58881009e-001 6.72124028e-001 6.83925986e-001
      7.00645030e-001 7.17082977e-001 7.31876016e-001 7.46910989e-001</_>
    <_>
      1.22799002e-001 1.46086007e-001 1.67180002e-001 1.86794996e-001
      2.15079993e-001 2.43432000e-001 2.73366004e-001 3.01905990e-001
      3.25239986e-001 3.58738005e-001 3.89784992e-001 4.33813006e-001
      4.85787988e-001 5.22094011e-001 5.51715016e-001 5.84847987e-001
      6.34836018e-001 6.93536997e-001 7.40239978e-001 7.60197997e-001</_>
    <_>
      5.57057023e-001 5.57487011e-001 4.02451009e-001 3.91746014e-001
      3.90184999e-001 3.89775008e-001 3.90922010e-001 4.12598997e-001
      4.73430991e-001 5.21956980e-001 5.53371012e-001 5.55212975e-001
      5.86236000e-001 6.29176021e-001 6.61109984e-001 6.84068024e-001
      6.84127986e-001 7.17028022e-001 7.45082021e-001 7.64757991e-001</_>
    <_>
      6.31981015e-001 5.99713027e-001 5.81364989e-001 5.67354023e-001
      5.53979993e-001 5.34090996e-001 5.31978011e-001 5.43823004e-001
      5.66596985e-001 5.87368011e-001 6.12860978e-001 6.29972994e-001
      6.31195009e-001 6.37633026e-001 6.46305025e-001 6.58151984e-001
      6.59860015e-001 6.51885986e-001 6.58194005e-001 6.69496000e-001</_>
    <_>
      6.53598011e-001 6.55372024e-001 6.52754009e-001 6.46130025e-001
      6.46102011e-001 6.44411027e-001 6.42229974e-001 6.46555007e-001
      6.60263002e-001 6.76998019e-001 7.01557994e-001 7.21372008e-001
      7.42935002e-001 7.64587998e-001 7.80721009e-001 7.97276974e-001
      8.09791028e-001 8.22121024e-001 8.35817993e-001 8.41984987e-001</_>
    <_>
      5.89174986e-001 5.84591985e-001 5.84743977e-001 5.82273006e-001
      5.83679020e-001 5.86988986e-001 5.96037984e-001 6.07146025e-001
      6.07397020e-001 6.18137002e-001 6.23485982e-001 6.32034004e-001
      6.45757020e-001 6.47762001e-001 6.61046028e-001 6.72685981e-001
      6.82968020e-001 6.96886003e-001 6.97715998e-001 7.08021998e-001</_>
    <_>
      2.60453999e-001 2.65442014e-001 2.93794990e-001 3.31672996e-001
      3.47110987e-001 3.90682012e-001 4.36033010e-001 4.38425988e-001
      4.90429014e-001 5.13410985e-001 5.68476021e-001 6.25724971e-001
      6.50421023e-001 7.42973030e-001 7.84929991e-001 9.07914996e-001
      1.01190102e+000 1.01206803e+000 1.06807601e+000 1.08325505e+000</_>
    <_>
      5.49516976e-001 5.52146018e-001 3.96719992e-001 3.74774992e-001
      3.61010998e-001 3.60677004e-001 3.64425987e-001 3.40314001e-001
      3.97101998e-001 4.99960989e-001 5.29455006e-001 5.32283008e-001
      5.26727974e-001 5.64724982e-001 6.36586010e-001 6.51844978e-001
      6.50690973e-001 6.62330985e-001 6.83515012e-001 7.22320020e-001</_>
    <_>
      4.78789985e-001 4.34273005e-001 4.34617013e-001 4.46700990e-001
      4.52737987e-001 5.19137979e-001 5.11761010e-001 5.10056019e-001
      5.25319993e-001 5.30901015e-001 5.85278988e-001 5.82660019e-001
      5.85530996e-001 5.89654028e-001 5.97361982e-001 6.42388999e-001
      6.47668004e-001 6.68581009e-001 6.82762980e-001 6.86275005e-001</_>
    <_>
      5.93064010e-001 5.89679003e-001 4.63761985e-001 4.61905986e-001
      4.36966985e-001 4.32797998e-001 4.27635998e-001 4.48058009e-001
      5.02229989e-001 5.70425987e-001 5.77695012e-001 5.76821983e-001
      6.04501009e-001 6.38104975e-001 6.84527993e-001 6.91492975e-001
      6.89584970e-001 7.20081985e-001 7.40094006e-001 7.65886009e-001</_>
    <_>
      5.69292009e-001 5.51832974e-001 5.45585990e-001 5.50013006e-001
      5.57168007e-001 5.41624010e-001 5.36278009e-001 5.37606001e-001
      5.42499006e-001 5.75474024e-001 6.20664001e-001 6.43917024e-001
      6.56665027e-001 6.67231977e-001 6.92645013e-001 7.21459985e-001
      7.36576021e-001 7.44651973e-001 7.47298002e-001 7.62014985e-001</_>
    <_>
      6.54022992e-001 6.54657006e-001 6.61939979e-001 6.60336971e-001
      6.55650020e-001 6.49549007e-001 6.49425030e-001 6.50020003e-001
      6.48490012e-001 6.41534984e-001 6.36770010e-001 6.42207980e-001
      6.43106997e-001 6.48846984e-001 6.50350988e-001 6.48733974e-001
      6.58666015e-001 6.68309987e-001 6.74755991e-001 6.80978000e-001</_>
    <_>
      6.16950989e-001 6.17581010e-001 6.11913025e-001 6.07611001e-001
      6.13946021e-001 6.20157003e-001 6.25980973e-001 6.38689995e-001
      6.49690986e-001 6.64412975e-001 6.75571024e-001 6.73810005e-001
      6.79607987e-001 6.81728005e-001 6.89397991e-001 6.98812008e-001
      7.09465027e-001 7.22868979e-001 7.29683995e-001 7.32488990e-001</_>
    <_>
      6.51525021e-001 6.37627006e-001 6.19773984e-001 6.01378977e-001
      5.94222009e-001 5.94668984e-001 6.00004017e-001 6.03232980e-001
      6.14085019e-001 6.32643998e-001 6.52786016e-001 6.70220017e-001
      6.81321979e-001 6.95082009e-001 7.05165982e-001 7.12288022e-001
      7.19906986e-001 7.24511027e-001 7.32145011e-001 7.30340004e-001</_>
    <_>
      7.10192978e-001 7.23251998e-001 7.26457000e-001 7.17182994e-001
      7.11802006e-001 7.12140024e-001 7.09381998e-001 7.12116003e-001
      7.18424022e-001 7.12432981e-001 7.09933996e-001 7.06869006e-001
      7.05408990e-001 7.20426023e-001 7.34911978e-001 7.34076023e-001
      7.29807019e-001 7.33098984e-001 7.40110993e-001 7.51721025e-001</_>
    <_>
      7.54516006e-001 7.31823027e-001 7.24767983e-001 7.31512010e-001
      7.39335001e-001 7.44485021e-001 7.11558998e-001 7.05478013e-001
      7.11197019e-001 7.15624988e-001 7.22738028e-001 6.70855999e-001
      6.68604016e-001 6.72077000e-001 6.71473026e-001 6.78645015e-001
      6.01132989e-001 5.90245008e-001 5.88837028e-001 5.82170010e-001</_>
    <_>
      6.47239983e-001 6.46384001e-001 6.44387007e-001 5.31570017e-001
      5.29802024e-001 5.27787030e-001 5.26497006e-001 5.23913026e-001
      6.05823994e-001 6.15764976e-001 6.16478026e-001 6.18130982e-001
      6.17724001e-001 6.81441009e-001 6.88717008e-001 6.89418018e-001
      6.91784978e-001 6.92137003e-001 7.38613009e-001 7.43161976e-001</_>
    <_>
      6.91233993e-001 6.72568023e-001 6.85274005e-001 6.83705986e-001
      6.79804027e-001 6.80167973e-001 6.80337012e-001 6.92092001e-001
      6.92399979e-001 7.00816989e-001 7.05474019e-001 7.07090020e-001
      7.14670002e-001 7.12788999e-001 7.11236000e-001 7.24475026e-001
      7.19834983e-001 7.01306999e-001 6.97593987e-001 6.92143977e-001</_>
    <_>
      5.25048971e-001 5.21965981e-001 5.07833004e-001 4.66850013e-001
      4.69384015e-001 4.38430011e-001 4.39956009e-001 4.67287004e-001
      5.36408007e-001 5.57606995e-001 6.07804000e-001 6.07200980e-001
      6.25023007e-001 6.78408980e-001 7.00937986e-001 7.31971025e-001
      7.27504015e-001 7.41743982e-001 7.76861012e-001 7.87218988e-001</_>
    <_>
      5.30968010e-001 5.29565990e-001 5.26690006e-001 3.14372003e-001
      3.17764014e-001 3.20037991e-001 3.21392000e-001 3.21705014e-001
      3.99574012e-001 4.40818995e-001 4.61198986e-001 4.85720992e-001
      4.93582994e-001 5.65948009e-001 6.02388978e-001 6.07940018e-001
      6.17444992e-001 6.26560986e-001 6.91699028e-001 7.12028027e-001</_>
    <_>
      6.27449989e-001 6.13788009e-001 5.62994003e-001 5.25907993e-001
      5.02314985e-001 4.96508986e-001 5.01405001e-001 5.23966014e-001
      5.83185017e-001 5.94026029e-001 6.05592012e-001 6.21496975e-001
      6.46942973e-001 6.90807998e-001 7.00353980e-001 7.12795019e-001
      7.21055984e-001 7.38363981e-001 7.68962026e-001 7.74353981e-001</_>
    <_>
      7.48965979e-001 7.24087000e-001 6.87039971e-001 6.87856019e-001
      7.05484986e-001 7.14585006e-001 7.34233022e-001 7.20115006e-001
      7.11127996e-001 7.05096006e-001 7.14321017e-001 7.37834990e-001
      7.40010023e-001 7.48857975e-001 7.50868022e-001 7.47421026e-001
      7.52102017e-001 7.38532007e-001 7.38564014e-001 7.27985978e-001</_>
    <_>
      1.80768996e-001 1.76900998e-001 1.72812000e-001 1.69919997e-001
      1.67300001e-001 3.12794000e-001 3.25177997e-001 3.34362000e-001
      3.37089986e-001 3.45896006e-001 4.76321012e-001 5.06205976e-001
      5.41081011e-001 5.46314001e-001 5.67775011e-001 6.85066998e-001
      7.09025025e-001 7.37125993e-001 7.40334988e-001 7.50926018e-001</_>
    <_>
      6.52325988e-001 6.56750977e-001 6.51350021e-001 6.31520987e-001
      6.27277970e-001 6.39645994e-001 6.52393997e-001 6.71787977e-001
      6.73794985e-001 6.76667988e-001 6.95733011e-001 7.07367003e-001
      7.16924012e-001 7.44517982e-001 7.54779994e-001 7.67243981e-001
      7.76136994e-001 7.81717002e-001 7.90387988e-001 7.99091995e-001</_>
    <_>
      6.23842001e-001 6.22474015e-001 5.07717013e-001 5.04612982e-001
      4.97487009e-001 4.96250987e-001 4.96248007e-001 5.55013001e-001
      5.83445013e-001 5.98432004e-001 6.08377993e-001 6.14039004e-001
      6.64249003e-001 6.82624996e-001 6.92737997e-001 6.98677003e-001
      7.01856971e-001 7.41963983e-001 7.49229014e-001 7.57395029e-001</_>
    <_>
      6.19540989e-001 6.17224991e-001 4.72485989e-001 4.72205013e-001
      4.72083986e-001 4.70456004e-001 4.69648987e-001 5.73768973e-001
      5.83468020e-001 5.79877973e-001 5.80142975e-001 5.82217991e-001
      6.55260980e-001 6.67191029e-001 6.64335012e-001 6.64655030e-001
      6.69103026e-001 7.19565988e-001 7.23643005e-001 7.30597019e-001</_>
    <_>
      6.33212984e-001 6.32839978e-001 6.31627977e-001 5.12103021e-001
      5.08576989e-001 5.07053971e-001 5.05833983e-001 5.04047990e-001
      6.00651026e-001 6.12649977e-001 6.12733006e-001 6.16020024e-001
      6.15640998e-001 6.87218010e-001 6.96977019e-001 6.96228027e-001
      6.99647009e-001 6.98572993e-001 7.49902010e-001 7.57632017e-001</_>
    <_>
      4.51420993e-001 4.48195010e-001 2.26662993e-001 2.13921994e-001
      2.09014997e-001 2.02922001e-001 1.98045000e-001 3.58797014e-001
      3.77160996e-001 3.75232995e-001 3.72714013e-001 3.80104005e-001
      5.01658022e-001 5.19178987e-001 5.33199012e-001 5.41828990e-001
      5.52347004e-001 6.50385976e-001 6.61669016e-001 6.75007999e-001</_>
    <_>
      6.38094008e-001 6.20356977e-001 5.94458997e-001 5.88833988e-001
      5.84554017e-001 5.78176975e-001 5.79968989e-001 5.82961977e-001
      5.96867979e-001 6.17964029e-001 6.36234999e-001 6.53358996e-001
      6.74547017e-001 6.88492000e-001 7.02919006e-001 7.17877984e-001
      7.31832981e-001 7.43631005e-001 7.53338993e-001 7.63930023e-001</_>
    <_>
      6.75652027e-001 5.83468020e-001 5.71860015e-001 5.55374980e-001
      5.51828980e-001 5.62605977e-001 6.49937987e-001 6.27619982e-001
      5.89299023e-001 5.90611994e-001 6.14319026e-001 7.07188010e-001
      7.23487020e-001 6.97171986e-001 6.79493010e-001 6.95173025e-001
      7.73980021e-001 8.07991982e-001 7.85713971e-001 7.58885026e-001</_>
    <_>
      6.52486980e-001 6.51597977e-001 6.61037982e-001 5.45787990e-001
      5.52048981e-001 5.48923016e-001 5.45319974e-001 5.44381022e-001
      6.25016987e-001 6.47442997e-001 6.42964005e-001 6.40146971e-001
      6.39021993e-001 7.03435004e-001 7.08274007e-001 7.01873004e-001
      6.97673976e-001 6.96038008e-001 7.51845002e-001 7.56067991e-001</_>
    <_>
      7.17688024e-001 6.96494997e-001 6.57595992e-001 6.51228011e-001
      6.31492972e-001 6.07367992e-001 6.04878008e-001 6.21980011e-001
      6.20257020e-001 6.40052021e-001 6.53289020e-001 6.50195003e-001
      6.50479019e-001 6.45008028e-001 6.42310023e-001 6.42688990e-001
      6.28786027e-001 6.41251028e-001 6.39712989e-001 6.62737012e-001</_>
    <_>
      6.67396009e-001 6.64534986e-001 6.69308007e-001 6.00337029e-001
      5.76171994e-001 5.89393020e-001 5.91964006e-001 5.92537999e-001
      6.52260005e-001 6.38450980e-001 6.64444983e-001 6.70656025e-001
      6.84738994e-001 7.30448008e-001 7.34080017e-001 7.44973004e-001
      7.59912014e-001 7.67431974e-001 7.98591018e-001 8.07085991e-001</_>
    <_>
      5.68727016e-001 5.62385023e-001 4.19784993e-001 4.10845011e-001
      4.10198987e-001 3.96757990e-001 3.91862005e-001 4.27614003e-001
      4.83202010e-001 5.24699986e-001 5.38507998e-001 5.50011992e-001
      5.82249999e-001 6.23277009e-001 6.53177023e-001 6.65319979e-001
      6.79306984e-001 7.08423018e-001 7.36194015e-001 7.56003976e-001</_>
    <_>
      6.57280982e-001 6.58321977e-001 5.48222005e-001 5.50122023e-001
      5.41984022e-001 5.36360025e-001 5.39421022e-001 5.17497003e-001
      5.76829016e-001 6.14095986e-001 6.25467002e-001 6.41070008e-001
      6.34836018e-001 6.71813011e-001 7.01357007e-001 7.05906987e-001
      7.10241973e-001 7.16116011e-001 7.35700011e-001 7.50238001e-001</_>
    <_>
      5.71108997e-001 5.44273019e-001 5.28681993e-001 5.18653989e-001
      5.12165010e-001 5.12771010e-001 5.22570014e-001 5.36126018e-001
      5.51191986e-001 5.75505018e-001 5.92850983e-001 6.16333008e-001
      6.38253987e-001 6.57956004e-001 6.84436023e-001 7.01502979e-001
      7.19807029e-001 7.35312998e-001 7.46841013e-001 7.55789995e-001</_>
    <_>
      5.51469028e-001 5.43240011e-001 5.26669979e-001 5.18553972e-001
      5.25988996e-001 5.18063009e-001 5.38527012e-001 5.57963014e-001
      5.57048023e-001 5.66622972e-001 5.97084999e-001 6.27205014e-001
      6.62393987e-001 6.72297001e-001 6.91157997e-001 7.16629028e-001
      7.35391021e-001 7.59631991e-001 7.65720010e-001 7.80695021e-001</_>
    <_>
      5.92366993e-001 5.90732992e-001 4.53135014e-001 4.43260998e-001
      4.40185010e-001 4.38717991e-001 4.36697990e-001 4.81698990e-001
      5.20506978e-001 5.55500984e-001 5.67421973e-001 5.74082017e-001
      6.16149008e-001 6.45787001e-001 6.70193017e-001 6.76065028e-001
      6.83112025e-001 7.21122026e-001 7.37619996e-001 7.52994001e-001</_>
    <_>
      6.21815026e-001 6.19412005e-001 6.22296989e-001 6.27292991e-001
      5.83994985e-001 5.89132011e-001 5.92244029e-001 5.96783996e-001
      5.97054005e-001 6.87967002e-001 6.99259996e-001 7.02259004e-001
      7.07184970e-001 7.06458986e-001 7.70144999e-001 7.79815972e-001
      7.85151005e-001 7.89250016e-001 7.88895011e-001 8.34214985e-001</_>
    <_>
      6.78313017e-001 6.79396987e-001 6.87982023e-001 6.84926987e-001
      6.85401976e-001 6.89604998e-001 6.99011028e-001 7.13703990e-001
      7.12517023e-001 7.23164976e-001 7.34148979e-001 7.42573977e-001
      7.51277983e-001 7.50927985e-001 7.60233998e-001 7.65034974e-001
      7.71470010e-001 7.79983997e-001 7.81103015e-001 7.88525999e-001</_>
    <_>
      6.40874028e-001 6.10587001e-001 6.11476004e-001 6.09827995e-001
      6.20396018e-001 6.21057987e-001 5.95429003e-001 5.98695993e-001
      5.94416022e-001 6.01309001e-001 6.03206992e-001 6.31094992e-001
      6.52833998e-001 6.58758998e-001 6.63083017e-001 6.63821995e-001
      6.74462020e-001 6.70359015e-001 6.62011981e-001 6.70015991e-001</_>
    <_>
      6.98628008e-001 6.92331016e-001 5.75682998e-001 5.63235998e-001
      5.59799016e-001 5.57213008e-001 5.51394999e-001 6.13701999e-001
      6.18146002e-001 6.17677987e-001 6.23790979e-001 6.16653025e-001
      6.61284983e-001 6.50043011e-001 6.49488986e-001 6.53717995e-001
      6.46956980e-001 6.79899991e-001 6.81568980e-001 6.79655015e-001</_>
    <_>
      5.82562983e-001 5.70249021e-001 5.67803979e-001 4.24950987e-001
      4.14054006e-001 4.12808001e-001 4.03481990e-001 4.08154011e-001
      4.59048003e-001 5.25758028e-001 5.31041980e-001 5.57210982e-001
      5.62829018e-001 6.09686017e-001 6.48172021e-001 6.46278024e-001
      6.64699018e-001 6.72425985e-001 7.12511003e-001 7.38756001e-001</_>
    <_>
      7.19601989e-001 6.97311997e-001 6.77762985e-001 6.76710010e-001
      6.89413011e-001 6.97781026e-001 6.88449025e-001 6.80631995e-001
      6.83588028e-001 6.84355021e-001 6.84162974e-001 6.64444029e-001
      6.53723001e-001 6.57375991e-001 6.59919977e-001 6.45892024e-001
      6.10337019e-001 5.91000021e-001 5.91172993e-001 5.91597021e-001</_>
    <_>
      5.16535997e-001 4.82365012e-001 4.81884003e-001 4.82704997e-001
      5.01080990e-001 5.46452999e-001 5.80000997e-001 5.77754021e-001
      5.69652021e-001 5.85402012e-001 6.23288989e-001 6.57312989e-001
      6.58486009e-001 6.64713025e-001 6.90240979e-001 7.29341984e-001
      7.54926026e-001 7.58363008e-001 7.68359005e-001 7.89295018e-001</_>
    <_>
      6.21196985e-001 6.19692028e-001 6.20787024e-001 5.22206008e-001
      5.22269011e-001 5.23923993e-001 5.20527005e-001 5.20008981e-001
      6.18192971e-001 6.34378016e-001 6.38343990e-001 6.36982977e-001
      6.35604024e-001 7.09438980e-001 7.19408989e-001 7.23177016e-001
      7.20475018e-001 7.20924973e-001 7.77863979e-001 7.85393000e-001</_>
    <_>
      5.92024028e-001 5.92054009e-001 4.65788990e-001 4.51090008e-001
      4.36154008e-001 4.33353990e-001 4.33862001e-001 4.74723011e-001
      5.14333010e-001 5.49178004e-001 5.76637983e-001 5.85474014e-001
      6.24110997e-001 6.54636025e-001 6.76267982e-001 6.93373024e-001
      6.95841014e-001 7.32963026e-001 7.54595995e-001 7.70052016e-001</_>
    <_>
      6.17784977e-001 6.08523011e-001 5.53333998e-001 5.44679999e-001
      5.53094029e-001 5.31885982e-001 5.29901981e-001 5.41499019e-001
      5.55787981e-001 5.68638027e-001 5.86238980e-001 6.10983014e-001
      6.26230001e-001 6.52163982e-001 6.55435026e-001 6.69637978e-001
      6.82070971e-001 6.99917972e-001 7.28863001e-001 7.34499991e-001</_>
    <_>
      6.55037999e-001 6.53954029e-001 6.53358996e-001 5.41633010e-001
      5.39204001e-001 5.38384974e-001 5.40646017e-001 5.36738992e-001
      6.25959992e-001 6.30429029e-001 6.29878998e-001 6.30025983e-001
      6.28139019e-001 6.95954978e-001 6.99428976e-001 7.00968027e-001
      7.01936007e-001 7.02383995e-001 7.52771020e-001 7.55730987e-001</_>
    <_>
      6.47769988e-001 6.45949006e-001 6.42773986e-001 5.54355979e-001
      5.51856995e-001 5.47941029e-001 5.45805991e-001 5.42032003e-001
      6.35541022e-001 6.43247008e-001 6.44353986e-001 6.42068982e-001
      6.42876029e-001 7.11315989e-001 7.16696978e-001 7.18861997e-001
      7.19272971e-001 7.19327986e-001 7.67790973e-001 7.71466970e-001</_>
    <_>
      6.09327018e-001 6.07208014e-001 4.28876996e-001 4.44292992e-001
      4.58328992e-001 4.61093009e-001 4.61533010e-001 4.66412991e-001
      4.86333013e-001 5.36831975e-001 5.71942985e-001 5.83405018e-001
      5.92351973e-001 6.07433975e-001 6.40002012e-001 6.59951985e-001
      6.74064994e-001 6.94078028e-001 6.98207021e-001 7.14900017e-001</_>
    <_>
      6.45955980e-001 6.05916977e-001 5.75488985e-001 5.57820022e-001
      5.45664012e-001 5.55437982e-001 5.70976019e-001 5.94035983e-001
      6.13665998e-001 6.17124021e-001 6.28500998e-001 6.49819016e-001
      6.64641023e-001 6.79754972e-001 6.94893003e-001 7.03903019e-001
      7.24348009e-001 7.53950000e-001 7.64784992e-001 7.71762013e-001</_>
    <_>
      4.45120990e-001 4.38259006e-001 2.50090003e-001 2.27286994e-001
      2.14477003e-001 2.02926993e-001 1.98126003e-001 1.98466003e-001
      2.47455999e-001 2.94369012e-001 3.66786987e-001 4.17392999e-001
      4.48341995e-001 4.87993002e-001 5.23527980e-001 5.73463023e-001
      6.09504998e-001 6.53173983e-001 6.77947998e-001 7.04513013e-001</_>
    <_>
      6.67339027e-001 6.62149012e-001 6.57220006e-001 5.62447011e-001
      5.48968017e-001 5.43721020e-001 5.38748980e-001 5.41064024e-001
      6.01790011e-001 6.26941979e-001 6.24029994e-001 6.24745011e-001
      6.28232002e-001 6.72932982e-001 6.87296987e-001 6.80043995e-001
      6.78399026e-001 6.81293011e-001 7.15255022e-001 7.23821998e-001</_>
    <_>
      4.04769987e-001 4.89464998e-001 4.88685012e-001 4.76981997e-001
      4.62550014e-001 4.72332001e-001 5.23999989e-001 5.10729015e-001
      5.09635985e-001 5.00661016e-001 5.00271022e-001 5.58462977e-001
      5.53430021e-001 5.63911974e-001 5.96359015e-001 6.12739980e-001
      6.73828006e-001 6.81590021e-001 6.99622989e-001 7.24178016e-001</_>
    <_>
      5.89537978e-001 4.90247995e-001 4.79607999e-001 4.64926004e-001
      4.46662992e-001 4.35261011e-001 4.76444989e-001 4.92123008e-001
      5.09163976e-001 5.36489010e-001 5.53227007e-001 6.04210019e-001
      6.22713983e-001 6.38261974e-001 6.64712012e-001 6.78565979e-001
      7.19941020e-001 7.32922018e-001 7.44446993e-001 7.61478007e-001</_>
    <_>
      6.01566970e-001 6.00869000e-001 6.01786971e-001 4.54535991e-001
      4.53722000e-001 4.51146990e-001 4.50156003e-001 4.49488997e-001
      5.64324975e-001 5.74163973e-001 5.74527025e-001 5.77381015e-001
      5.76858997e-001 6.61529005e-001 6.68983996e-001 6.69497013e-001
      6.72194004e-001 6.72699988e-001 7.36048996e-001 7.39808023e-001</_>
    <_>
      7.18877017e-001 6.89141989e-001 6.56566978e-001 6.47581995e-001
      6.36233985e-001 6.29674017e-001 6.28956974e-001 6.43535018e-001
      6.82669997e-001 6.57233000e-001 6.58627987e-001 7.10748971e-001
      7.23102987e-001 7.49949992e-001 7.26532996e-001 7.19640970e-001
      7.46647000e-001 7.37349987e-001 7.53298998e-001 7.26505995e-001</_>
    <_>
      6.02411985e-001 6.00180984e-001 4.62424010e-001 4.65434015e-001
      4.66993988e-001 4.65480000e-001 4.66069996e-001 5.00349998e-001
      5.36647022e-001 5.71368992e-001 5.96655011e-001 6.01390004e-001
      6.39087021e-001 6.63390994e-001 6.85738981e-001 7.03912020e-001
      7.06920028e-001 7.43362010e-001 7.58011997e-001 7.70819008e-001</_>
    <_>
      5.97075999e-001 5.94595015e-001 5.93998015e-001 5.86951017e-001
      5.83523989e-001 5.80581009e-001 5.80087006e-001 5.80546975e-001
      5.80228984e-001 5.78976989e-001 5.81363976e-001 5.85268974e-001
      5.89160979e-001 5.96127987e-001 6.08556986e-001 6.18194997e-001
      6.31492019e-001 6.50813997e-001 6.68474019e-001 6.89688981e-001</_>
    <_>
      1.41277000e-001 1.15055002e-001 9.64690000e-002 8.11780021e-002
      6.87649995e-002 6.03419989e-002 5.40339984e-002 4.97899987e-002
      4.18949984e-002 3.68730016e-002 3.36639993e-002 3.38760018e-002
      3.62330005e-002 4.28679995e-002 6.64820001e-002 3.44056010e-001
      4.64670986e-001 4.79535997e-001 4.94017005e-001 5.29354990e-001</_>
    <_>
      5.94036996e-001 5.93623996e-001 4.46406007e-001 4.44169015e-001
      4.43244010e-001 4.41924989e-001 4.42689002e-001 5.69013000e-001
      5.71919024e-001 5.76729000e-001 5.81498981e-001 5.81471026e-001
      6.90962970e-001 6.92052007e-001 6.95446014e-001 6.98222995e-001
      6.98392987e-001 7.77432024e-001 7.77885973e-001 7.79513001e-001</_>
    <_>
      4.97583002e-001 5.04365027e-001 5.07975996e-001 5.17840028e-001
      5.31809986e-001 5.37913978e-001 5.52249014e-001 5.62628984e-001
      5.77818990e-001 5.93420982e-001 6.10767007e-001 6.21497989e-001
      6.42588973e-001 6.60175025e-001 6.69381022e-001 6.83512986e-001
      6.98500991e-001 7.24170029e-001 7.48547971e-001 7.62453020e-001</_>
    <_>
      4.47131008e-001 4.37824994e-001 4.30864990e-001 4.32007998e-001
      4.27356988e-001 4.32761014e-001 4.36926007e-001 4.44792986e-001
      4.49699014e-001 4.63708013e-001 4.75894004e-001 4.89120990e-001
      5.00953019e-001 5.17089009e-001 5.35154998e-001 5.61957002e-001
      5.86356997e-001 6.18965983e-001 6.42563999e-001 6.66184008e-001</_>
    <_>
      1.62992999e-001 1.61879003e-001 1.73743993e-001 1.88684002e-001
      2.02164993e-001 2.16380000e-001 2.39127994e-001 2.68041015e-001
      2.93224990e-001 3.14361006e-001 3.46038014e-001 3.74686986e-001
      4.03035998e-001 4.32698011e-001 4.65382010e-001 5.01392007e-001
      5.48973978e-001 5.92328012e-001 6.35514021e-001 6.83143973e-001</_>
    <_>
      4.62749004e-001 4.58586991e-001 4.55893993e-001 4.52124000e-001
      5.98636985e-001 5.94344020e-001 5.92531025e-001 5.93253016e-001
      5.92388988e-001 6.85756981e-001 6.88355029e-001 6.89345002e-001
      7.00004995e-001 7.03980982e-001 7.67988026e-001 7.69856989e-001
      7.64051974e-001 7.65056014e-001 7.49495029e-001 7.81374991e-001</_>
    <_>
      4.49227005e-001 4.60934013e-001 4.80737001e-001 5.04531980e-001
      5.16099989e-001 5.21071017e-001 5.46320021e-001 5.46481013e-001
      5.62932014e-001 5.63710988e-001 5.56406021e-001 5.84585011e-001
      5.93455017e-001 6.05897009e-001 6.01395011e-001 5.95210016e-001
      6.06800020e-001 6.13640010e-001 6.33742988e-001 6.40299976e-001</_>
    <_>
      6.80822015e-001 6.72245026e-001 6.58993006e-001 6.55571997e-001
      6.62373006e-001 6.63879991e-001 6.68277025e-001 6.61552012e-001
      6.65639997e-001 6.74543023e-001 6.79005027e-001 6.89446986e-001
      6.98713005e-001 7.05226004e-001 7.09928989e-001 7.16435015e-001
      7.22223997e-001 7.27307975e-001 7.31024027e-001 7.37787008e-001</_>
    <_>
      5.93704998e-001 5.74581027e-001 5.57188988e-001 5.47991991e-001
      5.42491019e-001 5.30000985e-001 5.34084976e-001 5.43273985e-001
      5.52857995e-001 5.73688984e-001 5.78164995e-001 5.93379021e-001
      6.08583987e-001 6.17007017e-001 6.31923020e-001 6.42470002e-001
      6.48599029e-001 6.51633024e-001 6.53823018e-001 6.60295010e-001</_>
    <_>
      6.66503012e-001 6.63805008e-001 6.67271972e-001 6.68676972e-001
      6.76487982e-001 6.76472008e-001 6.88464999e-001 6.93108976e-001
      7.14415014e-001 7.27500021e-001 7.36571014e-001 7.44539022e-001
      7.59279013e-001 7.71888018e-001 7.79074013e-001 7.85968006e-001
      7.95668006e-001 7.99838006e-001 8.11138988e-001 8.12833011e-001</_>
    <_>
      6.09932005e-001 5.93865991e-001 5.78872979e-001 5.68798006e-001
      5.64870000e-001 5.62075019e-001 5.64051986e-001 5.71435988e-001
      5.82063019e-001 5.95848024e-001 6.14641011e-001 6.31960988e-001
      6.55564010e-001 6.77109003e-001 6.91883028e-001 7.10632980e-001
      7.27289975e-001 7.43484020e-001 7.59657979e-001 7.69800007e-001</_>
    <_>
      6.03442013e-001 6.03914976e-001 6.11671984e-001 5.10403991e-001
      5.13089001e-001 5.16282022e-001 5.17940998e-001 5.22414982e-001
      6.21811986e-001 6.23867989e-001 6.34303987e-001 6.35313988e-001
      6.38965011e-001 7.08890975e-001 7.08038986e-001 7.12369978e-001
      7.15533972e-001 7.18393981e-001 7.67485976e-001 7.70539999e-001</_>
    <_>
      7.06059992e-001 6.91118002e-001 6.71642005e-001 6.67389989e-001
      6.64942026e-001 6.64053023e-001 6.66354001e-001 6.75246000e-001
      6.86079979e-001 6.97140992e-001 7.08711028e-001 7.19428003e-001
      7.31100976e-001 7.30783999e-001 7.28811026e-001 7.28703022e-001
      7.27859020e-001 7.28055000e-001 7.14984000e-001 7.09946990e-001</_>
    <_>
      7.27859020e-001 7.28055000e-001 7.14984000e-001 7.09946990e-001
      7.07399011e-001 7.17346013e-001 7.31314003e-001 7.21989989e-001
      7.31019974e-001 7.31586993e-001 7.38810003e-001 7.52179027e-001
      7.20735013e-001 7.27042019e-001 7.25070000e-001 7.31706977e-001
      7.35123992e-001 6.73200011e-001 6.76492989e-001 6.66845024e-001</_>
    <_>
      5.54117024e-001 5.64597011e-001 5.72179019e-001 5.85039973e-001
      5.98630011e-001 6.16388023e-001 6.33683026e-001 6.45515978e-001
      6.60320997e-001 6.73699975e-001 6.84942007e-001 6.98311985e-001
      7.10693002e-001 7.23544002e-001 7.33388007e-001 7.42740989e-001
      7.55451024e-001 7.68774986e-001 7.79343009e-001 7.87452996e-001</_>
    <_>
      4.49351013e-001 4.48383987e-001 4.47699010e-001 4.56660002e-001
      4.56517011e-001 4.63452995e-001 4.72236991e-001 4.76498008e-001
      4.86941993e-001 4.99980986e-001 5.07189989e-001 5.17260015e-001
      5.27493000e-001 5.34660995e-001 5.47654986e-001 5.62852025e-001
      5.70065975e-001 5.84169984e-001 5.97630978e-001 6.05768025e-001</_>
    <_>
      6.39842987e-001 6.50618970e-001 6.55471981e-001 6.62222028e-001
      6.59124017e-001 6.65567994e-001 6.86999977e-001 7.05091000e-001
      7.25557983e-001 7.27926016e-001 7.44166970e-001 7.49450982e-001
      7.60428011e-001 7.82445014e-001 7.87087023e-001 7.89956987e-001
      7.89368987e-001 7.93431997e-001 8.01715016e-001 8.08776021e-001</_>
    <_>
      5.77199996e-001 5.75123012e-001 4.29778010e-001 4.28131998e-001
      4.23743010e-001 4.19613987e-001 4.17861015e-001 5.16465008e-001
      5.19635975e-001 5.49476981e-001 5.66672981e-001 5.74344993e-001
      6.54663026e-001 6.54129028e-001 6.75400019e-001 6.87195003e-001
      6.92773998e-001 7.55918026e-001 7.57479012e-001 7.69667029e-001</_>
    <_>
      4.53855991e-001 4.49349999e-001 4.56952006e-001 4.44640011e-001
      4.48496997e-001 5.33544004e-001 5.27010024e-001 5.36617994e-001
      5.50018013e-001 5.51697016e-001 6.15118980e-001 6.19886994e-001
      6.28852010e-001 6.43230975e-001 6.57375991e-001 7.08536029e-001
      7.16632009e-001 7.34490991e-001 7.46156991e-001 7.52865016e-001</_>
    <_>
      7.06242025e-001 6.99482024e-001 6.88400984e-001 6.83628023e-001
      6.73047006e-001 6.25594020e-001 6.28737986e-001 6.32128000e-001
      6.35140002e-001 6.37762010e-001 5.66851974e-001 5.71022987e-001
      5.77309012e-001 5.81483006e-001 5.80628991e-001 4.70705003e-001
      4.71911013e-001 4.73942995e-001 4.73401994e-001 4.70283002e-001</_>
    <_>
      7.08742976e-001 7.12172985e-001 6.92044973e-001 6.58168018e-001
      6.29097998e-001 6.27847016e-001 6.38961017e-001 6.55727029e-001
      6.72622025e-001 6.62283003e-001 6.84063971e-001 7.01108992e-001
      7.15394974e-001 7.30861008e-001 7.34301984e-001 7.45428979e-001
      7.62565017e-001 7.71970987e-001 7.76418984e-001 7.73136020e-001</_>
    <_>
      5.96683979e-001 6.00133002e-001 5.97404003e-001 5.93833983e-001
      5.97792983e-001 6.00722015e-001 5.98861992e-001 6.08502984e-001
      6.26357019e-001 6.37237012e-001 6.45631015e-001 6.44210994e-001
      6.57374978e-001 6.83472991e-001 7.01168001e-001 7.09546030e-001
      7.12337017e-001 7.31441975e-001 7.54652977e-001 7.72526979e-001</_>
    <_>
      7.21083999e-001 7.06826985e-001 7.01658010e-001 6.96250975e-001
      6.94025993e-001 7.04555988e-001 7.03064978e-001 7.06930995e-001
      7.16786981e-001 7.23083973e-001 7.30949998e-001 7.39494979e-001
      7.46387005e-001 7.46653020e-001 7.50141025e-001 7.53597021e-001
      7.62067974e-001 7.73207009e-001 7.77729988e-001 7.79630005e-001</_>
    <_>
      4.49090004e-001 4.28310007e-001 4.03717995e-001 4.04875010e-001
      3.97482991e-001 2.70682991e-001 2.60416001e-001 2.58322001e-001
      2.67304987e-001 2.95406997e-001 4.85958010e-001 5.13378978e-001
      5.08431017e-001 5.13315022e-001 5.30709982e-001 6.73094988e-001
      6.92686021e-001 6.94624007e-001 6.85908973e-001 7.01884985e-001</_>
    <_>
      6.53315008e-001 6.23817027e-001 5.91539025e-001 5.69688976e-001
      5.45062006e-001 5.27002990e-001 5.33401012e-001 5.40166974e-001
      5.53876996e-001 5.79952002e-001 5.97706020e-001 6.19603992e-001
      6.41049981e-001 6.54621005e-001 6.77617013e-001 6.91603005e-001
      7.13101029e-001 7.32306004e-001 7.41508007e-001 7.58569002e-001</_>
    <_>
      7.04355001e-001 6.77721024e-001 6.44429028e-001 6.23631001e-001
      6.13080978e-001 6.07922971e-001 6.13031030e-001 6.21927023e-001
      6.25450015e-001 6.26565993e-001 6.35429978e-001 6.51508987e-001
      6.68223977e-001 6.76033020e-001 6.87161982e-001 6.94893003e-001
      7.08974004e-001 7.23246992e-001 7.28929996e-001 7.34211981e-001</_>
    <_>
      8.77201021e-001 8.32951009e-001 8.17983985e-001 7.35367000e-001
      7.18306005e-001 7.66618013e-001 7.32545018e-001 7.22563028e-001
      7.12710977e-001 7.15883017e-001 7.47503996e-001 6.84312999e-001
      6.92451000e-001 6.95168972e-001 6.79973006e-001 6.79114997e-001
      5.76236010e-001 6.03812993e-001 6.24027014e-001 5.83670974e-001</_>
    <_>
      4.34038013e-001 4.33432996e-001 4.58483011e-001 4.04695988e-001
      3.68259013e-001 2.10646003e-001 2.24794999e-001 2.27245003e-001
      2.15921998e-001 2.45031998e-001 4.67063010e-001 4.71960992e-001
      4.80928987e-001 4.79131997e-001 4.91955996e-001 6.39356971e-001
      6.41517997e-001 6.49941027e-001 6.70574009e-001 6.54025972e-001</_>
    <_>
      7.02555001e-001 6.81505024e-001 6.70118988e-001 6.51405990e-001
      6.36415005e-001 6.25846028e-001 6.28714025e-001 6.26675010e-001
      6.34386003e-001 6.56840980e-001 6.71666980e-001 6.77586019e-001
      6.83930993e-001 7.05920994e-001 7.23106027e-001 7.41739988e-001
      7.43853986e-001 7.46917009e-001 7.59725988e-001 7.68682003e-001</_>
    <_>
      6.26348972e-001 6.18865013e-001 6.20392025e-001 5.90570986e-001
      5.13581991e-001 5.06488025e-001 4.99554992e-001 5.00685990e-001
      5.30664980e-001 6.17516994e-001 6.32435024e-001 6.36951029e-001
      6.39544010e-001 6.66574001e-001 7.24583030e-001 7.35687017e-001
      7.41517007e-001 7.45634973e-001 7.64694989e-001 8.03282976e-001</_>
    <_>
      5.94509006e-001 5.90867996e-001 5.75317025e-001 5.48624992e-001
      5.08265972e-001 4.94177014e-001 4.91317987e-001 4.71129000e-001
      4.28584993e-001 5.72193027e-001 6.13555014e-001 6.17367983e-001
      6.24632001e-001 6.00040019e-001 6.79341018e-001 7.04895020e-001
      7.06476986e-001 7.35239983e-001 7.25771010e-001 7.58724988e-001</_>
    <_>
      4.92536008e-001 4.75461990e-001 3.95379990e-001 3.50630999e-001
      2.95933008e-001 2.95643002e-001 2.70150989e-001 2.99791008e-001
      3.40131998e-001 3.70905012e-001 3.69821012e-001 4.10797000e-001
      4.59904999e-001 5.09540975e-001 5.70546985e-001 5.72066009e-001
      6.03794992e-001 6.43610001e-001 6.81981981e-001 7.31332004e-001</_>
    <_>
      6.46044016e-001 6.30753994e-001 6.20826006e-001 6.20751023e-001
      6.18916988e-001 6.20814979e-001 6.19524002e-001 6.27146006e-001
      6.32643998e-001 6.41157985e-001 6.48609996e-001 6.63994014e-001
      6.79256022e-001 6.91073000e-001 7.03503013e-001 7.17396975e-001
      7.31737971e-001 7.42663980e-001 7.52929986e-001 7.63242006e-001</_>
    <_>
      6.60292029e-001 6.46012008e-001 6.40945971e-001 6.31808996e-001
      6.26151025e-001 6.20378971e-001 6.15279973e-001 6.12941980e-001
      6.25761986e-001 6.36970997e-001 6.48459971e-001 6.62319005e-001
      6.73977971e-001 6.91606998e-001 7.08977997e-001 7.19043016e-001
      7.32944012e-001 7.66138017e-001 7.80891001e-001 7.92923987e-001</_>
    <_>
      5.48852980e-001 5.14427006e-001 5.00805020e-001 4.64711994e-001
      4.01915014e-001 3.64876002e-001 3.12518001e-001 3.28013986e-001
      3.98258001e-001 4.09375995e-001 4.74923998e-001 5.73723018e-001
      5.81142008e-001 6.40263021e-001 6.67738020e-001 6.91778004e-001
      7.44808972e-001 7.46752977e-001 7.90888011e-001 8.27255011e-001</_>
    <_>
      6.60699010e-001 6.34657979e-001 6.10423982e-001 5.73269010e-001
      5.38327992e-001 5.19674003e-001 5.14658988e-001 5.30420005e-001
      5.64704001e-001 6.04960024e-001 6.29962981e-001 6.56085014e-001
      6.69986010e-001 7.04626024e-001 7.35531986e-001 7.52716005e-001
      7.73015976e-001 7.81524003e-001 8.08349013e-001 8.26484025e-001</_>
    <_>
      5.51469028e-001 5.33020973e-001 5.01263022e-001 4.82811987e-001
      4.67779994e-001 4.52847987e-001 4.26306993e-001 4.15838003e-001
      4.30646002e-001 4.46727991e-001 4.79054987e-001 5.11164010e-001
      5.74437976e-001 6.00732028e-001 6.18048012e-001 6.47135019e-001
      6.70562983e-001 7.16553986e-001 7.35639989e-001 7.48638988e-001</_>
    <_>
      6.75759971e-001 6.53312981e-001 6.38364017e-001 6.30972981e-001
      6.27479017e-001 6.11500025e-001 6.06206000e-001 6.04773998e-001
      6.11365974e-001 6.27533019e-001 6.43697977e-001 6.69007003e-001
      7.02880979e-001 7.19080985e-001 7.29076982e-001 7.44684994e-001
      7.62024999e-001 7.83815026e-001 7.95480013e-001 8.03740978e-001</_>
    <_>
      6.54694021e-001 6.11626983e-001 5.93644977e-001 5.64974010e-001
      5.57362020e-001 5.54817021e-001 5.58206022e-001 5.45543015e-001
      5.64060986e-001 5.82719982e-001 6.01511002e-001 6.24674976e-001
      6.42431974e-001 6.64610982e-001 6.87323987e-001 7.09662020e-001
      7.29929984e-001 7.43058026e-001 7.60074019e-001 7.72707999e-001</_>
    <_>
      5.72974026e-001 5.64512014e-001 5.31383991e-001 5.11444986e-001
      5.01554012e-001 4.90159988e-001 4.74682987e-001 4.77979988e-001
      4.79804993e-001 4.95974988e-001 5.26462018e-001 5.58597028e-001
      6.04700983e-001 6.19596004e-001 6.38378978e-001 6.61909997e-001
      6.84350014e-001 7.12222993e-001 7.18532979e-001 7.31553018e-001</_>
    <_>
      7.03063011e-001 6.58010006e-001 6.13770008e-001 5.91977000e-001
      5.70240974e-001 5.48345983e-001 5.64617991e-001 5.61812997e-001
      5.76089978e-001 5.84290028e-001 5.94660997e-001 6.27210021e-001
      6.58749998e-001 6.87835991e-001 7.00649023e-001 7.07390010e-001
      7.26064026e-001 7.48080015e-001 7.65447974e-001 7.74026990e-001</_>
    <_>
      5.20738006e-001 5.24159014e-001 5.22132993e-001 4.84335989e-001
      3.90987009e-001 3.54303986e-001 3.57071996e-001 3.56954008e-001
      3.52196008e-001 4.21943992e-001 5.33855975e-001 5.40175021e-001
      5.42469025e-001 5.44234991e-001 6.01786017e-001 6.79753006e-001
      6.83439016e-001 6.84777021e-001 6.90470994e-001 7.34425008e-001</_>
    <_>
      6.78386986e-001 6.61761999e-001 6.52879000e-001 6.39795005e-001
      6.29679978e-001 6.31356001e-001 6.30780995e-001 6.32413983e-001
      6.36702001e-001 6.47183001e-001 6.61823988e-001 6.74466014e-001
      6.80245996e-001 6.95248008e-001 7.11463988e-001 7.25090027e-001
      7.36168027e-001 7.43239999e-001 7.52995014e-001 7.63942003e-001</_>
    <_>
      6.05951011e-001 5.78122973e-001 5.64540029e-001 5.63099980e-001
      5.64181030e-001 5.58646023e-001 5.59183002e-001 5.65174997e-001
      5.70398986e-001 5.85690022e-001 6.03248000e-001 6.23468995e-001
      6.35351002e-001 6.49863005e-001 6.70023978e-001 6.87539995e-001
      7.02687979e-001 7.10767984e-001 7.18572021e-001 7.34036982e-001</_>
    <_>
      7.03256011e-001 6.84325993e-001 6.95082009e-001 7.07027018e-001
      6.93238020e-001 6.61625981e-001 6.61229014e-001 6.74234986e-001
      7.03644991e-001 6.81993008e-001 7.15295017e-001 7.27702975e-001
      7.37711012e-001 7.56394982e-001 7.46693015e-001 7.65263021e-001
      7.88968027e-001 7.89281011e-001 8.22704017e-001 8.18421006e-001</_>
    <_>
      5.08551002e-001 4.51301008e-001 4.04567003e-001 3.75903010e-001
      3.53686005e-001 3.42485994e-001 3.38173002e-001 3.38791996e-001
      3.47016990e-001 3.57140988e-001 3.97058010e-001 4.44577008e-001
      5.05357027e-001 5.42151988e-001 5.69890976e-001 6.03410006e-001
      6.43399000e-001 6.88953996e-001 7.13739991e-001 7.33582973e-001</_>
    <_>
      6.27080977e-001 6.28206015e-001 6.29736006e-001 6.32884979e-001
      5.92029989e-001 5.80384016e-001 5.79144001e-001 5.86426020e-001
      5.99209011e-001 6.43275976e-001 6.40756011e-001 6.43666029e-001
      6.52032018e-001 6.50219023e-001 6.66091979e-001 6.62002027e-001
      6.63133025e-001 6.65199995e-001 6.47062004e-001 6.33855999e-001</_>
    <_>
      6.62002027e-001 6.63133025e-001 6.65199995e-001 6.47062004e-001
      6.33855999e-001 6.26389980e-001 6.27353013e-001 6.34898007e-001
      6.70580029e-001 7.01866984e-001 7.31124997e-001 7.31975019e-001
      7.40640998e-001 7.65569985e-001 7.84943998e-001 8.04791987e-001
      8.04409027e-001 8.09047997e-001 8.24302018e-001 8.34380984e-001</_>
    <_>
      5.44266999e-001 5.54947972e-001 5.63275993e-001 5.77180982e-001
      5.81573009e-001 5.88450015e-001 6.00741029e-001 6.11620009e-001
      6.21743977e-001 6.28253996e-001 6.36979997e-001 6.43803000e-001
      6.55587971e-001 6.62714005e-001 6.65862978e-001 6.74210012e-001
      6.80730999e-001 6.87600970e-001 6.98153019e-001 6.99257016e-001</_>
    <_>
      5.46760023e-001 5.46333015e-001 5.43163002e-001 5.37319005e-001
      5.39276004e-001 5.34568012e-001 5.31489015e-001 5.32346010e-001
      5.40009022e-001 5.39384007e-001 5.37205994e-001 5.42339027e-001
      5.38537025e-001 5.40709019e-001 5.45671999e-001 5.35944998e-001
      5.36481023e-001 5.43522000e-001 5.41613996e-001 5.45373976e-001</_>
    <_>
      6.07060015e-001 6.10174000e-001 6.14292026e-001 6.18484974e-001
      6.25267029e-001 6.28024995e-001 6.29891992e-001 6.36484981e-001
      6.39994979e-001 6.44715011e-001 6.49075985e-001 6.52369022e-001
      6.54363990e-001 6.60368025e-001 6.65884018e-001 6.71907008e-001
      6.76423013e-001 6.80387974e-001 6.85256004e-001 6.92772985e-001</_>
    <_>
      6.39957011e-001 6.33005023e-001 6.32701993e-001 6.31982982e-001
      6.30913019e-001 6.30246997e-001 6.28876984e-001 6.30371988e-001
      6.35738015e-001 6.39903009e-001 6.39469981e-001 6.44542992e-001
      6.50674999e-001 6.55795991e-001 6.62029982e-001 6.67867005e-001
      6.70557022e-001 6.76229000e-001 6.81303978e-001 6.82210028e-001</_>
    <_>
      6.86019003e-001 6.81596994e-001 6.82811022e-001 6.84457004e-001
      6.84421003e-001 6.89104974e-001 6.95295990e-001 6.98643029e-001
      7.10267007e-001 7.20169008e-001 7.28443980e-001 7.45329022e-001
      7.57817984e-001 7.70834029e-001 7.79217005e-001 7.90655017e-001
      8.04337025e-001 8.14500988e-001 8.21726024e-001 8.24752986e-001</_>
    <_>
      6.27111971e-001 6.21854007e-001 6.14555001e-001 6.14037991e-001
      6.13587022e-001 6.15052998e-001 6.19136989e-001 6.15083992e-001
      6.18429005e-001 6.37830019e-001 6.54621005e-001 6.79148972e-001
      7.07125008e-001 7.23345995e-001 7.37331986e-001 7.46775985e-001
      7.63431013e-001 7.79309988e-001 7.91181982e-001 8.03847015e-001</_>
    <_>
      6.31803989e-001 6.33664012e-001 6.38109028e-001 6.42591000e-001
      6.42998993e-001 6.44824982e-001 6.48723006e-001 6.52190983e-001
      6.56397998e-001 6.58729970e-001 6.60260975e-001 6.65121019e-001
      6.67526007e-001 6.70002997e-001 6.73169017e-001 6.76721990e-001
      6.82156980e-001 6.87161982e-001 6.92990005e-001 6.96123004e-001</_>
    <_>
      6.10562980e-001 5.99183023e-001 6.03506982e-001 6.02586985e-001
      5.96574008e-001 5.98556995e-001 6.02096975e-001 6.05832994e-001
      6.12022996e-001 6.18960023e-001 6.20159984e-001 6.28614008e-001
      6.41534984e-001 6.47809982e-001 6.58648014e-001 6.73844993e-001
      6.80185974e-001 6.95729971e-001 7.04985976e-001 7.12355971e-001</_>
    <_>
      5.93361020e-001 5.93618989e-001 5.99379003e-001 5.89502990e-001
      5.78238010e-001 5.67134976e-001 5.74660003e-001 5.69203973e-001
      5.65360010e-001 5.60883999e-001 5.50028980e-001 5.39718986e-001
      5.42200983e-001 5.31813979e-001 5.26687980e-001 5.19728005e-001
      5.24995983e-001 5.11070013e-001 5.22063017e-001 5.17364979e-001</_>
    <_>
      1.40735999e-001 1.15272000e-001 9.60680023e-002 8.22950006e-002
      7.82869980e-002 7.76910037e-002 7.88159966e-002 8.00110027e-002
      9.10310000e-002 1.15342997e-001 1.60194993e-001 2.28918999e-001
      3.06860000e-001 3.95895988e-001 4.31176007e-001 4.72692013e-001
      5.28865993e-001 5.86628973e-001 6.52848005e-001 6.97417974e-001</_>
    <_>
      5.09828985e-001 4.81254995e-001 4.66156989e-001 4.50269014e-001
      4.45336998e-001 4.48783010e-001 4.44159001e-001 4.48621988e-001
      4.69714999e-001 4.96901006e-001 5.25817990e-001 5.68916023e-001
      6.03331029e-001 6.23564005e-001 6.47714972e-001 6.69565022e-001
      7.01498985e-001 7.26441026e-001 7.41756976e-001 7.60748982e-001</_>
    <_>
      4.18785006e-001 3.82142991e-001 3.57466012e-001 3.57562006e-001
      3.49393994e-001 3.44898999e-001 3.39094013e-001 3.39439005e-001
      3.62507999e-001 4.00959015e-001 4.47425991e-001 4.89253998e-001
      5.39168000e-001 5.61913013e-001 5.92728972e-001 6.31663978e-001
      6.64900005e-001 6.99835002e-001 7.20200002e-001 7.43511975e-001</_>
    <_>
      3.39089006e-001 2.85905004e-001 2.48233005e-001 2.44945005e-001
      2.44543999e-001 2.42115006e-001 2.53232002e-001 2.71135002e-001
      2.96200007e-001 3.30538988e-001 3.68683010e-001 4.17180002e-001
      4.73742008e-001 5.13117015e-001 5.46311021e-001 5.80160022e-001
      6.22716010e-001 6.60254002e-001 6.89446986e-001 7.20255971e-001</_>
    <_>
      5.94460011e-001 5.88447988e-001 5.77700019e-001 5.75442016e-001
      5.73994994e-001 5.70941985e-001 5.81094027e-001 5.83025992e-001
      5.85483015e-001 5.98627985e-001 6.06203973e-001 6.17353976e-001
      6.28795981e-001 6.41528010e-001 6.59379005e-001 6.84072971e-001
      6.99778020e-001 7.23007023e-001 7.35903978e-001 7.51138985e-001</_>
    <_>
      6.12846017e-001 6.01996005e-001 6.02688015e-001 6.10803008e-001
      6.06899023e-001 6.06509984e-001 6.09654009e-001 6.13201022e-001
      6.24191999e-001 6.32031977e-001 6.30882025e-001 6.37809992e-001
      6.56395018e-001 6.71482027e-001 6.90168977e-001 7.15179980e-001
      7.30965018e-001 7.44433999e-001 7.55427003e-001 7.67454028e-001</_>
    <_>
      5.94609022e-001 5.92265010e-001 5.88129997e-001 5.82252026e-001
      5.80928981e-001 5.77265978e-001 5.78877985e-001 5.82297027e-001
      5.81345022e-001 5.86440980e-001 5.90340018e-001 6.02059007e-001
      6.11140013e-001 6.21966004e-001 6.39357984e-001 6.55552983e-001
      6.81864023e-001 7.03492999e-001 7.21449018e-001 7.35628009e-001</_>
    <_>
      5.77049971e-001 5.74383974e-001 5.70975006e-001 5.62457025e-001
      5.64128995e-001 5.67245007e-001 5.70159018e-001 5.73415995e-001
      5.71024001e-001 5.78166008e-001 5.85412979e-001 5.98885000e-001
      6.05858982e-001 6.19822025e-001 6.42715991e-001 6.62874997e-001
      6.87370002e-001 7.06991971e-001 7.28121996e-001 7.44391024e-001</_>
    <_>
      5.52359998e-001 5.52457988e-001 5.52720010e-001 5.60404003e-001
      5.60146987e-001 5.61327994e-001 5.73907971e-001 5.78342021e-001
      5.82643986e-001 5.97244024e-001 5.97968996e-001 6.10167027e-001
      6.22398973e-001 6.28733993e-001 6.37903988e-001 6.51494026e-001
      6.65202022e-001 6.77802026e-001 6.93881989e-001 7.07145989e-001</_>
    <_>
      6.09826982e-001 6.07442021e-001 6.12990022e-001 6.20764017e-001
      6.24994993e-001 6.32420003e-001 6.44523025e-001 6.50445998e-001
      6.56458020e-001 6.70053005e-001 6.76012993e-001 6.86690986e-001
      6.97458982e-001 7.04532981e-001 7.20893025e-001 7.32608974e-001
      7.45993972e-001 7.59029984e-001 7.78940022e-001 8.04655015e-001</_>
    <_>
      5.31593025e-001 5.13271987e-001 5.06715000e-001 5.05024016e-001
      4.91338998e-001 4.90314007e-001 5.00800014e-001 5.00401020e-001
      5.10634005e-001 5.23931980e-001 5.32500029e-001 5.54499984e-001
      5.82304001e-001 6.11335993e-001 6.44452989e-001 6.67158008e-001
      6.85446024e-001 7.06984997e-001 7.28191018e-001 7.51765013e-001</_>
    <_>
      6.28295004e-001 6.22376978e-001 6.13686025e-001 6.13424003e-001
      6.08052015e-001 6.10013008e-001 6.16158009e-001 6.16689980e-001
      6.24530017e-001 6.32740021e-001 6.45133972e-001 6.57441020e-001
      6.70360982e-001 6.83219016e-001 6.97318017e-001 7.17549980e-001
      7.36931026e-001 7.48122990e-001 7.58422017e-001 7.68620014e-001</_>
    <_>
      5.69800973e-001 5.57151020e-001 5.49919009e-001 5.37340999e-001
      5.37582994e-001 5.36783993e-001 5.31554997e-001 5.35040975e-001
      5.39596021e-001 5.49419999e-001 5.59789002e-001 5.69904029e-001
      5.80676019e-001 5.96857011e-001 6.23852015e-001 6.48976982e-001
      6.72746003e-001 6.94626987e-001 7.16090977e-001 7.35746026e-001</_>
    <_>
      4.92130995e-001 4.51115012e-001 4.21420008e-001 4.06888992e-001
      3.98705989e-001 3.98743987e-001 4.01638001e-001 4.08221990e-001
      4.20946002e-001 4.45995003e-001 4.77355987e-001 5.05699992e-001
      5.53137004e-001 5.88241994e-001 6.09624982e-001 6.34518981e-001
      6.61009014e-001 6.94239974e-001 7.17087984e-001 7.37435997e-001</_>
    <_>
      6.26933992e-001 6.24984980e-001 6.21326983e-001 6.17376029e-001
      6.10464990e-001 6.02389991e-001 5.98213017e-001 5.96455991e-001
      5.88437974e-001 5.83845019e-001 5.82677007e-001 5.77175975e-001
      5.77751994e-001 5.83514988e-001 5.84865987e-001 5.95362008e-001
      5.97245991e-001 6.03541017e-001 6.25975013e-001 6.53953016e-001</_>
    <_>
      4.00646001e-001 3.98667008e-001 4.06221002e-001 4.13293988e-001
      4.26914990e-001 4.40028995e-001 4.55137014e-001 4.77697015e-001
      4.98652995e-001 5.29667974e-001 5.53718984e-001 5.68288028e-001
      5.87763011e-001 6.06135011e-001 6.29733980e-001 6.47656977e-001
      6.60519004e-001 6.74275994e-001 6.87952995e-001 7.05515027e-001</_>
    <_>
      6.33985996e-001 6.32676005e-001 6.34639978e-001 6.27050996e-001
      6.27466977e-001 6.27939999e-001 6.28145993e-001 6.31748974e-001
      6.32094979e-001 6.40854001e-001 6.59608006e-001 6.81692004e-001
      7.12800026e-001 7.41110981e-001 7.59150982e-001 7.78896987e-001
      7.99030006e-001 8.23509991e-001 8.45691979e-001 8.57846975e-001</_>
    <_>
      5.56311011e-001 5.42373002e-001 5.48300982e-001 5.48371971e-001
      5.53758979e-001 5.58005989e-001 5.61486006e-001 5.77005029e-001
      5.90957999e-001 6.00997984e-001 6.12124026e-001 6.23333991e-001
      6.40428007e-001 6.63206995e-001 6.87906027e-001 7.09015012e-001
      7.23110974e-001 7.37748981e-001 7.55616009e-001 7.72880018e-001</_>
    <_>
      5.87966979e-001 5.86628973e-001 5.81683993e-001 5.72521985e-001
      5.57816029e-001 5.48040986e-001 5.46149015e-001 5.72480023e-001
      5.94713986e-001 6.21647000e-001 6.53486013e-001 6.62818015e-001
      6.80712998e-001 7.02664018e-001 7.23679006e-001 7.43254006e-001
      7.55414009e-001 7.69463003e-001 7.80798018e-001 7.97783971e-001</_>
    <_>
      1.38316005e-001 1.32688999e-001 1.15768999e-001 1.11116998e-001
      1.05091996e-001 9.60870013e-002 9.57529992e-002 9.41800028e-002
      9.54430029e-002 1.00149997e-001 1.11918002e-001 1.48928002e-001
      2.00147003e-001 2.73979008e-001 3.77647996e-001 4.40416008e-001
      4.87322003e-001 5.34927011e-001 5.99171996e-001 6.80199027e-001</_>
    <_>
      1.14496000e-001 1.05715998e-001 1.00147001e-001 9.71049964e-002
      9.60320011e-002 9.93740037e-002 9.78040025e-002 9.80380028e-002
      9.86950025e-002 1.05656996e-001 1.12815998e-001 1.18472002e-001
      1.32051006e-001 1.49501994e-001 1.77764997e-001 2.43939996e-001
      3.50468993e-001 4.55635995e-001 4.94536996e-001 5.51447988e-001</_>
    <_>
      1.12086996e-001 1.01598002e-001 9.17820036e-002 8.50749984e-002
      8.30740035e-002 8.13999996e-002 7.77010024e-002 7.22040012e-002
      6.81470037e-002 6.98070005e-002 6.99779987e-002 6.83719963e-002
      6.54729977e-002 6.42959997e-002 7.55050033e-002 9.43849981e-002
      1.25320002e-001 3.08402985e-001 4.70964015e-001 5.18543005e-001</_>
    <_>
      5.08454978e-001 5.12760997e-001 5.12543023e-001 5.11722028e-001
      5.11619985e-001 5.14374971e-001 5.28281987e-001 5.39537013e-001
      5.43875992e-001 5.57805002e-001 5.71802020e-001 5.87213993e-001
      6.04206979e-001 6.20854974e-001 6.41340971e-001 6.69659019e-001
      6.97104990e-001 7.22103000e-001 7.42892981e-001 7.57486999e-001</_>
    <_>
      5.79549015e-001 5.67165017e-001 5.77405989e-001 5.66439986e-001
      5.53542972e-001 5.46811998e-001 5.49803019e-001 5.73463976e-001
      5.78424990e-001 5.80973029e-001 5.83333015e-001 6.01011992e-001
      6.33207977e-001 6.72042012e-001 7.06960976e-001 7.37398982e-001
      7.51568019e-001 7.60080993e-001 7.87370026e-001 8.11248004e-001</_>
    <_>
      5.44884980e-001 5.44188023e-001 5.49373984e-001 5.54709971e-001
      5.58426976e-001 5.68996012e-001 5.79567015e-001 5.85352004e-001
      6.00116014e-001 6.05170012e-001 6.10083997e-001 6.29055977e-001
      6.33198023e-001 6.38449013e-001 6.63698971e-001 6.62427008e-001
      6.71315014e-001 7.03182995e-001 7.09717989e-001 7.23747015e-001</_>
    <_>
      5.79234004e-001 5.76848984e-001 5.70697010e-001 5.85263014e-001
      5.69554985e-001 5.39505005e-001 5.60154974e-001 5.71321011e-001
      5.81718981e-001 6.28719985e-001 6.66333020e-001 6.82673991e-001
      6.97984993e-001 7.06212997e-001 7.38434970e-001 7.70256996e-001
      7.81189978e-001 7.93986976e-001 8.00777018e-001 8.23294997e-001</_>
    <_>
      6.23678982e-001 6.24601007e-001 6.07227027e-001 6.01633012e-001
      6.19560003e-001 5.98469019e-001 5.85520029e-001 6.06402993e-001
      6.08211994e-001 6.27671003e-001 6.64704025e-001 6.82923019e-001
      6.97103977e-001 7.02827990e-001 7.18526006e-001 7.40572989e-001
      7.58090973e-001 7.71233022e-001 7.74016976e-001 7.85962999e-001</_>
    <_>
      6.17751002e-001 6.13439023e-001 6.01876020e-001 5.85044980e-001
      5.78702986e-001 5.68287015e-001 5.68920016e-001 5.83409011e-001
      6.05740011e-001 6.49267972e-001 6.68636978e-001 6.71328008e-001
      6.80267990e-001 7.08117008e-001 7.39405990e-001 7.52286017e-001
      7.58258998e-001 7.67017007e-001 7.81813979e-001 8.02107990e-001</_>
    <_>
      6.26538992e-001 6.30815983e-001 6.35532022e-001 6.33825004e-001
      6.35160029e-001 6.40084982e-001 6.42085016e-001 6.44572973e-001
      6.49711013e-001 6.47994995e-001 6.51821971e-001 6.60041988e-001
      6.65072024e-001 6.66581988e-001 6.78135991e-001 6.83761001e-001
      6.90078020e-001 6.96002007e-001 7.06625998e-001 7.12508023e-001</_>
    <_>
      6.37472987e-001 6.36159003e-001 6.38207972e-001 6.44415021e-001
      6.47190988e-001 6.53847992e-001 6.62940979e-001 6.71633005e-001
      6.85497999e-001 6.98877990e-001 7.21970022e-001 7.37360001e-001
      7.56775975e-001 7.70989001e-001 7.81480014e-001 7.97927976e-001
      8.08812976e-001 8.20397973e-001 8.30600977e-001 8.37490976e-001</_>
    <_>
      6.22226000e-001 6.27514005e-001 6.28410995e-001 6.28934026e-001
      6.37250006e-001 6.38924003e-001 6.40000999e-001 6.46517992e-001
      6.46082997e-001 6.52055979e-001 6.59265995e-001 6.61903977e-001
      6.64497972e-001 6.76270008e-001 6.76490009e-001 6.83272004e-001
      6.88314021e-001 6.88784003e-001 6.91815972e-001 6.96546018e-001</_>
    <_>
      5.78984022e-001 5.68498015e-001 5.67219019e-001 5.68005025e-001
      5.60485005e-001 5.63838005e-001 5.66754997e-001 5.62054992e-001
      5.67700982e-001 5.79452991e-001 5.78446984e-001 5.93106985e-001
      6.06235981e-001 6.09872997e-001 6.27300024e-001 6.43653989e-001
      6.59870982e-001 6.77326977e-001 6.98201001e-001 7.17594028e-001</_>
    <_>
      6.02512002e-001 6.03125989e-001 6.06258988e-001 6.04623020e-001
      6.04727983e-001 6.11900985e-001 6.11518025e-001 6.14566028e-001
      6.21823013e-001 6.21996999e-001 6.28804028e-001 6.38065994e-001
      6.40507996e-001 6.49563015e-001 6.59223974e-001 6.62639976e-001
      6.75189972e-001 6.89122975e-001 6.97284997e-001 7.15618014e-001</_>
    <_>
      6.14798009e-001 6.16555989e-001 6.17660999e-001 6.22092009e-001
      6.29697978e-001 6.31577015e-001 6.41637981e-001 6.52037978e-001
      6.56799972e-001 6.65041029e-001 6.77929997e-001 6.86513007e-001
      6.97502971e-001 7.13100016e-001 7.21778989e-001 7.36743987e-001
      7.54714012e-001 7.62730002e-001 7.75180995e-001 7.90732980e-001</_>
    <_>
      5.40084004e-001 5.45215011e-001 5.49952984e-001 5.51971018e-001
      5.61855972e-001 5.64446986e-001 5.64693987e-001 5.70626020e-001
      5.79877973e-001 5.84119022e-001 5.93275011e-001 5.99852026e-001
      6.02621019e-001 6.14372015e-001 6.22671008e-001 6.28621995e-001
      6.41125977e-001 6.48261011e-001 6.53898001e-001 6.73969984e-001</_>
    <_>
      6.23915970e-001 6.27047002e-001 6.32385015e-001 6.33156002e-001
      6.39443994e-001 6.50653005e-001 6.55784011e-001 6.63644016e-001
      6.75828993e-001 6.87197030e-001 6.98623002e-001 7.11494982e-001
      7.27222025e-001 7.41473019e-001 7.51455009e-001 7.67785013e-001
      7.80502975e-001 7.92685986e-001 8.05217028e-001 8.12126994e-001</_>
    <_>
      6.05450988e-001 6.04224980e-001 6.04236007e-001 6.05346024e-001
      6.05817974e-001 6.06694996e-001 6.09637976e-001 6.08627021e-001
      6.08089983e-001 6.10172987e-001 6.11362994e-001 6.16254985e-001
      6.23174012e-001 6.26465023e-001 6.33796990e-001 6.39019012e-001
      6.43185973e-001 6.50264025e-001 6.61092997e-001 6.68500006e-001</_>
    <_>
      6.10891998e-001 6.13713026e-001 6.14308000e-001 6.15837991e-001
      6.18116975e-001 6.20962977e-001 6.27076030e-001 6.28823996e-001
      6.33701026e-001 6.35420024e-001 6.39912009e-001 6.42050028e-001
      6.44975007e-001 6.49142981e-001 6.51359022e-001 6.55255020e-001
      6.62055016e-001 6.68500006e-001 6.71687007e-001 6.81097984e-001</_>
    <_>
      6.40663981e-001 6.40863001e-001 6.37898028e-001 6.38670027e-001
      6.37377977e-001 6.38740003e-001 6.39581025e-001 6.39263988e-001
      6.37533009e-001 6.40955985e-001 6.41758978e-001 6.42337978e-001
      6.42140985e-001 6.42252028e-001 6.45958006e-001 6.51080012e-001
      6.49739981e-001 6.51753008e-001 6.61854029e-001 6.58908010e-001</_>
    <_>
      5.97952008e-001 5.94446003e-001 5.99848986e-001 5.92998028e-001
      5.96549988e-001 6.01009011e-001 5.96478999e-001 6.01094007e-001
      6.10031009e-001 6.11604989e-001 6.14547014e-001 6.23081982e-001
      6.21791005e-001 6.30616009e-001 6.42621994e-001 6.42814994e-001
      6.50516987e-001 6.59938991e-001 6.61786020e-001 6.74526989e-001</_>
    <_>
      5.96370995e-001 5.89579999e-001 5.89159012e-001 5.88780999e-001
      5.89309990e-001 5.90804994e-001 5.89748025e-001 5.92211008e-001
      5.93299985e-001 5.96988976e-001 5.97311974e-001 5.99496007e-001
      6.07137024e-001 6.09910011e-001 6.18641973e-001 6.23076975e-001
      6.32345974e-001 6.48900986e-001 6.62581980e-001 6.77770019e-001</_>
    <_>
      5.67417979e-001 5.68852007e-001 5.65810978e-001 5.65869987e-001
      5.69929004e-001 5.70550025e-001 5.71591973e-001 5.77854991e-001
      5.80142975e-001 5.84936023e-001 5.91823995e-001 5.94108999e-001
      5.98806977e-001 6.11168981e-001 6.12926006e-001 6.20657980e-001
      6.31165981e-001 6.36996984e-001 6.48868978e-001 6.59775972e-001</_>
    <_>
      6.03901982e-001 6.02401018e-001 6.10140979e-001 6.06633008e-001
      6.08605027e-001 6.20094001e-001 6.18914008e-001 6.28831983e-001
      6.32547021e-001 6.33907974e-001 6.44447029e-001 6.51854992e-001
      6.64294004e-001 6.74562991e-001 6.81511998e-001 6.93490982e-001
      7.07692027e-001 7.18518019e-001 7.38820016e-001 7.57465005e-001</_>
    <_>
      5.56586027e-001 5.56788981e-001 5.53067982e-001 5.58188021e-001
      5.60714006e-001 5.63199997e-001 5.72624028e-001 5.80837011e-001
      5.86232007e-001 5.95256984e-001 6.02010012e-001 6.13147020e-001
      6.24759972e-001 6.33123994e-001 6.47732973e-001 6.65751994e-001
      6.82708979e-001 6.99566007e-001 7.23842025e-001 7.38399982e-001</_>
    <_>
      5.80645978e-001 5.83374023e-001 5.80304980e-001 5.84291995e-001
      5.88635027e-001 5.89394987e-001 5.94303012e-001 5.97796023e-001
      6.01019025e-001 6.06227994e-001 6.09027028e-001 6.15788996e-001
      6.25373006e-001 6.32606983e-001 6.43203974e-001 6.57643974e-001
      6.74462974e-001 6.94521010e-001 7.15318024e-001 7.32626975e-001</_>
    <_>
      5.71029007e-001 5.63135982e-001 5.60966015e-001 5.65168977e-001
      5.57017028e-001 5.63807011e-001 5.73839009e-001 5.68889976e-001
      5.79584002e-001 5.90485990e-001 5.91421008e-001 6.09346986e-001
      6.16752982e-001 6.22511029e-001 6.39401019e-001 6.51175976e-001
      6.64345980e-001 6.80204988e-001 6.92237973e-001 7.09302008e-001</_>
    <_>
      5.95435023e-001 5.86467028e-001 5.85653007e-001 5.81754982e-001
      5.75832009e-001 5.77789009e-001 5.78242004e-001 5.75890005e-001
      5.83042979e-001 5.85467994e-001 5.88540018e-001 5.97838998e-001
      6.05441988e-001 6.14987016e-001 6.28461003e-001 6.39728010e-001
      6.54362977e-001 6.73500001e-001 6.93825006e-001 7.12997973e-001</_>
    <_>
      6.34395003e-001 6.34275019e-001 6.34585023e-001 6.32804990e-001
      6.33637011e-001 6.33993030e-001 6.31722987e-001 6.35281026e-001
      6.38119996e-001 6.36443019e-001 6.41185999e-001 6.44581020e-001
      6.47475004e-001 6.56113982e-001 6.64104998e-001 6.69067025e-001
      6.82282984e-001 6.94226027e-001 7.07109988e-001 7.26958990e-001</_>
    <_>
      6.08114004e-001 6.10082984e-001 6.14440978e-001 6.15576982e-001
      6.15629971e-001 6.16285980e-001 6.15962029e-001 6.17007017e-001
      6.18130028e-001 6.16279006e-001 6.17803991e-001 6.18569016e-001
      6.18996024e-001 6.23889983e-001 6.22940004e-001 6.25986993e-001
      6.32219970e-001 6.38448000e-001 6.43732011e-001 6.52634025e-001</_>
    <_>
      6.08995974e-001 6.06150985e-001 6.11887991e-001 6.17591977e-001
      6.16999984e-001 6.25286996e-001 6.35517001e-001 6.39730990e-001
      6.45470977e-001 6.55032992e-001 6.58989012e-001 6.66240990e-001
      6.74381971e-001 6.78853989e-001 6.87717974e-001 6.96475983e-001
      7.03669012e-001 7.13804007e-001 7.25418985e-001 7.35611022e-001</_>
    <_>
      6.23170972e-001 6.17913008e-001 6.17111981e-001 6.13658011e-001
      6.11289978e-001 6.13685012e-001 6.10800028e-001 6.08693004e-001
      6.14023983e-001 6.16135001e-001 6.19657993e-001 6.25719011e-001
      6.25194013e-001 6.29519999e-001 6.39653981e-001 6.47237003e-001
      6.51184976e-001 6.65381014e-001 6.66007996e-001 6.73691988e-001</_>
    <_>
      5.95889986e-001 5.83195984e-001 5.82069993e-001 5.86672008e-001
      5.77494025e-001 5.75682998e-001 5.80833972e-001 5.71618021e-001
      5.74495971e-001 5.77820003e-001 5.69998026e-001 5.73255002e-001
      5.78296006e-001 5.76443970e-001 5.81752002e-001 5.91292024e-001
      5.92638016e-001 5.98185003e-001 6.13637984e-001 6.20527983e-001</_>
    <_>
      6.07638001e-001 6.04192019e-001 6.04052007e-001 5.95677972e-001
      5.88733017e-001 5.87274015e-001 5.84311008e-001 5.85529029e-001
      5.88387012e-001 5.87077975e-001 5.87984979e-001 5.88755012e-001
      5.94898999e-001 6.02789998e-001 6.12984002e-001 6.27259016e-001
      6.37814999e-001 6.53735995e-001 6.73889995e-001 6.93139017e-001</_>
    <_>
      5.43138981e-001 5.39792001e-001 5.35762012e-001 5.35162985e-001
      5.35396993e-001 5.37101984e-001 5.41171014e-001 5.47812998e-001
      5.55060029e-001 5.64197004e-001 5.73930979e-001 5.87251008e-001
      6.03091002e-001 6.18037999e-001 6.36564016e-001 6.53954029e-001
      6.72344983e-001 6.93273008e-001 7.15243995e-001 7.35808015e-001</_>
    <_>
      6.60163999e-001 6.64910018e-001 6.65507972e-001 6.70895994e-001
      6.68794990e-001 6.70745015e-001 6.75446987e-001 6.77541018e-001
      6.78371012e-001 6.83407009e-001 6.85540020e-001 6.86351001e-001
      6.90984011e-001 6.89615011e-001 6.90104008e-001 6.97866023e-001
      6.97143972e-001 6.97402000e-001 7.02669978e-001 7.01152980e-001</_>
    <_>
      6.41556978e-001 6.34540021e-001 6.28983974e-001 6.24590993e-001
      6.15599990e-001 6.13301992e-001 6.08555973e-001 5.98459005e-001
      5.91980994e-001 5.84833026e-001 5.82188010e-001 5.80197990e-001
      5.73135972e-001 5.66670001e-001 5.68935990e-001 5.71789980e-001
      5.69813013e-001 5.68588972e-001 5.71319997e-001 5.71188986e-001</_>
    <_>
      6.20176971e-001 6.23290002e-001 6.20741010e-001 6.20167017e-001
      6.21905029e-001 6.22606993e-001 6.25594020e-001 6.29875004e-001
      6.32556975e-001 6.38961017e-001 6.46820009e-001 6.53146982e-001
      6.65829003e-001 6.77119017e-001 6.90904021e-001 7.06354976e-001
      7.27370024e-001 7.37649024e-001 7.53750026e-001 7.70636022e-001</_>
    <_>
      5.60622990e-001 5.44346988e-001 5.43721020e-001 5.43178022e-001
      5.36909997e-001 5.37334979e-001 5.43549001e-001 5.40112972e-001
      5.48682988e-001 5.56625009e-001 5.56253016e-001 5.67295015e-001
      5.77805996e-001 5.83503008e-001 5.91280997e-001 6.02864027e-001
      6.05987012e-001 6.14485025e-001 6.23376012e-001 6.22031987e-001</_>
    <_>
      6.22932017e-001 6.23382986e-001 6.25588000e-001 6.27995014e-001
      6.33535028e-001 6.39895022e-001 6.40506983e-001 6.46713972e-001
      6.58235013e-001 6.69629991e-001 6.78677022e-001 7.02171028e-001
      7.19810009e-001 7.36297011e-001 7.56802022e-001 7.79887974e-001
      8.01343977e-001 8.14351976e-001 8.24983001e-001 8.34613979e-001</_>
    <_>
      6.40769005e-001 6.36380970e-001 6.37054026e-001 6.35348976e-001
      6.33666992e-001 6.34423018e-001 6.32010996e-001 6.29486024e-001
      6.29257023e-001 6.21550024e-001 6.18969977e-001 6.18728995e-001
      6.17184997e-001 6.14310026e-001 6.17832005e-001 6.17734015e-001
      6.21769011e-001 6.29186988e-001 6.34521008e-001 6.43580019e-001</_>
    <_>
      5.96592009e-001 5.93739986e-001 5.88708997e-001 5.90229988e-001
      5.93087971e-001 5.86683989e-001 5.89407027e-001 5.93738973e-001
      5.95037997e-001 6.02274001e-001 6.10548973e-001 6.15393996e-001
      6.27097011e-001 6.37658000e-001 6.47642016e-001 6.65512025e-001
      6.84167981e-001 7.01956987e-001 7.21225023e-001 7.38263011e-001</_>
    <_>
      5.64642012e-001 5.55263996e-001 5.53673983e-001 5.54700971e-001
      5.51392019e-001 5.57156980e-001 5.60069978e-001 5.62040985e-001
      5.70312023e-001 5.79406977e-001 5.87334991e-001 5.99443972e-001
      6.14121020e-001 6.27395988e-001 6.48401022e-001 6.68878019e-001
      6.91618979e-001 7.15350986e-001 7.33017981e-001 7.50702977e-001</_>
    <_>
      5.97963989e-001 5.97348988e-001 5.92136025e-001 5.92603981e-001
      5.95646024e-001 5.94129980e-001 5.97558022e-001 6.01491988e-001
      6.05894029e-001 6.13023996e-001 6.20276988e-001 6.24740005e-001
      6.36677980e-001 6.49046004e-001 6.61567986e-001 6.76451027e-001
      6.94582999e-001 7.12288022e-001 7.28667021e-001 7.45575011e-001</_>
    <_>
      5.61658025e-001 5.54920018e-001 5.54835975e-001 5.54238975e-001
      5.52711010e-001 5.57721019e-001 5.62671006e-001 5.65990984e-001
      5.72706997e-001 5.78979015e-001 5.86502016e-001 5.98856986e-001
      6.10136986e-001 6.22359991e-001 6.38764024e-001 6.60803020e-001
      6.79751992e-001 7.02293992e-001 7.20884025e-001 7.40571022e-001</_>
    <_>
      5.96400976e-001 5.87642014e-001 5.93554974e-001 5.96973002e-001
      5.93140006e-001 6.01108015e-001 6.06109023e-001 6.08105004e-001
      6.18336976e-001 6.21737003e-001 6.26609981e-001 6.34407997e-001
      6.42872989e-001 6.49263024e-001 6.54561996e-001 6.60615027e-001
      6.65791988e-001 6.75023019e-001 6.81683004e-001 6.88326001e-001</_>
    <_>
      6.27505004e-001 6.18089974e-001 6.14805996e-001 6.06764972e-001
      6.05253994e-001 6.06592000e-001 5.99982023e-001 6.01918995e-001
      6.06433988e-001 6.05799973e-001 6.11169994e-001 6.14708006e-001
      6.18323982e-001 6.24475002e-001 6.36395991e-001 6.37920976e-001
      6.42165005e-001 6.48178995e-001 6.50285006e-001 6.56823993e-001</_>
    <_>
      6.21671021e-001 6.20607972e-001 6.19768977e-001 6.22932971e-001
      6.20046020e-001 6.23044014e-001 6.27291977e-001 6.26685977e-001
      6.29359007e-001 6.35608971e-001 6.35928988e-001 6.42858982e-001
      6.46829009e-001 6.47078991e-001 6.53976977e-001 6.58110023e-001
      6.61846995e-001 6.70113027e-001 6.73457026e-001 6.80976987e-001</_>
    <_>
      6.71476007e-001 6.65259004e-001 6.66266978e-001 6.67470992e-001
      6.65156007e-001 6.66570008e-001 6.65201008e-001 6.63209021e-001
      6.65422976e-001 6.69723988e-001 6.68070018e-001 6.70324028e-001
      6.74004018e-001 6.73420012e-001 6.72528982e-001 6.73222005e-001
      6.71382010e-001 6.69313014e-001 6.67331994e-001 6.65408015e-001</_>
    <_>
      6.27515018e-001 6.30858004e-001 6.28351986e-001 6.30711973e-001
      6.35824978e-001 6.39185011e-001 6.44501984e-001 6.52249992e-001
      6.62981987e-001 6.71069980e-001 6.80757999e-001 6.89556003e-001
      7.01065004e-001 7.17303991e-001 7.30540991e-001 7.43478000e-001
      7.59625971e-001 7.70018995e-001 7.81319022e-001 7.90736020e-001</_>
    <_>
      6.52240992e-001 6.53653979e-001 6.50403976e-001 6.45650029e-001
      6.46116018e-001 6.43850982e-001 6.44531012e-001 6.42279029e-001
      6.42715991e-001 6.42036021e-001 6.43640995e-001 6.47213995e-001
      6.45285010e-001 6.45524979e-001 6.48386002e-001 6.48497999e-001
      6.53989971e-001 6.57148004e-001 6.62591994e-001 6.68657005e-001</_>
    <_>
      6.25666976e-001 6.26890004e-001 6.25171006e-001 6.27228975e-001
      6.29949987e-001 6.29886985e-001 6.35120988e-001 6.39577985e-001
      6.40226007e-001 6.46017015e-001 6.51122987e-001 6.53039992e-001
      6.57213986e-001 6.62119985e-001 6.64471984e-001 6.69876993e-001
      6.70561016e-001 6.72937989e-001 6.77763999e-001 6.82132006e-001</_>
    <_>
      6.39844000e-001 6.34799004e-001 6.39681995e-001 6.44192994e-001
      6.41242027e-001 6.51140988e-001 6.59660995e-001 6.64443016e-001
      6.75516009e-001 6.89257979e-001 6.98997021e-001 7.21014023e-001
      7.35687971e-001 7.50966012e-001 7.68000007e-001 7.82711029e-001
      8.03345978e-001 8.15895975e-001 8.27067971e-001 8.41024995e-001</_>
    <_>
      6.29315972e-001 6.31485999e-001 6.30665004e-001 6.30223989e-001
      6.29513025e-001 6.34342015e-001 6.35904014e-001 6.37502015e-001
      6.44540012e-001 6.41678989e-001 6.46682024e-001 6.56082988e-001
      6.55384004e-001 6.63013995e-001 6.71033978e-001 6.73318982e-001
      6.84314013e-001 6.87120974e-001 6.91995978e-001 7.02471972e-001</_>
    <_>
      5.96515000e-001 5.99541008e-001 6.02726996e-001 6.01234019e-001
      6.04129016e-001 6.10540986e-001 6.10328972e-001 6.19301975e-001
      6.23494983e-001 6.26420975e-001 6.34344995e-001 6.42108023e-001
      6.47747993e-001 6.52778029e-001 6.62640989e-001 6.68285012e-001
      6.80737019e-001 6.94236994e-001 7.02165008e-001 7.16171980e-001</_>
    <_>
      6.03690028e-001 6.02271974e-001 6.04417026e-001 6.06622994e-001
      6.06186986e-001 6.06818974e-001 6.07357025e-001 6.03865027e-001
      6.03495002e-001 6.04762971e-001 6.03173971e-001 6.02777004e-001
      6.05131984e-001 6.06142998e-001 6.11102998e-001 6.19930029e-001
      6.23306990e-001 6.33518994e-001 6.49312973e-001 6.63694978e-001</_>
    <_>
      6.10638976e-001 6.09003007e-001 6.08781993e-001 6.10413015e-001
      6.13910973e-001 6.14634991e-001 6.20375991e-001 6.22605979e-001
      6.24610007e-001 6.28040016e-001 6.32690012e-001 6.33598983e-001
      6.39131010e-001 6.40999019e-001 6.42602980e-001 6.51650012e-001
      6.56228006e-001 6.57818019e-001 6.62869990e-001 6.69977009e-001</_>
    <_>
      6.01571023e-001 5.93159020e-001 5.83276987e-001 5.79724014e-001
      5.78298986e-001 5.73724985e-001 5.77951014e-001 5.82840025e-001
      5.87180018e-001 5.96409976e-001 6.06522024e-001 6.13771975e-001
      6.24446988e-001 6.29971027e-001 6.35291994e-001 6.41406000e-001
      6.48492992e-001 6.50915980e-001 6.56260014e-001 6.61671996e-001</_>
    <_>
      6.56260014e-001 6.61671996e-001 6.61647022e-001 6.70325994e-001
      6.72837019e-001 6.79037988e-001 6.87261999e-001 6.99365973e-001
      7.08519995e-001 7.29851007e-001 7.44491994e-001 7.59742975e-001
      7.76849985e-001 7.87030995e-001 8.01514983e-001 8.11550021e-001
      8.21668029e-001 8.32666993e-001 8.38874996e-001 8.46095979e-001</_>
    <_>
      5.75873017e-001 5.60504973e-001 5.54547012e-001 5.52457988e-001
      5.48958004e-001 5.48735976e-001 5.46211004e-001 5.48238993e-001
      5.52852988e-001 5.59562981e-001 5.68440974e-001 5.79428971e-001
      6.04090989e-001 6.26927972e-001 6.50443971e-001 6.72128975e-001
      6.98355973e-001 7.18189001e-001 7.34372020e-001 7.53212988e-001</_>
    <_>
      5.87436974e-001 5.83378017e-001 5.88312984e-001 5.87020993e-001
      5.88328004e-001 5.90803027e-001 5.90469003e-001 5.93819022e-001
      5.99901021e-001 5.99220991e-001 6.04034007e-001 6.12390995e-001
      6.13781989e-001 6.20651007e-001 6.30985975e-001 6.37775004e-001
      6.50242984e-001 6.66782022e-001 6.79341972e-001 6.92981005e-001</_>
    <_>
      6.14516020e-001 6.09785974e-001 6.07703984e-001 6.08251989e-001
      6.03273988e-001 6.07892990e-001 6.09354973e-001 6.09797001e-001
      6.13179982e-001 6.19190991e-001 6.23479009e-001 6.29390001e-001
      6.34732008e-001 6.37820005e-001 6.44348979e-001 6.54393017e-001
      6.57109022e-001 6.65530980e-001 6.72903001e-001 6.76765025e-001</_>
    <_>
      6.04162991e-001 6.08138025e-001 6.05077028e-001 6.00706995e-001
      6.02316976e-001 6.00650012e-001 6.02048993e-001 6.03524029e-001
      6.05387986e-001 6.07147992e-001 6.11860991e-001 6.14033997e-001
      6.16632998e-001 6.21235013e-001 6.26133978e-001 6.27107978e-001
      6.33644998e-001 6.36870980e-001 6.45640016e-001 6.54887021e-001</_>
    <_>
      6.11997008e-001 6.06765985e-001 6.06078029e-001 6.03271008e-001
      6.03308976e-001 6.05190992e-001 6.05558991e-001 6.09215021e-001
      6.16977990e-001 6.24175012e-001 6.33825004e-001 6.50520027e-001
