<?xml version="1.0"?>
<opencv_storage>
<my_svm type_id="opencv-ml-svm">
  <svm_type>C_SVC</svm_type>
  <kernel><type>RBF</type>
    <gamma>1.2500000000000000e-001</gamma></kernel>
  <C>8.</C>
  <term_criteria><epsilon>2.2204460492503131e-016</epsilon>
    <iterations>10000</iterations></term_criteria>
  <var_all>20</var_all>
  <var_count>20</var_count>
  <class_count>2</class_count>
  <class_labels type_id="opencv-matrix">
    <rows>1</rows>
    <cols>2</cols>
    <dt>i</dt>
    <data>
      0 1</data></class_labels>
  <sv_total>277</sv_total>
  <support_vectors>
    <_>
      3.31878901e+000 3.22506499e+000 3.07465196e+000 2.86282802e+000
      2.60336995e+000 2.30837703e+000 1.99222100e+000 1.67774105e+000
      1.91979802e+000 2.16676211e+000 2.38602209e+000 2.57007003e+000
      2.73739100e+000 2.86150599e+000 2.94210792e+000 3.00128198e+000
      3.04588389e+000 3.05229092e+000 3.12751698e+000 3.17269301e+000</_>
    <_>
      2.95796108e+000 3.01948690e+000 3.04281998e+000 3.02801800e+000
      2.97095895e+000 2.89309907e+000 2.82263589e+000 2.80428004e+000
      2.80993295e+000 2.82710409e+000 2.89195490e+000 2.96598411e+000
      3.00828409e+000 3.04292893e+000 3.04085708e+000 3.01623893e+000
      2.98465204e+000 2.94216108e+000 2.90453100e+000 2.89534807e+000</_>
    <_>
      2.88298607e+000 2.89529610e+000 2.92373705e+000 2.94254994e+000
      2.93190098e+000 2.91634107e+000 2.88407302e+000 2.89496589e+000
      2.87286711e+000 2.82262993e+000 2.76514196e+000 2.75986695e+000
      2.79079390e+000 2.82753396e+000 2.83294296e+000 2.85517907e+000
      2.91960502e+000 2.98658109e+000 3.03355598e+000 3.04532695e+000</_>
    <_>
      2.84988904e+000 2.81285000e+000 2.80050492e+000 2.80300403e+000
      2.82992697e+000 2.86147594e+000 2.90456891e+000 2.96061611e+000
      2.97225499e+000 2.97185397e+000 2.97505498e+000 2.96092606e+000
      2.96463704e+000 2.97194791e+000 2.95547700e+000 2.91261792e+000
      2.90169907e+000 2.94515491e+000 2.98562193e+000 3.02414393e+000</_>
    <_>
      3.02552295e+000 2.94876409e+000 2.85863590e+000 2.77175689e+000
      2.70338893e+000 2.68957806e+000 2.67093205e+000 2.70269799e+000
      2.76301289e+000 2.80799890e+000 2.86287689e+000 2.89180803e+000
      2.92501497e+000 2.96830010e+000 2.98586607e+000 3.00360298e+000
      3.00070810e+000 3.00406098e+000 2.98294091e+000 2.98427105e+000</_>
    <_>
      2.96585703e+000 2.96104503e+000 2.91312194e+000 2.84987092e+000
      2.77015305e+000 2.69527292e+000 2.65980506e+000 2.67727399e+000
      2.74618411e+000 2.82780004e+000 2.88130498e+000 2.88238692e+000
      2.82881808e+000 2.73475194e+000 2.61710811e+000 2.51869702e+000
      2.46725297e+000 2.47783804e+000 2.55000496e+000 2.67839694e+000</_>
    <_>
      3.11947799e+000 3.09759212e+000 3.05394197e+000 2.97241712e+000
      2.86035490e+000 2.75058103e+000 2.66226101e+000 2.59854889e+000
      2.56813097e+000 2.59246707e+000 2.65089011e+000 2.76293802e+000
      2.89997101e+000 3.02321792e+000 3.12126493e+000 3.18435192e+000
      3.21762991e+000 3.21872592e+000 3.19946408e+000 3.17162204e+000</_>
    <_>
      2.82343888e+000 2.78327489e+000 2.79524302e+000 2.82091808e+000
      2.84245110e+000 2.87478495e+000 2.92244792e+000 2.89570403e+000
      2.86028004e+000 2.79247594e+000 2.73852706e+000 2.78548694e+000
      2.83138204e+000 2.80974889e+000 2.78459907e+000 2.77901196e+000
      2.87508893e+000 2.94760489e+000 3.02422810e+000 3.06249189e+000</_>
    <_>
      3.05997300e+000 3.04945993e+000 2.99897909e+000 2.90647292e+000
      2.77959895e+000 2.61156702e+000 2.43243098e+000 2.23115492e+000
      2.01599097e+000 1.77956402e+000 2.08585191e+000 2.38479900e+000
      2.65666795e+000 2.88690805e+000 3.07037401e+000 3.19388294e+000
      3.26705503e+000 3.28802299e+000 3.27228808e+000 3.22696996e+000</_>
    <_>
      3.07211208e+000 3.05560398e+000 3.00081396e+000 2.91717410e+000
      2.84379911e+000 2.83339906e+000 2.83014011e+000 2.78047609e+000
      2.74853706e+000 2.77118707e+000 2.84616399e+000 2.92084503e+000
      2.96698594e+000 3.01711297e+000 3.02659607e+000 3.01668596e+000
      2.98309493e+000 2.91834092e+000 2.84265900e+000 2.77255702e+000</_>
    <_>
      2.96978903e+000 2.96731400e+000 2.92665291e+000 2.83444095e+000
      2.72024703e+000 2.64175606e+000 2.60230207e+000 2.60412002e+000
      2.66083789e+000 2.71898794e+000 2.78404999e+000 2.83615899e+000
      2.85705900e+000 2.85049605e+000 2.81708002e+000 2.78891301e+000
      2.77750897e+000 2.79117298e+000 2.81588101e+000 2.85402393e+000</_>
    <_>
      3.03419495e+000 3.01624990e+000 2.99144411e+000 2.96974111e+000
      2.93575907e+000 2.90390301e+000 2.87801194e+000 2.85949397e+000
      2.84916592e+000 2.85771894e+000 2.91601992e+000 2.97704196e+000
      3.03738308e+000 3.09107304e+000 3.12934804e+000 3.14870191e+000
      3.14865398e+000 3.13009906e+000 3.11259103e+000 3.14390707e+000</_>
    <_>
      3.09202600e+000 2.99566102e+000 2.89982605e+000 2.80921102e+000
      2.73037410e+000 2.65418005e+000 2.58123207e+000 2.53210402e+000
      2.53240895e+000 2.54022098e+000 2.56616902e+000 2.59191990e+000
      2.65248489e+000 2.76120496e+000 2.87736797e+000 2.97824907e+000
      3.05714202e+000 3.12465000e+000 3.17365694e+000 3.19799495e+000</_>
    <_>
      2.73555398e+000 2.78718591e+000 2.82768011e+000 2.86940908e+000
      2.88845897e+000 2.92058611e+000 2.91812396e+000 2.91165805e+000
      2.88819695e+000 2.87858605e+000 2.86897898e+000 2.88090110e+000
      2.89602590e+000 2.92646694e+000 2.94230199e+000 2.95764899e+000
      2.95713902e+000 2.95761991e+000 2.94887710e+000 2.94253302e+000</_>
    <_>
      3.01538992e+000 2.96880889e+000 2.90910101e+000 2.84987712e+000
      2.79358792e+000 2.74626589e+000 2.73285604e+000 2.74280906e+000
      2.77528191e+000 2.81040096e+000 2.85779309e+000 2.89756298e+000
      2.94669700e+000 2.99954891e+000 3.06588006e+000 3.14046311e+000
      3.20770693e+000 3.25629807e+000 3.28051400e+000 3.26964998e+000</_>
    <_>
      2.78931999e+000 2.73498392e+000 2.71966791e+000 2.71007490e+000
      2.71161008e+000 2.70338202e+000 2.72566104e+000 2.75770092e+000
      2.81923199e+000 2.85561895e+000 2.88727307e+000 2.90680504e+000
      2.94681811e+000 2.94481993e+000 2.95882010e+000 2.95775700e+000
      2.96373105e+000 2.98089910e+000 3.00716710e+000 3.04947400e+000</_>
    <_>
      2.80815792e+000 2.72612405e+000 2.63698101e+000 2.59023905e+000
      2.58725095e+000 2.59416389e+000 2.58223891e+000 2.51766610e+000
      2.50220108e+000 2.55149508e+000 2.61254692e+000 2.71519995e+000
      2.79364610e+000 2.84011412e+000 2.87377000e+000 2.90460992e+000
      2.92754793e+000 2.94403791e+000 2.98200989e+000 3.02442288e+000</_>
    <_>
      2.82146692e+000 2.80459499e+000 2.79213309e+000 2.78844905e+000
      2.80050611e+000 2.83816290e+000 2.85717010e+000 2.90075493e+000
      2.91693902e+000 2.95051908e+000 2.94533396e+000 2.92287898e+000
      2.85424495e+000 2.81569099e+000 2.75229096e+000 2.69580507e+000
      2.64252806e+000 2.64873910e+000 2.64620304e+000 2.64488006e+000</_>
    <_>
      2.95965695e+000 2.78663611e+000 2.58391595e+000 2.35008788e+000
      2.20165396e+000 2.38881993e+000 2.53241205e+000 2.60820508e+000
      2.61486912e+000 2.57652092e+000 2.53631496e+000 2.49574089e+000
      2.47363400e+000 2.50445294e+000 2.57762790e+000 2.73422790e+000
      2.88988209e+000 3.02134299e+000 3.10072494e+000 3.12643003e+000</_>
    <_>
      3.00091505e+000 2.96132898e+000 2.92657709e+000 2.91568589e+000
      2.91196299e+000 2.88809109e+000 2.83929491e+000 2.78206801e+000
      2.74869895e+000 2.74339795e+000 2.77619696e+000 2.84274197e+000
      2.92737699e+000 3.01512003e+000 3.07670403e+000 3.11097503e+000
      3.11229300e+000 3.08771300e+000 3.04692602e+000 3.01223898e+000</_>
    <_>
      3.15585709e+000 3.15027094e+000 3.12062407e+000 3.07447791e+000
      3.00869608e+000 2.93065310e+000 2.85530901e+000 2.80394912e+000
      2.79014492e+000 2.80037808e+000 2.83831096e+000 2.90972900e+000
      3.00842810e+000 3.10884500e+000 3.19158196e+000 3.25016403e+000
      3.29234600e+000 3.31845689e+000 3.32307410e+000 3.30558109e+000</_>
    <_>
      2.83684301e+000 2.82414699e+000 2.81046295e+000 2.80420804e+000
      2.80497599e+000 2.89603305e+000 2.96126103e+000 2.99516296e+000
      2.97413206e+000 2.89399195e+000 2.74009204e+000 2.52949190e+000
      2.26685596e+000 1.98047602e+000 1.68366301e+000 1.98627496e+000
      2.29020000e+000 2.58301806e+000 2.84812689e+000 3.06908488e+000</_>
    <_>
      3.24996090e+000 3.19027400e+000 3.08249688e+000 2.93703508e+000
      2.74802399e+000 2.52537298e+000 2.27781892e+000 2.01804495e+000
      1.77542698e+000 2.06953907e+000 2.36329794e+000 2.64112306e+000
      2.88439989e+000 3.08467698e+000 3.22816205e+000 3.31885099e+000
      3.35137892e+000 3.35134292e+000 3.31826401e+000 3.32142305e+000</_>
    <_>
      2.86220789e+000 2.77410293e+000 2.69471097e+000 2.63859105e+000
      2.57672000e+000 2.55594301e+000 2.57459807e+000 2.59165502e+000
      2.63384891e+000 2.69247103e+000 2.76341009e+000 2.84692502e+000
      2.92296910e+000 2.96463108e+000 2.97371888e+000 2.96768999e+000
      2.97932100e+000 3.00713992e+000 3.06048799e+000 3.11507392e+000</_>
    <_>
      2.98025393e+000 2.99546695e+000 2.96760511e+000 2.90422797e+000
      2.83129096e+000 2.78145289e+000 2.77134800e+000 2.77371693e+000
      2.78030205e+000 2.78926110e+000 2.77843499e+000 2.73933291e+000
      2.67586708e+000 2.63485599e+000 2.63035703e+000 2.69102693e+000
      2.80821109e+000 2.91445708e+000 2.97404599e+000 2.99904490e+000</_>
    <_>
      3.05351901e+000 3.00930095e+000 2.96932411e+000 2.93446708e+000
      2.89497304e+000 2.87050700e+000 2.85388398e+000 2.84405589e+000
      2.82513499e+000 2.81934690e+000 2.83385992e+000 2.88694501e+000
      2.97445798e+000 3.04770398e+000 3.08846807e+000 3.10058594e+000
      3.08086610e+000 3.04110599e+000 2.98236609e+000 2.93103099e+000</_>
    <_>
      2.98236609e+000 2.93103099e+000 2.90363789e+000 2.89477801e+000
      2.88549089e+000 2.84799600e+000 2.76409698e+000 2.68914104e+000
      2.61092091e+000 2.57295990e+000 2.58013105e+000 2.65209007e+000
      2.79238892e+000 2.93976307e+000 3.07228804e+000 3.16666293e+000
      3.20391393e+000 3.20098090e+000 3.14791489e+000 3.06122804e+000</_>
    <_>
      3.14791489e+000 3.06122804e+000 2.96938205e+000 2.88049102e+000
      2.81072998e+000 2.75849605e+000 2.70205307e+000 2.65833497e+000
      2.63728690e+000 2.65670109e+000 2.68430090e+000 2.73917007e+000
      2.82419109e+000 2.89730191e+000 2.96316004e+000 3.03378201e+000
      3.08674097e+000 3.11878705e+000 3.13006902e+000 3.13453197e+000</_>
    <_>
      3.12256694e+000 3.08152604e+000 2.98852706e+000 2.81636190e+000
      2.58668709e+000 2.30747199e+000 1.98566699e+000 1.66030002e+000
      1.34609199e+000 1.70242000e+000 2.06756401e+000 2.42318511e+000
      2.74550796e+000 2.99610710e+000 3.19071102e+000 3.29840302e+000
      3.32288504e+000 3.28530693e+000 3.20210409e+000 3.16103292e+000</_>
    <_>
      3.36611295e+000 3.33122802e+000 3.22585297e+000 3.03640604e+000
      2.76729894e+000 2.43609095e+000 2.06856799e+000 1.68606496e+000
      1.31542301e+000 1.63016105e+000 1.95277905e+000 2.27107000e+000
      2.57720804e+000 2.84612894e+000 3.04758406e+000 3.17383003e+000
      3.22455597e+000 3.21156907e+000 3.15298295e+000 3.17386293e+000</_>
    <_>
      3.20667911e+000 3.14471102e+000 3.01302910e+000 2.86274600e+000
      2.68481708e+000 2.40885806e+000 2.12937593e+000 1.84102094e+000
      1.56229198e+000 1.35407495e+000 1.77161396e+000 2.16129589e+000
      2.51123190e+000 2.81726789e+000 3.03763390e+000 3.16353011e+000
      3.22471809e+000 3.21954298e+000 3.18644094e+000 3.13218594e+000</_>
    <_>
      2.86712289e+000 2.87355590e+000 2.89309311e+000 2.87531495e+000
      2.83208704e+000 2.76072907e+000 2.69739103e+000 2.61893296e+000
      2.56609607e+000 2.50594997e+000 2.47049689e+000 2.43393111e+000
      2.44402289e+000 2.43159509e+000 2.43089104e+000 2.46981502e+000
      2.51262999e+000 2.55564308e+000 2.61261106e+000 2.69961810e+000</_>
    <_>
      3.21596289e+000 3.25303888e+000 3.18099809e+000 3.04395294e+000
      2.89828396e+000 2.77765989e+000 2.67834496e+000 2.63400102e+000
      2.60848594e+000 2.59141588e+000 2.62052798e+000 2.73441792e+000
      2.84102702e+000 2.93660998e+000 3.03531504e+000 3.12735701e+000
      3.19085789e+000 3.24030089e+000 3.26467705e+000 3.24999404e+000</_>
    <_>
      2.94517994e+000 2.92527795e+000 2.88969302e+000 2.84679508e+000
      2.79014301e+000 2.78097010e+000 2.77214098e+000 2.78029203e+000
      2.78863502e+000 2.78033304e+000 2.82119703e+000 2.88818097e+000
      2.94493008e+000 2.97287107e+000 2.96788812e+000 2.99143505e+000
      3.01272607e+000 3.02757406e+000 3.01835108e+000 2.97951603e+000</_>
    <_>
      3.01272607e+000 3.02757406e+000 3.01835108e+000 2.97951603e+000
      2.92097497e+000 2.89329505e+000 2.88068509e+000 2.89224100e+000
      2.90458989e+000 2.92728090e+000 2.96191597e+000 2.99359393e+000
      3.01198006e+000 3.00893593e+000 2.97794509e+000 2.93541002e+000
      2.92073989e+000 2.89817405e+000 2.89438295e+000 2.89443898e+000</_>
    <_>
      2.91320896e+000 2.90937996e+000 2.88264298e+000 2.86147594e+000
      2.84910107e+000 2.85411191e+000 2.83283401e+000 2.82399893e+000
      2.76971412e+000 2.73012400e+000 2.75044990e+000 2.79806399e+000
      2.82761002e+000 2.86077094e+000 2.93917298e+000 2.98512506e+000
      3.03443503e+000 3.09241390e+000 3.11452508e+000 3.13386893e+000</_>
    <_>
      2.70122409e+000 2.71638799e+000 2.72572088e+000 2.77151394e+000
      2.82203889e+000 2.87163305e+000 2.92160010e+000 2.95901799e+000
      2.97843695e+000 2.98844504e+000 2.96294403e+000 2.96567798e+000
      2.96533608e+000 2.96371293e+000 2.95190096e+000 2.92652392e+000
      2.88700390e+000 2.83284497e+000 2.82560301e+000 2.82063890e+000</_>
    <_>
      3.05233097e+000 3.03256106e+000 2.99237299e+000 2.94159603e+000
      2.89649200e+000 2.84453392e+000 2.82607508e+000 2.80469108e+000
      2.78173709e+000 2.80714798e+000 2.84651899e+000 2.87310195e+000
      2.94988489e+000 3.01831603e+000 3.05073309e+000 3.06657910e+000
      3.04557896e+000 2.97848010e+000 2.86660695e+000 2.71964598e+000</_>
    <_>
      2.25793910e+000 2.30715203e+000 2.36749792e+000 2.43540192e+000
      2.53848100e+000 2.60822392e+000 2.71885490e+000 2.77059889e+000
      2.77723098e+000 2.76054311e+000 2.70764709e+000 2.67995405e+000
      2.63770390e+000 2.63223600e+000 2.63319707e+000 2.65057993e+000
      2.67707396e+000 2.73301196e+000 2.77144909e+000 2.82248998e+000</_>
    <_>
      3.08870602e+000 3.06562591e+000 3.01376796e+000 2.95948601e+000
      2.91203308e+000 2.87516809e+000 2.84570098e+000 2.82326102e+000
      2.80283499e+000 2.77800894e+000 2.79632711e+000 2.85326099e+000
      2.94556689e+000 3.02836800e+000 3.08665109e+000 3.11763406e+000
      3.13437891e+000 3.14193296e+000 3.12078810e+000 3.09806204e+000</_>
    <_>
      2.67048502e+000 2.80554700e+000 2.83513308e+000 2.82097602e+000
      2.78896308e+000 2.75444603e+000 2.71179390e+000 2.65536404e+000
      2.57285094e+000 2.48888206e+000 2.43980408e+000 2.46611190e+000
      2.52324605e+000 2.60135794e+000 2.67077994e+000 2.73776603e+000
      2.80620193e+000 2.86235595e+000 2.88679099e+000 2.88745499e+000</_>
    <_>
      2.16840792e+000 1.94792700e+000 1.84894204e+000 1.79329705e+000
      1.80593002e+000 1.86041200e+000 1.92390299e+000 2.00027490e+000
      2.13977098e+000 2.30805898e+000 2.47592092e+000 2.57506800e+000
      2.60202289e+000 2.57646608e+000 2.51205397e+000 2.45838690e+000
      2.46248889e+000 2.47501993e+000 2.49360991e+000 2.57411194e+000</_>
    <_>
      2.90181398e+000 2.65492201e+000 2.34777308e+000 2.02245808e+000
      1.73226094e+000 1.50809002e+000 1.39376199e+000 1.43776798e+000
      1.59161103e+000 1.78815198e+000 2.02653599e+000 2.27783394e+000
      2.51135206e+000 2.67785096e+000 2.76519203e+000 2.92563105e+000
      3.03933811e+000 3.01742291e+000 2.78362799e+000 2.35203910e+000</_>
    <_>
      2.92563105e+000 3.03933811e+000 3.01742291e+000 2.78362799e+000
      2.35203910e+000 1.87667298e+000 1.45562005e+000 1.07289004e+000
      7.30543017e-001 4.08392012e-001 9.06831980e-001 1.48364699e+000
      2.10064197e+000 2.66308689e+000 3.06513309e+000 3.31388211e+000
      3.42259312e+000 3.43384910e+000 3.38975000e+000 3.31775808e+000</_>
    <_>
      3.03848505e+000 2.95786810e+000 2.92107606e+000 2.88885498e+000
      2.85503101e+000 2.84263110e+000 2.86161304e+000 2.89775109e+000
      2.92419291e+000 2.94338608e+000 2.96435094e+000 2.97032309e+000
      2.98559904e+000 2.99570298e+000 3.00282001e+000 3.03451109e+000
      3.08544707e+000 3.13803291e+000 3.19956899e+000 3.20653701e+000</_>
    <_>
      3.24391603e+000 3.23535991e+000 3.14273310e+000 2.95618510e+000
      2.69126892e+000 2.37284493e+000 2.02534389e+000 1.67582905e+000
      1.41611004e+000 1.76529801e+000 2.13045001e+000 2.48899102e+000
      2.81443191e+000 3.07669401e+000 3.26217198e+000 3.36467600e+000
      3.39407802e+000 3.37113905e+000 3.31871200e+000 3.31640005e+000</_>
    <_>
      2.72010994e+000 2.66131592e+000 2.65047503e+000 2.63617992e+000
      2.60800600e+000 2.61952496e+000 2.62127495e+000 2.61529899e+000
      2.66534400e+000 2.71741009e+000 2.77031493e+000 2.83144593e+000
      2.86198997e+000 2.86348295e+000 2.86404991e+000 2.85692596e+000
      2.85747194e+000 2.92063689e+000 2.98825097e+000 3.04662895e+000</_>
    <_>
      2.18807507e+000 2.21792006e+000 2.26591110e+000 2.31834197e+000
      2.33482909e+000 2.36221790e+000 2.40418792e+000 2.42541194e+000
      2.44961309e+000 2.49195194e+000 2.49996805e+000 2.51222897e+000
      2.54716396e+000 2.55310702e+000 2.56233311e+000 2.59154201e+000
      2.59629703e+000 2.62545896e+000 2.66000795e+000 2.67835689e+000</_>
    <_>
      2.91658211e+000 2.92124104e+000 2.92506909e+000 2.92478299e+000
      2.93853402e+000 2.94379306e+000 2.94384098e+000 2.94571996e+000
      2.94751000e+000 2.95407796e+000 2.96531296e+000 2.96368909e+000
      2.95166802e+000 2.94457293e+000 2.94294405e+000 2.92775798e+000
      2.91416502e+000 2.90456295e+000 2.90555310e+000 2.92905211e+000</_>
    <_>
      2.69015694e+000 2.75402093e+000 2.76800704e+000 2.75526905e+000
      2.70068789e+000 2.61658096e+000 2.57761097e+000 2.57000899e+000
      2.57335496e+000 2.63573194e+000 2.68301511e+000 2.70186710e+000
      2.73284793e+000 2.72484899e+000 2.68290091e+000 2.69115090e+000
      2.70654297e+000 2.69899893e+000 2.69504690e+000 2.65838790e+000</_>
    <_>
      2.49634409e+000 2.52555490e+000 2.52736712e+000 2.55340195e+000
      2.57891202e+000 2.57485509e+000 2.58906007e+000 2.61383104e+000
      2.61255288e+000 2.61872602e+000 2.64356899e+000 2.63904691e+000
      2.64555192e+000 2.66881204e+000 2.67081404e+000 2.67452407e+000
      2.69456410e+000 2.69457102e+000 2.71325302e+000 2.73352504e+000</_>
    <_>
      2.79068089e+000 2.76719689e+000 2.74432302e+000 2.71905589e+000
      2.69688392e+000 2.68153000e+000 2.68876505e+000 2.70311904e+000
      2.72245097e+000 2.74180794e+000 2.76126504e+000 2.79885888e+000
      2.83290601e+000 2.85684896e+000 2.87603498e+000 2.89371395e+000
      2.91443992e+000 2.94047499e+000 2.96614289e+000 2.98898602e+000</_>
    <_>
      2.87649608e+000 2.88210392e+000 2.87549496e+000 2.84227800e+000
      2.84806108e+000 2.85169911e+000 2.84355998e+000 2.84258604e+000
      2.83511496e+000 2.81269002e+000 2.78814411e+000 2.77692699e+000
      2.77108097e+000 2.78237200e+000 2.80337501e+000 2.82888889e+000
      2.87233090e+000 2.91705704e+000 2.94933796e+000 2.97137499e+000</_>
    <_>
      2.49317098e+000 2.43051600e+000 2.41843605e+000 2.39601398e+000
      2.40562606e+000 2.43171692e+000 2.45536709e+000 2.46412301e+000
      2.47699594e+000 2.48297501e+000 2.47669911e+000 2.47312188e+000
      2.50000596e+000 2.54389095e+000 2.62317395e+000 2.70857692e+000
      2.84310102e+000 2.99340701e+000 3.11163998e+000 3.19662189e+000</_>
    <_>
      2.95415401e+000 2.91448402e+000 2.86569810e+000 2.81583595e+000
      2.76124692e+000 2.71304297e+000 2.66326404e+000 2.57759500e+000
      2.45462108e+000 2.60158896e+000 2.72878408e+000 2.83417797e+000
      2.91835093e+000 2.98599911e+000 3.03547907e+000 3.06772900e+000
      3.08689809e+000 3.09148788e+000 3.07929397e+000 3.08807302e+000</_>
    <_>
      3.18304491e+000 3.08817697e+000 2.93144608e+000 2.76766992e+000
      2.61256790e+000 2.44263792e+000 2.22819901e+000 1.99113405e+000
      1.73138201e+000 2.03148103e+000 2.34167695e+000 2.62696004e+000
      2.86655211e+000 3.05912805e+000 3.20401001e+000 3.29471588e+000
      3.32985806e+000 3.31847405e+000 3.27182007e+000 3.25736904e+000</_>
    <_>
      3.12855196e+000 3.12800789e+000 3.08815408e+000 3.01281691e+000
      2.92910910e+000 2.86470890e+000 2.81936097e+000 2.82250690e+000
      2.84017110e+000 2.87403989e+000 2.95014596e+000 3.02902603e+000
      3.09212089e+000 3.15073895e+000 3.19014692e+000 3.21033001e+000
      3.22659397e+000 3.24259901e+000 3.24511600e+000 3.24521089e+000</_>
    <_>
      3.12002206e+000 2.99126601e+000 2.83744502e+000 2.66218901e+000
      2.50606298e+000 2.39910197e+000 2.36379910e+000 2.39058805e+000
      2.47181106e+000 2.58939791e+000 2.69260097e+000 2.83008409e+000
      2.92740703e+000 3.01039505e+000 3.09209800e+000 3.13389897e+000
      3.16315389e+000 3.20947909e+000 3.23994493e+000 3.26546097e+000</_>
    <_>
      3.15826011e+000 3.04049611e+000 2.90964389e+000 2.79003692e+000
      2.68686008e+000 2.62448192e+000 2.59839201e+000 2.60379410e+000
      2.65517402e+000 2.73806190e+000 2.82404995e+000 2.92536402e+000
      3.00621605e+000 3.06499696e+000 3.12363696e+000 3.17781711e+000
      3.21944094e+000 3.25562906e+000 3.28294301e+000 3.30131507e+000</_>
    <_>
      2.48961806e+000 2.31110501e+000 2.22295809e+000 2.15981793e+000
      2.13705707e+000 2.14414501e+000 2.12853193e+000 2.11810708e+000
      2.13217902e+000 2.10045791e+000 2.04853702e+000 2.00845599e+000
      2.00367308e+000 2.04090309e+000 2.29203010e+000 2.59113503e+000
      2.83803701e+000 3.03757095e+000 3.19340205e+000 3.28421211e+000</_>
    <_>
      2.87002492e+000 2.80624509e+000 2.73397994e+000 2.65680003e+000
      2.57585812e+000 2.50869894e+000 2.47079706e+000 2.45821309e+000
      2.46429992e+000 2.48297691e+000 2.51554704e+000 2.57275796e+000
      2.64601111e+000 2.73748302e+000 2.84089398e+000 2.94655895e+000
      3.03937292e+000 3.11480808e+000 3.19415092e+000 3.24807096e+000</_>
    <_>
      1.33434999e+000 1.34665704e+000 1.42239702e+000 1.53230906e+000
      1.64508903e+000 1.76851499e+000 1.85696995e+000 1.90664303e+000
      1.92671800e+000 1.91759896e+000 1.92997098e+000 1.95874596e+000
      2.01474810e+000 2.12305903e+000 2.27568603e+000 2.48756599e+000
      2.75056100e+000 2.96078801e+000 3.11107898e+000 3.21447897e+000</_>
    <_>
      2.31291699e+000 2.25594091e+000 2.22353196e+000 2.21021390e+000
      2.20440197e+000 2.19318008e+000 2.16655302e+000 2.09776306e+000
      2.00004005e+000 1.88822699e+000 1.78468704e+000 1.68712103e+000
      1.62330794e+000 1.62724996e+000 1.76060998e+000 2.04494596e+000
      2.47676492e+000 2.82660198e+000 3.07642388e+000 3.22366500e+000</_>
    <_>
      3.18606901e+000 3.06754303e+000 2.90713906e+000 2.69015193e+000
      2.61571097e+000 2.60038304e+000 2.61735511e+000 2.64707708e+000
      2.65977693e+000 2.67651296e+000 2.71057701e+000 2.75135803e+000
      2.93802691e+000 3.07030511e+000 3.18159604e+000 3.25345898e+000
      3.30411601e+000 3.34035707e+000 3.35416198e+000 3.35272408e+000</_>
    <_>
      2.91073394e+000 2.89958811e+000 2.89254689e+000 2.88813090e+000
      2.88246799e+000 2.86335206e+000 2.83337808e+000 2.80861497e+000
      2.77847791e+000 2.75911903e+000 2.77066588e+000 2.79626799e+000
      2.86245799e+000 2.95900893e+000 3.06137800e+000 3.15373993e+000
      3.23481798e+000 3.30833197e+000 3.36627889e+000 3.38116693e+000</_>
    <_>
      1.64565599e+000 1.75512302e+000 1.85661805e+000 1.93917799e+000
      2.04821610e+000 2.08663988e+000 2.08957505e+000 2.12077403e+000
      2.13902593e+000 2.15328312e+000 2.18050694e+000 2.20174909e+000
      2.22380495e+000 2.23195195e+000 2.24445796e+000 2.25185299e+000
      2.26520610e+000 2.28597808e+000 2.32609010e+000 2.38666606e+000</_>
    <_>
      2.21938610e+000 2.21015906e+000 2.21693492e+000 2.21441388e+000
      2.20148611e+000 2.19218898e+000 2.16626811e+000 2.14447093e+000
      2.13173103e+000 2.10152507e+000 2.08269691e+000 2.02369308e+000
      1.93713903e+000 1.84123600e+000 1.74687898e+000 1.64670300e+000
      1.56327701e+000 1.56071901e+000 1.60879600e+000 1.75875700e+000</_>
    <_>
      2.74089098e+000 2.77468204e+000 2.80401111e+000 2.83220100e+000
      2.83684611e+000 2.83750391e+000 2.85108304e+000 2.86420894e+000
      2.87999892e+000 2.89127588e+000 2.89342499e+000 2.91010690e+000
      2.92787409e+000 2.93796897e+000 2.94842601e+000 2.95188594e+000
      2.94084501e+000 2.94186902e+000 2.94702911e+000 2.94318795e+000</_>
    <_>
      2.79864502e+000 2.71170211e+000 2.68237090e+000 2.64775491e+000
      2.57636189e+000 2.58596396e+000 2.57178402e+000 2.53625989e+000
      2.59369993e+000 2.62415099e+000 2.62970090e+000 2.69902110e+000
      2.74579501e+000 2.77600908e+000 2.86269093e+000 2.93317604e+000
      2.99937201e+000 3.08841395e+000 3.16125011e+000 3.21860504e+000</_>
    <_>
      2.82865405e+000 2.83001709e+000 2.82775998e+000 2.85274911e+000
      2.85655189e+000 2.85659194e+000 2.87763596e+000 2.88028002e+000
      2.88028097e+000 2.89223194e+000 2.88505101e+000 2.88840008e+000
      2.89661002e+000 2.89224100e+000 2.89819002e+000 2.90316701e+000
      2.89392900e+000 2.88715601e+000 2.89128304e+000 2.88283610e+000</_>
    <_>
      2.83895898e+000 2.81965899e+000 2.80324292e+000 2.78364301e+000
      2.77382708e+000 2.76858497e+000 2.76673293e+000 2.77116799e+000
      2.77442598e+000 2.77343392e+000 2.78571701e+000 2.79963803e+000
      2.81128192e+000 2.83289599e+000 2.85536408e+000 2.86940908e+000
      2.88848901e+000 2.90564489e+000 2.91412997e+000 2.93276000e+000</_>
    <_>
      2.70921803e+000 2.66866589e+000 2.61871099e+000 2.57807899e+000
      2.52861691e+000 2.46960711e+000 2.42471910e+000 2.40794802e+000
      2.34555006e+000 2.22936010e+000 2.16021395e+000 2.03572202e+000
      1.85944796e+000 1.77305102e+000 1.74964201e+000 1.83176899e+000
      2.14811301e+000 2.50659204e+000 2.82919002e+000 3.04318500e+000</_>
    <_>
      1.97083998e+000 2.09700799e+000 2.21140003e+000 2.29714108e+000
      2.35093307e+000 2.35965490e+000 2.35683799e+000 2.37818789e+000
      2.39628291e+000 2.41324496e+000 2.45376801e+000 2.47207808e+000
      2.46539807e+000 2.50568891e+000 2.52379203e+000 2.54085708e+000
      2.63087511e+000 2.74232101e+000 2.85347009e+000 2.98016500e+000</_>
    <_>
      2.78870702e+000 2.76079702e+000 2.74676895e+000 2.73018599e+000
      2.72111511e+000 2.72391295e+000 2.72391510e+000 2.73365903e+000
      2.75025392e+000 2.76251411e+000 2.78230405e+000 2.80493498e+000
      2.82173896e+000 2.84684610e+000 2.87447596e+000 2.89549708e+000
      2.91970801e+000 2.94934607e+000 2.98193097e+000 3.02010393e+000</_>
    <_>
      2.83853889e+000 2.84178805e+000 2.85024905e+000 2.85687900e+000
      2.86978197e+000 2.88544798e+000 2.88593507e+000 2.89991999e+000
      2.90509796e+000 2.91042399e+000 2.92104793e+000 2.92725110e+000
      2.92570305e+000 2.93506098e+000 2.94028497e+000 2.94121504e+000
      2.95018101e+000 2.96269894e+000 2.97123599e+000 2.98372889e+000</_>
    <_>
      2.77057195e+000 2.75676608e+000 2.74304008e+000 2.73818111e+000
      2.72842407e+000 2.71032500e+000 2.68846011e+000 2.67592907e+000
      2.65770602e+000 2.64134598e+000 2.64240789e+000 2.64569712e+000
      2.65723491e+000 2.69078398e+000 2.72565699e+000 2.76960301e+000
      2.83556104e+000 2.92126393e+000 3.00565696e+000 3.09083009e+000</_>
    <_>
      2.87023592e+000 2.80925989e+000 2.77374411e+000 2.76163793e+000
      2.76484299e+000 2.77785802e+000 2.80091190e+000 2.83374190e+000
      2.86522293e+000 2.89331794e+000 2.92142892e+000 2.94613791e+000
      2.95906997e+000 2.96870708e+000 2.98001289e+000 2.98719907e+000
      3.00132489e+000 3.01886797e+000 3.03899193e+000 3.05047798e+000</_>
    <_>
      2.93957090e+000 2.90992999e+000 2.88094711e+000 2.82733011e+000
      2.79337502e+000 2.75851893e+000 2.70093298e+000 2.63810110e+000
      2.60457706e+000 2.60010600e+000 2.64161491e+000 2.72166204e+000
      2.84407806e+000 2.97532511e+000 3.10357594e+000 3.19435310e+000
      3.24622202e+000 3.26374412e+000 3.26599312e+000 3.24903202e+000</_>
    <_>
      2.82019401e+000 2.74978304e+000 2.73326206e+000 2.69492888e+000
      2.69099212e+000 2.71569705e+000 2.75209093e+000 2.81437993e+000
      2.83978510e+000 2.86934090e+000 2.88810706e+000 2.89598489e+000
      2.92459393e+000 2.92666101e+000 2.93935800e+000 2.96812201e+000
      3.00651193e+000 3.05375504e+000 3.06999302e+000 3.08011293e+000</_>
    <_>
      2.81578112e+000 2.67450809e+000 2.55609393e+000 2.57730007e+000
      2.56587505e+000 2.47062898e+000 2.26546097e+000 1.94404602e+000
      1.56913602e+000 1.17929196e+000 8.71819973e-001 5.52016020e-001
      3.19016010e-001 1.03700602e+000 1.83681202e+000 2.60368299e+000
      3.09038091e+000 3.06438208e+000 2.46183991e+000 1.47219300e+000</_>
    <_>
      1.61667299e+000 1.59438598e+000 1.62609005e+000 1.70328104e+000
      1.77392900e+000 1.84022701e+000 1.93171704e+000 1.97183394e+000
      1.97268200e+000 1.95505702e+000 1.92222095e+000 1.89375603e+000
      1.90670502e+000 1.94899297e+000 2.04852891e+000 2.18093896e+000
      2.33429694e+000 2.47992611e+000 2.59706712e+000 2.68674397e+000</_>
    <_>
      3.13006592e+000 3.04909992e+000 2.97088599e+000 2.89344597e+000
      2.82439804e+000 2.81467390e+000 2.78032494e+000 2.76179695e+000
      2.77862501e+000 2.84586501e+000 2.91344190e+000 2.97644401e+000
      3.04493904e+000 3.09186006e+000 3.12355804e+000 3.16203594e+000
      3.18192792e+000 3.20480204e+000 3.22020793e+000 3.24040103e+000</_>
    <_>
      1.69233894e+000 1.96712506e+000 2.19113493e+000 2.38951802e+000
      2.49609900e+000 2.58179903e+000 2.68984509e+000 2.72685790e+000
      2.72936010e+000 2.65545702e+000 2.70416188e+000 2.74253798e+000
      2.77224398e+000 2.76605201e+000 2.72360992e+000 2.70233488e+000
      2.70228601e+000 2.75949407e+000 2.85222697e+000 2.91082501e+000</_>
    <_>
      2.95018005e+000 2.87855792e+000 2.78703499e+000 2.69301200e+000
      2.59225392e+000 2.53890896e+000 2.48850107e+000 2.41866589e+000
      2.32464194e+000 2.28851104e+000 2.40727901e+000 2.57715607e+000
      2.75102997e+000 2.91633701e+000 3.04847193e+000 3.14236403e+000
      3.19286609e+000 3.20674109e+000 3.19043493e+000 3.16808891e+000</_>
    <_>
      2.76017308e+000 2.80857205e+000 2.86930609e+000 2.92371392e+000
      2.96372604e+000 2.98985791e+000 2.99239898e+000 2.96606994e+000
      2.92344093e+000 2.87160707e+000 2.81170702e+000 2.77654004e+000
      2.74481511e+000 2.72972703e+000 2.73656702e+000 2.74520898e+000
      2.77185011e+000 2.81815004e+000 2.85796094e+000 2.90448904e+000</_>
    <_>
      2.74059510e+000 2.77937293e+000 2.79472089e+000 2.76984000e+000
      2.71453691e+000 2.64478993e+000 2.58981609e+000 2.57923198e+000
      2.60136008e+000 2.65774012e+000 2.74799109e+000 2.83339000e+000
      2.89190197e+000 2.91793799e+000 2.91173291e+000 2.89991498e+000
      2.90586495e+000 2.91428900e+000 2.92309499e+000 2.92796206e+000</_>
    <_>
      2.88336611e+000 2.88509798e+000 2.91865611e+000 2.96165609e+000
      2.99047995e+000 2.99463701e+000 2.97125196e+000 2.92165899e+000
      2.84797502e+000 2.80741501e+000 2.76471210e+000 2.80009198e+000
      2.86649489e+000 2.92151594e+000 2.96931005e+000 3.00870109e+000
      3.04213500e+000 3.10439706e+000 3.14876699e+000 3.17614889e+000</_>
    <_>
      2.92978811e+000 2.86967206e+000 2.78184295e+000 2.68398595e+000
      2.59113193e+000 2.51700401e+000 2.46910810e+000 2.45818496e+000
      2.49077702e+000 2.56476212e+000 2.65770602e+000 2.75731492e+000
      2.85433292e+000 2.93812609e+000 3.00806499e+000 3.05042505e+000
      3.06958294e+000 3.07483292e+000 3.06851697e+000 3.05801511e+000</_>
    <_>
      2.82000709e+000 2.79784393e+000 2.79295492e+000 2.79991102e+000
      2.80668306e+000 2.81959295e+000 2.80617404e+000 2.78241110e+000
      2.78445292e+000 2.77909088e+000 2.76184893e+000 2.75131798e+000
      2.73047400e+000 2.72139096e+000 2.75296497e+000 2.79296303e+000
      2.84308100e+000 2.90074205e+000 2.94140911e+000 2.97299790e+000</_>
    <_>
      3.00101900e+000 3.00373912e+000 2.98163104e+000 2.94995403e+000
      2.90714407e+000 2.87876391e+000 2.88601303e+000 2.91787601e+000
      2.94980311e+000 2.97242308e+000 2.98555708e+000 3.00345898e+000
      3.02343798e+000 3.01966095e+000 2.99475408e+000 2.97399497e+000
      3.02042389e+000 3.06053209e+000 3.05520391e+000 2.99014401e+000</_>
    <_>
      2.95271301e+000 2.93963099e+000 2.89698505e+000 2.86085296e+000
      2.84141111e+000 2.81864691e+000 2.82998705e+000 2.83986402e+000
      2.84502101e+000 2.87182093e+000 2.90124607e+000 2.93843198e+000
      2.97403312e+000 2.99985194e+000 3.01271009e+000 3.03698707e+000
      3.05926394e+000 3.05538106e+000 3.04222798e+000 3.02570105e+000</_>
    <_>
      2.96684694e+000 2.87661910e+000 2.77812696e+000 2.64378190e+000
      2.45127797e+000 2.27703094e+000 2.08755207e+000 1.97650194e+000
      2.05838990e+000 2.13215899e+000 2.37523293e+000 2.59639001e+000
      2.78531194e+000 2.93191600e+000 3.03014708e+000 3.10447598e+000
      3.13947201e+000 3.16794109e+000 3.19339490e+000 3.18524790e+000</_>
    <_>
      3.39435005e+000 3.31394410e+000 3.13279390e+000 2.85404396e+000
      2.50937605e+000 2.13052201e+000 1.72946000e+000 1.33254302e+000
      1.52560902e+000 1.79495800e+000 2.10139489e+000 2.45124698e+000
      2.76190710e+000 3.00344205e+000 3.18418193e+000 3.29870701e+000
      3.31166697e+000 3.25318789e+000 3.24492311e+000 3.24626303e+000</_>
    <_>
      2.60866809e+000 2.16441607e+000 1.67584801e+000 1.19042897e+000
      7.53306985e-001 1.04402804e+000 1.37451100e+000 1.73448205e+000
      2.06024504e+000 2.32287788e+000 2.54418993e+000 2.68764496e+000
      2.82432890e+000 2.85820889e+000 2.85578895e+000 2.96019197e+000
      3.05428696e+000 3.15245891e+000 3.22507405e+000 3.26910305e+000</_>
    <_>
      2.97419906e+000 2.97714090e+000 2.95873904e+000 2.91101599e+000
      2.84269595e+000 2.80655909e+000 2.78054690e+000 2.79149199e+000
      2.84447289e+000 2.89358401e+000 2.94712496e+000 3.00166988e+000
      3.02391791e+000 3.09260893e+000 3.16516304e+000 3.21759105e+000
      3.25077891e+000 3.27216005e+000 3.28970194e+000 3.29429603e+000</_>
    <_>
      3.12088203e+000 3.03779888e+000 2.92866302e+000 2.82339692e+000
      2.73552895e+000 2.65333104e+000 2.60299802e+000 2.59595704e+000
      2.60734606e+000 2.65158892e+000 2.73074603e+000 2.83235788e+000
      2.96164298e+000 3.07244110e+000 3.15301895e+000 3.21005201e+000
      3.25253606e+000 3.27339292e+000 3.27995801e+000 3.27718401e+000</_>
    <_>
      2.96753192e+000 2.86407590e+000 2.78322601e+000 2.68305612e+000
      2.50769591e+000 2.26956201e+000 2.43097901e+000 2.57175493e+000
      2.65981698e+000 2.67841506e+000 2.62350988e+000 2.66178393e+000
      2.77609491e+000 2.93849897e+000 3.01947498e+000 2.99762297e+000
      3.03345108e+000 3.13576198e+000 3.23095894e+000 3.26245904e+000</_>
    <_>
      3.01676011e+000 2.95389295e+000 2.85419989e+000 2.74418902e+000
      2.64056301e+000 2.53190994e+000 2.47544789e+000 2.45981002e+000
      2.48338509e+000 2.55804110e+000 2.65404606e+000 2.76437211e+000
      2.87865591e+000 2.98895097e+000 3.08784604e+000 3.16735697e+000
      3.22826409e+000 3.26843500e+000 3.29170895e+000 3.29984093e+000</_>
    <_>
      2.80826092e+000 2.70418501e+000 2.62039995e+000 2.50532603e+000
      2.45773196e+000 2.41487408e+000 2.42089295e+000 2.48328495e+000
      2.51503396e+000 2.53182411e+000 2.59623098e+000 2.67760396e+000
      2.77517891e+000 2.86068010e+000 2.95831299e+000 3.03414011e+000
      3.10391092e+000 3.17777801e+000 3.21205902e+000 3.23538589e+000</_>
    <_>
      3.16691089e+000 3.17717099e+000 3.14840889e+000 3.05229712e+000
      2.94864392e+000 2.86159492e+000 2.82063007e+000 2.82536292e+000
      2.85368395e+000 2.91695404e+000 2.97785211e+000 3.04029703e+000
      3.08620596e+000 3.09143996e+000 3.11292696e+000 3.12331200e+000
      3.11129498e+000 3.11502600e+000 3.10975599e+000 3.15628099e+000</_>
    <_>
      2.95861793e+000 2.94541097e+000 2.94297791e+000 2.90572906e+000
      2.87957406e+000 2.86649990e+000 2.88383198e+000 2.91565895e+000
      2.91630292e+000 2.93979597e+000 2.97645211e+000 3.02284193e+000
      3.06079292e+000 3.07036400e+000 3.08639503e+000 3.09572601e+000
      3.11384797e+000 3.13162088e+000 3.12751389e+000 3.12705493e+000</_>
    <_>
      2.92058110e+000 2.86190701e+000 2.83956909e+000 2.84708309e+000
      2.86395693e+000 2.82170701e+000 2.76308894e+000 2.68039703e+000
      2.58014488e+000 2.48665404e+000 2.35872793e+000 2.40185809e+000
      2.60196090e+000 2.87202001e+000 3.08884192e+000 3.19000506e+000
      3.20427799e+000 3.12980199e+000 2.98480701e+000 2.79935694e+000</_>
    <_>
      3.03046989e+000 2.99499297e+000 2.95662308e+000 2.88894796e+000
      2.85454798e+000 2.84777498e+000 2.87002897e+000 2.90742993e+000
      2.91301703e+000 2.93594193e+000 2.95267510e+000 2.96305394e+000
      2.99873900e+000 3.01601291e+000 3.05111098e+000 3.13141704e+000
      3.21248198e+000 3.27018690e+000 3.28000593e+000 3.25967598e+000</_>
    <_>
      3.15977597e+000 3.07547092e+000 2.96668291e+000 2.87899303e+000
      2.79148793e+000 2.75616002e+000 2.73050404e+000 2.69895792e+000
      2.71644998e+000 2.77100301e+000 2.81887507e+000 2.91428494e+000
      3.00732708e+000 3.10607505e+000 3.19290900e+000 3.25695205e+000
      3.29398608e+000 3.30001807e+000 3.28393412e+000 3.25019312e+000</_>
    <_>
      2.86219311e+000 2.73874998e+000 2.63318300e+000 2.52732205e+000
      2.49257708e+000 2.53774905e+000 2.62160611e+000 2.74107194e+000
      2.83053303e+000 2.88347006e+000 2.92260194e+000 2.95155191e+000
      2.97963905e+000 2.97002411e+000 2.96307993e+000 2.99273992e+000
      3.02087903e+000 3.05935311e+000 3.03638101e+000 2.96101809e+000</_>
    <_>
      2.71534491e+000 2.53766704e+000 2.31046891e+000 2.07385492e+000
      1.99470699e+000 2.10037398e+000 2.35101700e+000 2.54846597e+000
      2.69403791e+000 2.80078101e+000 2.87684393e+000 2.93192291e+000
      2.92289209e+000 2.90826702e+000 2.91981411e+000 2.97007108e+000
      3.03504205e+000 3.07827997e+000 3.11726189e+000 3.14818907e+000</_>
    <_>
      2.89363098e+000 2.80977201e+000 2.71617603e+000 2.63288808e+000
      2.57185507e+000 2.52076101e+000 2.48225188e+000 2.49190903e+000
      2.51998591e+000 2.53841305e+000 2.61153698e+000 2.72435498e+000
      2.83041692e+000 2.92812610e+000 2.98309302e+000 3.03018904e+000
      3.05017900e+000 3.07096100e+000 3.09315610e+000 3.10607910e+000</_>
    <_>
      1.68782198e+000 1.92008197e+000 2.18664098e+000 2.43192005e+000
      2.62072492e+000 2.78374100e+000 2.90200710e+000 2.89930010e+000
      2.86034894e+000 2.77818894e+000 2.61182499e+000 2.56749010e+000
      2.52378392e+000 2.49335194e+000 2.54590702e+000 2.62823796e+000
      2.73687696e+000 2.83304405e+000 2.94862103e+000 3.04834199e+000</_>
    <_>
      2.80335307e+000 2.81449795e+000 2.84234905e+000 2.85691190e+000
      2.86933398e+000 2.87008500e+000 2.86687398e+000 2.85584688e+000
      2.83569503e+000 2.81926203e+000 2.79351997e+000 2.77266788e+000
      2.75416803e+000 2.73364592e+000 2.73943591e+000 2.74604106e+000
      2.76195312e+000 2.79879403e+000 2.84225106e+000 2.89883590e+000</_>
    <_>
      1.81475496e+000 1.60048199e+000 1.43634605e+000 1.33476603e+000
      1.27920604e+000 1.26188898e+000 1.23333001e+000 1.12155402e+000
      9.75798011e-001 7.72832990e-001 6.29105985e-001 4.83202994e-001
      3.83316994e-001 3.22389990e-001 3.24396014e-001 9.07167017e-001
      1.86940503e+000 2.73102593e+000 3.31928611e+000 3.56781197e+000</_>
    <_>
      2.48009801e+000 2.59802294e+000 2.66467094e+000 2.69298005e+000
      2.70163703e+000 2.66451907e+000 2.60892606e+000 2.64741302e+000
      2.68887591e+000 2.72529793e+000 2.77687812e+000 2.81219411e+000
      2.84768105e+000 2.88226700e+000 2.89774799e+000 2.90237308e+000
      2.90538692e+000 2.90256810e+000 2.91374207e+000 2.93199301e+000</_>
    <_>
      2.53735209e+000 2.50653791e+000 2.47639799e+000 2.46202302e+000
      2.44557405e+000 2.45020008e+000 2.45892692e+000 2.47590899e+000
      2.48604107e+000 2.51317406e+000 2.54184794e+000 2.56804895e+000
      2.58429694e+000 2.60888004e+000 2.62593198e+000 2.65606689e+000
      2.68975306e+000 2.74557805e+000 2.79833794e+000 2.84788990e+000</_>
    <_>
      1.19183600e+000 1.20135796e+000 1.28253698e+000 1.44054306e+000
      1.61054599e+000 1.76266599e+000 1.90094900e+000 2.01860905e+000
      2.10589910e+000 2.17988896e+000 2.27417302e+000 2.33991289e+000
      2.38279891e+000 2.43773103e+000 2.49141788e+000 2.52511692e+000
      2.57387996e+000 2.64559102e+000 2.73366094e+000 2.83788991e+000</_>
    <_>
      3.30068588e+000 3.20131302e+000 3.03516197e+000 2.80817699e+000
      2.52858400e+000 2.21410489e+000 1.88477099e+000 1.55942702e+000
      1.84820104e+000 2.12170506e+000 2.40591407e+000 2.67308688e+000
      2.89283490e+000 3.09541202e+000 3.23686600e+000 3.31060791e+000
      3.33020306e+000 3.30678296e+000 3.32548308e+000 3.33224010e+000</_>
    <_>
      2.86154699e+000 2.87708092e+000 2.89460993e+000 2.92786694e+000
      2.96222711e+000 2.97401309e+000 2.97582698e+000 2.95777512e+000
      2.93507004e+000 2.91682196e+000 2.91447806e+000 2.90834808e+000
      2.89972901e+000 2.88184905e+000 2.84486699e+000 2.78526211e+000
      2.75049496e+000 2.73055410e+000 2.73609591e+000 2.75575900e+000</_>
    <_>
      2.38568497e+000 2.05160809e+000 1.70443797e+000 1.36041701e+000
      1.69553602e+000 2.01027012e+000 2.29183292e+000 2.51240706e+000
      2.65680599e+000 2.75261092e+000 2.77593088e+000 2.74297094e+000
      2.70537090e+000 2.66740298e+000 2.75829196e+000 2.87650299e+000
      2.98432994e+000 3.05350208e+000 3.06994700e+000 3.03592992e+000</_>
    <_>
      3.05350208e+000 3.06994700e+000 3.03592992e+000 2.96108508e+000
      2.88181806e+000 2.80480194e+000 2.78044891e+000 2.81254411e+000
      2.86341310e+000 2.92039895e+000 2.97677708e+000 3.02223802e+000
      3.03501797e+000 3.04317498e+000 3.01578498e+000 2.96162510e+000
      2.92793298e+000 2.89346910e+000 2.85803103e+000 2.84381890e+000</_>
    <_>
      3.04317498e+000 3.01578498e+000 2.96162510e+000 2.92793298e+000
      2.89346910e+000 2.85803103e+000 2.84381890e+000 2.82694292e+000
      2.81659603e+000 2.83828998e+000 2.88349605e+000 2.94580698e+000
      3.02866411e+000 3.10152102e+000 3.14980292e+000 3.17656589e+000
      3.17615390e+000 3.15005112e+000 3.11243510e+000 3.07408810e+000</_>
    <_>
      2.99662805e+000 2.92455602e+000 2.85692096e+000 2.77793288e+000
      2.71928811e+000 2.69456601e+000 2.67714906e+000 2.68503094e+000
      2.73369002e+000 2.78736091e+000 2.84748292e+000 2.91119599e+000
      2.96233201e+000 2.99497104e+000 3.01650500e+000 3.03185201e+000
      3.04955506e+000 3.06360698e+000 3.05742097e+000 3.05163598e+000</_>
    <_>
      2.39720798e+000 2.46393299e+000 2.52585793e+000 2.60199594e+000
      2.66792011e+000 2.72751999e+000 2.78998995e+000 2.81474805e+000
      2.82762003e+000 2.83867002e+000 2.82792902e+000 2.82239795e+000
      2.85707593e+000 2.88127398e+000 2.88540101e+000 2.85922909e+000
      2.78316998e+000 2.69921899e+000 2.63643909e+000 2.59403801e+000</_>
    <_>
      3.19220996e+000 2.94703889e+000 2.57554603e+000 2.11372495e+000
      1.61234999e+000 1.12501001e+000 6.77542984e-001 1.01636100e+000
      1.32229495e+000 1.66711497e+000 2.04093909e+000 2.42149210e+000
      2.76861000e+000 3.04576206e+000 3.20195198e+000 3.26722693e+000
      3.25089693e+000 3.29400301e+000 3.29190803e+000 3.26061106e+000</_>
    <_>
      2.91340399e+000 2.87308192e+000 2.84837794e+000 2.82908010e+000
      2.82669401e+000 2.82871389e+000 2.83834410e+000 2.85759211e+000
      2.87637496e+000 2.89116096e+000 2.90518808e+000 2.92632008e+000
      2.94940901e+000 2.98026705e+000 3.01023507e+000 3.03666592e+000
      3.05450892e+000 3.06291795e+000 3.05914497e+000 3.05956197e+000</_>
    <_>
      3.04288507e+000 3.02785301e+000 3.01676607e+000 2.95677710e+000
      2.88868904e+000 2.85204697e+000 2.83865094e+000 2.84660792e+000
      2.86009908e+000 2.88267589e+000 2.92342901e+000 2.98226595e+000
      3.03655910e+000 3.08163500e+000 3.11696911e+000 3.14945412e+000
      3.18089795e+000 3.22344398e+000 3.24865699e+000 3.26989508e+000</_>
    <_>
      2.96640801e+000 2.86470008e+000 2.75445509e+000 2.65551805e+000
      2.57351899e+000 2.50894189e+000 2.47218394e+000 2.47131801e+000
      2.48888898e+000 2.54407191e+000 2.63037491e+000 2.72712302e+000
      2.82819700e+000 2.91288090e+000 2.96040201e+000 3.00211406e+000
      3.02005601e+000 3.01385307e+000 3.00169206e+000 2.97787404e+000</_>
    <_>
      2.94149399e+000 2.91385603e+000 2.87311602e+000 2.81409097e+000
      2.77243304e+000 2.73861408e+000 2.74005389e+000 2.75465202e+000
      2.77822399e+000 2.81724000e+000 2.87041211e+000 2.91161799e+000
      2.96701002e+000 3.00428510e+000 3.03109598e+000 3.05251598e+000
      3.07715297e+000 3.09213495e+000 3.10903406e+000 3.11948609e+000</_>
    <_>
      3.02632809e+000 2.95322490e+000 2.87138891e+000 2.78642297e+000
      2.71050000e+000 2.63900900e+000 2.59126306e+000 2.58270693e+000
      2.59583592e+000 2.63059497e+000 2.69062090e+000 2.76398802e+000
      2.85665011e+000 2.95503902e+000 3.04134607e+000 3.11444592e+000
      3.17587209e+000 3.21929312e+000 3.25071597e+000 3.27212095e+000</_>
    <_>
      3.10411310e+000 3.05925608e+000 2.98955107e+000 2.90485811e+000
      2.81742191e+000 2.76281404e+000 2.75234294e+000 2.74807596e+000
      2.76478601e+000 2.83991289e+000 2.91029000e+000 2.97862005e+000
      3.05559897e+000 3.11148310e+000 3.15504789e+000 3.18589401e+000
      3.19651604e+000 3.20866609e+000 3.21177411e+000 3.20110607e+000</_>
    <_>
      2.99106598e+000 2.93171692e+000 2.84733701e+000 2.76690292e+000
      2.69575095e+000 2.65862799e+000 2.65569305e+000 2.68984699e+000
      2.76601696e+000 2.84439611e+000 2.90083599e+000 2.94297504e+000
      2.98213601e+000 3.01817989e+000 3.05328298e+000 3.10273099e+000
      3.13563299e+000 3.16400695e+000 3.18840194e+000 3.19966698e+000</_>
    <_>
      3.21157408e+000 3.16476107e+000 3.05598092e+000 2.84925294e+000
      2.57413292e+000 2.24624491e+000 1.89821398e+000 1.57626700e+000
      1.26698804e+000 1.63058698e+000 2.00639796e+000 2.38187099e+000
      2.72400594e+000 3.02018094e+000 3.23339200e+000 3.35610509e+000
      3.39915109e+000 3.38452911e+000 3.33158898e+000 3.33286595e+000</_>
    <_>
      2.77698398e+000 2.79140711e+000 2.78574109e+000 2.77798605e+000
      2.76297498e+000 2.74952698e+000 2.75706196e+000 2.77677393e+000
      2.80560803e+000 2.83777308e+000 2.86208892e+000 2.88608003e+000
      2.91231704e+000 2.92609310e+000 2.92441893e+000 2.92267609e+000
      2.91710210e+000 2.90784192e+000 2.89733291e+000 2.88572001e+000</_>
    <_>
      2.24655008e+000 2.26965189e+000 2.29985499e+000 2.33994293e+000
      2.36517692e+000 2.38631701e+000 2.41401911e+000 2.43405890e+000
      2.44844794e+000 2.47038388e+000 2.49262309e+000 2.51135111e+000
      2.54001999e+000 2.55573606e+000 2.56457090e+000 2.58719301e+000
      2.60353899e+000 2.62192392e+000 2.65387797e+000 2.67326903e+000</_>
    <_>
      3.03489900e+000 3.03204107e+000 3.00419593e+000 2.96080208e+000
      2.89472890e+000 2.80849195e+000 2.75724602e+000 2.75915194e+000
      2.79888892e+000 2.84802699e+000 2.92527199e+000 2.97162199e+000
      3.00568604e+000 3.04952693e+000 3.08632302e+000 3.10553598e+000
      3.11321807e+000 3.10639000e+000 3.09561801e+000 3.08820701e+000</_>
    <_>
      3.38082504e+000 3.27590799e+000 3.06807995e+000 2.74533892e+000
      2.33261299e+000 1.87898898e+000 1.42323697e+000 9.98255014e-001
      1.27302301e+000 1.56895804e+000 1.90211105e+000 2.29011011e+000
      2.68899798e+000 3.03324509e+000 3.25377202e+000 3.35828900e+000
      3.36500311e+000 3.31187201e+000 3.31910491e+000 3.30791092e+000</_>
    <_>
      2.88511705e+000 2.86986494e+000 2.86712790e+000 2.86499596e+000
      2.86392093e+000 2.87250996e+000 2.88103008e+000 2.87387991e+000
      2.87344694e+000 2.89083791e+000 2.91369295e+000 2.94292593e+000
      2.96008301e+000 2.96162605e+000 2.97335696e+000 2.99917412e+000
      3.00935197e+000 3.01039600e+000 3.00812793e+000 2.99570799e+000</_>
    <_>
      2.75474501e+000 2.74419308e+000 2.74169898e+000 2.72247005e+000
      2.69267893e+000 2.66273594e+000 2.62638402e+000 2.60831904e+000
      2.63478208e+000 2.67891502e+000 2.74150300e+000 2.81705904e+000
      2.87907195e+000 2.92795491e+000 2.96428394e+000 2.98220706e+000
      2.97839904e+000 2.95412588e+000 2.92962408e+000 2.93098092e+000</_>
    <_>
      3.02351403e+000 2.98470306e+000 2.97064900e+000 2.94794798e+000
      2.90569592e+000 2.88852501e+000 2.90346098e+000 2.92886591e+000
      2.95937705e+000 2.98539400e+000 2.99233007e+000 3.01812911e+000
      3.05308604e+000 3.06224608e+000 3.06311798e+000 3.05823398e+000
      3.05787110e+000 3.06183600e+000 3.06059098e+000 3.05684495e+000</_>
    <_>
      3.30219889e+000 3.24160790e+000 3.15049696e+000 3.02729988e+000
      2.87485909e+000 2.70421100e+000 2.51278210e+000 2.31414509e+000
      2.50824690e+000 2.69196796e+000 2.86041903e+000 3.00774503e+000
      3.13768792e+000 3.23941708e+000 3.30450892e+000 3.34223795e+000
      3.42537093e+000 3.48253894e+000 3.54654002e+000 3.57946801e+000</_>
    <_>
      3.15770006e+000 3.12670398e+000 3.00400996e+000 2.77590299e+000
      2.45754194e+000 2.11720991e+000 1.79607403e+000 1.51632202e+000
      1.27098405e+000 1.10316205e+000 1.49123394e+000 1.96983194e+000
      2.41697097e+000 2.80230904e+000 3.06756496e+000 3.22266889e+000
      3.28361511e+000 3.28228998e+000 3.22386909e+000 3.15642691e+000</_>
    <_>
      3.23581505e+000 3.15707994e+000 3.03563809e+000 2.88399100e+000
      2.69999599e+000 2.49107909e+000 2.35095000e+000 2.27845907e+000
      2.27028704e+000 2.34900594e+000 2.47153807e+000 2.60560989e+000
      2.75454497e+000 2.87725711e+000 2.97155499e+000 3.02502894e+000
      3.06324601e+000 3.09190989e+000 3.11894894e+000 3.14681792e+000</_>
    <_>
      2.88750792e+000 2.77960706e+000 2.69895291e+000 2.65822911e+000
      2.68677807e+000 2.69257498e+000 2.69487190e+000 2.62708211e+000
      2.51192188e+000 2.39819002e+000 2.29850698e+000 2.18429804e+000
      2.05333591e+000 1.96691501e+000 2.25149989e+000 2.56731606e+000
      2.82928896e+000 3.02918601e+000 3.17112803e+000 3.26130605e+000</_>
    <_>
      3.26364303e+000 3.20627093e+000 3.12716889e+000 3.02149796e+000
      2.89530492e+000 2.74946308e+000 2.67243004e+000 2.67599010e+000
      2.71473908e+000 2.75538993e+000 2.79666400e+000 2.85006595e+000
      2.90732288e+000 2.94953203e+000 3.01494598e+000 3.06443310e+000
      3.11962700e+000 3.16548991e+000 3.20507193e+000 3.22695804e+000</_>
    <_>
      2.95058608e+000 2.87376904e+000 2.83033204e+000 2.88460302e+000
      2.89803410e+000 2.83568192e+000 2.74510098e+000 2.59554100e+000
      2.43387198e+000 2.25025892e+000 2.04375505e+000 1.81661606e+000
      1.66139197e+000 1.94837701e+000 2.30397296e+000 2.63022709e+000
      2.90513992e+000 3.11495996e+000 3.25164700e+000 3.32972288e+000</_>
    <_>
      3.24592495e+000 3.20284104e+000 3.15330911e+000 3.05895805e+000
      2.92986608e+000 2.79901910e+000 2.71625900e+000 2.64786506e+000
      2.73647094e+000 2.81987906e+000 2.86513495e+000 2.92242002e+000
      3.02371407e+000 3.08727598e+000 3.10038900e+000 3.10730910e+000
      3.14215994e+000 3.21448302e+000 3.29516697e+000 3.32474399e+000</_>
    <_>
      3.33820009e+000 3.27217889e+000 3.18356705e+000 2.98543096e+000
      2.65587997e+000 2.23043108e+000 1.82053399e+000 1.39042199e+000
      1.04787600e+000 8.61131012e-001 1.32284904e+000 1.80684805e+000
      2.30879593e+000 2.73212409e+000 3.05994606e+000 3.22344398e+000
      3.26640797e+000 3.21996188e+000 3.13508797e+000 3.04288912e+000</_>
    <_>
      3.19793010e+000 3.16116810e+000 3.10100794e+000 3.01199698e+000
      2.89580798e+000 2.78854895e+000 2.71986294e+000 2.64311194e+000
      2.61218309e+000 2.66173196e+000 2.75846791e+000 2.83720708e+000
      2.89282203e+000 2.97560191e+000 3.03311801e+000 3.09558892e+000
      3.14433098e+000 3.15810490e+000 3.16524410e+000 3.17252588e+000</_>
    <_>
      3.23780298e+000 3.24859500e+000 3.17691398e+000 3.02859902e+000
      2.81183505e+000 2.56046510e+000 2.28950906e+000 2.01553798e+000
      1.86834896e+000 2.11068702e+000 2.38876700e+000 2.65742493e+000
      2.88041806e+000 3.05914998e+000 3.17495394e+000 3.23689795e+000
      3.24701095e+000 3.22316003e+000 3.18424201e+000 3.19030690e+000</_>
    <_>
      3.22748399e+000 3.18849897e+000 3.10540605e+000 2.96267200e+000
      2.74522209e+000 2.54482293e+000 2.31312108e+000 2.06925201e+000
      1.86082399e+000 2.01921391e+000 2.31756306e+000 2.60647297e+000
      2.85028911e+000 3.03532290e+000 3.14822292e+000 3.19972706e+000
      3.19233489e+000 3.14930201e+000 3.08161092e+000 3.07635689e+000</_>
    <_>
      3.19300604e+000 3.12627697e+000 2.97648597e+000 2.75689411e+000
      2.46225691e+000 2.08200192e+000 1.66485596e+000 1.49224806e+000
      1.48756599e+000 1.66323602e+000 1.77866101e+000 2.03307199e+000
      2.29663205e+000 2.53445911e+000 2.82061195e+000 3.00783610e+000
      3.10486603e+000 3.16409302e+000 3.19894290e+000 3.24212098e+000</_>
    <_>
      3.08876610e+000 2.99686003e+000 2.90151191e+000 2.82311010e+000
      2.78379893e+000 2.78815198e+000 2.80195093e+000 2.83271694e+000
      2.84828997e+000 2.86800599e+000 2.87729311e+000 2.90692401e+000
      2.94567394e+000 2.98903990e+000 3.03878403e+000 3.10206199e+000
      3.15731096e+000 3.20366096e+000 3.23832893e+000 3.26422906e+000</_>
    <_>
      3.08926392e+000 3.00787997e+000 2.93500590e+000 2.90562797e+000
      2.89327002e+000 2.86773992e+000 2.83672500e+000 2.78500509e+000
      2.76948810e+000 2.77559900e+000 2.79751205e+000 2.84391594e+000
      2.91152906e+000 2.99078012e+000 3.07668591e+000 3.14518499e+000
      3.20113301e+000 3.23807812e+000 3.26329207e+000 3.27430511e+000</_>
    <_>
      3.16998506e+000 3.11561799e+000 2.99492407e+000 2.80414510e+000
      2.55844688e+000 2.24591303e+000 1.88112998e+000 1.55704498e+000
      1.43788195e+000 1.46904302e+000 1.66097701e+000 2.10625696e+000
      2.52916193e+000 2.89444590e+000 3.17218494e+000 3.33803296e+000
      3.39321494e+000 3.37012506e+000 3.33771396e+000 3.28072906e+000</_>
    <_>
      3.29688311e+000 3.23846412e+000 3.12854409e+000 2.96665096e+000
      2.75380301e+000 2.50660801e+000 2.29907799e+000 2.16035700e+000
      2.14264202e+000 2.24648690e+000 2.43209004e+000 2.66966796e+000
      2.87379599e+000 3.05359411e+000 3.17711091e+000 3.24539995e+000
      3.28071690e+000 3.28534198e+000 3.27855897e+000 3.27023911e+000</_>
    <_>
      3.04869008e+000 3.00168610e+000 2.94817305e+000 2.87555194e+000
      2.78093410e+000 2.63990211e+000 2.55522203e+000 2.51043105e+000
      2.49498010e+000 2.50252295e+000 2.54077506e+000 2.61622596e+000
      2.76674294e+000 2.92534494e+000 3.04601598e+000 3.12865901e+000
      3.18349290e+000 3.22028399e+000 3.24138999e+000 3.25213695e+000</_>
    <_>
      3.21172595e+000 3.11292505e+000 2.98181295e+000 2.80387402e+000
      2.63748193e+000 2.49993491e+000 2.46207905e+000 2.40791106e+000
      2.43049788e+000 2.48239303e+000 2.55186701e+000 2.64100409e+000
      2.76445293e+000 2.87297511e+000 2.97197604e+000 3.06444407e+000
      3.14726400e+000 3.20134401e+000 3.24922109e+000 3.27962399e+000</_>
    <_>
      3.18099809e+000 3.08226204e+000 2.95036507e+000 2.74974489e+000
      2.52487111e+000 2.43884301e+000 2.28222799e+000 2.20997810e+000
      2.17869711e+000 2.16445494e+000 2.24175692e+000 2.37113309e+000
      2.59221697e+000 2.79026508e+000 2.96203399e+000 3.08075809e+000
      3.14247108e+000 3.16314793e+000 3.17747903e+000 3.15145612e+000</_>
    <_>
      3.21821904e+000 3.13634896e+000 3.01518011e+000 2.85571909e+000
      2.65019798e+000 2.41295910e+000 2.31322193e+000 2.29420900e+000
      2.32014799e+000 2.37295604e+000 2.46692610e+000 2.58506989e+000
      2.74188209e+000 2.90513206e+000 3.03526902e+000 3.11609197e+000
      3.16719198e+000 3.20164609e+000 3.22229600e+000 3.23433709e+000</_>
    <_>
      3.35306001e+000 3.35162497e+000 3.27178407e+000 3.09965491e+000
      2.83620691e+000 2.51588202e+000 2.15867996e+000 1.79797006e+000
      1.54928505e+000 1.60777605e+000 1.94921303e+000 2.30540800e+000
      2.65169406e+000 2.95341110e+000 3.18133497e+000 3.32033205e+000
      3.37857890e+000 3.37136006e+000 3.33063602e+000 3.29990911e+000</_>
    <_>
      3.20463395e+000 3.15121293e+000 3.07505107e+000 2.98408794e+000
      2.90184212e+000 2.85433412e+000 2.82706904e+000 2.80072999e+000
      2.79621792e+000 2.82213998e+000 2.86465907e+000 2.92580295e+000
      2.97339606e+000 3.02929211e+000 3.09124398e+000 3.14426303e+000
      3.18641996e+000 3.22329307e+000 3.24839902e+000 3.26537395e+000</_>
    <_>
      3.03883600e+000 2.92107296e+000 2.77529812e+000 2.63632989e+000
      2.57207894e+000 2.53427291e+000 2.54576612e+000 2.58544207e+000
      2.59725189e+000 2.62367511e+000 2.67395210e+000 2.74243999e+000
      2.80265808e+000 2.86882901e+000 2.94874692e+000 3.02347207e+000
      3.09417391e+000 3.14784098e+000 3.16488910e+000 3.16244006e+000</_>
    <_>
      3.22637010e+000 3.19494510e+000 3.14774299e+000 3.09441590e+000
      3.02210498e+000 2.90136790e+000 2.82282305e+000 2.74302411e+000
      2.69863391e+000 2.66730309e+000 2.78059912e+000 2.91643596e+000
      3.01896501e+000 3.08725309e+000 3.11945105e+000 3.10323191e+000
      3.09164405e+000 3.05371499e+000 3.05121803e+000 3.03996491e+000</_>
    <_>
      2.97329092e+000 2.98215008e+000 2.96540689e+000 2.93531799e+000
      2.85787296e+000 2.76546597e+000 2.64215112e+000 2.50610995e+000
      2.37711692e+000 2.49572206e+000 2.64737892e+000 2.79362106e+000
      2.93843889e+000 3.07776594e+000 3.18865299e+000 3.25816798e+000
      3.26266289e+000 3.19361210e+000 3.06136799e+000 2.90646505e+000</_>
    <_>
      3.25816798e+000 3.26266289e+000 3.19361210e+000 3.06136799e+000
      2.90646505e+000 2.73397803e+000 2.54865193e+000 2.39606094e+000
      2.40299010e+000 2.54465604e+000 2.74015594e+000 2.91537404e+000
      3.07185507e+000 3.19199800e+000 3.27175403e+000 3.31554508e+000
      3.32705998e+000 3.31684804e+000 3.30052590e+000 3.29145408e+000</_>
    <_>
      2.62421298e+000 2.62951803e+000 2.63854194e+000 2.64719009e+000
      2.65422702e+000 2.65603900e+000 2.64756107e+000 2.63647509e+000
      2.65234494e+000 2.66159105e+000 2.67354798e+000 2.70148993e+000
      2.71101093e+000 2.71402192e+000 2.71743202e+000 2.69374490e+000
      2.65599394e+000 2.62469506e+000 2.58229995e+000 2.53105998e+000</_>
    <_>
      2.79625010e+000 2.81095195e+000 2.82870698e+000 2.84858298e+000
      2.86390305e+000 2.87720299e+000 2.88142800e+000 2.89372706e+000
      2.90550399e+000 2.91104794e+000 2.91574407e+000 2.92278409e+000
      2.92319894e+000 2.92808104e+000 2.93098211e+000 2.93582106e+000
      2.93967795e+000 2.94542003e+000 2.94786811e+000 2.94923997e+000</_>
    <_>
      2.88873696e+000 2.89363790e+000 2.89957595e+000 2.89513993e+000
      2.89337492e+000 2.89267302e+000 2.89135695e+000 2.88535905e+000
      2.88129401e+000 2.88573790e+000 2.88752508e+000 2.88870192e+000
      2.89334989e+000 2.89087892e+000 2.89499211e+000 2.92112398e+000
      2.94420409e+000 2.97514892e+000 3.00903296e+000 3.03446794e+000</_>
    <_>
      3.02199006e+000 2.98288703e+000 2.94210005e+000 2.91262197e+000
      2.87648392e+000 2.84938002e+000 2.84957600e+000 2.84981608e+000
      2.86644602e+000 2.89452696e+000 2.91991806e+000 2.95938206e+000
      3.01014090e+000 3.06117606e+000 3.10103297e+000 3.14411998e+000
      3.18688607e+000 3.22356606e+000 3.25211406e+000 3.27027392e+000</_>
    <_>
      2.92488599e+000 2.90632105e+000 2.89265895e+000 2.88379097e+000
      2.86089110e+000 2.82175303e+000 2.78546190e+000 2.74204612e+000
      2.69389796e+000 2.67434907e+000 2.69113898e+000 2.73569298e+000
      2.85138702e+000 2.98099899e+000 3.08321691e+000 3.16125488e+000
      3.21409798e+000 3.23597908e+000 3.23691106e+000 3.24035096e+000</_>
    <_>
      2.91569591e+000 2.91667199e+000 2.91943002e+000 2.92957711e+000
      2.93439007e+000 2.94289088e+000 2.95560002e+000 2.96417189e+000
      2.96921206e+000 2.97433305e+000 2.97792411e+000 2.98449993e+000
      2.98579502e+000 2.98426199e+000 2.98083901e+000 2.97804904e+000
      2.97547698e+000 2.97484803e+000 2.97819304e+000 2.97579908e+000</_>
    <_>
      2.60556793e+000 2.63739896e+000 2.63079596e+000 2.63661408e+000
      2.58849096e+000 2.56575990e+000 2.57005095e+000 2.54994893e+000
      2.55276299e+000 2.56981707e+000 2.59836197e+000 2.58511806e+000
      2.59050107e+000 2.54555511e+000 2.48063993e+000 2.44649100e+000
      2.47726893e+000 2.49216509e+000 2.54759097e+000 2.58082104e+000</_>
    <_>
      1.68297899e+000 1.67662704e+000 1.69193602e+000 1.74220002e+000
      1.78497601e+000 1.82988298e+000 1.88562500e+000 1.88864398e+000
      1.87956595e+000 1.87470698e+000 1.80941105e+000 1.75101697e+000
      1.70226300e+000 1.66438997e+000 1.66886497e+000 1.73965502e+000
      1.87823606e+000 2.14440608e+000 2.51758099e+000 2.82132196e+000</_>
    <_>
      3.05745602e+000 2.61036706e+000 1.97101402e+000 1.30868101e+000
      9.67539012e-001 8.16029012e-001 7.36027002e-001 7.10348010e-001
      7.44306982e-001 8.45956028e-001 1.04310203e+000 1.38775003e+000
      1.89642894e+000 2.53603506e+000 2.97803998e+000 3.22864509e+000
      3.35043406e+000 3.39166093e+000 3.38815308e+000 3.36495590e+000</_>
    <_>
      2.36572599e+000 2.34760499e+000 2.34252191e+000 2.34786105e+000
      2.34263802e+000 2.32987905e+000 2.30559301e+000 2.25048494e+000
      2.16159010e+000 2.07237291e+000 1.99013805e+000 1.91125703e+000
      1.87988603e+000 1.91665006e+000 2.00627398e+000 2.17169309e+000
      2.42257595e+000 2.70973492e+000 2.93164301e+000 3.10467005e+000</_>
    <_>
      3.03177404e+000 2.86723089e+000 2.67667794e+000 2.50517511e+000
      2.37115407e+000 2.29769611e+000 2.24033499e+000 2.21347594e+000
      2.24169302e+000 2.30647111e+000 2.40528989e+000 2.57801795e+000
      2.79840207e+000 2.97716808e+000 3.11673093e+000 3.22061300e+000
      3.28298712e+000 3.32319593e+000 3.34080291e+000 3.34332705e+000</_>
    <_>
      2.85655308e+000 2.82366395e+000 2.80161095e+000 2.79052091e+000
      2.79374290e+000 2.78830409e+000 2.79432201e+000 2.81087995e+000
      2.81460094e+000 2.82650495e+000 2.84757590e+000 2.85210991e+000
      2.86771989e+000 2.89490104e+000 2.91865802e+000 2.96834302e+000
      3.02026010e+000 3.09629297e+000 3.16452098e+000 3.22074795e+000</_>
    <_>
      1.85428500e+000 1.84983003e+000 1.87443101e+000 1.91668499e+000
      1.97929895e+000 2.05648589e+000 2.09814405e+000 2.13409901e+000
      2.16634107e+000 2.18158507e+000 2.19636703e+000 2.21374607e+000
      2.21756101e+000 2.25304198e+000 2.30474710e+000 2.38158488e+000
      2.49585509e+000 2.66109800e+000 2.85967493e+000 3.01016593e+000</_>
    <_>
      2.05616093e+000 2.10501599e+000 2.12605405e+000 2.16863608e+000
      2.17955899e+000 2.19512606e+000 2.22957802e+000 2.22562909e+000
      2.22498202e+000 2.24239111e+000 2.23024702e+000 2.21984696e+000
      2.21377993e+000 2.20485592e+000 2.21349001e+000 2.22571707e+000
      2.23724008e+000 2.25437498e+000 2.32839704e+000 2.43801689e+000</_>
    <_>
      2.75502992e+000 2.75648308e+000 2.73554492e+000 2.71497703e+000
      2.69587398e+000 2.67355204e+000 2.64509606e+000 2.64593601e+000
      2.63020396e+000 2.60072303e+000 2.60116601e+000 2.58806205e+000
      2.58744192e+000 2.61881089e+000 2.64732695e+000 2.68046308e+000
      2.73268509e+000 2.78576589e+000 2.83440900e+000 2.88694406e+000</_>
    <_>
      2.69285607e+000 2.73085308e+000 2.74505401e+000 2.76874590e+000
      2.79200792e+000 2.80042696e+000 2.81659293e+000 2.83434510e+000
      2.83679295e+000 2.86068606e+000 2.87730789e+000 2.88434696e+000
      2.90086603e+000 2.91527700e+000 2.91504788e+000 2.93564510e+000
      2.95262098e+000 2.95525694e+000 2.96810508e+000 2.98288202e+000</_>
    <_>
      2.78830004e+000 2.80937099e+000 2.80985498e+000 2.82325602e+000
      2.84314704e+000 2.84496999e+000 2.86405706e+000 2.88098598e+000
      2.88642693e+000 2.91087508e+000 2.92425489e+000 2.92731309e+000
      2.93010211e+000 2.91399407e+000 2.89924788e+000 2.88647604e+000
      2.87889409e+000 2.86917305e+000 2.88005090e+000 2.91568995e+000</_>
    <_>
      2.12098289e+000 2.01919103e+000 2.00387001e+000 2.05540395e+000
      2.11810303e+000 2.22192693e+000 2.34496593e+000 2.45726609e+000
      2.54424596e+000 2.61168098e+000 2.64116597e+000 2.65564394e+000
      2.68172097e+000 2.70406389e+000 2.73977804e+000 2.80583191e+000
      2.87174797e+000 2.96274590e+000 3.06110907e+000 3.13491988e+000</_>
    <_>
      2.91014910e+000 2.89476609e+000 2.87781692e+000 2.87420702e+000
      2.86217594e+000 2.84517097e+000 2.83694911e+000 2.83369303e+000
      2.83128405e+000 2.84565091e+000 2.86814094e+000 2.89057899e+000
      2.92852092e+000 2.96938109e+000 3.00939989e+000 3.05343103e+000
      3.11573005e+000 3.18008900e+000 3.23042703e+000 3.26877904e+000</_>
    <_>
      3.10759592e+000 2.93829107e+000 2.71904802e+000 2.46584105e+000
      2.26549411e+000 2.12994909e+000 2.05652499e+000 2.04166007e+000
      2.06643891e+000 2.14037490e+000 2.26196194e+000 2.39881206e+000
      2.60693693e+000 2.84163308e+000 3.01315403e+000 3.13490105e+000
      3.22152901e+000 3.27011991e+000 3.29302096e+000 3.29988694e+000</_>
    <_>
      2.29351807e+000 2.23074794e+000 2.19921994e+000 2.16429400e+000
      2.10464191e+000 2.05044103e+000 2.00604200e+000 1.93448305e+000
      1.83714902e+000 1.73145199e+000 1.60111296e+000 1.49013603e+000
      1.45039403e+000 1.42410803e+000 1.44086802e+000 1.59298003e+000
      1.90830302e+000 2.33924198e+000 2.70976996e+000 2.98906207e+000</_>
    <_>
      1.93948102e+000 1.91631997e+000 1.92701697e+000 1.91771603e+000
      1.90025496e+000 1.89327896e+000 1.88576305e+000 1.89683604e+000
      1.91880703e+000 1.98563600e+000 2.04453397e+000 2.05975008e+000
      2.04815793e+000 2.03139091e+000 2.03573203e+000 2.05655909e+000
      2.07377100e+000 2.11086512e+000 2.21236396e+000 2.40166593e+000</_>
    <_>
      2.37776089e+000 2.35047412e+000 2.30574799e+000 2.25665808e+000
      2.21764708e+000 2.20341110e+000 2.23101306e+000 2.28743911e+000
      2.38377309e+000 2.50963712e+000 2.65933299e+000 2.79461598e+000
      2.88105297e+000 2.93476605e+000 2.95696712e+000 2.95969105e+000
      2.95476198e+000 2.94167709e+000 2.93420196e+000 2.92721295e+000</_>
    <_>
      2.01244712e+000 2.02414298e+000 2.07917190e+000 2.15787101e+000
      2.25878191e+000 2.36539102e+000 2.45752811e+000 2.51129794e+000
      2.53867698e+000 2.54229808e+000 2.52931499e+000 2.51093507e+000
      2.50584888e+000 2.50748396e+000 2.53392005e+000 2.58121395e+000
      2.66020894e+000 2.78895593e+000 2.94174504e+000 3.06544995e+000</_>
    <_>
      2.86443710e+000 2.84832311e+000 2.87165594e+000 2.89673209e+000
      2.91225004e+000 2.91132092e+000 2.87095499e+000 2.81093192e+000
      2.74498892e+000 2.67733312e+000 2.64357400e+000 2.65937710e+000
      2.72576499e+000 2.84174204e+000 2.97364902e+000 3.07924390e+000
      3.15645409e+000 3.21133900e+000 3.24475598e+000 3.25900197e+000</_>
    <_>
      2.51532006e+000 2.23440599e+000 2.06563902e+000 2.03240991e+000
      2.05770707e+000 2.12892795e+000 2.24632597e+000 2.36926007e+000
      2.48424697e+000 2.59647489e+000 2.66066289e+000 2.69359207e+000
      2.74184299e+000 2.78993392e+000 2.84319210e+000 2.92787504e+000
      3.04844499e+000 3.13969707e+000 3.21256995e+000 3.26649094e+000</_>
    <_>
      2.84222102e+000 2.67111492e+000 2.57425904e+000 2.53763700e+000
      2.55198407e+000 2.59767389e+000 2.65766311e+000 2.71805811e+000
      2.78286505e+000 2.83268189e+000 2.86755705e+000 2.88763499e+000
      2.89480209e+000 2.90831399e+000 2.95085502e+000 3.01578307e+000
      3.09661102e+000 3.17087793e+000 3.22809696e+000 3.27130699e+000</_>
    <_>
      1.76745903e+000 1.88377500e+000 1.95195496e+000 2.00815296e+000
      2.06091690e+000 2.09358096e+000 2.13520002e+000 2.16210103e+000
      2.19961500e+000 2.23689699e+000 2.26267409e+000 2.30120897e+000
      2.32385111e+000 2.34743190e+000 2.36119509e+000 2.36173892e+000
      2.36584401e+000 2.37145305e+000 2.39136195e+000 2.42018604e+000</_>
    <_>
      2.99428391e+000 2.95646310e+000 2.91863799e+000 2.83430409e+000
      2.73879600e+000 2.64398193e+000 2.53666210e+000 2.51240611e+000
      2.54974198e+000 2.64811110e+000 2.80476689e+000 2.96580601e+000
      3.07906890e+000 3.17130804e+000 3.24151111e+000 3.27771902e+000
      3.30153108e+000 3.31755996e+000 3.32162905e+000 3.32379508e+000</_>
    <_>
      1.87655604e+000 1.63664103e+000 1.55139601e+000 1.57616401e+000
      1.66692996e+000 1.78990102e+000 1.92067802e+000 2.06661201e+000
      2.18703198e+000 2.28013611e+000 2.32778406e+000 2.37529898e+000
      2.43791008e+000 2.52823710e+000 2.68484807e+000 2.85624409e+000
      2.99835396e+000 3.11785007e+000 3.20804906e+000 3.26925302e+000</_>
    <_>
      1.86386001e+000 1.59365296e+000 1.39157605e+000 1.27775097e+000
      1.27044702e+000 1.22308505e+000 1.15141594e+000 1.12503099e+000
      1.06519699e+000 1.00880802e+000 9.95135009e-001 1.06537795e+000
      1.20977998e+000 1.46913397e+000 1.97132504e+000 2.54273701e+000
      2.95292401e+000 3.21572495e+000 3.33527207e+000 3.37707901e+000</_>
    <_>
      1.42838597e+000 1.35753298e+000 1.30574000e+000 1.30174100e+000
      1.35709000e+000 1.34152198e+000 1.38642597e+000 1.38942802e+000
      1.34861505e+000 1.25824499e+000 1.17634106e+000 1.01443803e+000
      9.21213984e-001 8.13646019e-001 7.62073994e-001 7.43851006e-001
      8.26526999e-001 1.36529100e+000 2.34975696e+000 3.10516596e+000</_>
    <_>
      2.05738592e+000 2.04743505e+000 2.08932090e+000 2.14597201e+000
      2.23445201e+000 2.33992410e+000 2.45128608e+000 2.55360889e+000
      2.61659908e+000 2.66855788e+000 2.69595695e+000 2.69833112e+000
      2.68802905e+000 2.67977595e+000 2.69060707e+000 2.70922899e+000
      2.75634694e+000 2.85009909e+000 2.98635197e+000 3.09727812e+000</_>
    <_>
      2.59633899e+000 2.59405589e+000 2.60665703e+000 2.63150191e+000
      2.65460801e+000 2.68454695e+000 2.72811294e+000 2.77162290e+000
      2.82309198e+000 2.86223412e+000 2.89070702e+000 2.92342591e+000
      2.94129109e+000 2.92160511e+000 2.93659401e+000 2.93590593e+000
      2.90503192e+000 2.93428993e+000 2.95707512e+000 2.94716907e+000</_>
    <_>
      3.02859902e+000 3.01833105e+000 2.96978498e+000 2.91036010e+000
      2.82660699e+000 2.70529509e+000 2.62814403e+000 2.56862211e+000
      2.50253201e+000 2.56709909e+000 2.76247811e+000 2.92622209e+000
      3.06542802e+000 3.17850804e+000 3.25178695e+000 3.30002999e+000
      3.33311701e+000 3.34379911e+000 3.34140897e+000 3.33723593e+000</_>
    <_>
      3.08945990e+000 3.06351304e+000 3.01057911e+000 2.91689396e+000
      2.87359810e+000 2.81671000e+000 2.72084093e+000 2.70756602e+000
      2.69359207e+000 2.68980908e+000 2.78858304e+000 2.93603611e+000
      3.04870796e+000 3.14099908e+000 3.21743798e+000 3.26026392e+000
      3.28857303e+000 3.31606197e+000 3.32291198e+000 3.32561493e+000</_>
    <_>
      1.49630404e+000 1.29103100e+000 1.22121704e+000 1.24873805e+000
      1.34244204e+000 1.46996999e+000 1.63113105e+000 1.76786995e+000
      1.87621701e+000 1.95181298e+000 1.96433604e+000 1.98615098e+000
      2.06591511e+000 2.21091199e+000 2.43815899e+000 2.73879290e+000
      2.97091198e+000 3.12879109e+000 3.22635508e+000 3.27690911e+000</_>
    <_>
      3.15498996e+000 3.12810302e+000 3.05215693e+000 2.92336798e+000
      2.81397009e+000 2.68177199e+000 2.55799103e+000 2.52592397e+000
      2.56395102e+000 2.68940091e+000 2.86187696e+000 2.99760103e+000
      3.09497690e+000 3.18595290e+000 3.26191711e+000 3.30945110e+000
      3.32573199e+000 3.32932997e+000 3.32760191e+000 3.32853508e+000</_>
    <_>
      2.89142394e+000 2.91557693e+000 2.93799901e+000 2.94832611e+000
      2.94725204e+000 2.94981289e+000 2.94650507e+000 2.92525196e+000
      2.91720104e+000 2.91186690e+000 2.89730000e+000 2.90141010e+000
      2.90407300e+000 2.89642811e+000 2.91683507e+000 2.93455195e+000
      2.94520712e+000 2.94794297e+000 2.96816993e+000 2.97673512e+000</_>
    <_>
      2.93682599e+000 2.91681504e+000 2.90274501e+000 2.90055799e+000
      2.88638210e+000 2.87742805e+000 2.87487197e+000 2.87534499e+000
      2.88269901e+000 2.89880991e+000 2.94762492e+000 3.00144911e+000
      3.07541990e+000 3.14753604e+000 3.20456600e+000 3.25199008e+000
      3.28719401e+000 3.30873704e+000 3.32192492e+000 3.32867289e+000</_>
    <_>
      2.89240408e+000 2.90229011e+000 2.91004705e+000 2.89967489e+000
      2.90468502e+000 2.91626692e+000 2.91538095e+000 2.92225409e+000
      2.92834806e+000 2.92008495e+000 2.92382598e+000 2.92424607e+000
      2.91289496e+000 2.93007112e+000 2.93537498e+000 2.95030808e+000
      2.96978402e+000 2.98363209e+000 2.98565292e+000 2.98980904e+000</_>
    <_>
      2.67940688e+000 2.65762401e+000 2.65164804e+000 2.64669108e+000
      2.64124393e+000 2.64036298e+000 2.63896608e+000 2.63717604e+000
      2.64254093e+000 2.64809704e+000 2.65525889e+000 2.67582202e+000
      2.68783593e+000 2.68160796e+000 2.67882490e+000 2.68088889e+000
      2.68181300e+000 2.70553899e+000 2.74027896e+000 2.77907801e+000</_>
    <_>
      2.87132812e+000 2.84916902e+000 2.82656598e+000 2.82476401e+000
      2.80929303e+000 2.79924393e+000 2.80397105e+000 2.79282689e+000
      2.77612090e+000 2.79267812e+000 2.78745890e+000 2.79223990e+000
      2.81747103e+000 2.82301903e+000 2.82909393e+000 2.86351395e+000
      2.89624500e+000 2.92335296e+000 2.97575402e+000 3.02967811e+000</_>
    <_>
      2.75569105e+000 2.72343111e+000 2.69517207e+000 2.66946912e+000
      2.64998698e+000 2.62707901e+000 2.61484694e+000 2.59867001e+000
      2.58685398e+000 2.58147192e+000 2.58343291e+000 2.59005904e+000
      2.60853791e+000 2.62550402e+000 2.65403390e+000 2.68451810e+000
      2.73515511e+000 2.79896307e+000 2.85933208e+000 2.91558290e+000</_>
    <_>
      2.62006998e+000 2.63203192e+000 2.64041209e+000 2.65179300e+000
      2.64778495e+000 2.65252590e+000 2.66906309e+000 2.68032789e+000
      2.69270396e+000 2.72108507e+000 2.73477197e+000 2.75778389e+000
      2.78619790e+000 2.80365992e+000 2.81558990e+000 2.82938600e+000
      2.83475089e+000 2.83491206e+000 2.83350706e+000 2.83214402e+000</_>
    <_>
      2.66859007e+000 2.66170692e+000 2.64888692e+000 2.62799811e+000
      2.62194705e+000 2.62707901e+000 2.62094688e+000 2.63921189e+000
      2.64913297e+000 2.64935708e+000 2.66409707e+000 2.66927099e+000
      2.65484405e+000 2.65416408e+000 2.64790010e+000 2.63445497e+000
      2.64411092e+000 2.64009809e+000 2.62147999e+000 2.62179589e+000</_>
    <_>
      2.84528804e+000 2.83711696e+000 2.83909893e+000 2.84919190e+000
      2.85298204e+000 2.87713790e+000 2.88968301e+000 2.89778900e+000
      2.91008711e+000 2.91388297e+000 2.90762091e+000 2.91640592e+000
      2.92603207e+000 2.92639995e+000 2.93405604e+000 2.92814708e+000
      2.92200708e+000 2.93557405e+000 2.93679309e+000 2.95195699e+000</_>
    <_>
      2.88149405e+000 2.87912607e+000 2.87284994e+000 2.87789989e+000
      2.88784194e+000 2.88671398e+000 2.89770198e+000 2.91355896e+000
      2.91849709e+000 2.91078997e+000 2.92412710e+000 2.92908001e+000
      2.93300295e+000 2.95677400e+000 2.97465611e+000 2.99341798e+000
      3.03061199e+000 3.06594110e+000 3.09266710e+000 3.13721800e+000</_>
    <_>
      2.93097901e+000 2.90535402e+000 2.90510607e+000 2.89698911e+000
      2.88375306e+000 2.89156699e+000 2.89928389e+000 2.89980006e+000
      2.92261195e+000 2.94851398e+000 2.96518898e+000 2.98529696e+000
      3.01673198e+000 3.05139494e+000 3.07466006e+000 3.10801601e+000
      3.14330602e+000 3.17398596e+000 3.21613503e+000 3.25081801e+000</_>
    <_>
      2.79837489e+000 2.78245902e+000 2.77776098e+000 2.76789498e+000
      2.75201011e+000 2.74771309e+000 2.73779202e+000 2.73435712e+000
      2.74077797e+000 2.74240899e+000 2.74564600e+000 2.76290107e+000
      2.77435303e+000 2.77896309e+000 2.78795099e+000 2.78716493e+000
      2.78141403e+000 2.78795099e+000 2.78311706e+000 2.77934194e+000</_>
    <_>
      2.89070606e+000 2.88582301e+000 2.88198400e+000 2.88438392e+000
      2.88344598e+000 2.88517094e+000 2.89113998e+000 2.89765096e+000
      2.91766691e+000 2.93347406e+000 2.94983196e+000 2.95630193e+000
      2.96249104e+000 2.96399212e+000 2.95918393e+000 2.94784999e+000
      2.93631697e+000 2.92801905e+000 2.91838408e+000 2.91246510e+000</_>
    <_>
      2.21883893e+000 2.23766208e+000 2.24939299e+000 2.26101708e+000
      2.29073000e+000 2.30425501e+000 2.31463909e+000 2.33717394e+000
      2.33674002e+000 2.33748198e+000 2.36226797e+000 2.37244892e+000
      2.38396192e+000 2.41351008e+000 2.42416000e+000 2.43080306e+000
      2.44923401e+000 2.44843698e+000 2.45072889e+000 2.47569394e+000</_>
    <_>
      2.97739911e+000 2.98259306e+000 2.97121000e+000 2.96540499e+000
      2.95674491e+000 2.95166612e+000 2.94303608e+000 2.93964100e+000
      2.93178105e+000 2.94049406e+000 2.94318104e+000 2.94468904e+000
      2.93803811e+000 2.93993998e+000 2.94129205e+000 2.93928003e+000
      2.93224096e+000 2.92330003e+000 2.92144990e+000 2.91061401e+000</_>
    <_>
      2.85784197e+000 2.85521793e+000 2.87623501e+000 2.87995005e+000
      2.86952090e+000 2.87059903e+000 2.85936093e+000 2.84536290e+000
      2.85329795e+000 2.85947800e+000 2.86093903e+000 2.88175988e+000
      2.89246011e+000 2.89659691e+000 2.91642094e+000 2.92369103e+000
      2.92364001e+000 2.94640088e+000 2.95383000e+000 2.96647906e+000</_>
    <_>
      2.81169796e+000 2.80375290e+000 2.79122901e+000 2.78866506e+000
      2.78780890e+000 2.78729105e+000 2.79105496e+000 2.78529000e+000
      2.76913309e+000 2.76044202e+000 2.75751710e+000 2.75153399e+000
      2.74536705e+000 2.73931909e+000 2.72879100e+000 2.71134806e+000
      2.69356799e+000 2.67346501e+000 2.64904308e+000 2.65533710e+000</_>
    <_>
      2.61439490e+000 2.58870411e+000 2.56963491e+000 2.55073690e+000
      2.53434706e+000 2.51045799e+000 2.49069309e+000 2.48041797e+000
      2.45866609e+000 2.41740203e+000 2.35750103e+000 2.29165602e+000
      2.22631502e+000 2.17790508e+000 2.15352392e+000 2.19128299e+000
      2.29608989e+000 2.47901893e+000 2.68209505e+000 2.85796595e+000</_>
    <_>
      2.60283995e+000 2.59084010e+000 2.58574605e+000 2.59982610e+000
      2.60703897e+000 2.63098407e+000 2.66516995e+000 2.67183304e+000
      2.69023204e+000 2.72080708e+000 2.74549007e+000 2.77300310e+000
      2.79590702e+000 2.79993200e+000 2.81085706e+000 2.82853007e+000
      2.83750701e+000 2.84793711e+000 2.86488295e+000 2.87998104e+000</_>
    <_>
      2.84152389e+000 2.83163905e+000 2.82035589e+000 2.81545711e+000
      2.81193590e+000 2.81578302e+000 2.82573199e+000 2.83391809e+000
      2.84358692e+000 2.85318804e+000 2.84794807e+000 2.83473897e+000
      2.82290602e+000 2.81157708e+000 2.80530810e+000 2.79974699e+000
      2.79927492e+000 2.80234289e+000 2.82534194e+000 2.85725093e+000</_>
    <_>
      2.76826596e+000 2.77875209e+000 2.78805900e+000 2.78534198e+000
      2.78552198e+000 2.78602195e+000 2.78039598e+000 2.78580999e+000
      2.79117894e+000 2.79330897e+000 2.80390406e+000 2.81644893e+000
      2.81680894e+000 2.83660102e+000 2.84413290e+000 2.84165907e+000
      2.84678197e+000 2.85204101e+000 2.84839296e+000 2.84825993e+000</_>
    <_>
      2.88517594e+000 2.86574292e+000 2.86922097e+000 2.86751890e+000
      2.85387993e+000 2.87763596e+000 2.89701390e+000 2.90779901e+000
      2.92639899e+000 2.94120789e+000 2.94117999e+000 2.95284700e+000
      2.95707798e+000 2.96004200e+000 2.96665597e+000 2.97259808e+000
      2.98780704e+000 2.98672605e+000 3.01061797e+000 3.05849504e+000</_>
    <_>
      2.78414011e+000 2.77762699e+000 2.76258612e+000 2.76985407e+000
      2.76051807e+000 2.75549293e+000 2.77399802e+000 2.77123499e+000
      2.76854491e+000 2.80067611e+000 2.80983591e+000 2.83043408e+000
      2.86884403e+000 2.89006090e+000 2.90603089e+000 2.93349791e+000
      2.94569206e+000 2.95849609e+000 2.97770095e+000 2.98849201e+000</_>
    <_>
      2.87653399e+000 2.87052798e+000 2.86700392e+000 2.86132407e+000
      2.84026408e+000 2.81946898e+000 2.81159806e+000 2.79354191e+000
      2.79176402e+000 2.79610205e+000 2.79397011e+000 2.79870105e+000
      2.81108308e+000 2.81842899e+000 2.83306408e+000 2.84781909e+000
      2.86573696e+000 2.89450097e+000 2.93745089e+000 2.98590302e+000</_>
    <_>
      2.91038609e+000 2.92558098e+000 2.93745899e+000 2.94246602e+000
      2.94506693e+000 2.94480896e+000 2.93870211e+000 2.92871308e+000
      2.92790389e+000 2.91992688e+000 2.91535902e+000 2.92080307e+000
      2.90804100e+000 2.89810801e+000 2.90229106e+000 2.89588904e+000
      2.90715194e+000 2.92843008e+000 2.94812107e+000 2.98447204e+000</_>
    <_>
      2.77306509e+000 2.78206611e+000 2.79882312e+000 2.82227802e+000
      2.83641005e+000 2.84168792e+000 2.87218189e+000 2.90263700e+000
      2.92412496e+000 2.96087098e+000 2.98304391e+000 2.98724604e+000
      2.99645901e+000 2.99240208e+000 2.97596192e+000 2.96316695e+000
      2.95466900e+000 2.95224404e+000 2.96094489e+000 2.97758102e+000</_>
    <_>
      2.86811090e+000 2.85324907e+000 2.85853100e+000 2.85916901e+000
      2.85384393e+000 2.85780907e+000 2.85617495e+000 2.85362196e+000
      2.85568190e+000 2.85996699e+000 2.85908508e+000 2.86291099e+000
      2.87379098e+000 2.87332702e+000 2.88338590e+000 2.89733505e+000
      2.90219092e+000 2.94354510e+000 2.97259998e+000 2.99371099e+000</_>
    <_>
      2.84849191e+000 2.83844090e+000 2.81549501e+000 2.81359005e+000
      2.79930091e+000 2.78443003e+000 2.80542207e+000 2.80166292e+000
      2.79461288e+000 2.80493808e+000 2.79461789e+000 2.77446198e+000
      2.77562904e+000 2.76145601e+000 2.73894000e+000 2.75041199e+000
      2.75234103e+000 2.74353600e+000 2.76623893e+000 2.77755499e+000</_>
    <_>
      2.90908909e+000 2.89432907e+000 2.88365293e+000 2.86661196e+000
      2.84564590e+000 2.84450412e+000 2.82194710e+000 2.78903389e+000
      2.78818798e+000 2.79623890e+000 2.79453707e+000 2.78496909e+000
      2.77177000e+000 2.75888395e+000 2.75307012e+000 2.76375794e+000
      2.77876711e+000 2.79946804e+000 2.84248304e+000 2.89939404e+000</_>
    <_>
      2.86409593e+000 2.84945798e+000 2.82985806e+000 2.81709599e+000
      2.80504489e+000 2.79788995e+000 2.79262805e+000 2.79311395e+000
      2.79506397e+000 2.79842997e+000 2.80643201e+000 2.82140803e+000
      2.84141898e+000 2.86362290e+000 2.89187288e+000 2.92623591e+000
      2.96223903e+000 3.00196409e+000 3.04709506e+000 3.09056807e+000</_>
    <_>
      2.76903296e+000 2.77047491e+000 2.76759291e+000 2.77307510e+000
      2.76683402e+000 2.75736094e+000 2.75851703e+000 2.75542593e+000
      2.74576497e+000 2.74166393e+000 2.73293400e+000 2.73316407e+000
      2.73985004e+000 2.74104500e+000 2.73215508e+000 2.73508906e+000
      2.72180104e+000 2.71300101e+000 2.70802212e+000 2.68076706e+000</_>
    <_>
      2.89028096e+000 2.91199899e+000 2.92529511e+000 2.94381499e+000
      2.95432901e+000 2.96114707e+000 2.95930696e+000 2.96043491e+000
      2.95757794e+000 2.96304488e+000 2.96903205e+000 2.96737909e+000
      2.96761298e+000 2.96858311e+000 2.96338511e+000 2.97182202e+000
      2.97513509e+000 2.97220492e+000 2.98372507e+000 2.99053907e+000</_>
    <_>
      2.83648705e+000 2.78482103e+000 2.75810909e+000 2.74185705e+000
      2.73708701e+000 2.75382805e+000 2.75968695e+000 2.75584888e+000
      2.76735806e+000 2.76625204e+000 2.75297594e+000 2.78358006e+000
      2.82739496e+000 2.87092710e+000 2.92169690e+000 2.99829507e+000
      3.07677603e+000 3.14548492e+000 3.21072292e+000 3.25398493e+000</_>
    <_>
      2.72110391e+000 2.72197890e+000 2.70400405e+000 2.68443298e+000
      2.67232990e+000 2.64777398e+000 2.65773296e+000 2.68004704e+000
      2.68022704e+000 2.69521093e+000 2.70118999e+000 2.69092894e+000
      2.70099497e+000 2.70725489e+000 2.69170809e+000 2.69771910e+000
      2.72666311e+000 2.75266099e+000 2.77069211e+000 2.79239893e+000</_>
    <_>
      2.77703810e+000 2.79185295e+000 2.78067493e+000 2.75221491e+000
      2.75557303e+000 2.74980998e+000 2.73307109e+000 2.71845508e+000
      2.70286798e+000 2.68127394e+000 2.70387292e+000 2.71377301e+000
      2.70946407e+000 2.73249602e+000 2.74014997e+000 2.73115301e+000
      2.73639297e+000 2.73540401e+000 2.72909498e+000 2.76506209e+000</_>
    <_>
      2.85458398e+000 2.83526611e+000 2.82871699e+000 2.82287598e+000
      2.81870604e+000 2.83243799e+000 2.83860111e+000 2.83068991e+000
      2.83069396e+000 2.82542610e+000 2.82048011e+000 2.83625293e+000
      2.84929800e+000 2.86311889e+000 2.90392089e+000 2.93740892e+000
      2.97476196e+000 3.00412011e+000 3.01864195e+000 3.01425409e+000</_>
    <_>
      2.89921808e+000 2.91476989e+000 2.91956210e+000 2.93024993e+000
      2.93302488e+000 2.92555690e+000 2.92746902e+000 2.92078304e+000
      2.91070795e+000 2.91807103e+000 2.91990399e+000 2.92628789e+000
      2.93321609e+000 2.93037701e+000 2.93167496e+000 2.93626094e+000
      2.93435192e+000 2.92604399e+000 2.92221403e+000 2.91299009e+000</_>
    <_>
      2.19171596e+000 2.14713001e+000 2.12364197e+000 2.10839009e+000
      2.09911489e+000 2.09096789e+000 2.09195399e+000 2.08531690e+000
      2.09517789e+000 2.10675192e+000 2.10102606e+000 2.10835099e+000
      2.10858703e+000 2.12405801e+000 2.17151690e+000 2.19924998e+000
      2.20395303e+000 2.22873497e+000 2.26331806e+000 2.28669190e+000</_>
    <_>
      2.90326500e+000 2.89073896e+000 2.89790606e+000 2.92564201e+000
      2.94287801e+000 2.95683002e+000 2.96673989e+000 2.96170712e+000
      2.95064402e+000 2.94715595e+000 2.93509603e+000 2.93735194e+000
      2.96681595e+000 2.99758792e+000 3.01429510e+000 3.03292108e+000
      3.03613591e+000 3.02093792e+000 2.99882793e+000 2.97092199e+000</_>
    <_>
      2.90808296e+000 2.90180898e+000 2.89184690e+000 2.87954903e+000
      2.87437510e+000 2.86492395e+000 2.86054301e+000 2.87062192e+000
      2.89176202e+000 2.90892410e+000 2.92786288e+000 2.94857001e+000
      2.97175193e+000 2.99586296e+000 3.02267194e+000 3.05189800e+000
      3.09642005e+000 3.13953495e+000 3.17673993e+000 3.20828891e+000</_>
    <_>
      2.95219493e+000 2.96539211e+000 2.97018909e+000 2.97122908e+000
      2.96731496e+000 2.95841098e+000 2.94400191e+000 2.93123603e+000
      2.92538905e+000 2.91327190e+000 2.90848899e+000 2.91117907e+000
      2.91468310e+000 2.90898299e+000 2.91031003e+000 2.90661812e+000
      2.90431809e+000 2.90359092e+000 2.89985991e+000 2.90111208e+000</_>
    <_>
      2.78148603e+000 2.77683902e+000 2.78774595e+000 2.80850792e+000
      2.83436298e+000 2.85318494e+000 2.87230897e+000 2.89516997e+000
      2.90655303e+000 2.91715407e+000 2.93369508e+000 2.94013596e+000
      2.94887090e+000 2.96851110e+000 2.97660804e+000 2.98741698e+000
      2.99593806e+000 2.99692011e+000 2.99972892e+000 3.00623202e+000</_>
    <_>
      2.97004890e+000 2.94570994e+000 2.92258000e+000 2.91314507e+000
      2.89604092e+000 2.87895393e+000 2.88757396e+000 2.88763404e+000
      2.89042902e+000 2.92113900e+000 2.93646693e+000 2.97221899e+000
      3.01989102e+000 3.06698108e+000 3.11430502e+000 3.16309595e+000
      3.21148896e+000 3.25042510e+000 3.27835703e+000 3.30121708e+000</_>
    <_>
      2.91761899e+000 2.93052006e+000 2.93493795e+000 2.93464303e+000
      2.92637205e+000 2.92938900e+000 2.93238306e+000 2.92913508e+000
      2.93836999e+000 2.94404006e+000 2.94069910e+000 2.95590591e+000
      2.95804095e+000 2.95517993e+000 2.97636604e+000 2.98727202e+000
      2.99852991e+000 3.00633788e+000 3.00174689e+000 2.99554801e+000</_>
    <_>
      2.84032893e+000 2.83522797e+000 2.84800100e+000 2.85906601e+000
      2.86695194e+000 2.89120603e+000 2.89755607e+000 2.91409206e+000
      2.93363404e+000 2.94466901e+000 2.95107293e+000 2.96530199e+000
      2.97085094e+000 2.96727490e+000 2.96879411e+000 2.95821095e+000
      2.94944310e+000 2.95596099e+000 2.95969605e+000 2.96492410e+000</_>
    <_>
      2.64559388e+000 2.66834211e+000 2.69064498e+000 2.69622993e+000
      2.69891810e+000 2.71507311e+000 2.72804904e+000 2.73550105e+000
      2.74510789e+000 2.75921798e+000 2.77165103e+000 2.77904010e+000
      2.79076791e+000 2.79067898e+000 2.77880406e+000 2.76480603e+000
      2.74697495e+000 2.72669601e+000 2.72108698e+000 2.73484707e+000</_>
    <_>
      2.70278907e+000 2.70397902e+000 2.70503712e+000 2.70034003e+000
      2.70246911e+000 2.69625902e+000 2.68828392e+000 2.69208407e+000
      2.69177103e+000 2.68595695e+000 2.69333911e+000 2.70170093e+000
      2.71293712e+000 2.73032999e+000 2.73879409e+000 2.74185705e+000
      2.74624109e+000 2.74241304e+000 2.74069810e+000 2.74464893e+000</_>
    <_>
      2.87901998e+000 2.87903404e+000 2.86224008e+000 2.85192895e+000
      2.84575605e+000 2.84083104e+000 2.85805392e+000 2.87928009e+000
      2.90168095e+000 2.91425991e+000 2.92803788e+000 2.92780399e+000
      2.92758393e+000 2.92993498e+000 2.91952395e+000 2.91588402e+000
      2.92274594e+000 2.91696405e+000 2.91853690e+000 2.91929793e+000</_>
    <_>
      2.90985298e+000 2.82721996e+000 2.75953007e+000 2.70434809e+000
      2.67323709e+000 2.65433002e+000 2.64622307e+000 2.66074800e+000
      2.67596793e+000 2.70296597e+000 2.76251197e+000 2.81944203e+000
      2.88901401e+000 2.95048499e+000 2.99382210e+000 3.02573395e+000
      3.04222298e+000 3.04197001e+000 3.02570009e+000 3.00347304e+000</_>
    <_>
      3.02570009e+000 3.00347304e+000 2.97405505e+000 2.94243789e+000
      2.91641402e+000 2.88572407e+000 2.86020803e+000 2.86736608e+000
      2.87087893e+000 2.91412592e+000 2.96870089e+000 3.03349304e+000
      3.10396910e+000 3.16884208e+000 3.22084689e+000 3.25815010e+000
      3.28269601e+000 3.29884410e+000 3.30702901e+000 3.31182909e+000</_>
    <_>
      2.80444908e+000 2.81340909e+000 2.81864500e+000 2.83233809e+000
      2.83133197e+000 2.83774805e+000 2.85230803e+000 2.85860395e+000
      2.86419106e+000 2.88050103e+000 2.89106393e+000 2.90996909e+000
      2.92776489e+000 2.94017792e+000 2.94749308e+000 2.96386194e+000
      2.97505307e+000 2.98649502e+000 3.00203300e+000 3.01194191e+000</_>
    <_>
      2.82171106e+000 2.82778502e+000 2.82787299e+000 2.81281590e+000
      2.80422401e+000 2.79869699e+000 2.78878093e+000 2.78326988e+000
      2.78624010e+000 2.78149605e+000 2.78474498e+000 2.79151201e+000
      2.79895997e+000 2.80265093e+000 2.80794001e+000 2.80554199e+000
      2.80964899e+000 2.80686402e+000 2.80693293e+000 2.80475402e+000</_>
    <_>
      2.89805889e+000 2.87482405e+000 2.87201405e+000 2.85911012e+000
      2.83811998e+000 2.82708192e+000 2.81056094e+000 2.79383612e+000
      2.78680801e+000 2.77883291e+000 2.77150512e+000 2.79226995e+000
      2.81992006e+000 2.85145402e+000 2.89759588e+000 2.95268989e+000
      3.02159405e+000 3.10345602e+000 3.16923189e+000 3.21879911e+000</_>
    <_>
      2.88870311e+000 2.80047607e+000 2.71651912e+000 2.64167809e+000
      2.56560993e+000 2.49236393e+000 2.44532204e+000 2.40755701e+000
      2.39009190e+000 2.39605188e+000 2.42969489e+000 2.49626899e+000
      2.59476590e+000 2.75062609e+000 2.91719103e+000 3.04699802e+000
      3.14585400e+000 3.20675492e+000 3.24375296e+000 3.26440191e+000</_>
    <_>
      3.28445792e+000 3.23814201e+000 3.16884398e+000 3.07312799e+000
      2.95025206e+000 2.81410003e+000 2.75878501e+000 2.75100994e+000
      2.79516196e+000 2.86628294e+000 2.94587803e+000 3.03176093e+000
      3.09388900e+000 3.11351299e+000 3.09584689e+000 3.04062796e+000
      2.97988391e+000 2.94940305e+000 2.98042297e+000 3.04239011e+000</_>
    <_>
      2.27810311e+000 1.99960697e+000 1.76666105e+000 1.61298501e+000
      1.54670203e+000 1.55030596e+000 1.60820103e+000 1.71685505e+000
      1.87263095e+000 2.05083990e+000 2.22007799e+000 2.36572790e+000
      2.49662900e+000 2.60083389e+000 2.68507600e+000 2.78733301e+000
      2.87792802e+000 2.94425893e+000 3.01290202e+000 3.09012103e+000</_>
    <_>
      2.69023895e+000 2.64473391e+000 2.60627508e+000 2.57213593e+000
      2.55059910e+000 2.53963208e+000 2.54688406e+000 2.57765388e+000
      2.61745501e+000 2.68212795e+000 2.75024796e+000 2.79596496e+000
      2.82624698e+000 2.83596206e+000 2.83859992e+000 2.84863591e+000
      2.87073588e+000 2.91234303e+000 2.95945501e+000 3.02517009e+000</_>
    <_>
      2.84631801e+000 2.76333308e+000 2.69418311e+000 2.63537192e+000
      2.60751104e+000 2.57946396e+000 2.57665610e+000 2.60587192e+000
      2.62506795e+000 2.66564393e+000 2.71788001e+000 2.75899506e+000
      2.80908203e+000 2.86809802e+000 2.93311691e+000 2.98903298e+000
      3.04596901e+000 3.09676695e+000 3.14186192e+000 3.17909098e+000</_>
    <_>
      3.28201199e+000 3.14398789e+000 2.90829396e+000 2.62882590e+000
      2.31617308e+000 1.99286997e+000 1.68072796e+000 1.50399995e+000
      1.61484504e+000 1.83321905e+000 2.16075397e+000 2.48670697e+000
      2.76352501e+000 3.00389099e+000 3.15939808e+000 3.25332093e+000
      3.28102589e+000 3.27469110e+000 3.28902698e+000 3.30073810e+000</_>
    <_>
      2.95672393e+000 2.82050991e+000 2.66646290e+000 2.54029989e+000
      2.41262698e+000 2.32080889e+000 2.28732610e+000 2.28658295e+000
      2.32077599e+000 2.42361212e+000 2.56117511e+000 2.68163490e+000
      2.80405402e+000 2.92009592e+000 3.01556993e+000 3.09622598e+000
      3.15907907e+000 3.21291304e+000 3.24665904e+000 3.26872301e+000</_>
    <_>
      2.83413601e+000 2.82220006e+000 2.82046390e+000 2.80166602e+000
      2.77854896e+000 2.76569700e+000 2.74576807e+000 2.74041104e+000
      2.75723004e+000 2.75664711e+000 2.76494288e+000 2.79031205e+000
      2.79498792e+000 2.82550311e+000 2.85877204e+000 2.88000298e+000
      2.91396594e+000 2.96267700e+000 3.00922990e+000 3.07512212e+000</_>
    <_>
      3.16237593e+000 3.01148009e+000 2.80112910e+000 2.53009796e+000
      2.23432708e+000 2.06046796e+000 1.98890400e+000 1.99672902e+000
      2.07176709e+000 2.19076395e+000 2.34868002e+000 2.54340291e+000
      2.76756907e+000 2.97071910e+000 3.10668898e+000 3.19738507e+000
      3.26476789e+000 3.30271506e+000 3.32392812e+000 3.32846999e+000</_>
    <_>
      2.86180401e+000 2.67872310e+000 2.57134295e+000 2.52912903e+000
      2.52795911e+000 2.54594493e+000 2.56508899e+000 2.58513308e+000
      2.60499597e+000 2.60674405e+000 2.61410189e+000 2.61547399e+000
      2.67492795e+000 2.77703810e+000 2.90199494e+000 3.01649809e+000
      3.09437203e+000 3.15213704e+000 3.19621801e+000 3.20656490e+000</_>
    <_>
      2.74827409e+000 2.75381398e+000 2.74361992e+000 2.75180793e+000
      2.76167488e+000 2.76797104e+000 2.77468896e+000 2.78209591e+000
      2.79296994e+000 2.79499507e+000 2.79951692e+000 2.81419206e+000
      2.80288196e+000 2.82002902e+000 2.83795404e+000 2.83549905e+000
      2.83877397e+000 2.84073496e+000 2.83784008e+000 2.83391809e+000</_>
    <_>
      2.77249694e+000 2.80078411e+000 2.82731009e+000 2.84803009e+000
      2.86442709e+000 2.88130689e+000 2.89461493e+000 2.90783596e+000
      2.92274404e+000 2.94107604e+000 2.94718599e+000 2.95764399e+000
      2.95864105e+000 2.96179390e+000 2.96266508e+000 2.96426702e+000
      2.96254706e+000 2.96783209e+000 2.96133804e+000 2.96749806e+000</_>
    <_>
      2.27906394e+000 2.29050493e+000 2.29942799e+000 2.29020190e+000
      2.30018997e+000 2.32688498e+000 2.35876489e+000 2.40885091e+000
      2.45095706e+000 2.48322701e+000 2.48589611e+000 2.49893498e+000
      2.49823809e+000 2.50549006e+000 2.54485106e+000 2.56970501e+000
      2.58518410e+000 2.61044693e+000 2.62447000e+000 2.63526201e+000</_>
    <_>
      2.99792290e+000 2.83206201e+000 2.62590289e+000 2.47757292e+000
      2.37529707e+000 2.32525301e+000 2.34066701e+000 2.38233304e+000
      2.44279599e+000 2.51507401e+000 2.59046888e+000 2.66472507e+000
      2.71913099e+000 2.79359293e+000 2.89001012e+000 3.00077891e+000
      3.10553503e+000 3.18468904e+000 3.24504089e+000 3.28287697e+000</_>
    <_>
      2.91372609e+000 2.63583589e+000 2.26052094e+000 1.98798800e+000
      1.77243304e+000 1.62409794e+000 1.53648901e+000 1.49502003e+000
      1.52328801e+000 1.65465498e+000 1.96841097e+000 2.36202407e+000
      2.70766306e+000 2.99730206e+000 3.18924809e+000 3.30169797e+000
      3.34583306e+000 3.34522295e+000 3.31632495e+000 3.28428602e+000</_>
    <_>
      3.37164688e+000 3.22274208e+000 2.96454310e+000 2.60734701e+000
      2.20037007e+000 1.77415800e+000 1.51072204e+000 1.47299695e+000
      1.58857298e+000 1.92425704e+000 2.34668994e+000 2.73789907e+000
      3.05619311e+000 3.26394391e+000 3.36521602e+000 3.37574697e+000
      3.34806299e+000 3.31725192e+000 3.29082608e+000 3.29087591e+000</_>
    <_>
      2.37877011e+000 2.35349298e+000 2.35057402e+000 2.38540912e+000
      2.42828107e+000 2.48643398e+000 2.55293894e+000 2.60205507e+000
      2.64550209e+000 2.70153904e+000 2.74755907e+000 2.78907704e+000
      2.82819605e+000 2.85127401e+000 2.87416697e+000 2.89991498e+000
      2.92092609e+000 2.94516397e+000 2.98746490e+000 3.04625511e+000</_>
    <_>
      2.99605203e+000 2.87377596e+000 2.79286194e+000 2.75206089e+000
      2.77342296e+000 2.81204104e+000 2.86198711e+000 2.92025208e+000
      2.94988704e+000 2.95688796e+000 2.94064593e+000 2.91338801e+000
      2.90398598e+000 2.92894006e+000 2.99705195e+000 3.08701396e+000
      3.16376591e+000 3.22849393e+000 3.27391410e+000 3.30684590e+000</_>
    <_>
      3.01457500e+000 2.88325691e+000 2.73032594e+000 2.65022898e+000
      2.62401009e+000 2.59375596e+000 2.56095791e+000 2.55075502e+000
      2.53908801e+000 2.53674698e+000 2.56574702e+000 2.63441396e+000
      2.75734997e+000 2.90988708e+000 3.04724407e+000 3.14857888e+000
      3.22706795e+000 3.28172207e+000 3.31287789e+000 3.32768798e+000</_>
    <_>
      3.11098695e+000 3.01050496e+000 2.89692307e+000 2.82782698e+000
      2.78783894e+000 2.77521801e+000 2.76525497e+000 2.75540709e+000
      2.76962590e+000 2.78296709e+000 2.80309010e+000 2.85163999e+000
      2.94877696e+000 3.04613400e+000 3.13057208e+000 3.20307589e+000
      3.25948596e+000 3.29401207e+000 3.31987906e+000 3.33314705e+000</_>
    <_>
      3.25543594e+000 3.17135596e+000 3.03945994e+000 2.86283898e+000
      2.65048599e+000 2.46352911e+000 2.38238001e+000 2.37546611e+000
      2.41423798e+000 2.51004910e+000 2.65591311e+000 2.86521912e+000
      3.03137803e+000 3.15828395e+000 3.24016190e+000 3.28793001e+000
      3.31696892e+000 3.33064699e+000 3.33283591e+000 3.33079410e+000</_>
    <_>
      2.83503795e+000 2.63784599e+000 2.50995302e+000 2.43103290e+000
      2.42285395e+000 2.42631197e+000 2.45120597e+000 2.48585701e+000
      2.51722002e+000 2.53572202e+000 2.58294201e+000 2.62968302e+000
