<?xml version="1.0"?>
<opencv_storage>
<my_svm type_id="opencv-ml-svm">
  <svm_type>C_SVC</svm_type>
  <kernel><type>RBF</type>
    <gamma>1.2500000000000000e-001</gamma></kernel>
  <C>8.</C>
  <term_criteria><epsilon>2.2204460492503131e-016</epsilon>
    <iterations>10000</iterations></term_criteria>
  <var_all>20</var_all>
  <var_count>20</var_count>
  <class_count>2</class_count>
  <class_labels type_id="opencv-matrix">
    <rows>1</rows>
    <cols>2</cols>
    <dt>i</dt>
    <data>
      0 1</data></class_labels>
  <sv_total>301</sv_total>
  <support_vectors>
    <_>
      1.35138798e+000 1.33795905e+000 1.34335494e+000 1.33754802e+000
      1.32176495e+000 1.33254802e+000 1.33233094e+000 1.35291696e+000
      1.36747003e+000 1.37837505e+000 1.40251994e+000 1.41619003e+000
      1.42589402e+000 1.44324195e+000 1.45077896e+000 1.46388805e+000
      1.47512102e+000 1.47388697e+000 1.48340797e+000 1.49033999e+000</_>
    <_>
      1.33112597e+000 1.28234303e+000 1.23415399e+000 1.22593999e+000
      1.18631494e+000 1.16722095e+000 1.16993797e+000 1.17064297e+000
      1.18912196e+000 1.19881594e+000 1.22093403e+000 1.24159396e+000
      1.25312102e+000 1.27523196e+000 1.28448200e+000 1.28216803e+000
      1.29364598e+000 1.32035601e+000 1.31775796e+000 1.34633899e+000</_>
    <_>
      1.44106901e+000 1.43383801e+000 1.41689396e+000 1.38980603e+000
      1.38705301e+000 1.37095499e+000 1.35899496e+000 1.36303699e+000
      1.35326505e+000 1.34566295e+000 1.34513605e+000 1.33340597e+000
      1.32867897e+000 1.32568502e+000 1.31536400e+000 1.32236004e+000
      1.32869697e+000 1.34414506e+000 1.38605797e+000 1.42388904e+000</_>
    <_>
      1.31540298e+000 1.27989399e+000 1.16146898e+000 1.15670502e+000
      1.11011803e+000 9.78034019e-001 9.74125981e-001 9.79893982e-001
      1.08714604e+000 1.08585000e+000 1.09447396e+000 1.18170500e+000
      1.21908903e+000 1.23538697e+000 1.30132198e+000 1.33076596e+000
      1.34961295e+000 1.39722502e+000 1.41409302e+000 1.43552804e+000</_>
    <_>
      1.20906496e+000 1.21511805e+000 1.21776402e+000 1.03921795e+000
      1.04890800e+000 1.05230999e+000 8.38513017e-001 8.50422978e-001
      8.54907990e-001 1.01120305e+000 1.02057600e+000 1.02493095e+000
      1.15993094e+000 1.16834700e+000 1.17111397e+000 1.28646600e+000
      1.29310203e+000 1.29858196e+000 1.39903200e+000 1.40310502e+000</_>
    <_>
      1.26408803e+000 1.16196299e+000 1.15336895e+000 1.14548695e+000
      1.02865505e+000 1.02181101e+000 1.02405703e+000 8.85385990e-001
      8.84615004e-001 8.84913981e-001 1.09134996e+000 1.09087002e+000
      1.09313500e+000 1.26249301e+000 1.26381195e+000 1.26430702e+000
      1.40055799e+000 1.40307701e+000 1.40729594e+000 1.50334299e+000</_>
    <_>
      1.37336004e+000 1.36040902e+000 1.34081101e+000 1.28712595e+000
      1.27163100e+000 1.23749304e+000 1.17604303e+000 1.17746997e+000
      1.16753900e+000 1.24004400e+000 1.24351203e+000 1.25109398e+000
      1.30997503e+000 1.31574798e+000 1.32439005e+000 1.36631095e+000
      1.37130797e+000 1.38057196e+000 1.41427696e+000 1.42233598e+000</_>
    <_>
      1.48564005e+000 1.49386501e+000 1.48129404e+000 1.46009302e+000
      1.46197104e+000 1.44316602e+000 1.42488503e+000 1.43468702e+000
      1.42639303e+000 1.39801502e+000 1.38850605e+000 1.37578797e+000
      1.36067200e+000 1.37564301e+000 1.37953901e+000 1.36487699e+000
      1.38276196e+000 1.40738499e+000 1.39040804e+000 1.42037797e+000</_>
    <_>
      1.28527999e+000 1.23675501e+000 1.19421995e+000 1.16327596e+000
      1.12569296e+000 1.09384799e+000 1.08353698e+000 1.07157803e+000
      1.09022701e+000 1.10314202e+000 1.11647999e+000 1.14928806e+000
      1.19156206e+000 1.23696494e+000 1.27947795e+000 1.31862199e+000
      1.36387503e+000 1.40357602e+000 1.43578601e+000 1.46512997e+000</_>
    <_>
      1.15389204e+000 1.15983796e+000 1.15547705e+000 1.16185296e+000
      1.16364300e+000 1.17796302e+000 1.17531300e+000 1.18475699e+000
      1.19393003e+000 1.20538104e+000 1.21636999e+000 1.23548806e+000
      1.24923503e+000 1.27181995e+000 1.27958298e+000 1.29438996e+000
      1.31109595e+000 1.32291102e+000 1.33617902e+000 1.35373700e+000</_>
    <_>
      1.32469594e+000 1.31312799e+000 1.30166900e+000 1.30317795e+000
      1.29732299e+000 1.30010402e+000 1.32097006e+000 1.33363295e+000
      1.34658301e+000 1.36608398e+000 1.38490403e+000 1.39607704e+000
      1.42088902e+000 1.44248402e+000 1.45607698e+000 1.47172701e+000
      1.47699201e+000 1.47624600e+000 1.46570802e+000 1.44852495e+000</_>
    <_>
      1.24963796e+000 1.22505999e+000 1.20135796e+000 1.18214202e+000
      1.17300403e+000 1.15055597e+000 1.15266299e+000 1.16018295e+000
      1.16499400e+000 1.16849506e+000 1.19157696e+000 1.20344901e+000
      1.23247504e+000 1.24792397e+000 1.27783406e+000 1.30503798e+000
      1.31813395e+000 1.35676503e+000 1.38827205e+000 1.40719199e+000</_>
    <_>
      1.16724002e+000 1.14177597e+000 1.11997902e+000 1.10028005e+000
      1.10473895e+000 1.09399104e+000 1.07726395e+000 1.07497203e+000
      1.09173298e+000 1.12113500e+000 1.13707495e+000 1.17375398e+000
      1.20565903e+000 1.21874499e+000 1.24856806e+000 1.28628802e+000
      1.31177497e+000 1.34780204e+000 1.39873695e+000 1.42586398e+000</_>
    <_>
      1.35546994e+000 1.33001900e+000 1.32762301e+000 1.30878699e+000
      1.29364300e+000 1.30538797e+000 1.28384697e+000 1.27302396e+000
      1.26916897e+000 1.25632095e+000 1.23814595e+000 1.22329998e+000
      1.19998002e+000 1.19572401e+000 1.17147100e+000 1.15633702e+000
      1.16372395e+000 1.17003500e+000 1.15872896e+000 1.17052603e+000</_>
    <_>
      1.22680199e+000 1.15264404e+000 1.03421903e+000 1.03225195e+000
      1.02407706e+000 1.08398604e+000 1.07034004e+000 1.05335701e+000
      1.08155096e+000 1.07618296e+000 1.09344602e+000 1.12235796e+000
      1.14173496e+000 1.19865799e+000 1.24510598e+000 1.27017498e+000
      1.31842697e+000 1.35714304e+000 1.36552405e+000 1.39441502e+000</_>
    <_>
      1.21126401e+000 1.20837402e+000 1.20507205e+000 1.14665902e+000
      1.14675605e+000 1.15334404e+000 1.07603097e+000 1.08318698e+000
      1.09071600e+000 9.87447023e-001 9.88858998e-001 9.95809972e-001
      8.54107022e-001 8.52384984e-001 8.52985978e-001 1.08213794e+000
      1.08149397e+000 1.08106899e+000 1.27770901e+000 1.27570403e+000</_>
    <_>
      1.16006303e+000 1.15552700e+000 1.14695299e+000 9.97202992e-001
      9.98622000e-001 9.94349003e-001 8.26620996e-001 8.31516027e-001
      8.39929998e-001 1.03428805e+000 1.04010296e+000 1.04905200e+000
      1.22037697e+000 1.22648203e+000 1.23139596e+000 1.37730098e+000
      1.37869000e+000 1.38497806e+000 1.49669504e+000 1.49724805e+000</_>
    <_>
      1.17531300e+000 1.15436304e+000 1.12173498e+000 1.11356199e+000
      1.10623896e+000 1.10922003e+000 1.12966597e+000 1.13722503e+000
      1.16993296e+000 1.20666397e+000 1.23131704e+000 1.27791500e+000
      1.32515299e+000 1.35804701e+000 1.38997495e+000 1.42517602e+000
      1.45546806e+000 1.48514700e+000 1.51464796e+000 1.52629805e+000</_>
    <_>
      1.21483397e+000 1.22297394e+000 1.23550999e+000 1.11565006e+000
      1.12295198e+000 1.12964404e+000 9.82385993e-001 9.83424008e-001
      9.84236002e-001 1.15644300e+000 1.15879202e+000 1.16008902e+000
      1.31028295e+000 1.31649196e+000 1.31887305e+000 1.44249403e+000
      1.44628096e+000 1.44769001e+000 1.54131198e+000 1.54266095e+000</_>
    <_>
      1.43612802e+000 1.41268897e+000 1.39799094e+000 1.38263297e+000
      1.35460997e+000 1.35443294e+000 1.34119999e+000 1.32570601e+000
      1.32312202e+000 1.31822002e+000 1.32184100e+000 1.34311497e+000
      1.35446000e+000 1.36079204e+000 1.37336195e+000 1.37845302e+000
      1.37091398e+000 1.36614501e+000 1.36332297e+000 1.35263896e+000</_>
    <_>
      1.41054499e+000 1.39552605e+000 1.37815702e+000 1.34603906e+000
      1.33855903e+000 1.32349002e+000 1.28562200e+000 1.29190195e+000
      1.29437995e+000 1.28511095e+000 1.30313301e+000 1.32879806e+000
      1.34776199e+000 1.36613297e+000 1.39255404e+000 1.41764402e+000
      1.42737496e+000 1.43948400e+000 1.44692004e+000 1.45376503e+000</_>
    <_>
      1.05572701e+000 1.05670404e+000 1.05893195e+000 8.70770991e-001
      8.68845999e-001 8.69288027e-001 6.49793983e-001 6.47180021e-001
      6.51036024e-001 9.08944011e-001 9.06211019e-001 9.09596980e-001
      1.13254797e+000 1.12682498e+000 1.13133299e+000 1.30955505e+000
      1.30114901e+000 1.29993606e+000 1.42940903e+000 1.42220795e+000</_>
    <_>
      1.14207304e+000 1.14625299e+000 1.15168202e+000 9.02365029e-001
      9.06565011e-001 9.13666010e-001 6.34746015e-001 6.40542984e-001
      6.47283018e-001 8.46502006e-001 8.54438007e-001 8.64651978e-001
      1.05536497e+000 1.06737494e+000 1.06986701e+000 1.24335098e+000
      1.24997699e+000 1.24632502e+000 1.39275301e+000 1.39495003e+000</_>
    <_>
      1.21047902e+000 1.05992305e+000 1.09424305e+000 1.06377494e+000
      9.14107978e-001 9.11512971e-001 8.72864008e-001 7.02166021e-001
      7.14281976e-001 7.17992008e-001 9.83676016e-001 9.93447006e-001
      1.00187600e+000 1.22492802e+000 1.22941995e+000 1.23885906e+000
      1.41149795e+000 1.41107404e+000 1.44073701e+000 1.56621003e+000</_>
    <_>
      1.26687205e+000 1.23897398e+000 1.20806706e+000 1.17679906e+000
      1.15674806e+000 1.13458395e+000 1.13812399e+000 1.11362100e+000
      1.10370600e+000 1.09605002e+000 1.09419799e+000 1.08517206e+000
      1.09979200e+000 1.10879397e+000 1.12434101e+000 1.17676902e+000
      1.20474696e+000 1.23338699e+000 1.29145002e+000 1.31904101e+000</_>
    <_>
      1.18583906e+000 1.16682601e+000 1.14454806e+000 1.15026402e+000
      1.13853502e+000 1.13887298e+000 1.13846302e+000 1.14158404e+000
      1.12190199e+000 1.14394903e+000 1.18542898e+000 1.18396997e+000
      1.20928800e+000 1.25334597e+000 1.27955198e+000 1.29645205e+000
      1.34118795e+000 1.37544203e+000 1.38311100e+000 1.42098403e+000</_>
    <_>
      1.22770095e+000 1.24356496e+000 1.26060605e+000 1.28137600e+000
      1.30618799e+000 1.33112502e+000 1.35109699e+000 1.37266898e+000
      1.38123202e+000 1.39600003e+000 1.40431297e+000 1.42558300e+000
      1.43470895e+000 1.43600202e+000 1.44212401e+000 1.43506801e+000
      1.42673600e+000 1.41553295e+000 1.42260599e+000 1.41372502e+000</_>
    <_>
      1.41083395e+000 1.41240597e+000 1.40616202e+000 1.38557506e+000
      1.39001906e+000 1.38692701e+000 1.37854695e+000 1.38176596e+000
      1.38185203e+000 1.37874901e+000 1.38154304e+000 1.38653100e+000
      1.39691603e+000 1.40071404e+000 1.39064598e+000 1.38201797e+000
      1.36070395e+000 1.33112705e+000 1.29999101e+000 1.25622594e+000</_>
    <_>
      1.14159596e+000 1.15714705e+000 1.16209197e+000 1.15183794e+000
      1.18260705e+000 1.18318200e+000 1.19457304e+000 1.21332598e+000
      1.20533395e+000 1.21692300e+000 1.22352898e+000 1.22340405e+000
      1.23102796e+000 1.25113404e+000 1.24850595e+000 1.27542901e+000
      1.30471694e+000 1.32931399e+000 1.35816801e+000 1.40020299e+000</_>
    <_>
      1.10292399e+000 1.10599995e+000 8.78367007e-001 8.89612019e-001
      8.86646986e-001 1.02204895e+000 1.02233505e+000 1.01360595e+000
      1.11731994e+000 1.10562003e+000 1.08770394e+000 1.16966105e+000
      1.18430495e+000 1.18950498e+000 1.25974500e+000 1.27145398e+000
      1.28524697e+000 1.33884501e+000 1.34461606e+000 1.34680498e+000</_>
    <_>
      1.36616898e+000 1.36299598e+000 1.36008894e+000 1.36571097e+000
      1.36946201e+000 1.37613904e+000 1.36889601e+000 1.36268997e+000
      1.37177205e+000 1.34476495e+000 1.37344205e+000 1.40992498e+000
      1.39427304e+000 1.42512906e+000 1.44821596e+000 1.45562601e+000
      1.47527695e+000 1.48189294e+000 1.47506702e+000 1.48886502e+000</_>
    <_>
      1.12195599e+000 1.12878501e+000 1.15112805e+000 1.17333603e+000
      1.15882099e+000 1.15463603e+000 1.14843798e+000 1.12495303e+000
      1.10864902e+000 1.10150099e+000 1.09338796e+000 1.10806894e+000
      1.12103701e+000 1.13229299e+000 1.16535103e+000 1.19002104e+000
      1.22771001e+000 1.25602603e+000 1.29103100e+000 1.34623694e+000</_>
    <_>
      1.15482903e+000 1.14743495e+000 1.17039895e+000 1.16306305e+000
      1.16873002e+000 1.16714299e+000 1.12271202e+000 1.12584496e+000
      1.17718995e+000 1.21024203e+000 1.22030699e+000 1.22409403e+000
      1.25910497e+000 1.25557005e+000 1.21594906e+000 1.23015106e+000
      1.22366703e+000 1.18837595e+000 1.21977496e+000 1.27647197e+000</_>
    <_>
      9.10941005e-001 8.04787993e-001 8.07253003e-001 7.76280999e-001
      5.98872006e-001 5.83887994e-001 5.75112998e-001 3.71461987e-001
      3.63884002e-001 3.62863004e-001 8.25668991e-001 8.18922997e-001
      8.12017024e-001 1.22998500e+000 1.21081305e+000 1.18830204e+000
      1.50696194e+000 1.48683596e+000 1.46295702e+000 1.67837501e+000</_>
    <_>
      1.18596995e+000 1.19123602e+000 1.19762802e+000 1.03708506e+000
      1.03777897e+000 1.04244196e+000 8.59952986e-001 8.62852991e-001
      8.70795012e-001 1.05536699e+000 1.05587602e+000 1.06298006e+000
      1.21644402e+000 1.21601105e+000 1.22073102e+000 1.33975601e+000
      1.34176397e+000 1.34626198e+000 1.43124104e+000 1.43187499e+000</_>
    <_>
      1.27852499e+000 1.35468698e+000 1.35106695e+000 1.34833896e+000
      1.39407504e+000 1.40052998e+000 1.41135001e+000 1.43372595e+000
      1.44200003e+000 1.45012105e+000 1.43893003e+000 1.44951105e+000
      1.46285903e+000 1.40809906e+000 1.41596699e+000 1.43360400e+000
      1.34048700e+000 1.34568703e+000 1.35423803e+000 1.21459401e+000</_>
    <_>
      1.21459401e+000 1.21551394e+000 1.21436906e+000 1.10487401e+000
      1.11097395e+000 1.10943198e+000 9.76504028e-001 9.76970017e-001
      9.70273972e-001 1.15366495e+000 1.14746499e+000 1.14648199e+000
      1.29417396e+000 1.29230702e+000 1.29103804e+000 1.41052902e+000
      1.41205597e+000 1.41398394e+000 1.49701798e+000 1.49988902e+000</_>
    <_>
      1.26011097e+000 1.25756299e+000 1.22571003e+000 1.08931303e+000
      1.08954096e+000 1.05008805e+000 8.97597015e-001 8.94472003e-001
      8.98404002e-001 1.03718603e+000 1.03486395e+000 1.03902304e+000
      1.15889800e+000 1.15809500e+000 1.16834795e+000 1.26151705e+000
      1.26204801e+000 1.27953994e+000 1.35775602e+000 1.35386503e+000</_>
    <_>
      1.31988597e+000 1.34654605e+000 1.33992398e+000 1.22428894e+000
      1.25608897e+000 1.25757504e+000 1.11223400e+000 1.12652695e+000
      1.13117802e+000 1.19549704e+000 1.18495500e+000 1.23210299e+000
      1.28905201e+000 1.27466595e+000 1.31566203e+000 1.37179101e+000
      1.35142303e+000 1.38597906e+000 1.42162001e+000 1.41003501e+000</_>
    <_>
      1.08737195e+000 1.08523095e+000 1.05246699e+000 8.96409988e-001
      8.91921997e-001 8.41997027e-001 6.75243974e-001 6.71832979e-001
      6.64321005e-001 9.21195984e-001 9.21702981e-001 9.23201978e-001
      1.14975095e+000 1.15198398e+000 1.16080797e+000 1.34698105e+000
      1.34901500e+000 1.36313498e+000 1.49776900e+000 1.50054598e+000</_>
    <_>
      1.06064701e+000 1.03837502e+000 1.01680195e+000 1.00989103e+000
      9.96850014e-001 1.00396705e+000 1.00778794e+000 1.00201905e+000
      1.04304397e+000 1.06221402e+000 1.07176805e+000 1.11938095e+000
      1.13846898e+000 1.14851499e+000 1.20296395e+000 1.23769498e+000
      1.27624905e+000 1.36673903e+000 1.40924394e+000 1.45139503e+000</_>
    <_>
      6.71343982e-001 6.99751973e-001 7.53515005e-001 7.79757977e-001
      8.06234002e-001 8.60037982e-001 8.86202991e-001 9.12330985e-001
      9.63461995e-001 9.86059010e-001 1.00432301e+000 1.04465497e+000
      1.06306398e+000 1.07065701e+000 1.09622705e+000 1.10602295e+000
      1.10290599e+000 1.12442696e+000 1.12095296e+000 1.12403703e+000</_>
    <_>
      1.26095295e+000 1.25806296e+000 1.26192999e+000 1.26325095e+000
      1.26689506e+000 1.26958597e+000 1.27001500e+000 1.27067101e+000
      1.27443695e+000 1.27829194e+000 1.28106797e+000 1.28079200e+000
      1.28249204e+000 1.28705096e+000 1.29406500e+000 1.29301095e+000
      1.29977298e+000 1.31448996e+000 1.32133996e+000 1.33883905e+000</_>
    <_>
      1.15081596e+000 1.15352499e+000 1.15377605e+000 1.16442895e+000
      1.15638995e+000 1.14737594e+000 1.13970399e+000 1.13725901e+000
      1.13343298e+000 1.12190402e+000 1.10437405e+000 1.09612703e+000
      1.08101404e+000 1.06275105e+000 1.04930103e+000 1.04153395e+000
      1.03148699e+000 1.01454604e+000 9.98875022e-001 9.83390987e-001</_>
    <_>
      9.50868011e-001 9.80032027e-001 1.01728106e+000 1.03115702e+000
      1.05648398e+000 1.09004402e+000 1.10755897e+000 1.12720895e+000
      1.15142095e+000 1.16701400e+000 1.18333697e+000 1.19220901e+000
      1.20943999e+000 1.21827197e+000 1.21359205e+000 1.22455204e+000
      1.22767401e+000 1.20906699e+000 1.22568297e+000 1.23129797e+000</_>
    <_>
      1.07848799e+000 1.05376005e+000 1.04462302e+000 1.02878904e+000
      1.02015305e+000 1.02315402e+000 1.02045298e+000 1.02550602e+000
      1.03719902e+000 1.04524004e+000 1.06096005e+000 1.08497703e+000
      1.10067403e+000 1.11915600e+000 1.14424205e+000 1.16613495e+000
      1.19023204e+000 1.21795499e+000 1.24277604e+000 1.26611698e+000</_>
    <_>
      1.20762801e+000 1.20034599e+000 1.19721103e+000 1.22132003e+000
      1.21360397e+000 1.21525002e+000 1.23054802e+000 1.22973502e+000
      1.23031700e+000 1.23655605e+000 1.23558104e+000 1.24284995e+000
      1.25092399e+000 1.25637305e+000 1.26729500e+000 1.27690899e+000
      1.29108500e+000 1.30239797e+000 1.30353904e+000 1.31227005e+000</_>
    <_>
      9.62098002e-001 9.23956990e-001 9.12533998e-001 8.91053021e-001
      8.79805982e-001 8.88045013e-001 8.89012992e-001 8.91942024e-001
      9.17994022e-001 9.34444010e-001 9.46478009e-001 9.83622015e-001
      1.03333998e+000 1.06610000e+000 1.12690496e+000 1.19179702e+000
      1.26674998e+000 1.33886099e+000 1.39167500e+000 1.45073605e+000</_>
    <_>
      1.42354596e+000 1.39261305e+000 1.36281896e+000 1.29462504e+000
      1.27396703e+000 1.25856602e+000 1.18094802e+000 1.18556201e+000
      1.20678902e+000 1.13457704e+000 1.14268506e+000 1.15974605e+000
      1.05372405e+000 1.06838799e+000 1.08816803e+000 9.50161994e-001
      9.59015012e-001 9.72037971e-001 8.03043008e-001 7.99081981e-001</_>
    <_>
      1.18882501e+000 1.18014801e+000 1.16997099e+000 1.09711802e+000
      1.10206699e+000 1.11565900e+000 1.04247499e+000 1.04259002e+000
      1.04935706e+000 1.13308799e+000 1.13452995e+000 1.14272404e+000
      1.21231699e+000 1.21792901e+000 1.23000896e+000 1.28787899e+000
      1.29621601e+000 1.31278205e+000 1.36192095e+000 1.37240696e+000</_>
    <_>
      1.16226900e+000 1.13401496e+000 1.11924505e+000 9.72002983e-001
      9.69974995e-001 9.73869979e-001 8.04410994e-001 8.05957019e-001
      8.06662023e-001 1.00636804e+000 1.00971103e+000 1.01043797e+000
      1.18677700e+000 1.18739700e+000 1.18940198e+000 1.33993399e+000
      1.34032595e+000 1.34193003e+000 1.45968604e+000 1.46081400e+000</_>
    <_>
      1.20917904e+000 1.15291595e+000 1.09103596e+000 1.04555905e+000
      1.01294100e+000 9.88870978e-001 9.95463014e-001 1.01515400e+000
      1.03511703e+000 1.08018005e+000 1.11064804e+000 1.15993404e+000
      1.20015299e+000 1.24126899e+000 1.29709899e+000 1.32137501e+000
      1.35757899e+000 1.42536998e+000 1.44558001e+000 1.48097599e+000</_>
    <_>
      1.30223703e+000 1.22813797e+000 1.20039296e+000 1.16037500e+000
      1.14021206e+000 1.12584603e+000 1.11282098e+000 1.13991594e+000
      1.14889598e+000 1.17125499e+000 1.20198095e+000 1.22033203e+000
      1.24062896e+000 1.27698100e+000 1.29605198e+000 1.31234300e+000
      1.32868600e+000 1.34376299e+000 1.36011505e+000 1.38090301e+000</_>
    <_>
      1.26254594e+000 1.15053594e+000 1.14684498e+000 1.14303195e+000
      1.00320399e+000 9.97327983e-001 9.92561996e-001 1.11492801e+000
      1.11800897e+000 1.13264704e+000 1.23159206e+000 1.23631203e+000
      1.24928904e+000 1.32634902e+000 1.32904994e+000 1.33594298e+000
      1.39123797e+000 1.39266801e+000 1.39856005e+000 1.43350506e+000</_>
    <_>
      1.33207297e+000 1.29131198e+000 1.24429405e+000 1.21311498e+000
      1.18289995e+000 1.15984201e+000 1.15747797e+000 1.15783596e+000
      1.17496705e+000 1.20601296e+000 1.23149896e+000 1.27201700e+000
      1.30435097e+000 1.33497500e+000 1.37745798e+000 1.40903997e+000
      1.43683100e+000 1.47186196e+000 1.49673700e+000 1.51746297e+000</_>
    <_>
      1.13227701e+000 9.14179981e-001 9.10618007e-001 8.95039022e-001
      6.54936016e-001 6.52867973e-001 6.36053979e-001 8.23823988e-001
      8.24524999e-001 8.14916015e-001 9.88892019e-001 9.95211005e-001
      9.98766005e-001 1.15542603e+000 1.16535199e+000 1.17197299e+000
      1.30077505e+000 1.31420696e+000 1.31952798e+000 1.41467702e+000</_>
    <_>
      1.27239001e+000 1.26689196e+000 1.16140902e+000 1.15402997e+000
      1.14774001e+000 1.01389503e+000 1.00527000e+000 9.97861981e-001
      1.13900304e+000 1.13408196e+000 1.13590002e+000 1.26206505e+000
      1.25834298e+000 1.25872195e+000 1.36628103e+000 1.36543596e+000
      1.36646700e+000 1.45506406e+000 1.45392001e+000 1.45645404e+000</_>
    <_>
      8.84338975e-001 8.37023020e-001 7.86921024e-001 7.55815029e-001
      7.39776015e-001 7.18885005e-001 7.09851027e-001 7.19335973e-001
      7.20861971e-001 7.21469998e-001 7.52819002e-001 7.68770993e-001
      8.04165006e-001 8.86959016e-001 1.03781796e+000 1.11228395e+000
      1.19115996e+000 1.32488799e+000 1.38676405e+000 1.44919705e+000</_>
    <_>
      1.16115797e+000 1.10041106e+000 1.05604303e+000 9.30698991e-001
      8.64795983e-001 8.44318986e-001 8.83364022e-001 9.34063017e-001
      9.48342025e-001 1.00455105e+000 1.04967296e+000 1.06457305e+000
      1.12518501e+000 1.17044997e+000 1.18085396e+000 1.22213900e+000
      1.26134598e+000 1.26363897e+000 1.29280198e+000 1.31301403e+000</_>
    <_>
      1.06528103e+000 1.03657496e+000 9.99975026e-001 9.72491026e-001
      9.52727973e-001 9.32559013e-001 9.32054996e-001 9.39076006e-001
      9.45397973e-001 9.67510998e-001 9.99997020e-001 1.03758895e+000
      1.08506405e+000 1.14430404e+000 1.20071602e+000 1.25712705e+000
      1.31469703e+000 1.36648297e+000 1.42404699e+000 1.46596003e+000</_>
    <_>
      7.32047021e-001 6.98073983e-001 6.69367015e-001 6.51012003e-001
      6.28437996e-001 6.06414974e-001 5.97070992e-001 5.86320996e-001
      5.82258999e-001 5.84141016e-001 5.87633014e-001 6.06150985e-001
      6.31789982e-001 6.53020978e-001 7.01858997e-001 7.51514018e-001
      7.97200024e-001 8.59071016e-001 9.65431988e-001 1.17203903e+000</_>
    <_>
      9.08703983e-001 9.03699994e-001 9.11734998e-001 8.57789993e-001
      8.57106984e-001 8.59103024e-001 8.20134997e-001 8.33563030e-001
      8.57006013e-001 8.43396008e-001 8.91120970e-001 9.34005022e-001
      9.81875002e-001 1.07385898e+000 1.17442405e+000 1.29139102e+000
      1.42895103e+000 1.48627198e+000 1.55591202e+000 1.66273904e+000</_>
    <_>
      7.94770002e-001 7.35971987e-001 7.01044023e-001 6.59429014e-001
      6.19023025e-001 6.07262015e-001 5.91705978e-001 5.63880980e-001
      5.73319972e-001 5.72579980e-001 5.59004009e-001 5.81043005e-001
      6.00959003e-001 6.24049008e-001 7.48959005e-001 8.85366976e-001
      1.01717997e+000 1.12868500e+000 1.24838495e+000 1.35711002e+000</_>
    <_>
      1.23514497e+000 1.16932499e+000 1.11116803e+000 1.08598197e+000
      1.09933496e+000 1.10347795e+000 1.08570099e+000 1.10358596e+000
      1.11493003e+000 1.10107005e+000 1.13543296e+000 1.18288100e+000
      1.26646900e+000 1.29944396e+000 1.34259796e+000 1.40615201e+000
      1.43676102e+000 1.47298396e+000 1.51684296e+000 1.54292703e+000</_>
    <_>
      6.15368009e-001 6.24601007e-001 6.13967001e-001 6.15942001e-001
      6.38750017e-001 6.36483014e-001 6.50166988e-001 6.81402981e-001
      6.87295973e-001 7.13849008e-001 7.57048011e-001 7.78522015e-001
      8.24249029e-001 8.69271994e-001 9.06831980e-001 9.69272971e-001
      1.02184796e+000 1.08101904e+000 1.15337300e+000 1.22605801e+000</_>
    <_>
      8.46987009e-001 8.07856023e-001 7.63810992e-001 7.39335001e-001
      7.10403979e-001 6.75342023e-001 6.57051027e-001 6.41474009e-001
      6.14739001e-001 6.04942024e-001 5.97139001e-001 5.72901011e-001
      5.79384029e-001 5.83422005e-001 5.67484975e-001 5.87610006e-001
      6.17588997e-001 6.42087996e-001 7.30894983e-001 8.68130982e-001</_>
    <_>
      1.00135899e+000 1.03215206e+000 1.05041206e+000 1.09946501e+000
      1.12269497e+000 1.14131796e+000 1.19228005e+000 1.21543002e+000
      1.23137903e+000 1.26764297e+000 1.28477001e+000 1.29886103e+000
      1.32304800e+000 1.33336198e+000 1.33853102e+000 1.34102094e+000
      1.33909595e+000 1.33896506e+000 1.32835495e+000 1.32083702e+000</_>
    <_>
      1.02526605e+000 1.00462103e+000 9.60390985e-001 9.66120005e-001
      9.44510996e-001 9.40903008e-001 9.52229023e-001 9.41769004e-001
      9.89010990e-001 1.00259101e+000 1.00089300e+000 1.08216798e+000
      1.10056698e+000 1.10990298e+000 1.22109699e+000 1.24217498e+000
      1.26671195e+000 1.38664806e+000 1.40721595e+000 1.43405497e+000</_>
    <_>
      1.16998100e+000 1.17028499e+000 1.16884005e+000 1.17516804e+000
      1.17457104e+000 1.16935205e+000 1.18305898e+000 1.18414199e+000
      1.17681301e+000 1.19234502e+000 1.19190502e+000 1.18888795e+000
      1.20092499e+000 1.20087397e+000 1.20297301e+000 1.20594299e+000
      1.20557296e+000 1.20315003e+000 1.20798695e+000 1.20781195e+000</_>
    <_>
      1.14086294e+000 1.13374102e+000 1.13024700e+000 1.12419295e+000
      1.12154901e+000 1.12190497e+000 1.12526500e+000 1.12657201e+000
      1.13305199e+000 1.14084399e+000 1.15055203e+000 1.16288102e+000
      1.17754805e+000 1.19354796e+000 1.21080697e+000 1.22705603e+000
      1.24323595e+000 1.25955296e+000 1.27632701e+000 1.29156601e+000</_>
    <_>
      1.14629602e+000 1.08932602e+000 1.07520604e+000 1.04909503e+000
      9.89199996e-001 9.91801023e-001 9.80599999e-001 9.35603023e-001
      9.43517983e-001 9.39306021e-001 9.20756996e-001 9.26283002e-001
      9.24291015e-001 9.31110978e-001 9.42561984e-001 9.96746004e-001
      1.07566202e+000 1.10790706e+000 1.15580595e+000 1.17759299e+000</_>
    <_>
      9.58530009e-001 9.55061018e-001 9.53912973e-001 9.44685996e-001
      9.51336980e-001 9.63971019e-001 9.67562020e-001 9.79930997e-001
      1.00617301e+000 1.02337301e+000 1.04561603e+000 1.07092798e+000
      1.09250605e+000 1.14227998e+000 1.17168605e+000 1.20804703e+000
      1.29976594e+000 1.34950602e+000 1.40031397e+000 1.49895096e+000</_>
    <_>
      1.08998501e+000 1.08284104e+000 1.06856000e+000 1.06621897e+000
      1.06917596e+000 1.06652701e+000 1.07271194e+000 1.08576202e+000
      1.09216905e+000 1.10555899e+000 1.12842798e+000 1.14385796e+000
      1.16258097e+000 1.19292295e+000 1.21534705e+000 1.23624206e+000
      1.26565397e+000 1.29389906e+000 1.31765604e+000 1.34849095e+000</_>
    <_>
      1.20362902e+000 1.20778096e+000 1.21427202e+000 1.22446406e+000
      1.23030102e+000 1.24230003e+000 1.25172806e+000 1.26548898e+000
      1.27485299e+000 1.28818405e+000 1.29984200e+000 1.30726099e+000
      1.31726694e+000 1.32846999e+000 1.33354199e+000 1.34197795e+000
      1.35081303e+000 1.35427499e+000 1.35819101e+000 1.36387396e+000</_>
    <_>
      1.15064204e+000 1.12398398e+000 1.10610294e+000 1.09350300e+000
      1.07316804e+000 1.06651700e+000 1.06361997e+000 1.05717599e+000
      1.06153798e+000 1.07186997e+000 1.08307302e+000 1.09751701e+000
      1.12115204e+000 1.15171194e+000 1.17781401e+000 1.21821797e+000
      1.26785505e+000 1.31299198e+000 1.35885799e+000 1.41169500e+000</_>
    <_>
      1.23352599e+000 1.20339298e+000 1.18908095e+000 1.18897605e+000
      1.17656803e+000 1.17701995e+000 1.18856895e+000 1.18947899e+000
      1.19611394e+000 1.21309996e+000 1.22330904e+000 1.23380601e+000
      1.25205195e+000 1.26714802e+000 1.28471005e+000 1.30149806e+000
      1.32430601e+000 1.34445000e+000 1.36292803e+000 1.38448799e+000</_>
    <_>
      2.20428005e-001 2.70328999e-001 3.29769999e-001 3.93216014e-001
      4.52129006e-001 5.14227986e-001 6.01795018e-001 6.60010993e-001
      7.36694992e-001 8.42270970e-001 9.12495017e-001 1.01745701e+000
      1.14593005e+000 1.21725702e+000 1.32151604e+000 1.44907999e+000
      1.49037504e+000 1.55020201e+000 1.64494002e+000 1.65454900e+000</_>
    <_>
      1.25591600e+000 1.20102406e+000 1.14725006e+000 1.10532904e+000
      1.07193899e+000 1.05151498e+000 1.04468501e+000 1.04761398e+000
      1.07585299e+000 1.11508799e+000 1.18301404e+000 1.24087095e+000
      1.26845706e+000 1.31226695e+000 1.34232795e+000 1.34564805e+000
      1.36464798e+000 1.37495995e+000 1.38027406e+000 1.39851403e+000</_>
    <_>
      1.36000597e+000 1.34193802e+000 1.31448603e+000 1.30128300e+000
      1.29017794e+000 1.26798701e+000 1.24725604e+000 1.23483801e+000
      1.23528194e+000 1.24101102e+000 1.26481199e+000 1.28582299e+000
      1.31905603e+000 1.35444295e+000 1.38321102e+000 1.41552901e+000
      1.45266104e+000 1.47830296e+000 1.49899900e+000 1.51958203e+000</_>
    <_>
      1.19024706e+000 1.16820300e+000 1.16913402e+000 1.14596200e+000
      1.14410102e+000 1.16703498e+000 1.16216099e+000 1.18395805e+000
      1.19681096e+000 1.20462203e+000 1.22904694e+000 1.24105501e+000
      1.25971699e+000 1.27429497e+000 1.28918397e+000 1.31521702e+000
      1.33393097e+000 1.35529101e+000 1.36684799e+000 1.38010800e+000</_>
    <_>
      6.88039005e-001 7.01381028e-001 7.14474022e-001 8.40161026e-001
      8.87740016e-001 8.55884016e-001 9.81288016e-001 1.03337204e+000
      1.06793499e+000 1.11625195e+000 1.15322304e+000 1.17243397e+000
      1.17212200e+000 1.21190703e+000 1.26945400e+000 1.30913699e+000
      1.36268401e+000 1.42672801e+000 1.43261194e+000 1.46984398e+000</_>
    <_>
      1.37330306e+000 1.33232903e+000 1.28401196e+000 1.33359504e+000
      1.30870903e+000 1.30218601e+000 1.31128502e+000 1.30902398e+000
      1.32995200e+000 1.34837306e+000 1.36239100e+000 1.39037597e+000
      1.39075994e+000 1.40448499e+000 1.42722595e+000 1.40880704e+000
      1.41814697e+000 1.44306195e+000 1.46372497e+000 1.48119903e+000</_>
    <_>
      8.66644979e-001 8.21789980e-001 8.11775982e-001 9.46721971e-001
      9.03411984e-001 9.16378021e-001 1.04488397e+000 1.01789296e+000
      1.03886700e+000 1.12121797e+000 1.13579702e+000 1.15024698e+000
      1.21432900e+000 1.23474002e+000 1.23655403e+000 1.27771199e+000
      1.31476998e+000 1.34551203e+000 1.37654698e+000 1.40387106e+000</_>
    <_>
      1.19841802e+000 1.19731104e+000 1.16268098e+000 1.14644802e+000
      1.12340105e+000 1.12793803e+000 1.12673402e+000 1.07913804e+000
      1.08204305e+000 1.12826896e+000 1.15940297e+000 1.20300198e+000
      1.26005602e+000 1.27192903e+000 1.30574501e+000 1.35124004e+000
      1.32979703e+000 1.35135996e+000 1.38116300e+000 1.40497601e+000</_>
    <_>
      1.25852895e+000 1.25614095e+000 1.26280403e+000 1.26699305e+000
      1.26721299e+000 1.26759100e+000 1.26655304e+000 1.25902998e+000
      1.25104499e+000 1.24872303e+000 1.24152899e+000 1.23947203e+000
      1.24020505e+000 1.24228203e+000 1.24538898e+000 1.25176597e+000
      1.26069200e+000 1.26969194e+000 1.27908695e+000 1.29288995e+000</_>
    <_>
      1.18557703e+000 1.18736100e+000 1.18839705e+000 1.18093002e+000
      1.17835200e+000 1.18176997e+000 1.18509603e+000 1.20610702e+000
      1.22586095e+000 1.24097204e+000 1.26900995e+000 1.27845097e+000
      1.28438902e+000 1.29543996e+000 1.29943395e+000 1.30551398e+000
      1.32484806e+000 1.33858597e+000 1.35046303e+000 1.35971999e+000</_>
    <_>
      1.28092396e+000 1.27679205e+000 1.27639496e+000 1.27064598e+000
      1.27032995e+000 1.26508904e+000 1.25659299e+000 1.25750601e+000
      1.24543905e+000 1.26328897e+000 1.28069794e+000 1.30893397e+000
      1.34314299e+000 1.36448205e+000 1.38727403e+000 1.41609097e+000
      1.43604100e+000 1.46086502e+000 1.48136306e+000 1.50118101e+000</_>
    <_>
      1.19750702e+000 1.16333997e+000 1.13095999e+000 1.10282302e+000
      1.08402705e+000 1.07480800e+000 1.06616604e+000 1.07422495e+000
      1.09896898e+000 1.12545502e+000 1.15787995e+000 1.19596398e+000
      1.23432696e+000 1.26837206e+000 1.29512000e+000 1.31991303e+000
      1.34151995e+000 1.36332905e+000 1.37905800e+000 1.38694000e+000</_>
    <_>
      1.28369904e+000 1.26912296e+000 1.25832295e+000 1.25494695e+000
      1.24159503e+000 1.22989595e+000 1.22490001e+000 1.21996200e+000
      1.22205400e+000 1.22231197e+000 1.21913898e+000 1.22367203e+000
      1.22696602e+000 1.23570800e+000 1.26036704e+000 1.27482903e+000
      1.32501101e+000 1.35365903e+000 1.36373603e+000 1.40412402e+000</_>
    <_>
      1.42592502e+000 1.42648995e+000 1.44177306e+000 1.45054495e+000
      1.44771397e+000 1.44365203e+000 1.44933105e+000 1.45643997e+000
      1.42223704e+000 1.41251099e+000 1.41858101e+000 1.36888099e+000
      1.36239505e+000 1.36220002e+000 1.28324497e+000 1.27220595e+000
      1.27486801e+000 1.16871405e+000 1.14740098e+000 1.14537501e+000</_>
    <_>
      1.21246696e+000 1.20508504e+000 1.19428205e+000 1.17896700e+000
      1.18621004e+000 1.18366206e+000 1.18715096e+000 1.19846797e+000
      1.20626497e+000 1.21880400e+000 1.23256004e+000 1.25505400e+000
      1.31757796e+000 1.32680798e+000 1.34916401e+000 1.40434003e+000
      1.40716600e+000 1.41648304e+000 1.43622100e+000 1.43063295e+000</_>
    <_>
      1.13689005e+000 1.07416105e+000 1.00335896e+000 9.87657011e-001
      9.06888008e-001 8.49204004e-001 8.33877027e-001 8.13189030e-001
      8.85158002e-001 8.99950981e-001 9.98134017e-001 1.06901205e+000
      1.08273005e+000 1.16945803e+000 1.22430694e+000 1.24335003e+000
      1.31409502e+000 1.35906696e+000 1.37538803e+000 1.41599095e+000</_>
    <_>
      1.28392303e+000 1.17470098e+000 1.09979200e+000 1.13722801e+000
      1.00088406e+000 9.27658021e-001 9.82702971e-001 9.57709014e-001
      1.01773500e+000 1.08361006e+000 1.10922599e+000 1.17847800e+000
      1.23022604e+000 1.26971495e+000 1.32547796e+000 1.36413300e+000
      1.40274704e+000 1.44707096e+000 1.46825600e+000 1.50473595e+000</_>
    <_>
      9.70736027e-001 6.87627971e-001 6.55430973e-001 6.44936025e-001
      3.51316005e-001 3.15180004e-001 3.11022013e-001 4.96372998e-001
      4.92246002e-001 5.18544018e-001 7.59727001e-001 7.79102027e-001
      8.15563023e-001 1.06061494e+000 1.05974698e+000 1.10658300e+000
      1.32309306e+000 1.32060099e+000 1.33973503e+000 1.51918495e+000</_>
    <_>
      1.43109000e+000 1.43795896e+000 1.39035797e+000 1.36590004e+000
      1.37915206e+000 1.31314898e+000 1.29941297e+000 1.33919799e+000
      1.29457700e+000 1.29280496e+000 1.34412205e+000 1.34251106e+000
      1.35492897e+000 1.40913904e+000 1.41803396e+000 1.42087901e+000
      1.46353602e+000 1.47977304e+000 1.49195898e+000 1.52135003e+000</_>
    <_>
      6.67348981e-001 6.62175000e-001 3.45768988e-001 3.35653007e-001
      3.32668990e-001 5.26400030e-001 5.29694974e-001 5.50396979e-001
      7.27357984e-001 7.28946984e-001 7.81870008e-001 9.64075983e-001
      1.00960505e+000 1.06052303e+000 1.23735797e+000 1.28742194e+000
      1.33034801e+000 1.49403405e+000 1.53149199e+000 1.55806899e+000</_>
    <_>
      1.23137903e+000 1.22998405e+000 1.20102799e+000 1.20143604e+000
      1.18767595e+000 1.18692398e+000 1.21360397e+000 1.22215295e+000
      1.24952400e+000 1.29043996e+000 1.29792500e+000 1.32621503e+000
      1.36455798e+000 1.39488995e+000 1.42953205e+000 1.45865297e+000
      1.47903395e+000 1.49780202e+000 1.51414597e+000 1.51947498e+000</_>
    <_>
      9.59573984e-001 9.34464991e-001 7.46122003e-001 6.54366016e-001
      6.29513025e-001 4.32740003e-001 3.34553003e-001 3.10139000e-001
      4.86030012e-001 5.42275012e-001 5.90083003e-001 7.89833009e-001
      8.47136021e-001 8.97485971e-001 1.07570195e+000 1.13620901e+000
      1.17402899e+000 1.32643795e+000 1.38693297e+000 1.41010201e+000</_>
    <_>
      1.01317000e+000 7.39081979e-001 7.20422983e-001 7.16035008e-001
      4.21503007e-001 4.01769996e-001 3.96019995e-001 5.97491980e-001
      6.17748022e-001 6.18260026e-001 8.06316018e-001 8.35521996e-001
      8.31333995e-001 1.01110494e+000 1.05418897e+000 1.06573796e+000
      1.22761595e+000 1.26360202e+000 1.28233898e+000 1.41327000e+000</_>
    <_>
      1.25862396e+000 1.22933698e+000 1.18269598e+000 1.14923501e+000
      1.13362503e+000 1.11055005e+000 1.10267198e+000 1.11820304e+000
      1.12703300e+000 1.14858496e+000 1.18749106e+000 1.22806597e+000
      1.27367997e+000 1.30621397e+000 1.34423804e+000 1.38130701e+000
      1.40787101e+000 1.43822098e+000 1.46368504e+000 1.48201704e+000</_>
    <_>
      1.21970904e+000 1.21575606e+000 1.19217706e+000 1.06649196e+000
      1.05970895e+000 1.03934300e+000 1.16143203e+000 1.14158499e+000
      1.10432100e+000 1.19341505e+000 1.16527998e+000 1.20476604e+000
      1.32197499e+000 1.30854797e+000 1.32667196e+000 1.41130495e+000
      1.42027903e+000 1.46493101e+000 1.52563703e+000 1.51413298e+000</_>
    <_>
      1.44141901e+000 1.35219002e+000 1.33015501e+000 1.28904700e+000
      1.16954601e+000 1.15192401e+000 1.15213299e+000 1.11536598e+000
      1.10617602e+000 1.18306601e+000 1.16995800e+000 1.16831696e+000
      1.22665405e+000 1.18298197e+000 1.17551899e+000 1.21233702e+000
      1.14079905e+000 1.16128397e+000 1.20106602e+000 1.15934598e+000</_>
    <_>
      1.18298197e+000 1.17551899e+000 1.21233702e+000 1.14079905e+000
      1.16128397e+000 1.20106602e+000 1.15934598e+000 1.18744302e+000
      1.27338099e+000 1.27570403e+000 1.29321802e+000 1.36889899e+000
      1.40546501e+000 1.43523502e+000 1.46337998e+000 1.48113406e+000
      1.51102805e+000 1.50428796e+000 1.50325406e+000 1.50385702e+000</_>
    <_>
      1.32283902e+000 1.27492201e+000 1.17950702e+000 1.22184002e+000
      1.15690005e+000 1.08290195e+000 1.12181306e+000 1.05516398e+000
      1.15976799e+000 1.21161699e+000 1.18147802e+000 1.26772797e+000
      1.32084501e+000 1.30148304e+000 1.39802396e+000 1.43194103e+000
      1.42810500e+000 1.49237502e+000 1.51710105e+000 1.52307200e+000</_>
    <_>
      1.19793701e+000 1.02490699e+000 1.00058901e+000 1.00161195e+000
      7.86714971e-001 7.69670010e-001 7.83277988e-001 8.00813973e-001
      8.67519975e-001 9.42223012e-001 9.87058997e-001 1.07181299e+000
      1.13352895e+000 1.18569303e+000 1.25639296e+000 1.30356002e+000
      1.37025201e+000 1.40955698e+000 1.45049000e+000 1.51176703e+000</_>
    <_>
      1.13205194e+000 1.10399997e+000 1.07541203e+000 1.04143000e+000
      1.02773404e+000 1.01037896e+000 1.01422703e+000 1.03480995e+000
      1.05346894e+000 1.09402299e+000 1.13398802e+000 1.17109799e+000
      1.21999002e+000 1.26526797e+000 1.30761397e+000 1.35002398e+000
      1.38678002e+000 1.42024601e+000 1.44388700e+000 1.45930099e+000</_>
    <_>
      1.13385403e+000 1.04972994e+000 1.03136396e+000 1.01891994e+000
      9.75669026e-001 9.82645988e-001 1.02349806e+000 1.01642203e+000
      1.02662396e+000 1.07742405e+000 1.11439598e+000 1.15058196e+000
      1.22517204e+000 1.26685202e+000 1.31233203e+000 1.37379503e+000
      1.41364598e+000 1.44530404e+000 1.48611403e+000 1.51988196e+000</_>
    <_>
      1.20732796e+000 1.20410705e+000 1.21370900e+000 1.16111600e+000
      1.16050601e+000 1.17842305e+000 1.11289799e+000 1.11450601e+000
      1.12353301e+000 1.24526501e+000 1.25812399e+000 1.26600206e+000
      1.36302805e+000 1.37180603e+000 1.37924695e+000 1.45617294e+000
      1.46387899e+000 1.46784902e+000 1.52422702e+000 1.53211999e+000</_>
    <_>
      1.30621004e+000 1.30435896e+000 1.30341399e+000 1.29327202e+000
      1.29860604e+000 1.30546904e+000 1.31066501e+000 1.32365203e+000
      1.31585598e+000 1.33924103e+000 1.36395597e+000 1.36586404e+000
      1.38536704e+000 1.39383602e+000 1.39946604e+000 1.41677201e+000
      1.42802203e+000 1.43370402e+000 1.43833494e+000 1.45057797e+000</_>
    <_>
      1.25907397e+000 1.24429595e+000 1.24184704e+000 1.21984100e+000
      1.23278403e+000 1.21523702e+000 1.20331502e+000 1.22567797e+000
      1.20388198e+000 1.18925595e+000 1.20877898e+000 1.25069797e+000
      1.27991796e+000 1.31956196e+000 1.34527600e+000 1.35413504e+000
      1.36610103e+000 1.37167597e+000 1.36717606e+000 1.35625100e+000</_>
    <_>
      1.35354304e+000 1.23589504e+000 1.21816003e+000 1.21976805e+000
      1.07826996e+000 1.06186497e+000 1.06163895e+000 1.16214204e+000
      1.16346395e+000 1.15859795e+000 1.25597095e+000 1.25180101e+000
      1.24279904e+000 1.32205498e+000 1.29860902e+000 1.29055202e+000
      1.35070896e+000 1.33312905e+000 1.34972799e+000 1.37833095e+000</_>
    <_>
      1.34061003e+000 1.30582201e+000 1.24979305e+000 1.23403096e+000
      1.22703803e+000 1.20783699e+000 1.21219003e+000 1.22351098e+000
      1.23762798e+000 1.27532005e+000 1.30017304e+000 1.34107602e+000
      1.37997496e+000 1.40818405e+000 1.43918097e+000 1.46389604e+000
      1.48609304e+000 1.50775194e+000 1.52699804e+000 1.54188597e+000</_>
    <_>
      1.40887904e+000 1.37864494e+000 1.34921598e+000 1.34561002e+000
      1.34353495e+000 1.35423505e+000 1.37982905e+000 1.38804102e+000
      1.37816203e+000 1.38239503e+000 1.38247502e+000 1.36619902e+000
      1.36908102e+000 1.34817004e+000 1.32376003e+000 1.31323695e+000
      1.27596796e+000 1.24302995e+000 1.20923603e+000 1.16449404e+000</_>
    <_>
      1.08874702e+000 1.02556801e+000 9.66341972e-001 9.21788990e-001
      9.41766977e-001 1.00401998e+000 1.05026805e+000 1.05794597e+000
      1.09260499e+000 1.13259399e+000 1.14838898e+000 1.18451703e+000
      1.20989394e+000 1.24934995e+000 1.30420101e+000 1.34040904e+000
      1.38341498e+000 1.41888702e+000 1.44541299e+000 1.48748004e+000</_>
    <_>
      1.17194295e+000 1.16155601e+000 1.09328306e+000 1.06323397e+000
      1.07771504e+000 1.01973903e+000 1.01175904e+000 1.06484902e+000
      1.02680099e+000 1.02606702e+000 1.11904895e+000 1.11975598e+000
      1.13596106e+000 1.21996605e+000 1.21129000e+000 1.23199499e+000
      1.29499900e+000 1.30378699e+000 1.32214499e+000 1.37827396e+000</_>
    <_>
      1.28568804e+000 1.28059995e+000 1.18452299e+000 1.17052305e+000
      1.16468298e+000 1.04855001e+000 1.03440297e+000 1.02773798e+000
      1.15828598e+000 1.15889597e+000 1.15880704e+000 1.27060604e+000
      1.27391398e+000 1.27501202e+000 1.36767197e+000 1.37119997e+000
      1.37411201e+000 1.44544101e+000 1.44997704e+000 1.45299006e+000</_>
    <_>
      1.23798203e+000 1.05743694e+000 1.06318402e+000 1.06662405e+000
      8.41729999e-001 8.55203986e-001 8.71104002e-001 8.95187974e-001
      9.12626982e-001 9.81701016e-001 1.05516398e+000 1.08454502e+000
      1.13469398e+000 1.20992899e+000 1.23316598e+000 1.26624596e+000
      1.34586096e+000 1.35875201e+000 1.37381101e+000 1.44806695e+000</_>
    <_>
      1.23542905e+000 1.18641698e+000 1.14208806e+000 1.09650505e+000
      1.04173398e+000 1.02089500e+000 1.04607201e+000 1.07044995e+000
      1.09215796e+000 1.13143301e+000 1.16108298e+000 1.18987298e+000
      1.22622895e+000 1.26109302e+000 1.29606903e+000 1.32251298e+000
      1.36461306e+000 1.41544497e+000 1.44003201e+000 1.47028804e+000</_>
    <_>
      1.03086805e+000 8.01304996e-001 7.49710977e-001 7.23356009e-001
      4.62352991e-001 4.24403995e-001 4.05151010e-001 3.95310998e-001
      4.51274008e-001 5.09921014e-001 6.20060027e-001 7.47183979e-001
      8.16772997e-001 9.48984027e-001 1.05548096e+000 1.11174095e+000
      1.25791502e+000 1.32773995e+000 1.36804295e+000 1.51793396e+000</_>
    <_>
      8.02296996e-001 9.35745001e-001 9.10476029e-001 8.98190022e-001
      1.00425303e+000 9.75760996e-001 9.71512020e-001 1.04472804e+000
      1.01433396e+000 1.02209699e+000 1.06750298e+000 1.07301795e+000
      1.08088398e+000 1.13507605e+000 1.19214296e+000 1.22466004e+000
      1.29554200e+000 1.34792995e+000 1.39350295e+000 1.45074499e+000</_>
    <_>
      1.08392096e+000 1.06330204e+000 8.50232005e-001 8.30712974e-001
      8.15887988e-001 5.67273974e-001 5.58969021e-001 5.51658988e-001
      6.39262974e-001 7.40126014e-001 7.98702002e-001 9.00344014e-001
      9.87312973e-001 1.03779602e+000 1.16141200e+000 1.22214794e+000
      1.25830901e+000 1.38246703e+000 1.41608596e+000 1.43589103e+000</_>
    <_>
      1.12776399e+000 1.09714997e+000 1.07432997e+000 9.25880015e-001
      8.97504985e-001 8.69751990e-001 9.11387980e-001 9.18892026e-001
      9.27568972e-001 1.02537704e+000 1.06682599e+000 1.09675598e+000
      1.19587100e+000 1.23529506e+000 1.27017903e+000 1.35809600e+000
      1.38934100e+000 1.41832101e+000 1.48886704e+000 1.51206505e+000</_>
    <_>
      1.20797706e+000 1.20067406e+000 1.19213402e+000 1.18497396e+000
      1.18318701e+000 1.17162502e+000 1.16720605e+000 1.16792798e+000
      1.15755999e+000 1.16040897e+000 1.16532695e+000 1.15936899e+000
      1.16740203e+000 1.17788994e+000 1.18980896e+000 1.20640099e+000
      1.22792494e+000 1.25769305e+000 1.28621495e+000 1.31940901e+000</_>
    <_>
      4.64848012e-001 3.74852002e-001 3.11150014e-001 2.47569993e-001
      2.09638000e-001 1.78737000e-001 1.47985995e-001 1.33137003e-001
      1.16417997e-001 1.02807999e-001 9.31729972e-002 8.04869980e-002
      8.40789974e-002 8.31990018e-002 1.22781999e-001 5.39287984e-001
      7.34777987e-001 8.33899975e-001 1.25155997e+000 1.47271597e+000</_>
    <_>
      8.30307007e-001 8.07752013e-001 5.04176974e-001 4.68825996e-001
      4.42929000e-001 1.40607998e-001 1.07164003e-001 8.44599977e-002
      3.45362008e-001 3.98627996e-001 4.05528009e-001 7.01003015e-001
      7.46214986e-001 7.63969004e-001 1.05368602e+000 1.09557295e+000
      1.11617506e+000 1.37377095e+000 1.40787697e+000 1.42905796e+000</_>
    <_>
      9.90336001e-001 9.93120015e-001 1.00036001e+000 1.02984297e+000
      1.04233503e+000 1.04995799e+000 1.08153498e+000 1.09848297e+000
      1.11853099e+000 1.14906895e+000 1.17253101e+000 1.19001198e+000
      1.22431898e+000 1.24349904e+000 1.25748599e+000 1.28251398e+000
      1.29712903e+000 1.31284499e+000 1.34188998e+000 1.35602796e+000</_>
    <_>
      8.98916006e-001 8.73076022e-001 8.57357979e-001 8.52504015e-001
      8.38331997e-001 8.48312974e-001 8.56356978e-001 8.61240029e-001
      8.76347005e-001 9.05198991e-001 9.21519995e-001 9.45131004e-001
      9.74954009e-001 1.00612104e+000 1.03044498e+000 1.07731497e+000
      1.12141001e+000 1.16796100e+000 1.21962202e+000 1.26898897e+000</_>
    <_>
      3.39830011e-001 3.32612991e-001 3.49705011e-001 3.79740000e-001
      4.00292993e-001 4.30002987e-001 4.80756015e-001 5.29841006e-001
      5.82589984e-001 6.47377014e-001 7.19164014e-001 7.77370989e-001
      8.49847972e-001 9.32779014e-001 1.00466597e+000 1.07775104e+000
      1.17920101e+000 1.26802301e+000 1.35302198e+000 1.45781195e+000</_>
    <_>
      1.44482601e+000 1.44067097e+000 1.43992305e+000 1.45115995e+000
      1.43996894e+000 1.43105996e+000 1.43693495e+000 1.41704595e+000
      1.40384495e+000 1.40127599e+000 1.38045800e+000 1.36409700e+000
      1.34937203e+000 1.31151402e+000 1.29028201e+000 1.25818300e+000
      1.22732794e+000 1.21662700e+000 1.18999696e+000 1.16335297e+000</_>
    <_>
      1.03474605e+000 8.04841995e-001 7.93404996e-001 7.77804971e-001
      9.55039978e-001 9.44948971e-001 9.36975002e-001 1.07588196e+000
      1.07472098e+000 1.08357203e+000 1.19774699e+000 1.20714498e+000
      1.23722506e+000 1.33666503e+000 1.35218799e+000 1.38165998e+000
      1.46111703e+000 1.45781898e+000 1.45670998e+000 1.49816501e+000</_>
    <_>
      1.27821505e+000 1.24764597e+000 1.22488594e+000 1.20658004e+000
      1.19357705e+000 1.18878305e+000 1.17961705e+000 1.18720400e+000
      1.20611501e+000 1.21037698e+000 1.23016095e+000 1.26191199e+000
      1.27840102e+000 1.30115700e+000 1.33084500e+000 1.35279799e+000
      1.38123095e+000 1.41247594e+000 1.43045497e+000 1.46223700e+000</_>
    <_>
      9.01194990e-001 9.46305990e-001 9.63515997e-001 1.00367200e+000
      1.04823899e+000 1.06838405e+000 1.11144304e+000 1.13441706e+000
      1.13797498e+000 1.14753997e+000 1.14561903e+000 1.14429498e+000
      1.15997195e+000 1.15436697e+000 1.13853300e+000 1.13525796e+000
      1.11305594e+000 1.10244799e+000 1.10734701e+000 1.10852098e+000</_>
    <_>
      1.26879895e+000 1.24237800e+000 1.22929394e+000 1.22232902e+000
      1.21204698e+000 1.21404898e+000 1.22344601e+000 1.23235500e+000
      1.24832797e+000 1.26274395e+000 1.27614999e+000 1.30017900e+000
      1.31399298e+000 1.32806599e+000 1.34434295e+000 1.35812402e+000
      1.36526096e+000 1.37477505e+000 1.38491404e+000 1.39732301e+000</_>
    <_>
      1.36846495e+000 1.36189604e+000 1.37862003e+000 1.35280597e+000
      1.34888196e+000 1.36259794e+000 1.35761595e+000 1.36840498e+000
      1.37105799e+000 1.38267899e+000 1.40477598e+000 1.40034294e+000
      1.41743600e+000 1.44364905e+000 1.42015898e+000 1.44524503e+000
      1.46923697e+000 1.49412894e+000 1.51553905e+000 1.53407395e+000</_>
    <_>
      1.18144906e+000 1.13601899e+000 1.10267198e+000 1.06242502e+000
      1.04478204e+000 1.04153502e+000 1.02515495e+000 1.04155195e+000
      1.06420600e+000 1.07450497e+000 1.11725700e+000 1.15966296e+000
      1.17148805e+000 1.21172202e+000 1.24779904e+000 1.26286805e+000
      1.29049897e+000 1.31355703e+000 1.31759799e+000 1.32843697e+000</_>
    <_>
      1.34114003e+000 1.34422302e+000 1.33556604e+000 1.32005095e+000
      1.32680595e+000 1.31912303e+000 1.31603396e+000 1.32144296e+000
      1.32087505e+000 1.32047904e+000 1.33504200e+000 1.33663499e+000
      1.35127103e+000 1.35913706e+000 1.36384404e+000 1.37595296e+000
      1.38655806e+000 1.39024198e+000 1.40819895e+000 1.41255295e+000</_>
    <_>
      1.21031296e+000 1.17888105e+000 1.13918996e+000 1.10992599e+000
      1.09110200e+000 1.06991005e+000 1.06471002e+000 1.07422400e+000
      1.08279705e+000 1.09884596e+000 1.13298798e+000 1.16454506e+000
      1.20311296e+000 1.24987102e+000 1.28763700e+000 1.32542801e+000
      1.36864603e+000 1.40132499e+000 1.43312597e+000 1.46385598e+000</_>
    <_>
      1.20541406e+000 1.20562100e+000 1.09803104e+000 1.11327195e+000
      1.11497104e+000 9.76309001e-001 9.85834002e-001 9.86015975e-001
      1.12492394e+000 1.13230705e+000 1.14002800e+000 1.25528598e+000
      1.26018798e+000 1.26268399e+000 1.35104597e+000 1.35057294e+000
      1.35237205e+000 1.41876495e+000 1.42169404e+000 1.42519701e+000</_>
    <_>
      1.29467797e+000 1.29258204e+000 1.27552605e+000 1.24987495e+000
      1.25700295e+000 1.25737405e+000 1.25129902e+000 1.26129305e+000
      1.28017795e+000 1.31625402e+000 1.33371401e+000 1.35881901e+000
      1.40513802e+000 1.42334998e+000 1.44494700e+000 1.47595799e+000
      1.48819995e+000 1.50876606e+000 1.52365994e+000 1.52834904e+000</_>
    <_>
      1.27107596e+000 1.23440397e+000 1.20936406e+000 1.18412006e+000
      1.16428697e+000 1.15222597e+000 1.14882898e+000 1.16155899e+000
      1.17784798e+000 1.19234705e+000 1.21978295e+000 1.24232996e+000
      1.26156604e+000 1.27934802e+000 1.28950906e+000 1.29953098e+000
      1.30538499e+000 1.30370402e+000 1.34969997e+000 1.35077906e+000</_>
    <_>
      1.08625901e+000 1.11250806e+000 1.12657499e+000 1.15075099e+000
      1.17067897e+000 1.18892097e+000 1.21775901e+000 1.23936999e+000
      1.25735903e+000 1.27892399e+000 1.28918397e+000 1.30056798e+000
      1.31567395e+000 1.32264996e+000 1.32200301e+000 1.33262706e+000
      1.33995402e+000 1.34059596e+000 1.34408295e+000 1.35410297e+000</_>
    <_>
      8.69874001e-001 8.72139990e-001 8.68039012e-001 8.72720003e-001
      8.79281998e-001 8.86961997e-001 8.97451997e-001 9.10883009e-001
      9.23152983e-001 9.39691007e-001 9.57957029e-001 9.73426998e-001
      9.86406028e-001 1.00447702e+000 1.02073598e+000 1.03858495e+000
      1.05763900e+000 1.07777798e+000 1.09572995e+000 1.11006904e+000</_>
    <_>
      1.33928502e+000 1.33986700e+000 1.35029101e+000 1.35085797e+000
      1.32999396e+000 1.31865203e+000 1.32700205e+000 1.32626498e+000
      1.33727396e+000 1.34303999e+000 1.35583496e+000 1.34945798e+000
      1.34970796e+000 1.36768699e+000 1.36747205e+000 1.35767102e+000
      1.36505699e+000 1.36150098e+000 1.34934103e+000 1.36057997e+000</_>
    <_>
      1.07576096e+000 1.07617903e+000 8.60274971e-001 8.62121999e-001
      8.69350016e-001 9.66472983e-001 9.70301986e-001 9.83570993e-001
      1.08077800e+000 1.08471799e+000 1.11134899e+000 1.19231606e+000
      1.20190299e+000 1.23502600e+000 1.31278801e+000 1.32961094e+000
      1.36634004e+000 1.43997204e+000 1.45656705e+000 1.48463404e+000</_>
    <_>
      1.51271498e+000 1.48784995e+000 1.44013906e+000 1.40882695e+000
      1.38745499e+000 1.32998300e+000 1.30432701e+000 1.30194294e+000
      1.23987997e+000 1.23460603e+000 1.23608899e+000 1.14962602e+000
      1.15075600e+000 1.15550399e+000 1.03773797e+000 1.03869200e+000
      1.04433703e+000 8.95434976e-001 8.90226007e-001 8.94716978e-001</_>
    <_>
      1.28165495e+000 1.26566005e+000 1.23407805e+000 1.21469200e+000
      1.20014000e+000 1.17048001e+000 1.15829802e+000 1.18260598e+000
      1.21626496e+000 1.23738801e+000 1.28597498e+000 1.32577705e+000
      1.35039496e+000 1.39069200e+000 1.41940296e+000 1.43800700e+000
      1.46192503e+000 1.47890198e+000 1.48727095e+000 1.49882698e+000</_>
    <_>
      1.34528899e+000 1.33848500e+000 1.33819699e+000 1.33584201e+000
      1.32409096e+000 1.33730698e+000 1.34825099e+000 1.34965003e+000
      1.36612701e+000 1.38136196e+000 1.39142394e+000 1.40565801e+000
      1.41978800e+000 1.41871595e+000 1.42303300e+000 1.42606199e+000
      1.42174006e+000 1.42136300e+000 1.42860401e+000 1.42710602e+000</_>
    <_>
      1.36145401e+000 1.34831297e+000 1.33602500e+000 1.32083404e+000
      1.31486797e+000 1.31048000e+000 1.29972100e+000 1.29121101e+000
      1.29565597e+000 1.30794501e+000 1.31562698e+000 1.32195604e+000
      1.32936704e+000 1.33635902e+000 1.34203398e+000 1.35887694e+000
      1.36282802e+000 1.36093605e+000 1.37469995e+000 1.37849796e+000</_>
    <_>
      1.14005804e+000 1.13281405e+000 1.13164699e+000 1.12662101e+000
      1.12180901e+000 1.12450004e+000 1.12621105e+000 1.13775206e+000
      1.15755200e+000 1.17156899e+000 1.18866706e+000 1.21251798e+000
      1.22768903e+000 1.24821603e+000 1.27596998e+000 1.29719698e+000
      1.32132006e+000 1.34748697e+000 1.36954498e+000 1.39787400e+000</_>
    <_>
      1.33341503e+000 1.31828403e+000 1.30495095e+000 1.28746104e+000
      1.27555096e+000 1.27461505e+000 1.27856505e+000 1.29034901e+000
      1.29403198e+000 1.30359304e+000 1.32250595e+000 1.34191203e+000
      1.35669506e+000 1.36853802e+000 1.37635505e+000 1.38726401e+000
      1.40754700e+000 1.41714394e+000 1.42819202e+000 1.45409703e+000</_>
    <_>
      1.00245905e+000 9.88923013e-001 6.91806018e-001 6.87380016e-001
      6.78678989e-001 3.66093010e-001 3.64650011e-001 3.57331008e-001
      5.39965987e-001 5.45832992e-001 5.75810015e-001 8.29943001e-001
      8.51659000e-001 8.74548018e-001 1.12018299e+000 1.13235605e+000
      1.15092301e+000 1.37457597e+000 1.37923205e+000 1.38988197e+000</_>
    <_>
      1.09351206e+000 9.17756021e-001 8.77573013e-001 8.55180025e-001
      6.69229984e-001 6.51943028e-001 6.57487988e-001 4.85060006e-001
      4.84068006e-001 5.27086973e-001 7.52673984e-001 8.01235974e-001
      8.35165977e-001 1.04323494e+000 1.08487701e+000 1.10972500e+000
      1.27642095e+000 1.31419396e+000 1.32370305e+000 1.45155799e+000</_>
    <_>
      1.25815403e+000 1.20995998e+000 1.16646099e+000 1.09403396e+000
      1.04035103e+000 9.98076975e-001 9.71563995e-001 9.68769014e-001
      9.74294007e-001 1.00823605e+000 1.04772794e+000 1.07788301e+000
      1.13377595e+000 1.18103600e+000 1.21853197e+000 1.27281404e+000
      1.32213998e+000 1.35979700e+000 1.40670800e+000 1.44930601e+000</_>
    <_>
      1.37315094e+000 1.33341205e+000 1.30208898e+000 1.25931799e+000
      1.21096802e+000 1.17675698e+000 1.17746496e+000 1.18808806e+000
      1.18616498e+000 1.19949198e+000 1.22486401e+000 1.24155796e+000
      1.26667702e+000 1.29378402e+000 1.32425106e+000 1.34853303e+000
      1.37639701e+000 1.40013802e+000 1.42032504e+000 1.44153595e+000</_>
    <_>
      1.48985004e+000 1.54934096e+000 1.48371506e+000 1.46827495e+000
      1.50724995e+000 1.42183101e+000 1.40926397e+000 1.44197297e+000
      1.45027304e+000 1.42902100e+000 1.41991997e+000 1.45439398e+000
      1.43885195e+000 1.39014804e+000 1.40685701e+000 1.37297499e+000
      1.28807604e+000 1.31083405e+000 1.27181101e+000 1.15290403e+000</_>
    <_>
      1.07831705e+000 9.35712993e-001 9.12006021e-001 8.62066984e-001
      6.89383984e-001 6.33198977e-001 6.07532024e-001 4.11071986e-001
      3.99361014e-001 4.64626014e-001 7.46258020e-001 7.33941019e-001
      8.02797973e-001 1.02863598e+000 1.02769899e+000 1.08342302e+000
      1.25330305e+000 1.24203503e+000 1.28109205e+000 1.39459300e+000</_>
    <_>
      1.34057105e+000 1.31090605e+000 1.29294395e+000 1.24859297e+000
      1.21487296e+000 1.20862496e+000 1.19575906e+000 1.16856396e+000
      1.19393694e+000 1.22806895e+000 1.23683596e+000 1.26256502e+000
      1.29190803e+000 1.32307398e+000 1.34591901e+000 1.37932503e+000
      1.40691304e+000 1.41979694e+000 1.44423103e+000 1.46375895e+000</_>
    <_>
      1.23918998e+000 1.22858703e+000 1.19109905e+000 1.10681105e+000
      1.09506500e+000 1.05781496e+000 9.53881979e-001 9.42561984e-001
      9.80027974e-001 1.10214698e+000 1.11569405e+000 1.16068399e+000
      1.25737596e+000 1.27260303e+000 1.31078303e+000 1.38705504e+000
      1.39691603e+000 1.43153000e+000 1.48418903e+000 1.49116504e+000</_>
    <_>
      1.22704101e+000 1.18021405e+000 1.17359400e+000 1.09874105e+000
      1.03623796e+000 1.03291094e+000 9.69031990e-001 8.85064006e-001
      8.71371984e-001 1.05639195e+000 1.05938196e+000 1.07430804e+000
      1.21658397e+000 1.20970201e+000 1.23660100e+000 1.33763802e+000
      1.32333803e+000 1.33259106e+000 1.39874899e+000 1.42171800e+000</_>
    <_>
      1.05472004e+000 9.72007990e-001 8.82184029e-001 8.21732998e-001
      7.19097972e-001 6.16558015e-001 5.50549984e-001 5.95986009e-001
      6.03443980e-001 6.52375996e-001 6.87252998e-001 7.72741973e-001
      8.48322988e-001 9.07579005e-001 1.03849602e+000 1.10991704e+000
      1.16868496e+000 1.27835798e+000 1.33703303e+000 1.39256406e+000</_>
    <_>
      1.30532098e+000 1.26893306e+000 1.23432600e+000 1.21313000e+000
      1.20304000e+000 1.20364499e+000 1.20062995e+000 1.21388400e+000
      1.21963096e+000 1.23032999e+000 1.24984300e+000 1.27706397e+000
      1.29926896e+000 1.32732105e+000 1.35827899e+000 1.38787198e+000
      1.41377497e+000 1.44042003e+000 1.46602702e+000 1.48643994e+000</_>
    <_>
      1.31506300e+000 1.28782797e+000 1.25739801e+000 1.24136806e+000
      1.23307204e+000 1.20644295e+000 1.19915104e+000 1.19309902e+000
      1.19872999e+000 1.21369696e+000 1.22826302e+000 1.25699401e+000
      1.28929901e+000 1.31369495e+000 1.34983504e+000 1.37855506e+000
      1.40369797e+000 1.43462205e+000 1.45937502e+000 1.47777998e+000</_>
    <_>
      1.07503498e+000 1.02555597e+000 9.19889987e-001 8.78215015e-001
      8.36215973e-001 7.09719002e-001 6.40932024e-001 6.36734009e-001
      6.40293002e-001 6.58071995e-001 7.76557982e-001 9.57275987e-001
      9.78138030e-001 1.08503604e+000 1.22308004e+000 1.24295700e+000
      1.33497298e+000 1.42799497e+000 1.42500806e+000 1.46371400e+000</_>
    <_>
      1.27340996e+000 1.22454202e+000 1.16835499e+000 1.10796201e+000
      1.04961205e+000 9.86144006e-001 9.54014003e-001 9.44047987e-001
      9.70227003e-001 1.02803302e+000 1.07164502e+000 1.13494301e+000
      1.18730998e+000 1.23411095e+000 1.28916097e+000 1.33320796e+000
      1.37626100e+000 1.41910303e+000 1.45582795e+000 1.48711598e+000</_>
    <_>
      1.18280602e+000 1.12018394e+000 1.03422904e+000 9.91119981e-001
      9.44235981e-001 9.03778970e-001 8.51167977e-001 8.35475028e-001
      8.31376016e-001 8.18795025e-001 8.64956021e-001 9.28840995e-001
      1.01385796e+000 1.08039796e+000 1.14662898e+000 1.22279894e+000
      1.28020501e+000 1.34060895e+000 1.40339899e+000 1.44777298e+000</_>
    <_>
      1.30260706e+000 1.28159106e+000 1.25665295e+000 1.21922302e+000
      1.18930101e+000 1.15818095e+000 1.15266502e+000 1.14290404e+000
      1.13625503e+000 1.14823401e+000 1.17187500e+000 1.20635796e+000
      1.27051401e+000 1.30616200e+000 1.33525503e+000 1.38734996e+000
      1.41280901e+000 1.43789101e+000 1.47624195e+000 1.50179994e+000</_>
    <_>
      1.26865697e+000 1.23381495e+000 1.17800200e+000 1.10347700e+000
      1.08210802e+000 1.04509795e+000 1.03294897e+000 1.02168500e+000
      1.04481101e+000 1.06332302e+000 1.08320904e+000 1.13406003e+000
      1.18990302e+000 1.22290504e+000 1.27877998e+000 1.33915198e+000
      1.37162602e+000 1.41608202e+000 1.46895099e+000 1.49287605e+000</_>
    <_>
      1.23872602e+000 1.17434800e+000 1.06823897e+000 1.03675604e+000
      9.73174989e-001 9.60102975e-001 9.23838973e-001 9.07256007e-001
      9.18855011e-001 9.09726024e-001 9.52170014e-001 1.01391804e+000
      1.07589900e+000 1.13122904e+000 1.19909406e+000 1.24455500e+000
      1.28359604e+000 1.33775198e+000 1.37139595e+000 1.39005005e+000</_>
    <_>
      1.29524601e+000 1.23489106e+000 1.19133401e+000 1.11660302e+000
      1.04824698e+000 9.99630988e-001 1.01049805e+000 9.99987006e-001
      9.93936002e-001 1.02883899e+000 1.05722201e+000 1.08240700e+000
      1.15529001e+000 1.20810795e+000 1.24214399e+000 1.30190599e+000
      1.34662902e+000 1.37551498e+000 1.42102003e+000 1.45999205e+000</_>
    <_>
      1.14582205e+000 1.08927405e+000 1.05949402e+000 9.50173020e-001
      8.93013000e-001 8.48043025e-001 7.26745009e-001 6.76418006e-001
      6.78474009e-001 7.69976020e-001 9.11532998e-001 9.25320029e-001
      1.01750505e+000 1.13861704e+000 1.15803599e+000 1.24240804e+000
      1.33296001e+000 1.35483098e+000 1.42560399e+000 1.48097897e+000</_>
    <_>
      1.35467505e+000 1.32510102e+000 1.28268099e+000 1.25222003e+000
      1.23533201e+000 1.22312605e+000 1.21514797e+000 1.20898998e+000
      1.21726704e+000 1.23728001e+000 1.25012505e+000 1.27476597e+000
      1.29863000e+000 1.32682800e+000 1.35915697e+000 1.38246799e+000
      1.40877497e+000 1.43759596e+000 1.45453703e+000 1.47509897e+000</_>
    <_>
      1.23125303e+000 1.16800797e+000 1.12990296e+000 1.09159601e+000
      1.07980001e+000 1.07065499e+000 1.07113194e+000 1.08288896e+000
      1.08076596e+000 1.10260606e+000 1.14198899e+000 1.16505206e+000
      1.19720602e+000 1.24577701e+000 1.27717495e+000 1.31149399e+000
      1.35261798e+000 1.37801898e+000 1.40318000e+000 1.43459404e+000</_>
    <_>
      1.40815997e+000 1.37949097e+000 1.37037301e+000 1.33419204e+000
      1.31483102e+000 1.29397202e+000 1.28466499e+000 1.28439295e+000
      1.28111005e+000 1.27336204e+000 1.34426403e+000 1.35908306e+000
      1.35915005e+000 1.40335798e+000 1.40735805e+000 1.41658700e+000
      1.45928895e+000 1.45962203e+000 1.47607303e+000 1.50190496e+000</_>
    <_>
      1.08271098e+000 1.01247394e+000 9.26455975e-001 8.23532999e-001
      7.51012981e-001 7.05752015e-001 6.74875975e-001 6.66243017e-001
      6.65938020e-001 6.70861006e-001 7.27110982e-001 7.94304013e-001
      8.83078992e-001 9.77611005e-001 1.06842506e+000 1.15287495e+000
      1.23741698e+000 1.31689894e+000 1.38941705e+000 1.45547402e+000</_>
    <_>
      1.25243795e+000 1.25062597e+000 1.25243998e+000 1.21752596e+000
      1.20403099e+000 1.20988703e+000 1.15436399e+000 1.14548302e+000
      1.16259694e+000 1.23628700e+000 1.24658895e+000 1.26149905e+000
      1.30642796e+000 1.30743504e+000 1.30894196e+000 1.32954001e+000
      1.32661200e+000 1.30841899e+000 1.29917300e+000 1.28429401e+000</_>
    <_>
      1.32954001e+000 1.32661200e+000 1.30841899e+000 1.29917300e+000
      1.28429401e+000 1.24948204e+000 1.21669304e+000 1.21203101e+000
      1.25858605e+000 1.29089701e+000 1.32962596e+000 1.36852396e+000
      1.39445996e+000 1.42353201e+000 1.45419705e+000 1.46943796e+000
      1.49007297e+000 1.51255000e+000 1.51539898e+000 1.52674699e+000</_>
    <_>
      1.10622501e+000 1.12381804e+000 1.15669096e+000 1.18709600e+000
      1.20130098e+000 1.22487402e+000 1.25415599e+000 1.26576602e+000
      1.28387105e+000 1.30804896e+000 1.31364405e+000 1.31975901e+000
      1.33535504e+000 1.33332503e+000 1.32865703e+000 1.33079803e+000
      1.32591999e+000 1.31490898e+000 1.31683195e+000 1.31063795e+000</_>
    <_>
      1.13157904e+000 1.13456595e+000 1.13254595e+000 1.13669300e+000
      1.13593197e+000 1.12211895e+000 1.12441003e+000 1.12490702e+000
      1.12353897e+000 1.12357295e+000 1.12334704e+000 1.12538505e+000
      1.11802602e+000 1.10973501e+000 1.10872102e+000 1.09461200e+000
      1.08277702e+000 1.08554006e+000 1.07352805e+000 1.06192696e+000</_>
    <_>
      1.21707594e+000 1.22804594e+000 1.23609102e+000 1.25425100e+000
      1.26347494e+000 1.26924002e+000 1.28220606e+000 1.29377401e+000
      1.29609001e+000 1.30105901e+000 1.31017494e+000 1.31100702e+000
      1.30725598e+000 1.31420898e+000 1.31181300e+000 1.30742598e+000
      1.31044996e+000 1.30797803e+000 1.30496395e+000 1.30884004e+000</_>
    <_>
      1.23527205e+000 1.23105896e+000 1.23265600e+000 1.22912300e+000
      1.23403203e+000 1.24035501e+000 1.24132597e+000 1.25047195e+000
      1.26095998e+000 1.26681399e+000 1.28023899e+000 1.29488003e+000
      1.30237699e+000 1.31587601e+000 1.33146799e+000 1.34145200e+000
      1.35204005e+000 1.36559403e+000 1.36783004e+000 1.37053895e+000</_>
    <_>
      1.34392595e+000 1.33588505e+000 1.32814801e+000 1.31519997e+000
      1.30805898e+000 1.30525899e+000 1.30425501e+000 1.30343199e+000
      1.31475902e+000 1.32360005e+000 1.33119500e+000 1.35665298e+000
      1.37711406e+000 1.39109194e+000 1.41409099e+000 1.44105697e+000
      1.45613205e+000 1.47738099e+000 1.49878001e+000 1.50859106e+000</_>
    <_>
      1.23409700e+000 1.21960104e+000 1.21333206e+000 1.19531798e+000
      1.18734205e+000 1.18676305e+000 1.17365599e+000 1.17548597e+000
      1.18366003e+000 1.18648505e+000 1.21225405e+000 1.24819803e+000
      1.29477704e+000 1.33160901e+000 1.36152303e+000 1.40016401e+000
      1.42460001e+000 1.44514298e+000 1.47706199e+000 1.49588299e+000</_>
    <_>
      1.25534797e+000 1.26542199e+000 1.27544105e+000 1.28106904e+000
      1.28608894e+000 1.29646695e+000 1.30013394e+000 1.30224204e+000
      1.30829799e+000 1.31045794e+000 1.31217599e+000 1.31700897e+000
      1.31375396e+000 1.31341195e+000 1.31484306e+000 1.31123900e+000
      1.31196105e+000 1.31469202e+000 1.31543601e+000 1.31748796e+000</_>
    <_>
      1.18145096e+000 1.17177498e+000 1.17069697e+000 1.16294098e+000
      1.16021299e+000 1.16759801e+000 1.17087495e+000 1.17586005e+000
      1.19449997e+000 1.20597196e+000 1.21647501e+000 1.24146998e+000
      1.25811696e+000 1.27244103e+000 1.30078006e+000 1.32821703e+000
      1.34341097e+000 1.37508404e+000 1.39685595e+000 1.40928102e+000</_>
    <_>
      1.01247895e+000 9.90306973e-001 9.66618001e-001 9.58981991e-001
      9.38911021e-001 9.22959030e-001 9.18739021e-001 9.06530023e-001
      8.92996013e-001 8.92711997e-001 8.87296975e-001 8.82831991e-001
      8.84742975e-001 8.84598017e-001 8.94733012e-001 9.01832998e-001
      9.25975025e-001 9.61194992e-001 9.89095986e-001 1.04693305e+000</_>
    <_>
      1.22541904e+000 1.24108398e+000 1.22156501e+000 1.22584498e+000
      1.22807097e+000 1.22704601e+000 1.22232401e+000 1.20982397e+000
      1.21365702e+000 1.19489098e+000 1.18460202e+000 1.17222404e+000
      1.14951599e+000 1.12229204e+000 1.10944903e+000 1.07884502e+000
      1.08301198e+000 1.06097400e+000 1.04062700e+000 1.03932500e+000</_>
    <_>
      5.94691992e-001 3.84344012e-001 2.58762002e-001 2.10086003e-001
      1.87879995e-001 1.74603000e-001 1.66114002e-001 1.69526994e-001
      1.88354999e-001 2.15942994e-001 2.75815010e-001 3.90174001e-001
      5.38340986e-001 7.36665010e-001 8.62448990e-001 1.00939798e+000
      1.21823204e+000 1.34012198e+000 1.46375799e+000 1.64674795e+000</_>
    <_>
      1.09023404e+000 1.03790104e+000 9.59877014e-001 9.18717980e-001
      9.11219001e-001 8.82124007e-001 8.71770978e-001 8.89925003e-001
      9.06180024e-001 9.37044024e-001 9.89699006e-001 1.07058299e+000
      1.14682901e+000 1.19504702e+000 1.26860404e+000 1.33453298e+000
      1.37337303e+000 1.43601203e+000 1.48649204e+000 1.51479304e+000</_>
    <_>
      1.02926600e+000 9.09554005e-001 8.18408012e-001 7.68028021e-001
      7.34133005e-001 7.23200977e-001 7.17061996e-001 7.29719996e-001
      7.46954978e-001 7.61866987e-001 8.08413029e-001 8.85583997e-001
      9.73623991e-001 1.07033896e+000 1.14402699e+000 1.21924400e+000
      1.30622995e+000 1.36812699e+000 1.42729795e+000 1.49682200e+000</_>
    <_>
      9.34684992e-001 8.50673020e-001 7.85072029e-001 7.41029978e-001
      7.14303970e-001 6.91781998e-001 6.84028029e-001 6.89486027e-001
      6.98605001e-001 7.45846987e-001 8.24701011e-001 9.02741015e-001
      1.01450598e+000 1.09184301e+000 1.16538095e+000 1.26648998e+000
      1.33362198e+000 1.39597297e+000 1.47689199e+000 1.52828705e+000</_>
    <_>
      8.55512023e-001 7.02525020e-001 6.14759982e-001 5.40717006e-001
      4.93416011e-001 4.91048008e-001 5.05364001e-001 5.23781002e-001
      5.56466997e-001 6.15507007e-001 6.82464004e-001 7.71277010e-001
      8.86309028e-001 9.86540020e-001 1.07357097e+000 1.17997897e+000
      1.27573597e+000 1.34342098e+000 1.43306196e+000 1.51138794e+000</_>
    <_>
      1.19209003e+000 1.17143703e+000 1.16027701e+000 1.13956201e+000
      1.13373494e+000 1.13384402e+000 1.12852705e+000 1.14059103e+000
      1.14964604e+000 1.15863001e+000 1.18470001e+000 1.19538605e+000
      1.21675301e+000 1.25488198e+000 1.27099001e+000 1.31366801e+000
      1.35452294e+000 1.39102495e+000 1.43050802e+000 1.46353900e+000</_>
    <_>
      1.21303797e+000 1.21037304e+000 1.20200896e+000 1.19418597e+000
      1.19458997e+000 1.19839704e+000 1.20105398e+000 1.20570397e+000
      1.21827805e+000 1.23073995e+000 1.23633003e+000 1.25585604e+000
      1.27922297e+000 1.29215205e+000 1.32963002e+000 1.38516998e+000
      1.40682399e+000 1.43660295e+000 1.48191595e+000 1.49750495e+000</_>
    <_>
      6.17951989e-001 5.61333001e-001 5.12656987e-001 4.58319008e-001
      4.17041004e-001 3.95269990e-001 3.67904007e-001 3.36079001e-001
      3.31647992e-001 3.18273008e-001 3.02985013e-001 3.19658995e-001
      3.41816008e-001 3.71284992e-001 4.47115988e-001 5.86443007e-001
      7.91939020e-001 9.58330989e-001 1.10732901e+000 1.30865800e+000</_>
    <_>
      1.10668099e+000 1.10637605e+000 1.11496198e+000 1.11374295e+000
      1.12366998e+000 1.13808894e+000 1.14084494e+000 1.15826702e+000
      1.17536604e+000 1.18713200e+000 1.20502102e+000 1.22805798e+000
      1.23604298e+000 1.25837302e+000 1.28056896e+000 1.29063904e+000
      1.31248200e+000 1.33759797e+000 1.34499896e+000 1.36832905e+000</_>
    <_>
      1.16456699e+000 1.16972899e+000 1.16846502e+000 1.16827703e+000
      1.18144405e+000 1.18508995e+000 1.19200599e+000 1.20604002e+000
      1.21296299e+000 1.22704804e+000 1.24066603e+000 1.25179398e+000
      1.26815403e+000 1.28008902e+000 1.30169904e+000 1.32140803e+000
      1.33725595e+000 1.36272299e+000 1.39338100e+000 1.41938996e+000</_>
    <_>
      1.24009800e+000 1.22763300e+000 1.21580803e+000 1.20398903e+000
      1.19438899e+000 1.19555295e+000 1.19478297e+000 1.19721901e+000
      1.21030998e+000 1.22462499e+000 1.24066305e+000 1.26340401e+000
      1.29345202e+000 1.31420696e+000 1.34521496e+000 1.38294804e+000
      1.41462898e+000 1.44524097e+000 1.47315001e+000 1.49526596e+000</_>
    <_>
      1.08240902e+000 9.87366021e-001 9.23987985e-001 8.53830993e-001
      8.13592970e-001 8.02600026e-001 7.90356994e-001 7.95864999e-001
      8.21645021e-001 8.50229979e-001 8.97544980e-001 9.56574976e-001
      1.04451203e+000 1.12621498e+000 1.18087995e+000 1.25725996e+000
      1.33138597e+000 1.37596202e+000 1.43755805e+000 1.49544704e+000</_>
    <_>
      6.50696993e-001 6.08645976e-001 6.11570001e-001 5.92377007e-001
      5.66007018e-001 5.79074979e-001 5.77588975e-001 5.75632989e-001
      5.98657012e-001 6.26461029e-001 6.38406992e-001 6.63047016e-001
      7.00873971e-001 7.29662001e-001 7.78010011e-001 8.38869989e-001
      8.83355975e-001 9.58362997e-001 1.08282900e+000 1.19136798e+000</_>
    <_>
      1.27732396e+000 1.26722300e+000 1.26112700e+000 1.25367606e+000
      1.23869896e+000 1.23102701e+000 1.21970201e+000 1.20123398e+000
      1.19158697e+000 1.18130600e+000 1.16901398e+000 1.15939200e+000
      1.15339994e+000 1.15225995e+000 1.15415299e+000 1.16185200e+000
      1.16645396e+000 1.18264997e+000 1.20319998e+000 1.23641002e+000</_>
    <_>
      8.35801005e-001 8.38010013e-001 8.41216981e-001 8.54182005e-001
      8.75334024e-001 9.03311014e-001 9.41191971e-001 9.81348991e-001
      1.02573299e+000 1.08977497e+000 1.14665902e+000 1.19264996e+000
      1.24090695e+000 1.28188598e+000 1.31590903e+000 1.34678805e+000
      1.37057400e+000 1.39017701e+000 1.40356505e+000 1.40707803e+000</_>
    <_>
      1.25136805e+000 1.23673105e+000 1.21501303e+000 1.20464396e+000
      1.19755805e+000 1.18418705e+000 1.17664397e+000 1.17040396e+000
      1.16653597e+000 1.16744304e+000 1.17891800e+000 1.20310700e+000
      1.24010098e+000 1.28361595e+000 1.31908000e+000 1.35120106e+000
      1.38466704e+000 1.41373706e+000 1.44249296e+000 1.47012103e+000</_>
    <_>
      8.66523981e-001 8.16790998e-001 8.03985000e-001 7.95828998e-001
      8.02384973e-001 8.24454010e-001 8.47162008e-001 8.79764974e-001
      9.16429996e-001 9.56336021e-001 9.96411026e-001 1.04628301e+000
      1.10307300e+000 1.15238094e+000 1.21797097e+000 1.29922295e+000
      1.36684597e+000 1.41945302e+000 1.48651898e+000 1.53312099e+000</_>
    <_>
      1.14066601e+000 1.09987295e+000 1.08490098e+000 1.07946801e+000
      1.07831299e+000 1.08667302e+000 1.10173905e+000 1.11682200e+000
      1.13933694e+000 1.16386402e+000 1.18851304e+000 1.21815503e+000
      1.24606395e+000 1.28053105e+000 1.32821405e+000 1.37143302e+000
      1.41018403e+000 1.45127201e+000 1.48346806e+000 1.51161599e+000</_>
    <_>
      5.27364016e-001 5.35045981e-001 5.44799984e-001 5.94841003e-001
      6.09134018e-001 6.28593981e-001 6.86228991e-001 7.02749014e-001
      7.42550015e-001 7.93667018e-001 8.31342995e-001 8.79790008e-001
      9.24558997e-001 9.80356991e-001 1.01904595e+000 1.06600106e+000
      1.12515604e+000 1.17147696e+000 1.21144295e+000 1.27132702e+000</_>
    <_>
      1.20348299e+000 1.15919399e+000 1.14067996e+000 1.13943994e+000
      1.09295404e+000 1.08282804e+000 1.08565402e+000 1.07540202e+000
      1.10868394e+000 1.17355394e+000 1.21120906e+000 1.26045096e+000
      1.31082296e+000 1.35044706e+000 1.39327002e+000 1.42753804e+000
      1.46797001e+000 1.50262499e+000 1.52093196e+000 1.55477405e+000</_>
    <_>
      7.05725014e-001 6.61260009e-001 6.41241014e-001 6.45756006e-001
      6.61224008e-001 6.77996993e-001 7.06978977e-001 7.39436984e-001
      7.84799993e-001 8.25631022e-001 8.75208020e-001 9.51542020e-001
      1.01319396e+000 1.07121098e+000 1.17373097e+000 1.25900197e+000
      1.32431996e+000 1.42368698e+000 1.48872697e+000 1.53490698e+000</_>
    <_>
      5.90121984e-001 5.54310977e-001 5.43624997e-001 5.52313030e-001
      5.67013979e-001 5.86295009e-001 6.20734990e-001 6.68048024e-001
      7.06162989e-001 7.65191019e-001 8.32624972e-001 8.93881023e-001
      9.73353028e-001 1.07094705e+000 1.18160903e+000 1.27266395e+000
      1.36274695e+000 1.45559001e+000 1.52490699e+000 1.59216905e+000</_>
    <_>
      3.53262007e-001 2.98009992e-001 2.74670005e-001 2.56731004e-001
      2.33924001e-001 2.44978994e-001 2.40465999e-001 2.35196993e-001
      2.44479001e-001 2.53324986e-001 2.58267999e-001 2.85726011e-001
      3.12076986e-001 3.53282988e-001 4.07793999e-001 5.42034984e-001
      7.62612998e-001 1.00983596e+000 1.21364605e+000 1.46061397e+000</_>
    <_>
      3.39677006e-001 3.14476997e-001 2.81125009e-001 2.46121004e-001
      2.31442004e-001 2.19928995e-001 1.99056998e-001 1.92249000e-001
      1.92012995e-001 1.80666000e-001 1.77616999e-001 1.87804997e-001
      1.82866007e-001 1.85283005e-001 2.16442004e-001 2.42787004e-001
      3.13944995e-001 7.67385006e-001 1.20085597e+000 1.34731805e+000</_>
    <_>
      1.06787395e+000 1.08253706e+000 1.07037497e+000 1.08241999e+000
      1.10683703e+000 1.10500801e+000 1.13335598e+000 1.16570699e+000
      1.16617894e+000 1.19566202e+000 1.22955203e+000 1.22802103e+000
      1.25813603e+000 1.28308296e+000 1.29396498e+000 1.31959796e+000
      1.33297396e+000 1.36843097e+000 1.39024401e+000 1.38882399e+000</_>
    <_>
      1.18901801e+000 1.14766300e+000 1.16544795e+000 1.13539195e+000
      1.10116899e+000 1.11945200e+000 1.11189306e+000 1.08937800e+000
      1.10533905e+000 1.17606795e+000 1.24604499e+000 1.26290703e+000
      1.32335806e+000 1.38681996e+000 1.39785004e+000 1.44514096e+000
      1.49684501e+000 1.50308394e+000 1.53776300e+000 1.57467794e+000</_>
    <_>
      1.28803504e+000 1.22992098e+000 1.20553994e+000 1.20815396e+000
      1.18426800e+000 1.16765702e+000 1.16234398e+000 1.17656505e+000
      1.16651499e+000 1.17619705e+000 1.25722599e+000 1.28969204e+000
      1.30247998e+000 1.36940706e+000 1.39931500e+000 1.41186297e+000
      1.46177101e+000 1.48947799e+000 1.50131500e+000 1.53610802e+000</_>
    <_>
      9.31438029e-001 8.62228990e-001 7.77402997e-001 7.30955005e-001
      7.25767016e-001 7.08958983e-001 6.70040011e-001 6.72876000e-001
      7.04564989e-001 7.18020976e-001 7.60801017e-001 8.89028013e-001
      9.82522011e-001 1.02347696e+000 1.14040804e+000 1.23173296e+000
      1.26978695e+000 1.36159801e+000 1.45562196e+000 1.48791099e+000</_>
    <_>
      1.25636399e+000 1.22260702e+000 1.20167398e+000 1.18180096e+000
      1.15292704e+000 1.13564396e+000 1.11939800e+000 1.12400305e+000
      1.16076303e+000 1.22070503e+000 1.25907397e+000 1.28991103e+000
      1.33834004e+000 1.38659704e+000 1.41629398e+000 1.45329106e+000
      1.49238098e+000 1.51538205e+000 1.53895605e+000 1.56905901e+000</_>
    <_>
      1.24402797e+000 1.25470901e+000 1.25613904e+000 1.25141799e+000
      1.26008403e+000 1.25835705e+000 1.25489998e+000 1.25926995e+000
      1.25792003e+000 1.25513697e+000 1.25830102e+000 1.26078904e+000
      1.25821698e+000 1.26204896e+000 1.28078902e+000 1.27876699e+000
      1.28854597e+000 1.30007505e+000 1.31014800e+000 1.31897998e+000</_>
    <_>
      1.22927999e+000 1.22885895e+000 1.22681105e+000 1.23208904e+000
      1.23159599e+000 1.24093497e+000 1.25739896e+000 1.26283896e+000
      1.28519201e+000 1.30963802e+000 1.33803403e+000 1.37100101e+000
      1.40751505e+000 1.43315899e+000 1.46020496e+000 1.48946702e+000
      1.50725400e+000 1.52637005e+000 1.54597104e+000 1.55627096e+000</_>
    <_>
      1.21205294e+000 1.22195101e+000 1.22675800e+000 1.23382294e+000
      1.24213898e+000 1.24693704e+000 1.25122094e+000 1.25456703e+000
      1.25936699e+000 1.26212001e+000 1.26540101e+000 1.27154505e+000
      1.27107203e+000 1.28509903e+000 1.28338301e+000 1.29263902e+000
      1.29795897e+000 1.29369402e+000 1.29835606e+000 1.29880297e+000</_>
    <_>
      1.20712900e+000 1.20246601e+000 1.19485605e+000 1.20100200e+000
      1.20596099e+000 1.20772696e+000 1.21453595e+000 1.22451603e+000
      1.22704101e+000 1.23759604e+000 1.24978399e+000 1.25399494e+000
      1.26949298e+000 1.28407705e+000 1.29026604e+000 1.30515003e+000
      1.32251298e+000 1.33741796e+000 1.35027206e+000 1.37508798e+000</_>
    <_>
      1.22227597e+000 1.21745896e+000 1.22277498e+000 1.22922099e+000
      1.22621095e+000 1.23098195e+000 1.24681401e+000 1.25162303e+000
      1.26135194e+000 1.27255797e+000 1.28694499e+000 1.29696906e+000
      1.31072605e+000 1.33349395e+000 1.34853995e+000 1.36655700e+000
      1.39524806e+000 1.41310501e+000 1.42531204e+000 1.45650804e+000</_>
    <_>
      9.86048996e-001 9.95676994e-001 1.01090300e+000 1.01241899e+000
      1.00804996e+000 1.00747800e+000 9.98461008e-001 9.95411992e-001
      9.96910989e-001 9.92477000e-001 9.79839981e-001 9.73693013e-001
      9.61871982e-001 9.46844995e-001 9.41233993e-001 9.36064005e-001
      9.28839028e-001 9.26793993e-001 9.29866016e-001 9.27363992e-001</_>
    <_>
      1.23606896e+000 1.23561394e+000 1.24154794e+000 1.23617399e+000
      1.24125695e+000 1.25565898e+000 1.25695205e+000 1.26641798e+000
      1.29175997e+000 1.29965305e+000 1.31133699e+000 1.34283304e+000
      1.36147797e+000 1.37978005e+000 1.40579295e+000 1.42950702e+000
      1.44716704e+000 1.47017395e+000 1.49424398e+000 1.50635505e+000</_>
    <_>
      1.22177696e+000 1.22323096e+000 1.22602201e+000 1.22878504e+000
      1.23044002e+000 1.23811698e+000 1.23631096e+000 1.23534703e+000
      1.24169695e+000 1.23427498e+000 1.23510098e+000 1.23960495e+000
      1.23638105e+000 1.24315202e+000 1.25108504e+000 1.25133705e+000
      1.25444996e+000 1.26011395e+000 1.26969898e+000 1.27380002e+000</_>
    <_>
      1.22322798e+000 1.23205996e+000 1.23276401e+000 1.23867905e+000
      1.24619198e+000 1.24688399e+000 1.25555897e+000 1.26108396e+000
      1.26470602e+000 1.27114999e+000 1.27549100e+000 1.26940596e+000
      1.27631903e+000 1.27716506e+000 1.26954496e+000 1.27575505e+000
      1.27806497e+000 1.27566898e+000 1.28241599e+000 1.29010201e+000</_>
    <_>
      9.85309005e-001 9.77648973e-001 9.74379003e-001 9.74879026e-001
      9.65685010e-001 9.59101975e-001 9.59172010e-001 9.53230023e-001
      9.44945991e-001 9.44848001e-001 9.30773973e-001 9.30863023e-001
      9.30446029e-001 9.18148994e-001 9.21348989e-001 9.26312983e-001
      9.21271980e-001 9.29232001e-001 9.33915019e-001 9.38377976e-001</_>
    <_>
      1.29180896e+000 1.29704905e+000 1.29447198e+000 1.29955900e+000
      1.30372703e+000 1.30227995e+000 1.29897201e+000 1.30432796e+000
      1.29830396e+000 1.30238295e+000 1.29932404e+000 1.29091799e+000
      1.28759301e+000 1.28739202e+000 1.27853501e+000 1.27234399e+000
      1.27297699e+000 1.26690400e+000 1.26463902e+000 1.26602495e+000</_>
    <_>
      1.18164003e+000 1.18083000e+000 1.18123102e+000 1.19018197e+000
      1.19344103e+000 1.19347894e+000 1.20358801e+000 1.21476996e+000
      1.21766400e+000 1.23015702e+000 1.24310005e+000 1.24589896e+000
      1.25682998e+000 1.27023399e+000 1.27282500e+000 1.28203499e+000
      1.29405606e+000 1.29911804e+000 1.30252695e+000 1.31428897e+000</_>
    <_>
      1.20413601e+000 1.20243204e+000 1.20046699e+000 1.19626403e+000
      1.19527102e+000 1.19750500e+000 1.19666004e+000 1.19923198e+000
      1.20203698e+000 1.20134795e+000 1.20114994e+000 1.20466995e+000
      1.20807004e+000 1.21006405e+000 1.21687496e+000 1.22122002e+000
      1.23193598e+000 1.24717796e+000 1.26601601e+000 1.28636098e+000</_>
    <_>
      1.16746902e+000 1.17073703e+000 1.17247999e+000 1.17031002e+000
      1.17384899e+000 1.18027198e+000 1.17986095e+000 1.18574202e+000
      1.19573605e+000 1.19764996e+000 1.20338202e+000 1.21574402e+000
      1.21568406e+000 1.22813702e+000 1.23472297e+000 1.23539603e+000
      1.24773896e+000 1.25745904e+000 1.25762403e+000 1.26942694e+000</_>
    <_>
      1.20711696e+000 1.20382297e+000 1.19763601e+000 1.20206404e+000
      1.20361197e+000 1.21676397e+000 1.22434199e+000 1.23118305e+000
      1.24561501e+000 1.25369501e+000 1.25956404e+000 1.28252399e+000
      1.29164696e+000 1.30331397e+000 1.33248496e+000 1.34152496e+000
      1.35674298e+000 1.38266802e+000 1.40397894e+000 1.42693496e+000</_>
    <_>
      1.11906195e+000 1.10441995e+000 1.10309398e+000 1.10891902e+000
      1.10367203e+000 1.11597204e+000 1.13256705e+000 1.13955605e+000
      1.15695000e+000 1.17683494e+000 1.18969405e+000 1.21025705e+000
      1.23022997e+000 1.24915302e+000 1.27593803e+000 1.30249000e+000
      1.33388305e+000 1.36762500e+000 1.40842295e+000 1.44079995e+000</_>
    <_>
      1.13824701e+000 1.14239204e+000 1.13818502e+000 1.11597502e+000
      1.12558901e+000 1.13623202e+000 1.12581396e+000 1.13799798e+000
      1.15876806e+000 1.16366899e+000 1.17477596e+000 1.20674002e+000
      1.21885002e+000 1.23005104e+000 1.26529002e+000 1.28397501e+000
      1.29561102e+000 1.33205104e+000 1.35768700e+000 1.37048602e+000</_>
    <_>
      1.20075703e+000 1.19648600e+000 1.19110703e+000 1.16876698e+000
      1.16631198e+000 1.16691804e+000 1.15503299e+000 1.15353894e+000
      1.16465604e+000 1.16232598e+000 1.16535699e+000 1.18303299e+000
      1.19288397e+000 1.20257604e+000 1.22720003e+000 1.24759305e+000
      1.26607704e+000 1.29836094e+000 1.33340204e+000 1.35935795e+000</_>
    <_>
      1.27585101e+000 1.27585495e+000 1.27305806e+000 1.27446604e+000
      1.27462697e+000 1.27115500e+000 1.27379704e+000 1.27451396e+000
      1.27319205e+000 1.27580905e+000 1.27854896e+000 1.28243697e+000
      1.28552604e+000 1.29309297e+000 1.30524099e+000 1.31046796e+000
      1.33016706e+000 1.34941900e+000 1.35897005e+000 1.39016998e+000</_>
    <_>
      1.25739098e+000 1.26409602e+000 1.27734601e+000 1.28303504e+000
      1.28594601e+000 1.29147804e+000 1.29289496e+000 1.28580403e+000
      1.28621399e+000 1.28311002e+000 1.27275503e+000 1.26888096e+000
      1.26275396e+000 1.24990106e+000 1.24411201e+000 1.23813903e+000
      1.22891796e+000 1.23046005e+000 1.22935200e+000 1.23328304e+000</_>
    <_>
      1.19032502e+000 1.19357705e+000 1.20908296e+000 1.21054995e+000
      1.21778798e+000 1.23674095e+000 1.24647105e+000 1.25856495e+000
      1.27760100e+000 1.28976405e+000 1.30090201e+000 1.31602800e+000
      1.32792401e+000 1.33697999e+000 1.34833002e+000 1.36178803e+000
      1.37284303e+000 1.38531804e+000 1.40081000e+000 1.41167796e+000</_>
    <_>
      1.22482002e+000 1.22114301e+000 1.22220194e+000 1.21757805e+000
      1.21734095e+000 1.22124898e+000 1.22064495e+000 1.22637403e+000
      1.23139596e+000 1.23665595e+000 1.24719596e+000 1.25326204e+000
      1.26441503e+000 1.27360404e+000 1.28120196e+000 1.29621196e+000
      1.30329895e+000 1.32867098e+000 1.33335197e+000 1.33740401e+000</_>
    <_>
      1.22138596e+000 1.21942604e+000 1.21668994e+000 1.20589399e+000
      1.20383406e+000 1.20132196e+000 1.19735706e+000 1.18826997e+000
      1.18659103e+000 1.18094003e+000 1.16902006e+000 1.16838598e+000
      1.16401005e+000 1.15330100e+000 1.15528703e+000 1.16138804e+000
      1.15458405e+000 1.16015601e+000 1.17817700e+000 1.17731500e+000</_>
    <_>
      1.24139595e+000 1.24033999e+000 1.21602297e+000 1.20700300e+000
      1.20740795e+000 1.19120204e+000 1.17847300e+000 1.17955601e+000
      1.18066895e+000 1.17571604e+000 1.17893398e+000 1.18119705e+000
      1.18161702e+000 1.19143796e+000 1.20752501e+000 1.22284102e+000
      1.24264801e+000 1.27096999e+000 1.29955196e+000 1.32520795e+000</_>
    <_>
      1.24763298e+000 1.26695597e+000 1.27243400e+000 1.27352095e+000
      1.29047894e+000 1.29958498e+000 1.29471505e+000 1.31280303e+000
      1.32104099e+000 1.31990099e+000 1.33714998e+000 1.34320700e+000
      1.33958101e+000 1.35314405e+000 1.35542095e+000 1.35346496e+000
      1.36256504e+000 1.36116505e+000 1.36417496e+000 1.36753500e+000</_>
    <_>
      1.33255100e+000 1.33168006e+000 1.32404101e+000 1.31404901e+000
      1.30365503e+000 1.30125594e+000 1.28067005e+000 1.26386702e+000
      1.25486803e+000 1.22930896e+000 1.21299505e+000 1.19998801e+000
      1.17683804e+000 1.16493106e+000 1.15620995e+000 1.13752997e+000
      1.13413203e+000 1.12868094e+000 1.11840701e+000 1.11516297e+000</_>
    <_>
      1.23806596e+000 1.23616695e+000 1.22467899e+000 1.22485995e+000
      1.22609401e+000 1.21823597e+000 1.21842599e+000 1.22354400e+000
      1.22421098e+000 1.22985697e+000 1.23879397e+000 1.24833202e+000
      1.26356697e+000 1.27709401e+000 1.30208397e+000 1.32588506e+000
      1.35288203e+000 1.37918603e+000 1.40839899e+000 1.43298101e+000</_>
    <_>
      1.07518101e+000 1.07128596e+000 1.05765998e+000 1.04661500e+000
      1.05772698e+000 1.05730605e+000 1.06821895e+000 1.08205605e+000
      1.09799004e+000 1.11381996e+000 1.13450503e+000 1.15920198e+000
      1.18094003e+000 1.20330501e+000 1.22729397e+000 1.25088894e+000
      1.26876903e+000 1.28762996e+000 1.30000496e+000 1.30509698e+000</_>
    <_>
      1.25542998e+000 1.24638903e+000 1.23224699e+000 1.21651900e+000
      1.21503901e+000 1.20919704e+000 1.20020902e+000 1.20595896e+000
      1.21153498e+000 1.21115601e+000 1.22325301e+000 1.25973403e+000
      1.27558506e+000 1.29964805e+000 1.34226203e+000 1.38057804e+000
      1.41104996e+000 1.44755006e+000 1.48142302e+000 1.50311601e+000</_>
    <_>
      1.30185997e+000 1.30248404e+000 1.30712998e+000 1.30339205e+000
      1.29925895e+000 1.30354905e+000 1.29850304e+000 1.29045403e+000
      1.28791404e+000 1.27720106e+000 1.26524997e+000 1.25625205e+000
      1.24606895e+000 1.23631501e+000 1.23516202e+000 1.22586000e+000
      1.22275305e+000 1.22607601e+000 1.22802603e+000 1.23450100e+000</_>
    <_>
      1.20722997e+000 1.18911803e+000 1.18701601e+000 1.18211901e+000
      1.17487895e+000 1.17797506e+000 1.17994499e+000 1.17966104e+000
      1.18428695e+000 1.19223297e+000 1.20763397e+000 1.21788597e+000
      1.23550797e+000 1.25809395e+000 1.27356899e+000 1.30257404e+000
      1.33989096e+000 1.36376798e+000 1.40287006e+000 1.44435203e+000</_>
    <_>
      1.20255601e+000 1.19123101e+000 1.18517005e+000 1.18028200e+000
      1.17588305e+000 1.18376601e+000 1.18458700e+000 1.18731499e+000
      1.20037997e+000 1.20765102e+000 1.22061300e+000 1.23376501e+000
      1.25171399e+000 1.27216697e+000 1.29163897e+000 1.31963694e+000
      1.35547197e+000 1.38065195e+000 1.41362000e+000 1.45157099e+000</_>
    <_>
      1.10692298e+000 1.10102403e+000 1.08833599e+000 1.08550203e+000
      1.07691097e+000 1.06307304e+000 1.05648398e+000 1.04655504e+000
      1.02918398e+000 1.02302003e+000 1.00851095e+000 9.89588022e-001
      9.87940013e-001 9.74013984e-001 9.62736011e-001 9.63478982e-001
      9.58454013e-001 9.58621979e-001 9.75525975e-001 9.89116013e-001</_>
    <_>
      1.16459203e+000 1.17287803e+000 1.17756498e+000 1.17617500e+000
      1.18800199e+000 1.19898200e+000 1.20803905e+000 1.21758497e+000
      1.23720300e+000 1.24955106e+000 1.25937498e+000 1.27878702e+000
      1.29465306e+000 1.30243194e+000 1.32042396e+000 1.33452201e+000
      1.33831501e+000 1.34986997e+000 1.36404097e+000 1.36861205e+000</_>
    <_>
      1.23344398e+000 1.22003603e+000 1.19799304e+000 1.19512498e+000
      1.19410396e+000 1.18438494e+000 1.18897104e+000 1.19372201e+000
      1.19161606e+000 1.20270002e+000 1.21352994e+000 1.21709299e+000
      1.23094201e+000 1.24654996e+000 1.25943506e+000 1.27041805e+000
      1.28955495e+000 1.29283905e+000 1.30189800e+000 1.31438506e+000</_>
    <_>
      1.23127902e+000 1.24669397e+000 1.25384295e+000 1.24641705e+000
      1.25974202e+000 1.26368701e+000 1.25898600e+000 1.27081704e+000
      1.27216399e+000 1.27524304e+000 1.28482199e+000 1.28961003e+000
      1.29041302e+000 1.29445100e+000 1.29888701e+000 1.30011106e+000
      1.30014300e+000 1.30115294e+000 1.30686295e+000 1.30902600e+000</_>
    <_>
      7.60676026e-001 7.51003981e-001 7.46738017e-001 7.30664015e-001
      7.32909024e-001 7.24484980e-001 7.20339000e-001 7.32693970e-001
      7.33480990e-001 7.42570996e-001 7.59465992e-001 7.62521029e-001
      7.79905021e-001 8.11393976e-001 8.28599989e-001 8.50440025e-001
      8.82367015e-001 9.12633002e-001 9.56604004e-001 9.96743977e-001</_>
    <_>
      1.25798702e+000 1.25593102e+000 1.24942100e+000 1.25634503e+000
      1.25758195e+000 1.25608504e+000 1.26312900e+000 1.26530099e+000
      1.26724303e+000 1.27674496e+000 1.27702403e+000 1.28589904e+000
      1.29822803e+000 1.29923904e+000 1.30231297e+000 1.31117702e+000
      1.31037402e+000 1.30700505e+000 1.30583501e+000 1.30621505e+000</_>
    <_>
      1.23965597e+000 1.23588204e+000 1.23308003e+000 1.22930205e+000
      1.23385203e+000 1.23278403e+000 1.23601699e+000 1.25145304e+000
      1.26098394e+000 1.26969600e+000 1.28933299e+000 1.30259502e+000
      1.32157099e+000 1.34386897e+000 1.36155701e+000 1.38797498e+000
      1.41701198e+000 1.43333900e+000 1.45594800e+000 1.47582495e+000</_>
    <_>
      1.29583204e+000 1.30205500e+000 1.29839694e+000 1.30414402e+000
      1.30409801e+000 1.29547298e+000 1.29831696e+000 1.29591000e+000
      1.29017401e+000 1.29088902e+000 1.29009497e+000 1.28621900e+000
      1.28741503e+000 1.27867997e+000 1.27753401e+000 1.27775204e+000
      1.27001405e+000 1.27238703e+000 1.27685905e+000 1.27445698e+000</_>
    <_>
      1.20683396e+000 1.19850802e+000 1.20752203e+000 1.21353698e+000
      1.21491802e+000 1.23064101e+000 1.24219501e+000 1.24886501e+000
      1.26457000e+000 1.27955198e+000 1.28889596e+000 1.30257106e+000
      1.31485796e+000 1.32379198e+000 1.33326697e+000 1.34462500e+000
      1.34751403e+000 1.35255897e+000 1.35845304e+000 1.36036396e+000</_>
    <_>
      1.27517903e+000 1.27321506e+000 1.27284205e+000 1.26907003e+000
      1.26992595e+000 1.27370000e+000 1.28070199e+000 1.28580904e+000
      1.29515696e+000 1.31813705e+000 1.32414401e+000 1.35046101e+000
      1.38061202e+000 1.39335299e+000 1.42203403e+000 1.45425105e+000
      1.46949100e+000 1.49345005e+000 1.51667905e+000 1.52828503e+000</_>
    <_>
      1.25639999e+000 1.26599395e+000 1.25568902e+000 1.26069105e+000
      1.27080297e+000 1.26221502e+000 1.27196503e+000 1.28349102e+000
      1.27647400e+000 1.28703105e+000 1.29809999e+000 1.29574394e+000
      1.30283594e+000 1.31379795e+000 1.32088101e+000 1.32523096e+000
      1.33590305e+000 1.34061003e+000 1.34177399e+000 1.35141301e+000</_>
    <_>
      1.20204794e+000 1.20714498e+000 1.20117795e+000 1.21112204e+000
      1.21810806e+000 1.21887398e+000 1.22776306e+000 1.24357605e+000
      1.24404299e+000 1.25416100e+000 1.26845896e+000 1.27125096e+000
      1.27999401e+000 1.29047894e+000 1.29370499e+000 1.29849994e+000
      1.31088901e+000 1.31893098e+000 1.32796097e+000 1.34104097e+000</_>
    <_>
      1.12887704e+000 1.10157597e+000 1.08156800e+000 1.06841600e+000
      1.04331994e+000 1.02401304e+000 1.01291895e+000 9.91928995e-001
      9.76420999e-001 9.63476002e-001 9.48316991e-001 9.37210023e-001
      9.27731991e-001 9.20894027e-001 9.16198015e-001 9.23877001e-001
      9.26973999e-001 9.35909986e-001 9.55365002e-001 9.74994004e-001</_>
    <_>
      1.22996998e+000 1.23245502e+000 1.23764396e+000 1.23865998e+000
      1.24182498e+000 1.24926102e+000 1.25583696e+000 1.25579703e+000
      1.26846695e+000 1.26614904e+000 1.26604903e+000 1.27429605e+000
      1.26865602e+000 1.26728201e+000 1.27220404e+000 1.26876903e+000
      1.27005100e+000 1.27153897e+000 1.27313006e+000 1.27660000e+000</_>
    <_>
      1.22029805e+000 1.18622100e+000 1.16996598e+000 1.15456295e+000
      1.14326406e+000 1.14646304e+000 1.14709902e+000 1.15376604e+000
      1.16736495e+000 1.18026698e+000 1.20484304e+000 1.22300506e+000
      1.24490297e+000 1.26497602e+000 1.27911496e+000 1.29412401e+000
      1.30589998e+000 1.31465495e+000 1.32271504e+000 1.32704699e+000</_>
    <_>
      1.32271504e+000 1.32704699e+000 1.33234799e+000 1.33587003e+000
      1.33638895e+000 1.34191597e+000 1.34426796e+000 1.35767996e+000
      1.36243606e+000 1.38655996e+000 1.40682602e+000 1.42033100e+000
      1.44689202e+000 1.46649396e+000 1.47672403e+000 1.49574697e+000
      1.51090205e+000 1.51909804e+000 1.53202498e+000 1.54376101e+000</_>
    <_>
      1.18758202e+000 1.18772805e+000 1.19170594e+000 1.19313502e+000
      1.19935799e+000 1.19744802e+000 1.20538199e+000 1.21084201e+000
      1.21286201e+000 1.21939898e+000 1.22796500e+000 1.23355198e+000
      1.24015701e+000 1.25059795e+000 1.26370001e+000 1.27127302e+000
      1.28630495e+000 1.31288898e+000 1.32810402e+000 1.34825206e+000</_>
    <_>
      1.19586599e+000 1.19940400e+000 1.19532001e+000 1.19087696e+000
      1.19658601e+000 1.20177901e+000 1.20367706e+000 1.21098006e+000
      1.21930099e+000 1.23115897e+000 1.24212599e+000 1.25778198e+000
      1.26833606e+000 1.27929902e+000 1.29278004e+000 1.30538499e+000
      1.31526005e+000 1.32791197e+000 1.33822799e+000 1.34559798e+000</_>
    <_>
      1.23467803e+000 1.24022698e+000 1.23668003e+000 1.22921300e+000
      1.23470497e+000 1.23079801e+000 1.22527802e+000 1.23057699e+000
      1.23023605e+000 1.22568905e+000 1.23242605e+000 1.23137796e+000
      1.23058999e+000 1.23236001e+000 1.23424995e+000 1.23147702e+000
      1.23781002e+000 1.23967004e+000 1.24068701e+000 1.24991298e+000</_>
    <_>
      1.23374796e+000 1.21768498e+000 1.20926702e+000 1.19869196e+000
      1.18705499e+000 1.18601203e+000 1.18197405e+000 1.17985201e+000
      1.18865705e+000 1.19529200e+000 1.20491397e+000 1.23018503e+000
      1.24895597e+000 1.27210999e+000 1.30883503e+000 1.34070897e+000
      1.37851596e+000 1.42102003e+000 1.44623399e+000 1.47654200e+000</_>
    <_>
      1.12167001e+000 1.07756698e+000 1.03990304e+000 9.97765005e-001
      9.71884012e-001 9.55518007e-001 9.44705009e-001 9.40455973e-001
      9.48945999e-001 9.68362987e-001 9.93493021e-001 1.03558195e+000
      1.09268796e+000 1.16487098e+000 1.22276902e+000 1.27580404e+000
      1.33924603e+000 1.38171101e+000 1.42641699e+000 1.47769904e+000</_>
    <_>
      1.41444004e+000 1.39164698e+000 1.36526501e+000 1.32066703e+000
      1.29218304e+000 1.26365197e+000 1.27288699e+000 1.27436197e+000
      1.26972198e+000 1.29068196e+000 1.30272198e+000 1.30904198e+000
      1.33007896e+000 1.33729899e+000 1.34062696e+000 1.35554504e+000
      1.36856496e+000 1.38894200e+000 1.42638898e+000 1.44827199e+000</_>
    <_>
      6.50452971e-001 5.85143030e-001 5.41980028e-001 5.15585005e-001
      5.14804006e-001 5.18947005e-001 5.37549973e-001 5.80211997e-001
      6.28390014e-001 6.81059003e-001 7.52879024e-001 8.27728987e-001
      9.06328976e-001 9.89850998e-001 1.08323896e+000 1.18665898e+000
      1.27063501e+000 1.35841501e+000 1.45602405e+000 1.52718902e+000</_>
    <_>
      1.15129101e+000 1.10185599e+000 1.08920300e+000 1.07116699e+000
      1.04758298e+000 1.04965401e+000 1.05642402e+000 1.06264305e+000
      1.07373202e+000 1.10224998e+000 1.12826800e+000 1.14659905e+000
      1.18606603e+000 1.22958100e+000 1.25737596e+000 1.29777098e+000
      1.34651601e+000 1.37460995e+000 1.41117203e+000 1.45327902e+000</_>
    <_>
      1.08329296e+000 9.85737026e-001 8.84212017e-001 8.39151025e-001
      7.51334012e-001 6.61085010e-001 6.23435020e-001 6.25472009e-001
      7.25866020e-001 7.67086983e-001 8.41032982e-001 9.49724019e-001
      9.92623985e-001 1.08074498e+000 1.17817497e+000 1.22616196e+000
      1.30648196e+000 1.38705599e+000 1.42787898e+000 1.49583900e+000</_>
    <_>
      1.09626198e+000 1.05118406e+000 1.00815701e+000 9.54605997e-001
      9.28165019e-001 9.28260982e-001 9.15687978e-001 9.24840987e-001
      9.64634001e-001 1.00287700e+000 1.04690504e+000 1.09665895e+000
      1.15529001e+000 1.20831299e+000 1.26114702e+000 1.32232201e+000
      1.36824405e+000 1.41244900e+000 1.46116698e+000 1.49510705e+000</_>
    <_>
      1.11877894e+000 1.07628405e+000 1.00897205e+000 9.88624990e-001
      9.78917003e-001 9.38823998e-001 9.30944979e-001 9.48907018e-001
      9.44189012e-001 9.58638012e-001 1.00396705e+000 1.05720103e+000
      1.10674202e+000 1.18766499e+000 1.24140596e+000 1.28862298e+000
      1.35195994e+000 1.40038002e+000 1.43526495e+000 1.48025000e+000</_>
    <_>
      1.09439099e+000 1.03736305e+000 9.38543022e-001 8.59978020e-001
      8.10949981e-001 7.91384995e-001 7.91943014e-001 8.07743013e-001
      8.37750018e-001 8.79382014e-001 9.31994975e-001 1.00307298e+000
