<?xml version="1.0"?>
<opencv_storage>
<my_svm type_id="opencv-ml-svm">
  <svm_type>C_SVC</svm_type>
  <kernel><type>RBF</type>
    <gamma>1.2500000000000000e-001</gamma></kernel>
  <C>8.</C>
  <term_criteria><epsilon>2.2204460492503131e-016</epsilon>
    <iterations>10000</iterations></term_criteria>
  <var_all>60</var_all>
  <var_count>60</var_count>
  <class_count>2</class_count>
  <class_labels type_id="opencv-matrix">
    <rows>1</rows>
    <cols>2</cols>
    <dt>i</dt>
    <data>
      0 1</data></class_labels>
  <sv_total>221</sv_total>
  <support_vectors>
    <_>
      2.72712302e+000 2.82819700e+000 2.91288090e+000 2.96040201e+000
      3.00211406e+000 3.02005601e+000 3.01385307e+000 3.00169206e+000
      2.97787404e+000 2.95945311e+000 2.95167303e+000 2.94149399e+000
      2.91385603e+000 2.87311602e+000 2.81409097e+000 2.77243304e+000
      2.73861408e+000 2.74005389e+000 2.75465202e+000 2.77822399e+000
      1.15966296e+000 1.17148805e+000 1.21172202e+000 1.24779904e+000
      1.26286805e+000 1.29049897e+000 1.31355703e+000 1.31759799e+000
      1.32843697e+000 1.34488404e+000 1.34412706e+000 1.34114003e+000
      1.34422302e+000 1.33556604e+000 1.32005095e+000 1.32680595e+000
      1.31912303e+000 1.31603396e+000 1.32144296e+000 1.32087505e+000
      5.93379021e-001 6.08583987e-001 6.17007017e-001 6.31923020e-001
      6.42470002e-001 6.48599029e-001 6.51633024e-001 6.53823018e-001
      6.60295010e-001 6.67891979e-001 6.68914020e-001 6.66503012e-001
      6.63805008e-001 6.67271972e-001 6.68676972e-001 6.76487982e-001
      6.76472008e-001 6.88464999e-001 6.93108976e-001 7.14415014e-001</_>
    <_>
      2.31837606e+000 2.00651097e+000 1.68782198e+000 1.92008197e+000
      2.18664098e+000 2.43192005e+000 2.62072492e+000 2.78374100e+000
      2.90200710e+000 2.89930010e+000 2.86034894e+000 2.77818894e+000
      2.61182499e+000 2.56749010e+000 2.52378392e+000 2.49335194e+000
      2.54590702e+000 2.62823796e+000 2.73687696e+000 2.83304405e+000
      8.35748971e-001 8.09448004e-001 8.02296996e-001 9.35745001e-001
      9.10476029e-001 8.98190022e-001 1.00425303e+000 9.75760996e-001
      9.71512020e-001 1.04472804e+000 1.01433396e+000 1.02209699e+000
      1.06750298e+000 1.07301795e+000 1.08088398e+000 1.13507605e+000
      1.19214296e+000 1.22466004e+000 1.29554200e+000 1.34792995e+000
      4.12550002e-001 4.08293992e-001 4.04769987e-001 4.89464998e-001
      4.88685012e-001 4.76981997e-001 4.62550014e-001 4.72332001e-001
      5.23999989e-001 5.10729015e-001 5.09635985e-001 5.00661016e-001
      5.00271022e-001 5.58462977e-001 5.53430021e-001 5.63911974e-001
      5.96359015e-001 6.12739980e-001 6.73828006e-001 6.81590021e-001</_>
    <_>
      3.32614994e+000 3.30368400e+000 3.24816489e+000 3.13130403e+000
      2.98806405e+000 2.87811089e+000 2.73470998e+000 2.64898705e+000
      2.53906488e+000 2.38416195e+000 2.52508807e+000 2.66720390e+000
      2.81215191e+000 2.93398905e+000 3.05086899e+000 3.13806891e+000
      3.22639108e+000 3.26465702e+000 3.29697609e+000 3.29648495e+000
      1.39019299e+000 1.31218100e+000 1.32283902e+000 1.27492201e+000
      1.17950702e+000 1.22184002e+000 1.15690005e+000 1.08290195e+000
      1.12181306e+000 1.05516398e+000 1.15976799e+000 1.21161699e+000
      1.18147802e+000 1.26772797e+000 1.32084501e+000 1.30148304e+000
      1.39802396e+000 1.43194103e+000 1.42810500e+000 1.49237502e+000
      6.83322012e-001 6.74224973e-001 6.67396009e-001 6.64534986e-001
      6.69308007e-001 6.00337029e-001 5.76171994e-001 5.89393020e-001
      5.91964006e-001 5.92537999e-001 6.52260005e-001 6.38450980e-001
      6.64444983e-001 6.70656025e-001 6.84738994e-001 7.30448008e-001
      7.34080017e-001 7.44973004e-001 7.59912014e-001 7.67431974e-001</_>
    <_>
      3.02620006e+000 3.05412412e+000 3.08416295e+000 3.09531999e+000
      3.08199906e+000 3.05288911e+000 2.98062992e+000 2.89363098e+000
      2.80977201e+000 2.71617603e+000 2.63288808e+000 2.57185507e+000
      2.52076101e+000 2.48225188e+000 2.49190903e+000 2.51998591e+000
      2.53841305e+000 2.61153698e+000 2.72435498e+000 2.83041692e+000
      1.36280298e+000 1.35723197e+000 1.34952605e+000 1.30566800e+000
      1.28583896e+000 1.26675200e+000 1.20134497e+000 1.17194295e+000
      1.16155601e+000 1.09328306e+000 1.06323397e+000 1.07771504e+000
      1.01973903e+000 1.01175904e+000 1.06484902e+000 1.02680099e+000
      1.02606702e+000 1.11904895e+000 1.11975598e+000 1.13596106e+000
      7.54571974e-001 7.54981995e-001 7.33226001e-001 7.20667005e-001
      6.71896994e-001 6.56184971e-001 6.44578993e-001 6.17784977e-001
      6.08523011e-001 5.53333998e-001 5.44679999e-001 5.53094029e-001
      5.31885982e-001 5.29901981e-001 5.41499019e-001 5.55787981e-001
      5.68638027e-001 5.86238980e-001 6.10983014e-001 6.26230001e-001</_>
    <_>
      2.82871389e+000 2.83834410e+000 2.85759211e+000 2.87637496e+000
      2.89116096e+000 2.90518808e+000 2.92632008e+000 2.94940901e+000
      2.98026705e+000 3.01023507e+000 3.03666592e+000 3.05450892e+000
      3.06291795e+000 3.05914497e+000 3.05956197e+000 3.05168891e+000
      3.05100203e+000 3.05066490e+000 3.06076694e+000 3.07387805e+000
      1.21404898e+000 1.22344601e+000 1.23235500e+000 1.24832797e+000
      1.26274395e+000 1.27614999e+000 1.30017900e+000 1.31399298e+000
      1.32806599e+000 1.34434295e+000 1.35812402e+000 1.36526096e+000
      1.37477505e+000 1.38491404e+000 1.39732301e+000 1.40051603e+000
      1.41470206e+000 1.42580402e+000 1.43116796e+000 1.43949294e+000
      6.63879991e-001 6.68277025e-001 6.61552012e-001 6.65639997e-001
      6.74543023e-001 6.79005027e-001 6.89446986e-001 6.98713005e-001
      7.05226004e-001 7.09928989e-001 7.16435015e-001 7.22223997e-001
      7.27307975e-001 7.31024027e-001 7.37787008e-001 7.42965996e-001
      7.52400994e-001 7.55437016e-001 7.62651980e-001 7.66628027e-001</_>
    <_>
      2.88077402e+000 2.83460689e+000 2.80959511e+000 2.81451011e+000
      2.86844897e+000 2.97743201e+000 3.05024505e+000 3.09389496e+000
      3.08151007e+000 2.99589610e+000 2.84252906e+000 2.63302302e+000
      2.37829900e+000 2.09713006e+000 1.81816196e+000 2.08248806e+000
      2.35335207e+000 2.61663604e+000 2.85281110e+000 3.05548501e+000
      1.32998300e+000 1.30432701e+000 1.30194294e+000 1.23987997e+000
      1.23460603e+000 1.23608899e+000 1.14962602e+000 1.15075600e+000
      1.15550399e+000 1.03773797e+000 1.03869200e+000 1.04433703e+000
      8.95434976e-001 8.90226007e-001 8.94716978e-001 1.09615803e+000
      1.09678602e+000 1.10377896e+000 1.27877796e+000 1.28221798e+000
      6.25594020e-001 6.28737986e-001 6.32128000e-001 6.35140002e-001
      6.37762010e-001 5.66851974e-001 5.71022987e-001 5.77309012e-001
      5.81483006e-001 5.80628991e-001 4.70705003e-001 4.71911013e-001
      4.73942995e-001 4.73401994e-001 4.70283002e-001 6.22439027e-001
      6.27521992e-001 6.30926013e-001 6.30520999e-001 6.30896986e-001</_>
    <_>
      2.12593508e+000 2.18807507e+000 2.21792006e+000 2.26591110e+000
      2.31834197e+000 2.33482909e+000 2.36221790e+000 2.40418792e+000
      2.42541194e+000 2.44961309e+000 2.49195194e+000 2.49996805e+000
      2.51222897e+000 2.54716396e+000 2.55310702e+000 2.56233311e+000
      2.59154201e+000 2.59629703e+000 2.62545896e+000 2.66000795e+000
      6.45393014e-001 6.71343982e-001 6.99751973e-001 7.53515005e-001
      7.79757977e-001 8.06234002e-001 8.60037982e-001 8.86202991e-001
      9.12330985e-001 9.63461995e-001 9.86059010e-001 1.00432301e+000
      1.04465497e+000 1.06306398e+000 1.07065701e+000 1.09622705e+000
      1.10602295e+000 1.10290599e+000 1.12442696e+000 1.12095296e+000
      3.10829014e-001 3.27138990e-001 3.30422997e-001 3.54934007e-001
      3.60525995e-001 3.65283012e-001 3.87510985e-001 4.03061002e-001
      4.12894994e-001 4.27702010e-001 4.43015009e-001 4.52055991e-001
      4.75234985e-001 4.99706000e-001 5.02743006e-001 5.23461998e-001
      5.45203984e-001 5.58444023e-001 5.96813023e-001 6.08443975e-001</_>
    <_>
      2.80799890e+000 2.86287689e+000 2.89180803e+000 2.92501497e+000
      2.96830010e+000 2.98586607e+000 3.00360298e+000 3.00070810e+000
      3.00406098e+000 2.98294091e+000 2.98427105e+000 2.99609900e+000
      2.99730396e+000 3.02553797e+000 3.05693007e+000 3.07243299e+000
      3.07744598e+000 3.08828497e+000 3.08148408e+000 3.06914496e+000
      1.19881594e+000 1.22093403e+000 1.24159396e+000 1.25312102e+000
      1.27523196e+000 1.28448200e+000 1.28216803e+000 1.29364598e+000
      1.32035601e+000 1.31775796e+000 1.34633899e+000 1.37083101e+000
      1.36890900e+000 1.40171504e+000 1.42063403e+000 1.41738200e+000
      1.43744004e+000 1.45532799e+000 1.45065498e+000 1.46587300e+000
      6.72547996e-001 6.83556974e-001 6.89549029e-001 6.98543012e-001
      6.99060977e-001 6.94045007e-001 6.88984990e-001 6.87116981e-001
      7.05962002e-001 7.08218992e-001 7.15204000e-001 7.17283010e-001
      7.14536011e-001 7.38250017e-001 7.47493029e-001 7.55768001e-001
      7.55659997e-001 7.60730028e-001 7.75393009e-001 7.87016988e-001</_>
    <_>
      2.95861793e+000 2.94541097e+000 2.94297791e+000 2.90572906e+000
      2.87957406e+000 2.86649990e+000 2.88383198e+000 2.91565895e+000
      2.91630292e+000 2.93979597e+000 2.97645211e+000 3.02284193e+000
      3.06079292e+000 3.07036400e+000 3.08639503e+000 3.09572601e+000
      3.11384797e+000 3.13162088e+000 3.12751389e+000 3.12705493e+000
      1.30621004e+000 1.30435896e+000 1.30341399e+000 1.29327202e+000
      1.29860604e+000 1.30546904e+000 1.31066501e+000 1.32365203e+000
      1.31585598e+000 1.33924103e+000 1.36395597e+000 1.36586404e+000
      1.38536704e+000 1.39383602e+000 1.39946604e+000 1.41677201e+000
      1.42802203e+000 1.43370402e+000 1.43833494e+000 1.45057797e+000
      6.78313017e-001 6.79396987e-001 6.87982023e-001 6.84926987e-001
      6.85401976e-001 6.89604998e-001 6.99011028e-001 7.13703990e-001
      7.12517023e-001 7.23164976e-001 7.34148979e-001 7.42573977e-001
      7.51277983e-001 7.50927985e-001 7.60233998e-001 7.65034974e-001
      7.71470010e-001 7.79983997e-001 7.81103015e-001 7.88525999e-001</_>
    <_>
      2.88849092e+000 2.85385609e+000 2.79864502e+000 2.71170211e+000
      2.68237090e+000 2.64775491e+000 2.57636189e+000 2.58596396e+000
      2.57178402e+000 2.53625989e+000 2.59369993e+000 2.62415099e+000
      2.62970090e+000 2.69902110e+000 2.74579501e+000 2.77600908e+000
      2.86269093e+000 2.93317604e+000 2.99937201e+000 3.08841395e+000
      1.10648501e+000 1.03739202e+000 1.02526605e+000 1.00462103e+000
      9.60390985e-001 9.66120005e-001 9.44510996e-001 9.40903008e-001
      9.52229023e-001 9.41769004e-001 9.89010990e-001 1.00259101e+000
      1.00089300e+000 1.08216798e+000 1.10056698e+000 1.10990298e+000
      1.22109699e+000 1.24217498e+000 1.26671195e+000 1.38664806e+000
      5.30350983e-001 5.36125004e-001 5.21746993e-001 5.07517993e-001
      5.25240004e-001 5.10188997e-001 5.05312979e-001 5.42692006e-001
      5.27006984e-001 5.43883979e-001 5.90003014e-001 5.81444979e-001
      6.15871012e-001 6.47848010e-001 6.60806000e-001 7.05312014e-001
      7.42451012e-001 7.72777975e-001 8.09578001e-001 8.41031015e-001</_>
    <_>
      2.74150705e+000 2.48961806e+000 2.31110501e+000 2.22295809e+000
      2.15981793e+000 2.13705707e+000 2.14414501e+000 2.12853193e+000
      2.11810708e+000 2.13217902e+000 2.10045791e+000 2.04853702e+000
      2.00845599e+000 2.00367308e+000 2.04090309e+000 2.29203010e+000
      2.59113503e+000 2.83803701e+000 3.03757095e+000 3.19340205e+000
      9.48323011e-001 8.84338975e-001 8.37023020e-001 7.86921024e-001
      7.55815029e-001 7.39776015e-001 7.18885005e-001 7.09851027e-001
      7.19335973e-001 7.20861971e-001 7.21469998e-001 7.52819002e-001
      7.68770993e-001 8.04165006e-001 8.86959016e-001 1.03781796e+000
      1.11228395e+000 1.19115996e+000 1.32488799e+000 1.38676405e+000
      4.18623000e-001 3.88370991e-001 3.86287987e-001 3.71262014e-001
      3.56667995e-001 3.47429007e-001 3.42884004e-001 3.54759991e-001
      3.54153991e-001 3.60359997e-001 3.51541013e-001 3.61297995e-001
      3.89593989e-001 4.16808993e-001 4.54780012e-001 5.39946973e-001
      5.73608994e-001 5.98639011e-001 6.23750985e-001 6.52862012e-001</_>
    <_>
      2.36204004e+000 2.39720798e+000 2.46393299e+000 2.52585793e+000
      2.60199594e+000 2.66792011e+000 2.72751999e+000 2.78998995e+000
      2.81474805e+000 2.82762003e+000 2.83867002e+000 2.82792902e+000
      2.82239795e+000 2.85707593e+000 2.88127398e+000 2.88540101e+000
      2.85922909e+000 2.78316998e+000 2.69921899e+000 2.63643909e+000
      8.70984018e-001 9.01194990e-001 9.46305990e-001 9.63515997e-001
      1.00367200e+000 1.04823899e+000 1.06838405e+000 1.11144304e+000
      1.13441706e+000 1.13797498e+000 1.14753997e+000 1.14561903e+000
      1.14429498e+000 1.15997195e+000 1.15436697e+000 1.13853300e+000
      1.13525796e+000 1.11305594e+000 1.10244799e+000 1.10734701e+000
      4.48596001e-001 4.49227005e-001 4.60934013e-001 4.80737001e-001
      5.04531980e-001 5.16099989e-001 5.21071017e-001 5.46320021e-001
      5.46481013e-001 5.62932014e-001 5.63710988e-001 5.56406021e-001
      5.84585011e-001 5.93455017e-001 6.05897009e-001 6.01395011e-001
      5.95210016e-001 6.06800020e-001 6.13640010e-001 6.33742988e-001</_>
    <_>
      2.75614190e+000 2.72010994e+000 2.66131592e+000 2.65047503e+000
      2.63617992e+000 2.60800600e+000 2.61952496e+000 2.62127495e+000
      2.61529899e+000 2.66534400e+000 2.71741009e+000 2.77031493e+000
      2.83144593e+000 2.86198997e+000 2.86348295e+000 2.86404991e+000
      2.85692596e+000 2.85747194e+000 2.92063689e+000 2.98825097e+000
      1.08203697e+000 1.06064701e+000 1.03837502e+000 1.01680195e+000
      1.00989103e+000 9.96850014e-001 1.00396705e+000 1.00778794e+000
      1.00201905e+000 1.04304397e+000 1.06221402e+000 1.07176805e+000
      1.11938095e+000 1.13846898e+000 1.14851499e+000 1.20296395e+000
      1.23769498e+000 1.27624905e+000 1.36673903e+000 1.40924394e+000
      5.68396986e-001 5.50863981e-001 5.44342995e-001 5.58426023e-001
      5.49057007e-001 5.59147000e-001 5.74666977e-001 5.75021982e-001
      5.90340018e-001 6.18111014e-001 6.38095975e-001 6.64624989e-001
      6.81406975e-001 6.88296974e-001 7.13280022e-001 7.47029006e-001
      7.76362002e-001 8.06050003e-001 8.43230009e-001 8.66819024e-001</_>
    <_>
      2.45541191e+000 2.45913506e+000 2.49634409e+000 2.52555490e+000
      2.52736712e+000 2.55340195e+000 2.57891202e+000 2.57485509e+000
      2.58906007e+000 2.61383104e+000 2.61255288e+000 2.61872602e+000
      2.64356899e+000 2.63904691e+000 2.64555192e+000 2.66881204e+000
      2.67081404e+000 2.67452407e+000 2.69456410e+000 2.69457102e+000
      9.00597990e-001 9.39348996e-001 9.50868011e-001 9.80032027e-001
      1.01728106e+000 1.03115702e+000 1.05648398e+000 1.09004402e+000
      1.10755897e+000 1.12720895e+000 1.15142095e+000 1.16701400e+000
      1.18333697e+000 1.19220901e+000 1.20943999e+000 1.21827197e+000
      1.21359205e+000 1.22455204e+000 1.22767401e+000 1.20906699e+000
      4.54571009e-001 4.57430989e-001 4.73782003e-001 4.77459013e-001
      4.79093999e-001 4.86838996e-001 4.92386997e-001 5.02350986e-001
      5.14703989e-001 5.22643983e-001 5.23634017e-001 5.31238019e-001
      5.50450981e-001 5.56379974e-001 5.67786992e-001 5.76233029e-001
      5.79281986e-001 6.03434980e-001 6.20640993e-001 6.25288010e-001</_>
    <_>
      2.86015201e+000 2.83684301e+000 2.82414699e+000 2.81046295e+000
      2.80420804e+000 2.80497599e+000 2.89603305e+000 2.96126103e+000
      2.99516296e+000 2.97413206e+000 2.89399195e+000 2.74009204e+000
      2.52949190e+000 2.26685596e+000 1.98047602e+000 1.68366301e+000
      1.98627496e+000 2.29020000e+000 2.58301806e+000 2.84812689e+000
      1.25567102e+000 1.21126401e+000 1.20837402e+000 1.20507205e+000
      1.14665902e+000 1.14675605e+000 1.15334404e+000 1.07603097e+000
      1.08318698e+000 1.09071600e+000 9.87447023e-001 9.88858998e-001
      9.95809972e-001 8.54107022e-001 8.52384984e-001 8.52985978e-001
      1.08213794e+000 1.08149397e+000 1.08106899e+000 1.27770901e+000
      6.44729018e-001 6.05650008e-001 5.78213990e-001 5.78181028e-001
      5.78872025e-001 5.79629004e-001 5.27239978e-001 5.27853012e-001
      5.33170998e-001 5.35040021e-001 5.38779020e-001 4.43529993e-001
      4.43576992e-001 4.45533007e-001 4.46814001e-001 4.45971996e-001
      6.22089982e-001 6.22884989e-001 6.24068975e-001 6.25518978e-001</_>
    <_>
      2.77108097e+000 2.78237200e+000 2.80337501e+000 2.82888889e+000
      2.87233090e+000 2.91705704e+000 2.94933796e+000 2.97137499e+000
      2.98247600e+000 2.98826408e+000 2.99238110e+000 2.99606299e+000
      2.99612808e+000 3.00058603e+000 2.99987411e+000 2.99397206e+000
      2.98432398e+000 2.97536993e+000 2.96406889e+000 2.95518994e+000
      1.25092399e+000 1.25637305e+000 1.26729500e+000 1.27690899e+000
      1.29108500e+000 1.30239797e+000 1.30353904e+000 1.31227005e+000
      1.31854606e+000 1.30821300e+000 1.31338000e+000 1.31648600e+000
      1.31927204e+000 1.31967497e+000 1.31281304e+000 1.30907202e+000
      1.30235600e+000 1.29294205e+000 1.28848898e+000 1.28086901e+000
      6.38164997e-001 6.41331971e-001 6.49518013e-001 6.55458987e-001
      6.64802015e-001 6.68807983e-001 6.68485999e-001 6.78672016e-001
      6.81421995e-001 6.84781015e-001 6.87219977e-001 6.86356008e-001
      6.93440974e-001 7.20076978e-001 7.15907991e-001 7.12288976e-001
      7.10334003e-001 7.14123011e-001 7.31830001e-001 7.26936996e-001</_>
    <_>
      2.82775998e+000 2.85274911e+000 2.85655189e+000 2.85659194e+000
      2.87763596e+000 2.88028002e+000 2.88028097e+000 2.89223194e+000
      2.88505101e+000 2.88840008e+000 2.89661002e+000 2.89224100e+000
      2.89819002e+000 2.90316701e+000 2.89392900e+000 2.88715601e+000
      2.89128304e+000 2.88283610e+000 2.87952495e+000 2.89107800e+000
      1.16884005e+000 1.17516804e+000 1.17457104e+000 1.16935205e+000
      1.18305898e+000 1.18414199e+000 1.17681301e+000 1.19234502e+000
      1.19190502e+000 1.18888795e+000 1.20092499e+000 1.20087397e+000
      1.20297301e+000 1.20594299e+000 1.20557296e+000 1.20315003e+000
      1.20798695e+000 1.20781195e+000 1.20549595e+000 1.21334100e+000
      6.66047990e-001 6.69101000e-001 6.62604988e-001 6.68622017e-001
      6.69022024e-001 6.64559007e-001 6.70911014e-001 6.70217991e-001
      6.67127013e-001 6.74974978e-001 6.73137009e-001 6.68807030e-001
      6.75072014e-001 6.73514009e-001 6.69552982e-001 6.71797991e-001
      6.72376990e-001 6.68188989e-001 6.75130010e-001 6.75050974e-001</_>
    <_>
      2.65603495e+000 2.57746410e+000 2.49317098e+000 2.43051600e+000
      2.41843605e+000 2.39601398e+000 2.40562606e+000 2.43171692e+000
      2.45536709e+000 2.46412301e+000 2.47699594e+000 2.48297501e+000
      2.47669911e+000 2.47312188e+000 2.50000596e+000 2.54389095e+000
      2.62317395e+000 2.70857692e+000 2.84310102e+000 2.99340701e+000
      1.04371202e+000 9.99105990e-001 9.62098002e-001 9.23956990e-001
      9.12533998e-001 8.91053021e-001 8.79805982e-001 8.88045013e-001
      8.89012992e-001 8.91942024e-001 9.17994022e-001 9.34444010e-001
      9.46478009e-001 9.83622015e-001 1.03333998e+000 1.06610000e+000
      1.12690496e+000 1.19179702e+000 1.26674998e+000 1.33886099e+000
      4.84337986e-001 4.71830994e-001 4.55790997e-001 4.44380999e-001
      4.40544009e-001 4.29513007e-001 4.36659992e-001 4.39579010e-001
      4.39695001e-001 4.48329002e-001 4.55280989e-001 4.69392002e-001
      4.81956005e-001 4.91328001e-001 5.20932019e-001 5.46725988e-001
      5.78350008e-001 6.06428981e-001 6.44074023e-001 6.80272996e-001</_>
    <_>
      3.23876500e+000 3.20861912e+000 3.15099001e+000 3.07890892e+000
      3.00259709e+000 2.92361903e+000 2.85699296e+000 2.80521393e+000
      2.76384592e+000 2.75979590e+000 2.80089211e+000 2.88174605e+000
      2.96910596e+000 3.06714702e+000 3.11195803e+000 3.12933493e+000
      3.08811808e+000 2.97381210e+000 2.80076098e+000 2.56906295e+000
      1.50525296e+000 1.47243595e+000 1.42354596e+000 1.39261305e+000
      1.36281896e+000 1.29462504e+000 1.27396703e+000 1.25856602e+000
      1.18094802e+000 1.18556201e+000 1.20678902e+000 1.13457704e+000
      1.14268506e+000 1.15974605e+000 1.05372405e+000 1.06838799e+000
      1.08816803e+000 9.50161994e-001 9.59015012e-001 9.72037971e-001
      7.43736982e-001 7.27303982e-001 7.12384999e-001 6.62662983e-001
      6.49507999e-001 6.33027017e-001 6.24684989e-001 6.21986985e-001
      5.62509000e-001 5.71304977e-001 5.78388989e-001 5.91944993e-001
      5.97239017e-001 5.03037989e-001 5.07775009e-001 5.22058010e-001
      5.36458015e-001 5.38070977e-001 4.06343013e-001 4.08358008e-001</_>
    <_>
      2.85511494e+000 2.86712289e+000 2.87355590e+000 2.89309311e+000
      2.87531495e+000 2.83208704e+000 2.76072907e+000 2.69739103e+000
      2.61893296e+000 2.56609607e+000 2.50594997e+000 2.47049689e+000
      2.43393111e+000 2.44402289e+000 2.43159509e+000 2.43089104e+000
      2.46981502e+000 2.51262999e+000 2.55564308e+000 2.61261106e+000
      1.28646600e+000 1.26687205e+000 1.23897398e+000 1.20806706e+000
      1.17679906e+000 1.15674806e+000 1.13458395e+000 1.13812399e+000
      1.11362100e+000 1.10370600e+000 1.09605002e+000 1.09419799e+000
      1.08517206e+000 1.09979200e+000 1.10879397e+000 1.12434101e+000
      1.17676902e+000 1.20474696e+000 1.23338699e+000 1.29145002e+000
      7.21741974e-001 7.34568000e-001 7.25750983e-001 6.85769975e-001
      6.39742017e-001 6.25074983e-001 6.33641005e-001 6.43989980e-001
      6.16128027e-001 6.08307004e-001 6.05765998e-001 6.14431024e-001
      6.12441003e-001 6.12281978e-001 6.11141980e-001 6.35538995e-001
      6.57766998e-001 6.84179008e-001 7.01331019e-001 7.21549988e-001</_>
    <_>
      2.93312597e+000 2.87002492e+000 2.80624509e+000 2.73397994e+000
      2.65680003e+000 2.57585812e+000 2.50869894e+000 2.47079706e+000
      2.45821309e+000 2.46429992e+000 2.48297691e+000 2.51554704e+000
      2.57275796e+000 2.64601111e+000 2.73748302e+000 2.84089398e+000
      2.94655895e+000 3.03937292e+000 3.11480808e+000 3.19415092e+000
      1.10455203e+000 1.06528103e+000 1.03657496e+000 9.99975026e-001
      9.72491026e-001 9.52727973e-001 9.32559013e-001 9.32054996e-001
      9.39076006e-001 9.45397973e-001 9.67510998e-001 9.99997020e-001
      1.03758895e+000 1.08506405e+000 1.14430404e+000 1.20071602e+000
      1.25712705e+000 1.31469703e+000 1.36648297e+000 1.42404699e+000
      5.28280973e-001 5.14079988e-001 4.98937994e-001 4.84699994e-001
      4.74234998e-001 4.67128009e-001 4.65772986e-001 4.69258010e-001
      4.75822985e-001 4.86052990e-001 4.98847008e-001 5.16031027e-001
      5.43357015e-001 5.71734011e-001 6.01046979e-001 6.27813995e-001
      6.55407012e-001 6.83009982e-001 7.09628999e-001 7.41375983e-001</_>
    <_>
      3.05997205e+000 2.99305892e+000 2.95018005e+000 2.87855792e+000
      2.78703499e+000 2.69301200e+000 2.59225392e+000 2.53890896e+000
      2.48850107e+000 2.41866589e+000 2.32464194e+000 2.28851104e+000
      2.40727901e+000 2.57715607e+000 2.75102997e+000 2.91633701e+000
      3.04847193e+000 3.14236403e+000 3.19286609e+000 3.20674109e+000
      1.25929594e+000 1.22610903e+000 1.19841802e+000 1.19731104e+000
      1.16268098e+000 1.14644802e+000 1.12340105e+000 1.12793803e+000
      1.12673402e+000 1.07913804e+000 1.08204305e+000 1.12826896e+000
      1.15940297e+000 1.20300198e+000 1.26005602e+000 1.27192903e+000
      1.30574501e+000 1.35124004e+000 1.32979703e+000 1.35135996e+000
      5.77718973e-001 5.99260986e-001 5.69292009e-001 5.51832974e-001
      5.45585990e-001 5.50013006e-001 5.57168007e-001 5.41624010e-001
      5.36278009e-001 5.37606001e-001 5.42499006e-001 5.75474024e-001
      6.20664001e-001 6.43917024e-001 6.56665027e-001 6.67231977e-001
      6.92645013e-001 7.21459985e-001 7.36576021e-001 7.44651973e-001</_>
    <_>
      3.32224393e+000 3.30974603e+000 3.27203894e+000 3.21191692e+000
      3.12746501e+000 3.02741289e+000 2.90215707e+000 2.76094699e+000
      2.61223602e+000 2.73479295e+000 2.86602902e+000 2.97321701e+000
      3.05574608e+000 3.11750793e+000 3.15842009e+000 3.19142103e+000
      3.21152401e+000 3.24054289e+000 3.25759697e+000 3.28341794e+000
      1.40761995e+000 1.40557301e+000 1.41002095e+000 1.32580304e+000
      1.32394302e+000 1.33042598e+000 1.22454500e+000 1.22276700e+000
      1.23043299e+000 1.30041301e+000 1.30827105e+000 1.31084502e+000
      1.37021005e+000 1.37462497e+000 1.37449896e+000 1.42955697e+000
      1.43408799e+000 1.43859100e+000 1.48510003e+000 1.48652101e+000
      7.17532992e-001 7.17944980e-001 7.17660010e-001 7.13703990e-001
      6.48370028e-001 6.46808982e-001 6.44345999e-001 6.43696010e-001
      6.41637027e-001 7.01982021e-001 7.06589997e-001 7.04352021e-001
      7.01443017e-001 6.99437022e-001 7.45501995e-001 7.50777006e-001
      7.51995027e-001 7.52130985e-001 7.50702024e-001 7.82229006e-001</_>
    <_>
      3.34786510e+000 3.23531199e+000 3.04299808e+000 2.77809191e+000
      2.45821095e+000 2.10658312e+000 1.75241601e+000 1.40439904e+000
      1.73145294e+000 2.05849600e+000 2.36614299e+000 2.63600802e+000
      2.84993792e+000 2.99829602e+000 3.07113695e+000 3.08544707e+000
      3.10362911e+000 3.08673501e+000 3.13904595e+000 3.18665695e+000
      1.15356505e+000 1.15300703e+000 9.24749017e-001 9.25320029e-001
      9.24633026e-001 6.72717988e-001 6.74427986e-001 6.74419999e-001
      8.80107999e-001 8.81134987e-001 8.75311971e-001 1.05701995e+000
      1.05938101e+000 1.06233203e+000 1.25533903e+000 1.26379204e+000
      1.29772401e+000 1.45424497e+000 1.46366704e+000 1.49533403e+000
      6.01455986e-001 6.00776970e-001 6.02002978e-001 3.88491988e-001
      3.92975003e-001 3.93321007e-001 3.93182993e-001 3.95152986e-001
      5.60060978e-001 5.54777980e-001 5.54358006e-001 5.49827993e-001
      5.52097976e-001 6.74733996e-001 6.59793973e-001 6.64345026e-001
      6.78240001e-001 6.82066977e-001 7.72014022e-001 7.40565002e-001</_>
    <_>
      3.34732008e+000 3.31055188e+000 3.20685506e+000 3.03005600e+000
      2.78525901e+000 2.48011088e+000 2.13839412e+000 1.78367901e+000
      1.43329501e+000 1.71303594e+000 1.98698997e+000 2.26904702e+000
      2.53896093e+000 2.76214600e+000 2.95352006e+000 3.08159590e+000
      3.13807297e+000 3.14713001e+000 3.11431003e+000 3.12731791e+000
      1.14873898e+000 1.14521897e+000 1.13227701e+000 9.14179981e-001
      9.10618007e-001 8.95039022e-001 6.54936016e-001 6.52867973e-001
      6.36053979e-001 8.23823988e-001 8.24524999e-001 8.14916015e-001
      9.88892019e-001 9.95211005e-001 9.98766005e-001 1.15542603e+000
      1.16535199e+000 1.17197299e+000 1.30077505e+000 1.31420696e+000
      5.49853027e-001 5.43762982e-001 5.39817989e-001 5.38052022e-001
      3.51159006e-001 3.49399000e-001 3.42489988e-001 3.38923991e-001
      3.37363005e-001 4.78504002e-001 4.77310985e-001 4.81213003e-001
      4.84151006e-001 4.83388990e-001 6.00655973e-001 6.03254974e-001
      6.06721997e-001 6.12951994e-001 6.11822009e-001 6.97106004e-001</_>
    <_>
      3.32540894e+000 3.27329302e+000 3.17289400e+000 3.02301002e+000
      2.82010794e+000 2.57066894e+000 2.28131294e+000 1.99789202e+000
      1.93220401e+000 2.00507092e+000 2.11620498e+000 2.27197409e+000
      2.42247009e+000 2.60213494e+000 2.81547689e+000 2.99925303e+000
      3.11288810e+000 3.13227797e+000 3.09455705e+000 2.99989200e+000
      1.30797803e+000 1.27496195e+000 1.16115797e+000 1.10041106e+000
      1.05604303e+000 9.30698991e-001 8.64795983e-001 8.44318986e-001
      8.83364022e-001 9.34063017e-001 9.48342025e-001 1.00455105e+000
      1.04967296e+000 1.06457305e+000 1.12518501e+000 1.17044997e+000
      1.18085396e+000 1.22213900e+000 1.26134598e+000 1.26363897e+000
      6.02208018e-001 5.91220975e-001 5.79532027e-001 4.96376008e-001
      4.38674986e-001 4.26369995e-001 4.13136989e-001 4.21229988e-001
      4.61026996e-001 4.90765005e-001 5.00653982e-001 5.00140011e-001
      5.08197010e-001 5.45340002e-001 5.78737020e-001 5.83953023e-001
      5.81008017e-001 5.83629012e-001 6.10946000e-001 6.33194029e-001</_>
    <_>
      2.94690299e+000 2.91816211e+000 2.89867306e+000 2.92633796e+000
      2.94096398e+000 2.96487689e+000 3.00266004e+000 3.02510309e+000
      3.03648210e+000 3.06762505e+000 3.07891798e+000 3.07760692e+000
      3.09144998e+000 3.08118892e+000 3.07327509e+000 3.08355188e+000
      3.07693100e+000 3.07740402e+000 3.10329795e+000 3.10832000e+000
      1.24532795e+000 1.25338995e+000 1.25313902e+000 1.27183402e+000
      1.28311801e+000 1.29221797e+000 1.30535305e+000 1.31926596e+000
      1.32368302e+000 1.33828902e+000 1.35098398e+000 1.34991395e+000
      1.35766602e+000 1.36632895e+000 1.36464298e+000 1.37069094e+000
      1.37470198e+000 1.37291002e+000 1.38662302e+000 1.38521099e+000
      6.45012975e-001 6.40397012e-001 6.52049005e-001 6.66746020e-001
      6.62838995e-001 6.71211004e-001 6.77254021e-001 6.81209028e-001
      6.92094028e-001 7.03037977e-001 7.01397002e-001 7.07870007e-001
      7.16125011e-001 7.11696982e-001 7.24225998e-001 7.29828000e-001
      7.28277028e-001 7.34784007e-001 7.40897000e-001 7.41688013e-001</_>
    <_>
      2.90894198e+000 2.91658211e+000 2.92124104e+000 2.92506909e+000
      2.92478299e+000 2.93853402e+000 2.94379306e+000 2.94384098e+000
      2.94571996e+000 2.94751000e+000 2.95407796e+000 2.96531296e+000
      2.96368909e+000 2.95166802e+000 2.94457293e+000 2.94294405e+000
      2.92775798e+000 2.91416502e+000 2.90456295e+000 2.90555310e+000
      1.25597703e+000 1.26095295e+000 1.25806296e+000 1.26192999e+000
      1.26325095e+000 1.26689506e+000 1.26958597e+000 1.27001500e+000
      1.27067101e+000 1.27443695e+000 1.27829194e+000 1.28106797e+000
      1.28079200e+000 1.28249204e+000 1.28705096e+000 1.29406500e+000
      1.29301095e+000 1.29977298e+000 1.31448996e+000 1.32133996e+000
      6.42264009e-001 6.42192006e-001 6.43782973e-001 6.45621002e-001
      6.46761000e-001 6.48671985e-001 6.48091018e-001 6.50511026e-001
      6.52778029e-001 6.53491020e-001 6.57877028e-001 6.62370980e-001
      6.60117984e-001 6.62006974e-001 6.67303026e-001 6.74407005e-001
      6.75471008e-001 6.79723978e-001 6.86775029e-001 7.00757027e-001</_>
    <_>
      3.09202600e+000 2.99566102e+000 2.89982605e+000 2.80921102e+000
      2.73037410e+000 2.65418005e+000 2.58123207e+000 2.53210402e+000
      2.53240895e+000 2.54022098e+000 2.56616902e+000 2.59191990e+000
      2.65248489e+000 2.76120496e+000 2.87736797e+000 2.97824907e+000
      3.05714202e+000 3.12465000e+000 3.17365694e+000 3.19799495e+000
      1.28527999e+000 1.23675501e+000 1.19421995e+000 1.16327596e+000
      1.12569296e+000 1.09384799e+000 1.08353698e+000 1.07157803e+000
      1.09022701e+000 1.10314202e+000 1.11647999e+000 1.14928806e+000
      1.19156206e+000 1.23696494e+000 1.27947795e+000 1.31862199e+000
      1.36387503e+000 1.40357602e+000 1.43578601e+000 1.46512997e+000
      6.71929002e-001 6.61131024e-001 6.48104012e-001 6.20122015e-001
      6.10221982e-001 5.96759021e-001 6.02599978e-001 6.11360013e-001
      6.16356015e-001 6.23234987e-001 6.30096018e-001 6.48294985e-001
      6.75159991e-001 7.03685999e-001 7.17501998e-001 7.25943029e-001
      7.43695021e-001 7.63674021e-001 7.82859981e-001 7.87928998e-001</_>
    <_>
      3.22452402e+000 3.18304491e+000 3.08817697e+000 2.93144608e+000
      2.76766992e+000 2.61256790e+000 2.44263792e+000 2.22819901e+000
      1.99113405e+000 1.73138201e+000 2.03148103e+000 2.34167695e+000
      2.62696004e+000 2.86655211e+000 3.05912805e+000 3.20401001e+000
      3.29471588e+000 3.32985806e+000 3.31847405e+000 3.27182007e+000
      1.30911696e+000 1.16226900e+000 1.13401496e+000 1.11924505e+000
      9.72002983e-001 9.69974995e-001 9.73869979e-001 8.04410994e-001
      8.05957019e-001 8.06662023e-001 1.00636804e+000 1.00971103e+000
      1.01043797e+000 1.18677700e+000 1.18739700e+000 1.18940198e+000
      1.33993399e+000 1.34032595e+000 1.34193003e+000 1.45968604e+000
      5.70730984e-001 5.55402994e-001 5.51173985e-001 5.44687986e-001
      5.45985997e-001 4.29535002e-001 4.28104013e-001 4.25832987e-001
      4.25983012e-001 4.25783008e-001 5.84042013e-001 5.82910001e-001
      5.80995977e-001 5.79775989e-001 5.79837024e-001 6.97960973e-001
      6.96518004e-001 6.94139004e-001 6.93674982e-001 6.93338990e-001</_>
    <_>
      1.98797297e+000 1.56206501e+000 1.33434999e+000 1.34665704e+000
      1.42239702e+000 1.53230906e+000 1.64508903e+000 1.76851499e+000
      1.85696995e+000 1.90664303e+000 1.92671800e+000 1.91759896e+000
      1.92997098e+000 1.95874596e+000 2.01474810e+000 2.12305903e+000
      2.27568603e+000 2.48756599e+000 2.75056100e+000 2.96078801e+000
      1.02065098e+000 1.00511003e+000 9.08703983e-001 9.03699994e-001
      9.11734998e-001 8.57789993e-001 8.57106984e-001 8.59103024e-001
      8.20134997e-001 8.33563030e-001 8.57006013e-001 8.43396008e-001
      8.91120970e-001 9.34005022e-001 9.81875002e-001 1.07385898e+000
      1.17442405e+000 1.29139102e+000 1.42895103e+000 1.48627198e+000
      3.90082002e-001 3.96741986e-001 4.15363014e-001 4.04567003e-001
      4.22423989e-001 4.43058997e-001 4.72297013e-001 4.76114005e-001
      4.79252011e-001 5.15241027e-001 5.54969013e-001 5.97676992e-001
      6.18221998e-001 6.63340986e-001 7.37659991e-001 8.14392984e-001
      9.11336005e-001 9.74115014e-001 1.07260704e+000 1.11028898e+000</_>
    <_>
      3.23835397e+000 3.15826011e+000 3.04049611e+000 2.90964389e+000
      2.79003692e+000 2.68686008e+000 2.62448192e+000 2.59839201e+000
      2.60379410e+000 2.65517402e+000 2.73806190e+000 2.82404995e+000
      2.92536402e+000 3.00621605e+000 3.06499696e+000 3.12363696e+000
      3.17781711e+000 3.21944094e+000 3.25562906e+000 3.28294301e+000
      1.36897898e+000 1.33207297e+000 1.29131198e+000 1.24429405e+000
      1.21311498e+000 1.18289995e+000 1.15984201e+000 1.15747797e+000
      1.15783596e+000 1.17496705e+000 1.20601296e+000 1.23149896e+000
      1.27201700e+000 1.30435097e+000 1.33497500e+000 1.37745798e+000
      1.40903997e+000 1.43683100e+000 1.47186196e+000 1.49673700e+000
      6.90500975e-001 6.73425972e-001 6.52993977e-001 6.39831007e-001
      6.24592006e-001 6.10004008e-001 6.10204995e-001 6.11970007e-001
      6.19759977e-001 6.37349010e-001 6.47489011e-001 6.65139973e-001
      6.87286973e-001 6.99011028e-001 7.13981986e-001 7.29424000e-001
      7.45863974e-001 7.61107981e-001 7.71669984e-001 7.81432986e-001</_>
    <_>
      1.37722003e+000 1.69233894e+000 1.96712506e+000 2.19113493e+000
      2.38951802e+000 2.49609900e+000 2.58179903e+000 2.68984509e+000
      2.72685790e+000 2.72936010e+000 2.65545702e+000 2.70416188e+000
      2.74253798e+000 2.77224398e+000 2.76605201e+000 2.72360992e+000
      2.70233488e+000 2.70228601e+000 2.75949407e+000 2.85222697e+000
      7.10117996e-001 8.66644979e-001 8.21789980e-001 8.11775982e-001
      9.46721971e-001 9.03411984e-001 9.16378021e-001 1.04488397e+000
      1.01789296e+000 1.03886700e+000 1.12121797e+000 1.13579702e+000
      1.15024698e+000 1.21432900e+000 1.23474002e+000 1.23655403e+000
      1.27771199e+000 1.31476998e+000 1.34551203e+000 1.37654698e+000
      3.75376999e-001 4.78789985e-001 4.34273005e-001 4.34617013e-001
      4.46700990e-001 4.52737987e-001 5.19137979e-001 5.11761010e-001
      5.10056019e-001 5.25319993e-001 5.30901015e-001 5.85278988e-001
      5.82660019e-001 5.85530996e-001 5.89654028e-001 5.97361982e-001
      6.42388999e-001 6.47668004e-001 6.68581009e-001 6.82762980e-001</_>
    <_>
      3.31044197e+000 3.36022902e+000 3.34710097e+000 3.25838208e+000
      3.15891600e+000 3.04884100e+000 2.85397410e+000 2.72428489e+000
      2.57009792e+000 2.40044498e+000 2.51713896e+000 2.70234895e+000
      2.84624791e+000 2.98826790e+000 3.13801789e+000 3.23281598e+000
      3.28784609e+000 3.32108498e+000 3.31924295e+000 3.31110692e+000
      1.35645902e+000 1.32627702e+000 1.29014802e+000 1.30562401e+000
      1.20494998e+000 1.16802895e+000 1.17392898e+000 1.11334801e+000
      1.09132195e+000 1.05457795e+000 1.18745601e+000 1.23816001e+000
      1.20353603e+000 1.32650304e+000 1.38734496e+000 1.35430598e+000
      1.44873703e+000 1.49877298e+000 1.47060204e+000 1.53823400e+000
      6.72349989e-001 6.55830979e-001 6.50692999e-001 6.29634023e-001
      6.39859974e-001 5.67830026e-001 5.73823988e-001 5.87800980e-001
      5.79321027e-001 5.42890012e-001 6.28260016e-001 6.81663990e-001
      6.98993027e-001 6.99235976e-001 6.69072986e-001 7.36020982e-001
      7.83663988e-001 7.92990029e-001 7.91253984e-001 7.59651005e-001</_>
    <_>
      2.55856895e+000 2.41141200e+000 2.31291699e+000 2.25594091e+000
      2.22353196e+000 2.21021390e+000 2.20440197e+000 2.19318008e+000
      2.16655302e+000 2.09776306e+000 2.00004005e+000 1.88822699e+000
      1.78468704e+000 1.68712103e+000 1.62330794e+000 1.62724996e+000
      1.76060998e+000 2.04494596e+000 2.47676492e+000 2.82660198e+000
      9.32154000e-001 8.72020006e-001 7.94770002e-001 7.35971987e-001
      7.01044023e-001 6.59429014e-001 6.19023025e-001 6.07262015e-001
      5.91705978e-001 5.63880980e-001 5.73319972e-001 5.72579980e-001
      5.59004009e-001 5.81043005e-001 6.00959003e-001 6.24049008e-001
      7.48959005e-001 8.85366976e-001 1.01717997e+000 1.12868500e+000
      3.91790986e-001 3.64573985e-001 3.39547008e-001 3.12472999e-001
      3.05191010e-001 2.96415001e-001 2.85591006e-001 2.73108006e-001
      2.57752001e-001 2.63410985e-001 2.72370994e-001 2.71445006e-001
      2.69066006e-001 2.55878001e-001 2.76708007e-001 3.20122004e-001
      3.92603993e-001 4.66118008e-001 5.20501018e-001 5.36777973e-001</_>
    <_>
      3.24638891e+000 3.18606901e+000 3.06754303e+000 2.90713906e+000
      2.69015193e+000 2.61571097e+000 2.60038304e+000 2.61735511e+000
      2.64707708e+000 2.65977693e+000 2.67651296e+000 2.71057701e+000
      2.75135803e+000 2.93802691e+000 3.07030511e+000 3.18159604e+000
      3.25345898e+000 3.30411601e+000 3.34035707e+000 3.35416198e+000
      1.25863099e+000 1.23514497e+000 1.16932499e+000 1.11116803e+000
      1.08598197e+000 1.09933496e+000 1.10347795e+000 1.08570099e+000
      1.10358596e+000 1.11493003e+000 1.10107005e+000 1.13543296e+000
      1.18288100e+000 1.26646900e+000 1.29944396e+000 1.34259796e+000
      1.40615201e+000 1.43676102e+000 1.47298396e+000 1.51684296e+000
      6.01082981e-001 5.61448991e-001 5.54975986e-001 5.46169996e-001
      5.45574009e-001 5.53471982e-001 5.58320999e-001 5.56770980e-001
      5.51913977e-001 5.55863976e-001 5.67174017e-001 5.83971024e-001
      6.09872997e-001 6.75049007e-001 6.77951992e-001 6.90880001e-001
      7.06022024e-001 7.23994017e-001 7.66650975e-001 7.69182026e-001</_>
    <_>
      2.94230199e+000 2.95764899e+000 2.95713902e+000 2.95761991e+000
      2.94887710e+000 2.94253302e+000 2.94899201e+000 2.96975803e+000
      3.00137401e+000 3.03632903e+000 3.05693698e+000 3.06586289e+000
      3.06068110e+000 3.04091692e+000 3.02307010e+000 3.01223993e+000
      3.01171088e+000 3.01621008e+000 3.01898098e+000 3.02746797e+000
      1.27958298e+000 1.29438996e+000 1.31109595e+000 1.32291102e+000
      1.33617902e+000 1.35373700e+000 1.36917698e+000 1.39004505e+000
      1.40537500e+000 1.41677594e+000 1.42084599e+000 1.42185402e+000
      1.41739702e+000 1.41172504e+000 1.40407002e+000 1.39999104e+000
      1.39127505e+000 1.38082397e+000 1.36670399e+000 1.36051798e+000
      6.87252998e-001 6.90102994e-001 6.90909982e-001 6.95922971e-001
      7.05923975e-001 7.16852009e-001 7.25794017e-001 7.36590981e-001
      7.48996019e-001 7.58336008e-001 7.59154975e-001 7.64455974e-001
      7.66898990e-001 7.72143006e-001 7.74914980e-001 7.72230983e-001
      7.75942028e-001 7.74298012e-001 7.70743012e-001 7.66285002e-001</_>
    <_>
      3.18610191e+000 3.20667911e+000 3.14471102e+000 3.01302910e+000
      2.86274600e+000 2.68481708e+000 2.40885806e+000 2.12937593e+000
      1.84102094e+000 1.56229198e+000 1.35407495e+000 1.77161396e+000
      2.16129589e+000 2.51123190e+000 2.81726789e+000 3.03763390e+000
      3.16353011e+000 3.22471809e+000 3.21954298e+000 3.18644094e+000
      1.25095296e+000 1.21047902e+000 1.05992305e+000 1.09424305e+000
      1.06377494e+000 9.14107978e-001 9.11512971e-001 8.72864008e-001
      7.02166021e-001 7.14281976e-001 7.17992008e-001 9.83676016e-001
      9.93447006e-001 1.00187600e+000 1.22492802e+000 1.22941995e+000
      1.23885906e+000 1.41149795e+000 1.41107404e+000 1.44073701e+000
      6.07982993e-001 5.16277015e-001 5.31352997e-001 5.35854995e-001
      5.56285977e-001 5.15618980e-001 3.70231986e-001 3.91149014e-001
      3.97848994e-001 4.04085994e-001 3.98591995e-001 6.03610992e-001
      6.26287997e-001 6.34299994e-001 6.34405017e-001 6.28807008e-001
      7.81185985e-001 8.06149006e-001 8.12420011e-001 8.08659971e-001</_>
    <_>
      1.88305998e+000 1.86308396e+000 1.89099300e+000 1.87087798e+000
      1.92235994e+000 1.94898295e+000 1.93422401e+000 1.93248904e+000
      1.93014300e+000 1.92833495e+000 1.90086699e+000 1.91343999e+000
      1.89533997e+000 1.81007600e+000 1.69064999e+000 1.51377499e+000
      1.33704495e+000 1.19133496e+000 1.14031506e+000 1.01239097e+000
      8.11661005e-001 7.52309024e-001 7.32047021e-001 6.98073983e-001
      6.69367015e-001 6.51012003e-001 6.28437996e-001 6.06414974e-001
      5.97070992e-001 5.86320996e-001 5.82258999e-001 5.84141016e-001
      5.87633014e-001 6.06150985e-001 6.31789982e-001 6.53020978e-001
      7.01858997e-001 7.51514018e-001 7.97200024e-001 8.59071016e-001
      3.80107999e-001 3.42831999e-001 3.31752986e-001 3.17335010e-001
      3.01833004e-001 2.92510986e-001 2.65635014e-001 2.58049011e-001
      2.57205009e-001 2.46849999e-001 2.48043001e-001 2.37639993e-001
      2.32832000e-001 2.41657004e-001 2.48165995e-001 2.49592006e-001
      2.60286003e-001 2.55432993e-001 2.79554993e-001 3.06914002e-001</_>
    <_>
      2.97848010e+000 2.86660695e+000 2.71964598e+000 2.60281992e+000
      2.44875693e+000 2.35922003e+000 2.29575109e+000 2.25793910e+000
      2.30715203e+000 2.36749792e+000 2.43540192e+000 2.53848100e+000
      2.60822392e+000 2.71885490e+000 2.77059889e+000 2.77723098e+000
      2.76054311e+000 2.70764709e+000 2.67995405e+000 2.63770390e+000
      1.33112705e+000 1.29999101e+000 1.25622594e+000 1.23022199e+000
      1.19272304e+000 1.16825604e+000 1.16006303e+000 1.14159596e+000
      1.15714705e+000 1.16209197e+000 1.15183794e+000 1.18260705e+000
      1.18318200e+000 1.19457304e+000 1.21332598e+000 1.20533395e+000
      1.21692300e+000 1.22352898e+000 1.22340405e+000 1.23102796e+000
      6.47989988e-001 6.26793981e-001 6.17139995e-001 6.04121983e-001
      5.94425976e-001 5.94554007e-001 5.86862028e-001 5.96092999e-001
      6.10762000e-001 6.13565981e-001 6.17267013e-001 6.21991992e-001
      6.30021989e-001 6.56355977e-001 6.53774023e-001 6.50593996e-001
      6.51979029e-001 6.62671983e-001 6.84219003e-001 6.77609026e-001</_>
    <_>
      2.80363488e+000 2.77057195e+000 2.75676608e+000 2.74304008e+000
      2.73818111e+000 2.72842407e+000 2.71032500e+000 2.68846011e+000
      2.67592907e+000 2.65770602e+000 2.64134598e+000 2.64240789e+000
      2.64569712e+000 2.65723491e+000 2.69078398e+000 2.72565699e+000
      2.76960301e+000 2.83556104e+000 2.92126393e+000 3.00565696e+000
      1.17601097e+000 1.15064204e+000 1.12398398e+000 1.10610294e+000
      1.09350300e+000 1.07316804e+000 1.06651700e+000 1.06361997e+000
      1.05717599e+000 1.06153798e+000 1.07186997e+000 1.08307302e+000
      1.09751701e+000 1.12115204e+000 1.15171194e+000 1.17781401e+000
      1.21821797e+000 1.26785505e+000 1.31299198e+000 1.35885799e+000
      5.68558991e-001 5.56019008e-001 5.49450994e-001 5.38034976e-001
      5.33029974e-001 5.29883027e-001 5.24937987e-001 5.25229990e-001
      5.27225971e-001 5.29331982e-001 5.36080003e-001 5.46343982e-001
      5.53586006e-001 5.66146016e-001 5.82778990e-001 5.99044025e-001
      6.22636020e-001 6.45460010e-001 6.72354996e-001 6.96106970e-001</_>
    <_>
      3.34015393e+000 3.31919003e+000 3.27774000e+000 3.21476698e+000
      3.13154197e+000 3.03243399e+000 2.91488910e+000 2.78308511e+000
      2.64642596e+000 2.76815701e+000 2.88497591e+000 2.98643708e+000
      3.08334494e+000 3.16170406e+000 3.22800803e+000 3.27953601e+000
      3.30674195e+000 3.31175494e+000 3.29661703e+000 3.28953004e+000
      1.41045499e+000 1.40929496e+000 1.40548801e+000 1.32565296e+000
      1.32319105e+000 1.32184303e+000 1.22605705e+000 1.22375202e+000
      1.22804403e+000 1.30407202e+000 1.30564499e+000 1.30945003e+000
      1.37913203e+000 1.38102806e+000 1.38457000e+000 1.44284403e+000
      1.44271803e+000 1.44269395e+000 1.48781502e+000 1.48900998e+000
      7.16691971e-001 7.17028022e-001 7.15449989e-001 7.12958992e-001
      6.46260023e-001 6.45232975e-001 6.43256009e-001 6.41927004e-001
      6.43342018e-001 7.03352988e-001 7.03615010e-001 7.03342021e-001
      7.05036998e-001 7.06610024e-001 7.51043022e-001 7.50531018e-001
      7.49125004e-001 7.48319983e-001 7.50371993e-001 7.83104002e-001</_>
    <_>
      2.92096210e+000 2.92358899e+000 2.90031791e+000 2.86573100e+000
      2.85489106e+000 2.88476491e+000 2.90616298e+000 2.92405105e+000
      2.90937591e+000 2.89306808e+000 2.89450002e+000 2.94433904e+000
      2.96652889e+000 2.97664309e+000 2.98990703e+000 3.03864098e+000
      3.07664990e+000 3.11807489e+000 3.14407706e+000 3.15449595e+000
      1.31069303e+000 1.28874803e+000 1.27724504e+000 1.28802299e+000
      1.28515303e+000 1.28681600e+000 1.30126095e+000 1.30971301e+000
      1.30924404e+000 1.32875800e+000 1.35124195e+000 1.36983395e+000
      1.37220299e+000 1.39379895e+000 1.41633296e+000 1.41268003e+000
      1.43834698e+000 1.46766102e+000 1.46685505e+000 1.49523497e+000
      6.74745977e-001 6.74787998e-001 6.73525989e-001 6.70283020e-001
      6.73057020e-001 6.89749002e-001 7.04235971e-001 7.12427020e-001
      6.98916972e-001 7.02655971e-001 7.18586981e-001 7.58719027e-001
      7.63747990e-001 7.40520000e-001 7.45028019e-001 7.52472997e-001
      7.95962989e-001 8.11290979e-001 7.91779995e-001 7.98227012e-001</_>
    <_>
      2.95965695e+000 2.78663611e+000 2.58391595e+000 2.35008788e+000
      2.20165396e+000 2.38881993e+000 2.53241205e+000 2.60820508e+000
      2.61486912e+000 2.57652092e+000 2.53631496e+000 2.49574089e+000
      2.47363400e+000 2.50445294e+000 2.57762790e+000 2.73422790e+000
      2.88988209e+000 3.02134299e+000 3.10072494e+000 3.12643003e+000
      1.22680199e+000 1.15264404e+000 1.03421903e+000 1.03225195e+000
      1.02407706e+000 1.08398604e+000 1.07034004e+000 1.05335701e+000
      1.08155096e+000 1.07618296e+000 1.09344602e+000 1.12235796e+000
      1.14173496e+000 1.19865799e+000 1.24510598e+000 1.27017498e+000
      1.31842697e+000 1.35714304e+000 1.36552405e+000 1.39441502e+000
      5.44187009e-001 5.39470971e-001 5.35444021e-001 5.31391025e-001
      5.23214996e-001 5.62820971e-001 5.50557971e-001 5.40831983e-001
      5.38111985e-001 5.33545017e-001 5.68188012e-001 5.79029977e-001
      5.86803019e-001 6.07299984e-001 6.22085989e-001 6.52073979e-001
      6.59574986e-001 6.68644011e-001 6.74683988e-001 6.84873998e-001</_>
    <_>
      2.75901508e+000 2.69953990e+000 2.59159493e+000 2.58738303e+000
      2.67554092e+000 2.76714301e+000 2.86854601e+000 2.93529701e+000
      3.00500798e+000 3.03345394e+000 3.04224801e+000 3.00715804e+000
      2.90863299e+000 2.78765297e+000 2.66403103e+000 2.53386402e+000
      2.54387093e+000 2.54461598e+000 2.68159604e+000 2.90244198e+000
      1.27028000e+000 1.23713899e+000 1.29478204e+000 1.30163002e+000
      1.32277298e+000 1.36780202e+000 1.36884606e+000 1.36451399e+000
      1.38988996e+000 1.37220395e+000 1.35607195e+000 1.31084704e+000
      1.25488400e+000 1.22141004e+000 1.11165798e+000 1.04117298e+000
      1.09192002e+000 9.21890974e-001 9.63832974e-001 1.01027703e+000
      7.49163985e-001 7.39033997e-001 7.27311015e-001 7.32997000e-001
      7.05127001e-001 7.05973983e-001 6.97338998e-001 6.85154021e-001
      6.82205975e-001 6.00327015e-001 6.03531003e-001 5.87628007e-001
      5.72947979e-001 5.51733017e-001 4.22455996e-001 4.26212013e-001
      4.56909001e-001 4.47919995e-001 4.97440994e-001 3.29957008e-001</_>
    <_>
      2.57244706e+000 2.53735209e+000 2.50653791e+000 2.47639799e+000
      2.46202302e+000 2.44557405e+000 2.45020008e+000 2.45892692e+000
      2.47590899e+000 2.48604107e+000 2.51317406e+000 2.54184794e+000
      2.56804895e+000 2.58429694e+000 2.60888004e+000 2.62593198e+000
      2.65606689e+000 2.68975306e+000 2.74557805e+000 2.79833794e+000
      9.25446987e-001 8.98916006e-001 8.73076022e-001 8.57357979e-001
      8.52504015e-001 8.38331997e-001 8.48312974e-001 8.56356978e-001
      8.61240029e-001 8.76347005e-001 9.05198991e-001 9.21519995e-001
      9.45131004e-001 9.74954009e-001 1.00612104e+000 1.03044498e+000
      1.07731497e+000 1.12141001e+000 1.16796100e+000 1.21962202e+000
      4.61703986e-001 4.47131008e-001 4.37824994e-001 4.30864990e-001
      4.32007998e-001 4.27356988e-001 4.32761014e-001 4.36926007e-001
      4.44792986e-001 4.49699014e-001 4.63708013e-001 4.75894004e-001
      4.89120990e-001 5.00953019e-001 5.17089009e-001 5.35154998e-001
      5.61957002e-001 5.86356997e-001 6.18965983e-001 6.42563999e-001</_>
    <_>
      3.35285997e+000 3.31982398e+000 3.19220996e+000 2.94703889e+000
      2.57554603e+000 2.11372495e+000 1.61234999e+000 1.12501001e+000
      6.77542984e-001 1.01636100e+000 1.32229495e+000 1.66711497e+000
      2.04093909e+000 2.42149210e+000 2.76861000e+000 3.04576206e+000
      3.20195198e+000 3.26722693e+000 3.25089693e+000 3.29400301e+000
      9.21442986e-001 9.31982994e-001 9.17451024e-001 6.17899001e-001
      6.19313002e-001 6.01522028e-001 2.91143000e-001 2.90650994e-001
      2.76019990e-001 5.53695977e-001 5.07761002e-001 5.25794983e-001
      8.09526026e-001 8.07035983e-001 8.41243029e-001 1.11581898e+000
      1.11783898e+000 1.14857805e+000 1.37843704e+000 1.38072097e+000
      4.19889003e-001 4.15042996e-001 4.06262994e-001 3.98117989e-001
      1.54008999e-001 1.61475003e-001 1.55873001e-001 1.47955000e-001
      1.38134003e-001 3.67585003e-001 3.39756995e-001 3.63362998e-001
      3.79471987e-001 3.95006001e-001 5.96924007e-001 5.84506989e-001
      6.00116014e-001 6.13794029e-001 6.23462975e-001 7.72866011e-001</_>
    <_>
      2.30226588e+000 2.51515293e+000 2.71954489e+000 2.89460301e+000
      3.00929594e+000 3.06639791e+000 3.07637906e+000 3.03848505e+000
      2.95786810e+000 2.92107606e+000 2.88885498e+000 2.85503101e+000
      2.84263110e+000 2.86161304e+000 2.89775109e+000 2.92419291e+000
      2.94338608e+000 2.96435094e+000 2.97032309e+000 2.98559904e+000
      1.05873895e+000 1.06073403e+000 1.17177999e+000 1.17188001e+000
      1.16896796e+000 1.28452504e+000 1.28324604e+000 1.27852499e+000
      1.35468698e+000 1.35106695e+000 1.34833896e+000 1.39407504e+000
      1.40052998e+000 1.41135001e+000 1.43372595e+000 1.44200003e+000
      1.45012105e+000 1.43893003e+000 1.44951105e+000 1.46285903e+000
      6.06082976e-001 6.05199993e-001 6.06818020e-001 6.03649974e-001
      6.66550994e-001 6.49860024e-001 6.49713993e-001 6.48887992e-001
      6.44994974e-001 6.84628010e-001 6.62546992e-001 6.63501978e-001
      6.73804998e-001 6.76461995e-001 7.10101008e-001 6.80737019e-001
      6.82174027e-001 6.93102002e-001 6.97403014e-001 7.22801983e-001</_>
    <_>
      3.00368690e+000 2.97419906e+000 2.97714090e+000 2.95873904e+000
      2.91101599e+000 2.84269595e+000 2.80655909e+000 2.78054690e+000
      2.79149199e+000 2.84447289e+000 2.89358401e+000 2.94712496e+000
      3.00166988e+000 3.02391791e+000 3.09260893e+000 3.16516304e+000
      3.21759105e+000 3.25077891e+000 3.27216005e+000 3.28970194e+000
      1.23167896e+000 1.23137903e+000 1.22998405e+000 1.20102799e+000
      1.20143604e+000 1.18767595e+000 1.18692398e+000 1.21360397e+000
      1.22215295e+000 1.24952400e+000 1.29043996e+000 1.29792500e+000
      1.32621503e+000 1.36455798e+000 1.39488995e+000 1.42953205e+000
      1.45865297e+000 1.47903395e+000 1.49780202e+000 1.51414597e+000
      6.60615027e-001 6.52325988e-001 6.56750977e-001 6.51350021e-001
      6.31520987e-001 6.27277970e-001 6.39645994e-001 6.52393997e-001
      6.71787977e-001 6.73794985e-001 6.76667988e-001 6.95733011e-001
      7.07367003e-001 7.16924012e-001 7.44517982e-001 7.54779994e-001
      7.67243981e-001 7.76136994e-001 7.81717002e-001 7.90387988e-001</_>
    <_>
      2.96606994e+000 2.92344093e+000 2.87160707e+000 2.81170702e+000
      2.77654004e+000 2.74481511e+000 2.72972703e+000 2.73656702e+000
      2.74520898e+000 2.77185011e+000 2.81815004e+000 2.85796094e+000
      2.90448904e+000 2.95904112e+000 3.00213099e+000 3.02310300e+000
      3.02676105e+000 3.01827788e+000 3.00530910e+000 2.99502301e+000
      1.25902998e+000 1.25104499e+000 1.24872303e+000 1.24152899e+000
      1.23947203e+000 1.24020505e+000 1.24228203e+000 1.24538898e+000
      1.25176597e+000 1.26069200e+000 1.26969194e+000 1.27908695e+000
      1.29288995e+000 1.30603194e+000 1.31416297e+000 1.31806803e+000
      1.31733000e+000 1.32537401e+000 1.33187795e+000 1.33517599e+000
      6.50020003e-001 6.48490012e-001 6.41534984e-001 6.36770010e-001
      6.42207980e-001 6.43106997e-001 6.48846984e-001 6.50350988e-001
      6.48733974e-001 6.58666015e-001 6.68309987e-001 6.74755991e-001
      6.80978000e-001 6.87600017e-001 6.94723010e-001 6.99943006e-001
      7.00896025e-001 7.05404997e-001 7.13183999e-001 7.19386995e-001</_>
    <_>
      2.91320896e+000 2.90937996e+000 2.88264298e+000 2.86147594e+000
      2.84910107e+000 2.85411191e+000 2.83283401e+000 2.82399893e+000
      2.76971412e+000 2.73012400e+000 2.75044990e+000 2.79806399e+000
      2.82761002e+000 2.86077094e+000 2.93917298e+000 2.98512506e+000
      3.03443503e+000 3.09241390e+000 3.11452508e+000 3.13386893e+000
      1.18583906e+000 1.16682601e+000 1.14454806e+000 1.15026402e+000
      1.13853502e+000 1.13887298e+000 1.13846302e+000 1.14158404e+000
      1.12190199e+000 1.14394903e+000 1.18542898e+000 1.18396997e+000
      1.20928800e+000 1.25334597e+000 1.27955198e+000 1.29645205e+000
      1.34118795e+000 1.37544203e+000 1.38311100e+000 1.42098403e+000
      5.88962018e-001 5.91552019e-001 5.78411996e-001 5.85390985e-001
      5.80385029e-001 5.81319988e-001 5.79822004e-001 5.87249994e-001
      5.85555017e-001 5.88815987e-001 6.21075988e-001 6.37812018e-001
      6.44872010e-001 6.54092014e-001 6.78655982e-001 6.97347999e-001
      7.17875004e-001 7.36311018e-001 7.40561008e-001 7.63175011e-001</_>
    <_>
      2.62864804e+000 2.64045191e+000 2.64568996e+000 2.64551711e+000
      2.65049505e+000 2.66841412e+000 2.67757797e+000 2.68741202e+000
      2.72423005e+000 2.72591805e+000 2.70447302e+000 2.67949390e+000
      2.67785001e+000 2.69478011e+000 2.73406792e+000 2.76991510e+000
      2.80257392e+000 2.85804796e+000 2.91867805e+000 2.90124106e+000
      1.20208895e+000 1.22770405e+000 1.20852900e+000 1.21618795e+000
      1.24393797e+000 1.23364496e+000 1.24458301e+000 1.25441003e+000
      1.25415802e+000 1.26460695e+000 1.26951802e+000 1.26391101e+000
      1.29430401e+000 1.28950703e+000 1.29276395e+000 1.30886400e+000
      1.29542601e+000 1.28616798e+000 1.31195498e+000 1.28474700e+000
      6.19602025e-001 6.22958004e-001 6.38194025e-001 6.34688973e-001
      6.36542022e-001 6.38175011e-001 6.51133001e-001 6.59371018e-001
      6.52772009e-001 6.44366980e-001 6.45606995e-001 6.70722008e-001
      6.79633021e-001 6.68619990e-001 6.72574997e-001 6.62688971e-001
      6.87837005e-001 6.79827988e-001 6.63897991e-001 6.67907000e-001</_>
    <_>
      2.95532799e+000 2.95956993e+000 2.93957090e+000 2.90992999e+000
      2.88094711e+000 2.82733011e+000 2.79337502e+000 2.75851893e+000
      2.70093298e+000 2.63810110e+000 2.60457706e+000 2.60010600e+000
      2.64161491e+000 2.72166204e+000 2.84407806e+000 2.97532511e+000
      3.10357594e+000 3.19435310e+000 3.24622202e+000 3.26374412e+000
      1.39461005e+000 1.36967397e+000 1.36000597e+000 1.34193802e+000
      1.31448603e+000 1.30128300e+000 1.29017794e+000 1.26798701e+000
      1.24725604e+000 1.23483801e+000 1.23528194e+000 1.24101102e+000
      1.26481199e+000 1.28582299e+000 1.31905603e+000 1.35444295e+000
      1.38321102e+000 1.41552901e+000 1.45266104e+000 1.47830296e+000
      6.62962973e-001 6.56068027e-001 6.53598011e-001 6.55372024e-001
      6.52754009e-001 6.46130025e-001 6.46102011e-001 6.44411027e-001
      6.42229974e-001 6.46555007e-001 6.60263002e-001 6.76998019e-001
      7.01557994e-001 7.21372008e-001 7.42935002e-001 7.64587998e-001
      7.80721009e-001 7.97276974e-001 8.09791028e-001 8.22121024e-001</_>
    <_>
      2.78931999e+000 2.73498392e+000 2.71966791e+000 2.71007490e+000
      2.71161008e+000 2.70338202e+000 2.72566104e+000 2.75770092e+000
      2.81923199e+000 2.85561895e+000 2.88727307e+000 2.90680504e+000
      2.94681811e+000 2.94481993e+000 2.95882010e+000 2.95775700e+000
      2.96373105e+000 2.98089910e+000 3.00716710e+000 3.04947400e+000
      1.24963796e+000 1.22505999e+000 1.20135796e+000 1.18214202e+000
      1.17300403e+000 1.15055597e+000 1.15266299e+000 1.16018295e+000
      1.16499400e+000 1.16849506e+000 1.19157696e+000 1.20344901e+000
      1.23247504e+000 1.24792397e+000 1.27783406e+000 1.30503798e+000
      1.31813395e+000 1.35676503e+000 1.38827205e+000 1.40719199e+000
      6.45666003e-001 6.38584971e-001 6.31600976e-001 6.23760998e-001
      6.17899001e-001 6.18758976e-001 6.33399010e-001 6.34909987e-001
      6.51555002e-001 6.45033002e-001 6.54820979e-001 6.76922023e-001
      6.96982026e-001 7.07565010e-001 7.17197001e-001 7.25179017e-001
      7.40495026e-001 7.66984999e-001 7.83667982e-001 7.99293995e-001</_>
    <_>
      2.83684611e+000 2.83750391e+000 2.85108304e+000 2.86420894e+000
      2.87999892e+000 2.89127588e+000 2.89342499e+000 2.91010690e+000
      2.92787409e+000 2.93796897e+000 2.94842601e+000 2.95188594e+000
      2.94084501e+000 2.94186902e+000 2.94702911e+000 2.94318795e+000
      2.94971108e+000 2.95681691e+000 2.95774102e+000 2.97322989e+000
      1.12269497e+000 1.14131796e+000 1.19228005e+000 1.21543002e+000
      1.23137903e+000 1.26764297e+000 1.28477001e+000 1.29886103e+000
      1.32304800e+000 1.33336198e+000 1.33853102e+000 1.34102094e+000
      1.33909595e+000 1.33896506e+000 1.32835495e+000 1.32083702e+000
      1.31963801e+000 1.31850803e+000 1.31888497e+000 1.32247102e+000
      5.47581971e-001 5.61551988e-001 5.80622017e-001 5.91404021e-001
      6.02243006e-001 6.10156000e-001 6.19379997e-001 6.38554990e-001
      6.48425996e-001 6.53755009e-001 6.65943027e-001 6.70431018e-001
      6.75893009e-001 6.89467013e-001 6.95222020e-001 7.02620983e-001
      7.12485015e-001 7.15220988e-001 7.22360015e-001 7.33666003e-001</_>
    <_>
      2.79068089e+000 2.76719689e+000 2.74432302e+000 2.71905589e+000
      2.69688392e+000 2.68153000e+000 2.68876505e+000 2.70311904e+000
      2.72245097e+000 2.74180794e+000 2.76126504e+000 2.79885888e+000
      2.83290601e+000 2.85684896e+000 2.87603498e+000 2.89371395e+000
      2.91443992e+000 2.94047499e+000 2.96614289e+000 2.98898602e+000
      1.07848799e+000 1.05376005e+000 1.04462302e+000 1.02878904e+000
      1.02015305e+000 1.02315402e+000 1.02045298e+000 1.02550602e+000
      1.03719902e+000 1.04524004e+000 1.06096005e+000 1.08497703e+000
      1.10067403e+000 1.11915600e+000 1.14424205e+000 1.16613495e+000
      1.19023204e+000 1.21795499e+000 1.24277604e+000 1.26611698e+000
      5.30026972e-001 5.26916981e-001 5.20048976e-001 5.13629973e-001
      5.10932982e-001 5.08581996e-001 5.10855973e-001 5.13871014e-001
      5.18491030e-001 5.24520993e-001 5.31068981e-001 5.42477012e-001
      5.49701989e-001 5.58629990e-001 5.69598973e-001 5.81169009e-001
      5.97539008e-001 6.10738993e-001 6.23528004e-001 6.36238992e-001</_>
    <_>
      2.74059510e+000 2.77937293e+000 2.79472089e+000 2.76984000e+000
      2.71453691e+000 2.64478993e+000 2.58981609e+000 2.57923198e+000
      2.60136008e+000 2.65774012e+000 2.74799109e+000 2.83339000e+000
      2.89190197e+000 2.91793799e+000 2.91173291e+000 2.89991498e+000
      2.90586495e+000 2.91428900e+000 2.92309499e+000 2.92796206e+000
      1.18557703e+000 1.18736100e+000 1.18839705e+000 1.18093002e+000
      1.17835200e+000 1.18176997e+000 1.18509603e+000 1.20610702e+000
      1.22586095e+000 1.24097204e+000 1.26900995e+000 1.27845097e+000
      1.28438902e+000 1.29543996e+000 1.29943395e+000 1.30551398e+000
      1.32484806e+000 1.33858597e+000 1.35046303e+000 1.35971999e+000
      6.16950989e-001 6.17581010e-001 6.11913025e-001 6.07611001e-001
      6.13946021e-001 6.20157003e-001 6.25980973e-001 6.38689995e-001
      6.49690986e-001 6.64412975e-001 6.75571024e-001 6.73810005e-001
      6.79607987e-001 6.81728005e-001 6.89397991e-001 6.98812008e-001
      7.09465027e-001 7.22868979e-001 7.29683995e-001 7.32488990e-001</_>
    <_>
      3.21485305e+000 3.12002206e+000 2.99126601e+000 2.83744502e+000
      2.66218901e+000 2.50606298e+000 2.39910197e+000 2.36379910e+000
      2.39058805e+000 2.47181106e+000 2.58939791e+000 2.69260097e+000
      2.83008409e+000 2.92740703e+000 3.01039505e+000 3.09209800e+000
      3.13389897e+000 3.16315389e+000 3.20947909e+000 3.23994493e+000
      1.25186300e+000 1.20917904e+000 1.15291595e+000 1.09103596e+000
      1.04555905e+000 1.01294100e+000 9.88870978e-001 9.95463014e-001
      1.01515400e+000 1.03511703e+000 1.08018005e+000 1.11064804e+000
      1.15993404e+000 1.20015299e+000 1.24126899e+000 1.29709899e+000
      1.32137501e+000 1.35757899e+000 1.42536998e+000 1.44558001e+000
      6.19877994e-001 5.98462999e-001 5.66422999e-001 5.45175016e-001
      5.25511980e-001 5.19075990e-001 5.30099988e-001 5.36271989e-001
      5.52583992e-001 5.73916972e-001 5.94713986e-001 6.14943981e-001
      6.45973027e-001 6.57863021e-001 6.84327006e-001 7.11742997e-001
      7.22351015e-001 7.44807005e-001 7.65942991e-001 7.84156024e-001</_>
    <_>
      2.90346098e+000 2.92886591e+000 2.95937705e+000 2.98539400e+000
      2.99233007e+000 3.01812911e+000 3.05308604e+000 3.06224608e+000
      3.06311798e+000 3.05823398e+000 3.05787110e+000 3.06183600e+000
      3.06059098e+000 3.05684495e+000 3.05057311e+000 3.04290199e+000
      3.03983593e+000 3.05338311e+000 3.07596993e+000 3.09300900e+000
      1.27856505e+000 1.29034901e+000 1.29403198e+000 1.30359304e+000
      1.32250595e+000 1.34191203e+000 1.35669506e+000 1.36853802e+000
      1.37635505e+000 1.38726401e+000 1.40754700e+000 1.41714394e+000
      1.42819202e+000 1.45409703e+000 1.46545506e+000 1.47706294e+000
      1.50341105e+000 1.51570797e+000 1.52173698e+000 1.53803003e+000
      7.03064978e-001 7.06930995e-001 7.16786981e-001 7.23083973e-001
      7.30949998e-001 7.39494979e-001 7.46387005e-001 7.46653020e-001
      7.50141025e-001 7.53597021e-001 7.62067974e-001 7.73207009e-001
      7.77729988e-001 7.79630005e-001 7.85331011e-001 7.91531026e-001
      7.98668981e-001 8.06442022e-001 8.04615021e-001 8.00732017e-001</_>
    <_>
      3.05412889e+000 3.09839892e+000 3.10714507e+000 3.01454210e+000
      2.84418607e+000 2.59178996e+000 2.25970292e+000 1.89257097e+000
      1.51167202e+000 1.14247704e+000 1.38990402e+000 1.73004198e+000
      2.14783406e+000 2.55620503e+000 2.91581702e+000 3.18343210e+000
      3.34500098e+000 3.40654612e+000 3.39051199e+000 3.33101702e+000
      1.12858105e+000 9.75198984e-001 9.64792013e-001 9.54225004e-001
      7.72195995e-001 7.68428981e-001 7.64788985e-001 5.51065028e-001
      5.43065012e-001 5.42832017e-001 7.44060993e-001 7.87247002e-001
      8.30343008e-001 1.02697694e+000 1.06121504e+000 1.09135604e+000
      1.26746702e+000 1.28936303e+000 1.30786502e+000 1.45596504e+000
      4.68614995e-001 4.64812011e-001 4.59062994e-001 4.60218996e-001
      4.68225002e-001 3.03710014e-001 2.97877997e-001 2.94984996e-001
      2.95516998e-001 2.96447009e-001 4.62238997e-001 4.95440990e-001
      5.27809978e-001 5.28213024e-001 5.27260005e-001 6.57276988e-001
      6.79894984e-001 6.99087977e-001 6.95074975e-001 6.91663980e-001</_>
    <_>
      2.97367811e+000 2.73947406e+000 2.46120596e+000 2.14776206e+000
      1.82637203e+000 2.04533505e+000 2.26798201e+000 2.47898889e+000
      2.66684389e+000 2.83687091e+000 2.94996500e+000 2.99357605e+000
      3.04167700e+000 3.04993200e+000 3.03501391e+000 3.04607391e+000
      3.06128192e+000 3.07452393e+000 3.10410595e+000 3.11934090e+000
      1.15544498e+000 1.14951897e+000 9.27793980e-001 9.27277982e-001
      9.19053972e-001 1.05614698e+000 1.05656195e+000 1.05307102e+000
      1.17103195e+000 1.17472601e+000 1.16222095e+000 1.26928699e+000
      1.29657698e+000 1.29283595e+000 1.39691997e+000 1.41466200e+000
      1.40393102e+000 1.47534001e+000 1.50301099e+000 1.49964297e+000
      5.13203979e-001 5.05385995e-001 4.84075010e-001 4.85289007e-001
      4.88945991e-001 5.99819005e-001 5.95713973e-001 5.77898979e-001
      5.82350016e-001 5.88730991e-001 6.64496005e-001 6.58809006e-001
      6.62935972e-001 6.80943012e-001 6.79657996e-001 7.27429986e-001
      7.23034978e-001 7.27383971e-001 7.42672980e-001 7.44699001e-001</_>
    <_>
      2.88544798e+000 2.88593507e+000 2.89991999e+000 2.90509796e+000
      2.91042399e+000 2.92104793e+000 2.92725110e+000 2.92570305e+000
      2.93506098e+000 2.94028497e+000 2.94121504e+000 2.95018101e+000
      2.96269894e+000 2.97123599e+000 2.98372889e+000 2.99319005e+000
      2.99057102e+000 2.99076104e+000 2.99353290e+000 2.99944711e+000
      1.24230003e+000 1.25172806e+000 1.26548898e+000 1.27485299e+000
      1.28818405e+000 1.29984200e+000 1.30726099e+000 1.31726694e+000
      1.32846999e+000 1.33354199e+000 1.34197795e+000 1.35081303e+000
      1.35427499e+000 1.35819101e+000 1.36387396e+000 1.36548495e+000
      1.36594903e+000 1.37243104e+000 1.37448096e+000 1.37917900e+000
      6.31223023e-001 6.35145009e-001 6.44393981e-001 6.45425975e-001
      6.49829984e-001 6.57498002e-001 6.59702003e-001 6.65051997e-001
      6.72203004e-001 6.74277008e-001 6.81008995e-001 6.88512027e-001
      6.92031980e-001 6.96798027e-001 7.00605989e-001 7.05114007e-001
      7.09255993e-001 7.14946985e-001 7.18888998e-001 7.22684026e-001</_>
    <_>
      2.51947188e+000 2.16600895e+000 1.79695797e+000 1.43511999e+000
      1.72049797e+000 2.00846910e+000 2.27266908e+000 2.51699710e+000
      2.74167800e+000 2.92761993e+000 3.03604698e+000 3.08204198e+000
      3.08320808e+000 3.04566693e+000 3.05305195e+000 3.05525804e+000
      3.04405308e+000 3.03648400e+000 3.04546094e+000 3.07475805e+000
      9.62848008e-001 7.07795024e-001 7.03411996e-001 6.99436009e-001
      8.83082986e-001 8.77233982e-001 8.74074996e-001 1.04630601e+000
      1.04960001e+000 1.05700898e+000 1.20680797e+000 1.21653295e+000
      1.22776699e+000 1.35546303e+000 1.36307096e+000 1.37090600e+000
      1.47139597e+000 1.48299098e+000 1.49227703e+000 1.56268001e+000
      3.84564996e-001 3.85226011e-001 3.81920010e-001 3.80876988e-001
      5.20178020e-001 5.18146992e-001 5.22777975e-001 5.29841006e-001
      5.36894977e-001 6.44829988e-001 6.40830994e-001 6.47386014e-001
      6.56651020e-001 6.60727978e-001 7.41663992e-001 7.40052998e-001
      7.44670987e-001 7.52210021e-001 7.58786023e-001 8.19055021e-001</_>
    <_>
      2.77374411e+000 2.76163793e+000 2.76484299e+000 2.77785802e+000
      2.80091190e+000 2.83374190e+000 2.86522293e+000 2.89331794e+000
      2.92142892e+000 2.94613791e+000 2.95906997e+000 2.96870708e+000
      2.98001289e+000 2.98719907e+000 3.00132489e+000 3.01886797e+000
      3.03899193e+000 3.05047798e+000 3.06087089e+000 3.07875204e+000
      1.18908095e+000 1.18897605e+000 1.17656803e+000 1.17701995e+000
      1.18856895e+000 1.18947899e+000 1.19611394e+000 1.21309996e+000
      1.22330904e+000 1.23380601e+000 1.25205195e+000 1.26714802e+000
      1.28471005e+000 1.30149806e+000 1.32430601e+000 1.34445000e+000
      1.36292803e+000 1.38448799e+000 1.40172601e+000 1.42199302e+000
      5.98950028e-001 5.97800016e-001 5.95646977e-001 5.96346974e-001
      6.00773990e-001 6.07933998e-001 6.14044011e-001 6.18533015e-001
      6.27843022e-001 6.37907982e-001 6.48150980e-001 6.58881009e-001
      6.72124028e-001 6.83925986e-001 7.00645030e-001 7.17082977e-001
      7.31876016e-001 7.46910989e-001 7.62228012e-001 7.84640014e-001</_>
    <_>
      2.98306990e+000 2.89202189e+000 2.82262301e+000 2.78167796e+000
      2.79590106e+000 2.81722999e+000 2.81845093e+000 2.87631893e+000
      2.95073295e+000 3.00078201e+000 3.03136802e+000 3.05674100e+000
      3.08570290e+000 3.07856989e+000 3.07587695e+000 3.07092094e+000
      3.04721689e+000 3.03205109e+000 3.09671903e+000 3.14221001e+000
      1.34200001e+000 1.33830702e+000 1.34099197e+000 1.30359399e+000
      1.31013703e+000 1.31505895e+000 1.25472796e+000 1.30572104e+000
      1.31795597e+000 1.26112902e+000 1.30055702e+000 1.32130098e+000
      1.29482400e+000 1.31208098e+000 1.32409203e+000 1.31430697e+000
      1.33323002e+000 1.33603096e+000 1.38872898e+000 1.40503502e+000
      6.81542993e-001 6.77827001e-001 6.69557989e-001 6.80429995e-001
      6.77492023e-001 6.73502982e-001 6.65157020e-001 6.85301006e-001
      6.89854980e-001 6.94666982e-001 6.89598024e-001 7.00661004e-001
      7.27953970e-001 6.96017981e-001 7.03704000e-001 7.13238001e-001
      7.37771988e-001 7.53305972e-001 7.47353017e-001 7.67525017e-001</_>
    <_>
      3.04031301e+000 3.00054908e+000 2.96208692e+000 2.94656110e+000
      2.92805791e+000 2.90923405e+000 2.90145898e+000 2.88951612e+000
      2.88634896e+000 2.90349293e+000 2.92631698e+000 2.99341011e+000
      3.07815599e+000 3.15401602e+000 3.21362710e+000 3.25988698e+000
      3.29104304e+000 3.30895901e+000 3.31954408e+000 3.32094789e+000
      1.29006302e+000 1.27718997e+000 1.25875700e+000 1.25079703e+000
      1.24899304e+000 1.23930705e+000 1.24485195e+000 1.25084198e+000
      1.25558197e+000 1.27806699e+000 1.29884899e+000 1.33684099e+000
      1.37461305e+000 1.39596200e+000 1.42814004e+000 1.45981205e+000
      1.47675896e+000 1.50070298e+000 1.52361703e+000 1.53619397e+000
      6.58353984e-001 6.47352993e-001 6.41808987e-001 6.44455016e-001
      6.41323984e-001 6.44020975e-001 6.44499004e-001 6.44668996e-001
      6.55825973e-001 6.68146014e-001 6.83082998e-001 7.07199991e-001
      7.20884979e-001 7.30856001e-001 7.40953982e-001 7.52799988e-001
      7.69923985e-001 7.79365003e-001 7.86010981e-001 7.92375028e-001</_>
    <_>
      3.19857001e+000 3.00277805e+000 2.72316599e+000 2.37087202e+000
      1.98216701e+000 1.58764100e+000 1.20745599e+000 1.51640797e+000
      1.82369602e+000 2.14025998e+000 2.43804312e+000 2.71070910e+000
      2.91946411e+000 3.04403996e+000 3.09890199e+000 3.08982706e+000
      3.05427909e+000 3.09014797e+000 3.13664007e+000 3.18343091e+000
      1.08416796e+000 8.38352978e-001 8.42824996e-001 8.41802001e-001
      5.67030013e-001 5.68746984e-001 5.69149971e-001 7.78092027e-001
      7.77459979e-001 7.92963028e-001 9.91374016e-001 1.00473404e+000
      1.02314401e+000 1.20286798e+000 1.21635699e+000 1.23049402e+000
      1.38839996e+000 1.40300405e+000 1.41519701e+000 1.53303897e+000
      5.30591011e-001 5.28091013e-001 3.16018999e-001 3.13533992e-001
      3.12462986e-001 3.09935004e-001 3.08420986e-001 4.78251010e-001
      4.74664986e-001 4.88885999e-001 4.92729992e-001 5.01028001e-001
      6.30140007e-001 6.29330993e-001 6.40820980e-001 6.45229995e-001
      6.52723014e-001 7.43543983e-001 7.43071973e-001 7.44342983e-001</_>
    <_>
      3.07934499e+000 3.02632809e+000 2.95322490e+000 2.87138891e+000
      2.78642297e+000 2.71050000e+000 2.63900900e+000 2.59126306e+000
      2.58270693e+000 2.59583592e+000 2.63059497e+000 2.69062090e+000
      2.76398802e+000 2.85665011e+000 2.95503902e+000 3.04134607e+000
      3.11444592e+000 3.17587209e+000 3.21929312e+000 3.25071597e+000
      1.24339902e+000 1.21031296e+000 1.17888105e+000 1.13918996e+000
      1.10992599e+000 1.09110200e+000 1.06991005e+000 1.06471002e+000
      1.07422400e+000 1.08279705e+000 1.09884596e+000 1.13298798e+000
      1.16454506e+000 1.20311296e+000 1.24987102e+000 1.28763700e+000
      1.32542801e+000 1.36864603e+000 1.40132499e+000 1.43312597e+000
      6.24195993e-001 6.09932005e-001 5.93865991e-001 5.78872979e-001
      5.68798006e-001 5.64870000e-001 5.62075019e-001 5.64051986e-001
      5.71435988e-001 5.82063019e-001 5.95848024e-001 6.14641011e-001
      6.31960988e-001 6.55564010e-001 6.77109003e-001 6.91883028e-001
      7.10632980e-001 7.27289975e-001 7.43484020e-001 7.59657979e-001</_>
    <_>
      3.19768906e+000 3.12088203e+000 3.03779888e+000 2.92866302e+000
      2.82339692e+000 2.73552895e+000 2.65333104e+000 2.60299802e+000
      2.59595704e+000 2.60734606e+000 2.65158892e+000 2.73074603e+000
      2.83235788e+000 2.96164298e+000 3.07244110e+000 3.15301895e+000
      3.21005201e+000 3.25253606e+000 3.27339292e+000 3.27995801e+000
      1.30058897e+000 1.25862396e+000 1.22933698e+000 1.18269598e+000
      1.14923501e+000 1.13362503e+000 1.11055005e+000 1.10267198e+000
      1.11820304e+000 1.12703300e+000 1.14858496e+000 1.18749106e+000
      1.22806597e+000 1.27367997e+000 1.30621397e+000 1.34423804e+000
      1.38130701e+000 1.40787101e+000 1.43822098e+000 1.46368504e+000
      6.56795979e-001 6.38094008e-001 6.20356977e-001 5.94458997e-001
      5.88833988e-001 5.84554017e-001 5.78176975e-001 5.79968989e-001
      5.82961977e-001 5.96867979e-001 6.17964029e-001 6.36234999e-001
      6.53358996e-001 6.74547017e-001 6.88492000e-001 7.02919006e-001
      7.17877984e-001 7.31832981e-001 7.43631005e-001 7.53338993e-001</_>
    <_>
      2.90960693e+000 2.88336611e+000 2.88509798e+000 2.91865611e+000
      2.96165609e+000 2.99047995e+000 2.99463701e+000 2.97125196e+000
      2.92165899e+000 2.84797502e+000 2.80741501e+000 2.76471210e+000
      2.80009198e+000 2.86649489e+000 2.92151594e+000 2.96931005e+000
      3.00870109e+000 3.04213500e+000 3.10439706e+000 3.14876699e+000
      1.29740095e+000 1.28092396e+000 1.27679205e+000 1.27639496e+000
      1.27064598e+000 1.27032995e+000 1.26508904e+000 1.25659299e+000
      1.25750601e+000 1.24543905e+000 1.26328897e+000 1.28069794e+000
      1.30893397e+000 1.34314299e+000 1.36448205e+000 1.38727403e+000
      1.41609097e+000 1.43604100e+000 1.46086502e+000 1.48136306e+000
      7.36267984e-001 7.37622976e-001 7.38309979e-001 7.40037024e-001
      7.42422998e-001 7.37909973e-001 7.38898993e-001 7.31226027e-001
      7.22467005e-001 7.24629998e-001 7.41584003e-001 7.52321005e-001
      7.77330995e-001 7.77001023e-001 7.76987016e-001 7.89093018e-001
      7.95787990e-001 8.10468972e-001 8.14163029e-001 8.13311994e-001</_>
    <_>
      2.80815792e+000 2.72612405e+000 2.63698101e+000 2.59023905e+000
      2.58725095e+000 2.59416389e+000 2.58223891e+000 2.51766610e+000
      2.50220108e+000 2.55149508e+000 2.61254692e+000 2.71519995e+000
      2.79364610e+000 2.84011412e+000 2.87377000e+000 2.90460992e+000
      2.92754793e+000 2.94403791e+000 2.98200989e+000 3.02442288e+000
      1.16724002e+000 1.14177597e+000 1.11997902e+000 1.10028005e+000
      1.10473895e+000 1.09399104e+000 1.07726395e+000 1.07497203e+000
      1.09173298e+000 1.12113500e+000 1.13707495e+000 1.17375398e+000
      1.20565903e+000 1.21874499e+000 1.24856806e+000 1.28628802e+000
      1.31177497e+000 1.34780204e+000 1.39873695e+000 1.42586398e+000
      5.68754017e-001 5.57720006e-001 5.58308005e-001 5.69297016e-001
      5.61356008e-001 5.47224998e-001 5.39716005e-001 5.38941979e-001
      5.73055983e-001 5.95553994e-001 5.97249985e-001 6.08204007e-001
      6.15845978e-001 6.40843987e-001 6.64005995e-001 6.75921023e-001
      6.95192993e-001 7.17410982e-001 7.47636020e-001 7.70612001e-001</_>
    <_>
      2.54421306e+000 2.58437705e+000 2.69015694e+000 2.75402093e+000
      2.76800704e+000 2.75526905e+000 2.70068789e+000 2.61658096e+000
      2.57761097e+000 2.57000899e+000 2.57335496e+000 2.63573194e+000
      2.68301511e+000 2.70186710e+000 2.73284793e+000 2.72484899e+000
      2.68290091e+000 2.69115090e+000 2.70654297e+000 2.69899893e+000
      1.11242402e+000 1.11548698e+000 1.15081596e+000 1.15352499e+000
      1.15377605e+000 1.16442895e+000 1.15638995e+000 1.14737594e+000
      1.13970399e+000 1.13725901e+000 1.13343298e+000 1.12190402e+000
      1.10437405e+000 1.09612703e+000 1.08101404e+000 1.06275105e+000
      1.04930103e+000 1.04153395e+000 1.03148699e+000 1.01454604e+000
      5.39168000e-001 5.41288018e-001 5.47619998e-001 5.40427983e-001
      5.37464976e-001 5.38074017e-001 5.25708973e-001 5.25241017e-001
      5.31692028e-001 5.33807993e-001 5.38715005e-001 5.48336983e-001
      5.42683005e-001 5.37688017e-001 5.53205013e-001 5.53903997e-001
      5.52335978e-001 5.67879975e-001 5.62564015e-001 5.68886995e-001</_>
    <_>
      3.03998494e+000 2.93781805e+000 2.80826092e+000 2.70418501e+000
      2.62039995e+000 2.50532603e+000 2.45773196e+000 2.41487408e+000
      2.42089295e+000 2.48328495e+000 2.51503396e+000 2.53182411e+000
      2.59623098e+000 2.67760396e+000 2.77517891e+000 2.86068010e+000
      2.95831299e+000 3.03414011e+000 3.10391092e+000 3.17777801e+000
      1.19099295e+000 1.15443599e+000 1.13385403e+000 1.04972994e+000
      1.03136396e+000 1.01891994e+000 9.75669026e-001 9.82645988e-001
      1.02349806e+000 1.01642203e+000 1.02662396e+000 1.07742405e+000
      1.11439598e+000 1.15058196e+000 1.22517204e+000 1.26685202e+000
      1.31233203e+000 1.37379503e+000 1.41364598e+000 1.44530404e+000
      6.11047029e-001 5.77247024e-001 5.51469028e-001 5.43240011e-001
      5.26669979e-001 5.18553972e-001 5.25988996e-001 5.18063009e-001
      5.38527012e-001 5.57963014e-001 5.57048023e-001 5.66622972e-001
      5.97084999e-001 6.27205014e-001 6.62393987e-001 6.72297001e-001
      6.91157997e-001 7.16629028e-001 7.35391021e-001 7.59631991e-001</_>
    <_>
      3.28057909e+000 3.25753093e+000 3.20883894e+000 3.12841797e+000
      2.98951697e+000 2.84904194e+000 2.69383693e+000 2.56493497e+000
      2.56760406e+000 2.56220007e+000 2.65554690e+000 2.80699301e+000
      2.94988704e+000 3.04881907e+000 3.09365892e+000 3.11042690e+000
      3.06325603e+000 2.97571397e+000 2.90751600e+000 2.81212306e+000
      1.47661495e+000 1.44141901e+000 1.35219002e+000 1.33015501e+000
      1.28904700e+000 1.16954601e+000 1.15192401e+000 1.15213299e+000
      1.11536598e+000 1.10617602e+000 1.18306601e+000 1.16995800e+000
      1.16831696e+000 1.22665405e+000 1.18298197e+000 1.17551899e+000
      1.21233702e+000 1.14079905e+000 1.16128397e+000 1.20106602e+000
      7.40808010e-001 7.17688024e-001 6.96494997e-001 6.57595992e-001
      6.51228011e-001 6.31492972e-001 6.07367992e-001 6.04878008e-001
      6.21980011e-001 6.20257020e-001 6.40052021e-001 6.53289020e-001
      6.50195003e-001 6.50479019e-001 6.45008028e-001 6.42310023e-001
      6.42688990e-001 6.28786027e-001 6.41251028e-001 6.39712989e-001</_>
    <_>
      2.86220789e+000 2.77410293e+000 2.69471097e+000 2.63859105e+000
      2.57672000e+000 2.55594301e+000 2.57459807e+000 2.59165502e+000
      2.63384891e+000 2.69247103e+000 2.76341009e+000 2.84692502e+000
      2.92296910e+000 2.96463108e+000 2.97371888e+000 2.96768999e+000
      2.97932100e+000 3.00713992e+000 3.06048799e+000 3.11507392e+000
      1.17531300e+000 1.15436304e+000 1.12173498e+000 1.11356199e+000
      1.10623896e+000 1.10922003e+000 1.12966597e+000 1.13722503e+000
      1.16993296e+000 1.20666397e+000 1.23131704e+000 1.27791500e+000
      1.32515299e+000 1.35804701e+000 1.38997495e+000 1.42517602e+000
      1.45546806e+000 1.48514700e+000 1.51464796e+000 1.52629805e+000
      6.64297998e-001 6.39028013e-001 6.41664982e-001 6.49625003e-001
      6.45951986e-001 6.49403989e-001 6.49047971e-001 6.56156003e-001
      6.77078009e-001 6.87901020e-001 7.06462979e-001 7.17369974e-001
      7.22303987e-001 7.23416984e-001 7.19126999e-001 7.34525979e-001
      7.48166025e-001 7.48095989e-001 7.37536013e-001 7.32141018e-001</_>
    <_>
      2.94420791e+000 2.96636701e+000 2.96545792e+000 2.96234608e+000
      2.90328097e+000 2.83370900e+000 2.74666500e+000 2.64531112e+000
      2.53385210e+000 2.38102889e+000 2.55561996e+000 2.73788309e+000
      2.89290905e+000 3.02110291e+000 3.11618805e+000 3.18491101e+000
      3.23162103e+000 3.25606108e+000 3.25049901e+000 3.22495699e+000
      1.23757899e+000 1.20732796e+000 1.20410705e+000 1.21370900e+000
      1.16111600e+000 1.16050601e+000 1.17842305e+000 1.11289799e+000
      1.11450601e+000 1.12353301e+000 1.24526501e+000 1.25812399e+000
      1.26600206e+000 1.36302805e+000 1.37180603e+000 1.37924695e+000
      1.45617294e+000 1.46387899e+000 1.46784902e+000 1.52422702e+000
      6.20728016e-001 6.21815026e-001 6.19412005e-001 6.22296989e-001
      6.27292991e-001 5.83994985e-001 5.89132011e-001 5.92244029e-001
      5.96783996e-001 5.97054005e-001 6.87967002e-001 6.99259996e-001
      7.02259004e-001 7.07184970e-001 7.06458986e-001 7.70144999e-001
      7.79815972e-001 7.85151005e-001 7.89250016e-001 7.88895011e-001</_>
    <_>
      2.84502101e+000 2.87182093e+000 2.90124607e+000 2.93843198e+000
      2.97403312e+000 2.99985194e+000 3.01271009e+000 3.03698707e+000
      3.05926394e+000 3.05538106e+000 3.04222798e+000 3.02570105e+000
      2.98644304e+000 2.98798299e+000 2.98459196e+000 2.97265506e+000
      2.98733592e+000 3.00018001e+000 3.00881910e+000 3.01709604e+000
      1.20626497e+000 1.21880400e+000 1.23256004e+000 1.25505400e+000
      1.31757796e+000 1.32680798e+000 1.34916401e+000 1.40434003e+000
      1.40716600e+000 1.41648304e+000 1.43622100e+000 1.43063295e+000
      1.42637098e+000 1.43551803e+000 1.41823006e+000 1.41242397e+000
      1.39389598e+000 1.37077701e+000 1.36771500e+000 1.29958296e+000
      6.92399979e-001 7.00816989e-001 7.05474019e-001 7.07090020e-001
      7.14670002e-001 7.12788999e-001 7.11236000e-001 7.24475026e-001
      7.19834983e-001 7.01306999e-001 6.97593987e-001 6.92143977e-001
      6.93790972e-001 7.03509986e-001 6.61924005e-001 6.54707015e-001
      6.58101022e-001 6.59521997e-001 6.60659015e-001 5.89801013e-001</_>
    <_>
      2.74978304e+000 2.73326206e+000 2.69492888e+000 2.69099212e+000
      2.71569705e+000 2.75209093e+000 2.81437993e+000 2.83978510e+000
      2.86934090e+000 2.88810706e+000 2.89598489e+000 2.92459393e+000
      2.92666101e+000 2.93935800e+000 2.96812201e+000 3.00651193e+000
      3.05375504e+000 3.06999302e+000 3.08011293e+000 3.09141302e+000
      1.16820300e+000 1.16913402e+000 1.14596200e+000 1.14410102e+000
      1.16703498e+000 1.16216099e+000 1.18395805e+000 1.19681096e+000
      1.20462203e+000 1.22904694e+000 1.24105501e+000 1.25971699e+000
      1.27429497e+000 1.28918397e+000 1.31521702e+000 1.33393097e+000
      1.35529101e+000 1.36684799e+000 1.38010800e+000 1.40160501e+000
      5.84591985e-001 5.84743977e-001 5.82273006e-001 5.83679020e-001
      5.86988986e-001 5.96037984e-001 6.07146025e-001 6.07397020e-001
      6.18137002e-001 6.23485982e-001 6.32034004e-001 6.45757020e-001
      6.47762001e-001 6.61046028e-001 6.72685981e-001 6.82968020e-001
      6.96886003e-001 6.97715998e-001 7.08021998e-001 7.21485972e-001</_>
    <_>
      3.09384704e+000 2.96753192e+000 2.86407590e+000 2.78322601e+000
      2.68305612e+000 2.50769591e+000 2.26956201e+000 2.43097901e+000
      2.57175493e+000 2.65981698e+000 2.67841506e+000 2.62350988e+000
      2.66178393e+000 2.77609491e+000 2.93849897e+000 3.01947498e+000
      2.99762297e+000 3.03345108e+000 3.13576198e+000 3.23095894e+000
      1.32950902e+000 1.21970904e+000 1.21575606e+000 1.19217706e+000
      1.06649196e+000 1.05970895e+000 1.03934300e+000 1.16143203e+000
      1.14158499e+000 1.10432100e+000 1.19341505e+000 1.16527998e+000
      1.20476604e+000 1.32197499e+000 1.30854797e+000 1.32667196e+000
      1.41130495e+000 1.42027903e+000 1.46493101e+000 1.52563703e+000
      6.73063993e-001 6.75652027e-001 5.83468020e-001 5.71860015e-001
      5.55374980e-001 5.51828980e-001 5.62605977e-001 6.49937987e-001
      6.27619982e-001 5.89299023e-001 5.90611994e-001 6.14319026e-001
      7.07188010e-001 7.23487020e-001 6.97171986e-001 6.79493010e-001
      6.95173025e-001 7.73980021e-001 8.07991982e-001 7.85713971e-001</_>
    <_>
      3.22260499e+000 3.20832205e+000 3.17581892e+000 3.12857604e+000
      3.06156397e+000 2.98327494e+000 2.91976404e+000 2.88794994e+000
      2.88886309e+000 2.93082309e+000 2.98270202e+000 3.03017902e+000
      3.08593512e+000 3.12743592e+000 3.14828706e+000 3.17227507e+000
      3.18438101e+000 3.18145704e+000 3.18050003e+000 3.17751193e+000
      1.39737403e+000 1.38460195e+000 1.36937201e+000 1.35025096e+000
      1.33130205e+000 1.31655800e+000 1.30543900e+000 1.31049597e+000
      1.32403803e+000 1.33188999e+000 1.34747303e+000 1.36588597e+000
      1.37608194e+000 1.38924098e+000 1.40395606e+000 1.41646004e+000
      1.42769098e+000 1.43721700e+000 1.44429600e+000 1.45305502e+000
      7.29564011e-001 7.24331021e-001 7.12439001e-001 7.05951989e-001
      6.95766985e-001 6.89041972e-001 6.94482982e-001 7.00299978e-001
      7.09408998e-001 7.20835984e-001 7.21010029e-001 7.25046992e-001
      7.37327993e-001 7.42169976e-001 7.46142983e-001 7.53582001e-001
      7.54585981e-001 7.58910000e-001 7.65100002e-001 7.66668975e-001</_>
    <_>
      2.64601302e+000 2.79206300e+000 2.85112691e+000 2.84848499e+000
      2.83652306e+000 2.82815790e+000 2.79926395e+000 2.82955098e+000
      2.87622190e+000 2.94566011e+000 3.02894306e+000 3.08222008e+000
      3.08870602e+000 3.06562591e+000 3.01376796e+000 2.95948601e+000
      2.91203308e+000 2.87516809e+000 2.84570098e+000 2.82326102e+000
      1.11731994e+000 1.10562003e+000 1.08770394e+000 1.16966105e+000
      1.18430495e+000 1.18950498e+000 1.25974500e+000 1.27145398e+000
      1.28524697e+000 1.33884501e+000 1.34461606e+000 1.34680498e+000
      1.36616898e+000 1.36299598e+000 1.36008894e+000 1.36571097e+000
      1.36946201e+000 1.37613904e+000 1.36889601e+000 1.36268997e+000
      5.41015983e-001 5.34335971e-001 5.86202025e-001 5.83643019e-001
      5.94558001e-001 6.04071021e-001 6.04119003e-001 6.41662002e-001
      6.49951994e-001 6.57263994e-001 6.60058022e-001 6.58842981e-001
      6.74391985e-001 6.77501976e-001 6.76469982e-001 6.78020000e-001
      6.82847977e-001 7.00794995e-001 7.04347014e-001 6.91766977e-001</_>
    <_>
      2.77116799e+000 2.77442598e+000 2.77343392e+000 2.78571701e+000
      2.79963803e+000 2.81128192e+000 2.83289599e+000 2.85536408e+000
      2.86940908e+000 2.88848901e+000 2.90564489e+000 2.91412997e+000
      2.93276000e+000 2.95184588e+000 2.96996093e+000 2.99127412e+000
      3.00627208e+000 3.01646805e+000 3.02904892e+000 3.03955293e+000
      1.12657201e+000 1.13305199e+000 1.14084399e+000 1.15055203e+000
      1.16288102e+000 1.17754805e+000 1.19354796e+000 1.21080697e+000
      1.22705603e+000 1.24323595e+000 1.25955296e+000 1.27632701e+000
      1.29156601e+000 1.30658305e+000 1.32336295e+000 1.33392406e+000
      1.34442997e+000 1.35766804e+000 1.36552894e+000 1.37343597e+000
      5.78172028e-001 5.81763983e-001 5.87280989e-001 5.95757008e-001
      6.03686988e-001 6.12955987e-001 6.25478029e-001 6.35082006e-001
      6.42368019e-001 6.54767990e-001 6.64277971e-001 6.74740016e-001
      6.87694013e-001 6.94814026e-001 7.06133008e-001 7.15206027e-001
      7.22802997e-001 7.31482029e-001 7.38605022e-001 7.47180998e-001</_>
    <_>
      2.79213309e+000 2.78844905e+000 2.80050611e+000 2.83816290e+000
      2.85717010e+000 2.90075493e+000 2.91693902e+000 2.95051908e+000
      2.94533396e+000 2.92287898e+000 2.85424495e+000 2.81569099e+000
      2.75229096e+000 2.69580507e+000 2.64252806e+000 2.64873910e+000
      2.64620304e+000 2.64488006e+000 2.63982511e+000 2.67972898e+000
      1.32762301e+000 1.30878699e+000 1.29364300e+000 1.30538797e+000
      1.28384697e+000 1.27302396e+000 1.26916897e+000 1.25632095e+000
      1.23814595e+000 1.22329998e+000 1.19998002e+000 1.19572401e+000
      1.17147100e+000 1.15633702e+000 1.16372395e+000 1.17003500e+000
      1.15872896e+000 1.17052603e+000 1.18838406e+000 1.21081197e+000
      6.66299999e-001 6.63179994e-001 6.61045015e-001 6.63336992e-001
      6.55200005e-001 6.45385027e-001 6.39551997e-001 6.38773024e-001
      6.34007990e-001 6.23616993e-001 6.10346973e-001 6.14081979e-001
      6.03655994e-001 6.06976986e-001 5.99631011e-001 6.12860024e-001
      6.22766018e-001 6.32278979e-001 6.41304016e-001 6.61867023e-001</_>
    <_>
      3.27977896e+000 3.24861002e+000 3.19584489e+000 3.11753607e+000
      3.01865911e+000 2.91024899e+000 2.78053188e+000 2.63142204e+000
      2.75201607e+000 2.85612297e+000 2.93454289e+000 3.01036811e+000
      3.05753493e+000 3.09862208e+000 3.12477207e+000 3.15057111e+000
      3.17602491e+000 3.19360304e+000 3.23285389e+000 3.26164103e+000
      1.41181195e+000 1.41176701e+000 1.33487499e+000 1.32799900e+000
      1.32792902e+000 1.23696899e+000 1.22688401e+000 1.22548497e+000
      1.30018103e+000 1.29205203e+000 1.28695500e+000 1.36050999e+000
      1.34812796e+000 1.35079098e+000 1.41776395e+000 1.41453302e+000
      1.42103899e+000 1.48106897e+000 1.48249698e+000 1.48575497e+000
      7.23302007e-001 7.23415017e-001 7.22732008e-001 6.54684007e-001
      6.52696013e-001 6.49290025e-001 6.45699024e-001 6.44819021e-001
      6.99846029e-001 6.98907971e-001 6.94489002e-001 6.95945978e-001
      6.93252027e-001 7.38057971e-001 7.39238024e-001 7.43583024e-001
      7.50032008e-001 7.51378000e-001 7.83701003e-001 7.85291016e-001</_>
    <_>
      3.02425504e+000 3.00733089e+000 2.96684694e+000 2.87661910e+000
      2.77812696e+000 2.64378190e+000 2.45127797e+000 2.27703094e+000
      2.08755207e+000 1.97650194e+000 2.05838990e+000 2.13215899e+000
      2.37523293e+000 2.59639001e+000 2.78531194e+000 2.93191600e+000
      3.03014708e+000 3.10447598e+000 3.13947201e+000 3.16794109e+000
      1.22116303e+000 1.14735794e+000 1.13689005e+000 1.07416105e+000
      1.00335896e+000 9.87657011e-001 9.06888008e-001 8.49204004e-001
      8.33877027e-001 8.13189030e-001 8.85158002e-001 8.99950981e-001
      9.98134017e-001 1.06901205e+000 1.08273005e+000 1.16945803e+000
      1.22430694e+000 1.24335003e+000 1.31409502e+000 1.35906696e+000
      5.55913985e-001 5.65680981e-001 5.25048971e-001 5.21965981e-001
      5.07833004e-001 4.66850013e-001 4.69384015e-001 4.38430011e-001
      4.39956009e-001 4.67287004e-001 5.36408007e-001 5.57606995e-001
      6.07804000e-001 6.07200980e-001 6.25023007e-001 6.78408980e-001
      7.00937986e-001 7.31971025e-001 7.27504015e-001 7.41743982e-001</_>
    <_>
      1.26088905e+000 1.19183600e+000 1.20135796e+000 1.28253698e+000
      1.44054306e+000 1.61054599e+000 1.76266599e+000 1.90094900e+000
      2.01860905e+000 2.10589910e+000 2.17988896e+000 2.27417302e+000
      2.33991289e+000 2.38279891e+000 2.43773103e+000 2.49141788e+000
      2.52511692e+000 2.57387996e+000 2.64559102e+000 2.73366094e+000
      3.47860008e-001 3.39830011e-001 3.32612991e-001 3.49705011e-001
      3.79740000e-001 4.00292993e-001 4.30002987e-001 4.80756015e-001
      5.29841006e-001 5.82589984e-001 6.47377014e-001 7.19164014e-001
      7.77370989e-001 8.49847972e-001 9.32779014e-001 1.00466597e+000
      1.07775104e+000 1.17920101e+000 1.26802301e+000 1.35302198e+000
      1.54679999e-001 1.62992999e-001 1.61879003e-001 1.73743993e-001
      1.88684002e-001 2.02164993e-001 2.16380000e-001 2.39127994e-001
      2.68041015e-001 2.93224990e-001 3.14361006e-001 3.46038014e-001
      3.74686986e-001 4.03035998e-001 4.32698011e-001 4.65382010e-001
      5.01392007e-001 5.48973978e-001 5.92328012e-001 6.35514021e-001</_>
    <_>
      3.40828490e+000 3.38082504e+000 3.27590799e+000 3.06807995e+000
      2.74533892e+000 2.33261299e+000 1.87898898e+000 1.42323697e+000
      9.98255014e-001 1.27302301e+000 1.56895804e+000 1.90211105e+000
      2.29011011e+000 2.68899798e+000 3.03324509e+000 3.25377202e+000
      3.35828900e+000 3.36500311e+000 3.31187201e+000 3.31910491e+000
      1.05198097e+000 1.03854299e+000 1.02936900e+000 7.67926991e-001
      7.55182028e-001 7.48767972e-001 4.66307998e-001 4.55228001e-001
      4.51738000e-001 6.49426997e-001 6.57252014e-001 6.82816029e-001
      9.10826981e-001 9.39532995e-001 9.62141991e-001 1.17408895e+000
      1.19490802e+000 1.20919096e+000 1.39642298e+000 1.41036201e+000
      4.70238000e-001 4.66977000e-001 4.62108999e-001 4.60581988e-001
      2.46575996e-001 2.40626007e-001 2.38558993e-001 2.34301999e-001
      2.33820006e-001 3.86916012e-001 3.99964988e-001 4.21256989e-001
      4.46684003e-001 4.59367990e-001 5.88190019e-001 5.95447004e-001
      6.09569013e-001 6.27153993e-001 6.35527015e-001 7.36265004e-001</_>
    <_>
      2.86569810e+000 2.81583595e+000 2.76124692e+000 2.71304297e+000
      2.66326404e+000 2.57759500e+000 2.45462108e+000 2.60158896e+000
      2.72878408e+000 2.83417797e+000 2.91835093e+000 2.98599911e+000
      3.03547907e+000 3.06772900e+000 3.08689809e+000 3.09148788e+000
      3.07929397e+000 3.08807302e+000 3.09828091e+000 3.10889006e+000
      1.16997099e+000 1.09711802e+000 1.10206699e+000 1.11565900e+000
      1.04247499e+000 1.04259002e+000 1.04935706e+000 1.13308799e+000
      1.13452995e+000 1.14272404e+000 1.21231699e+000 1.21792901e+000
      1.23000896e+000 1.28787899e+000 1.29621601e+000 1.31278205e+000
      1.36192095e+000 1.37240696e+000 1.38781404e+000 1.42751801e+000
      5.97433984e-001 6.00172997e-001 5.43106019e-001 5.51478028e-001
      5.56326985e-001 5.53793013e-001 5.48494995e-001 6.06249988e-001
      6.13027990e-001 6.17923021e-001 6.16711020e-001 6.15851998e-001
      6.60292983e-001 6.67869985e-001 6.73958004e-001 6.80203021e-001
      6.83459997e-001 7.19475985e-001 7.29291022e-001 7.34740019e-001</_>
    <_>
      2.48009801e+000 2.59802294e+000 2.66467094e+000 2.69298005e+000
      2.70163703e+000 2.66451907e+000 2.60892606e+000 2.64741302e+000
      2.68887591e+000 2.72529793e+000 2.77687812e+000 2.81219411e+000
      2.84768105e+000 2.88226700e+000 2.89774799e+000 2.90237308e+000
      2.90538692e+000 2.90256810e+000 2.91374207e+000 2.93199301e+000
      9.90336001e-001 9.93120015e-001 1.00036001e+000 1.02984297e+000
      1.04233503e+000 1.04995799e+000 1.08153498e+000 1.09848297e+000
      1.11853099e+000 1.14906895e+000 1.17253101e+000 1.19001198e+000
      1.22431898e+000 1.24349904e+000 1.25748599e+000 1.28251398e+000
      1.29712903e+000 1.31284499e+000 1.34188998e+000 1.35602796e+000
      4.97583002e-001 5.04365027e-001 5.07975996e-001 5.17840028e-001
      5.31809986e-001 5.37913978e-001 5.52249014e-001 5.62628984e-001
      5.77818990e-001 5.93420982e-001 6.10767007e-001 6.21497989e-001
      6.42588973e-001 6.60175025e-001 6.69381022e-001 6.83512986e-001
      6.98500991e-001 7.24170029e-001 7.48547971e-001 7.62453020e-001</_>
    <_>
      2.24762893e+000 2.23122311e+000 2.21938610e+000 2.21015906e+000
      2.21693492e+000 2.21441388e+000 2.20148611e+000 2.19218898e+000
      2.16626811e+000 2.14447093e+000 2.13173103e+000 2.10152507e+000
      2.08269691e+000 2.02369308e+000 1.93713903e+000 1.84123600e+000
      1.74687898e+000 1.64670300e+000 1.56327701e+000 1.56071901e+000
      9.43561971e-001 8.81579995e-001 8.46987009e-001 8.07856023e-001
      7.63810992e-001 7.39335001e-001 7.10403979e-001 6.75342023e-001
      6.57051027e-001 6.41474009e-001 6.14739001e-001 6.04942024e-001
      5.97139001e-001 5.72901011e-001 5.79384029e-001 5.83422005e-001
      5.67484975e-001 5.87610006e-001 6.17588997e-001 6.42087996e-001
      3.73807013e-001 3.54892999e-001 3.30197006e-001 3.23745996e-001
      3.14357013e-001 3.06553990e-001 2.92095989e-001 2.75240988e-001
      2.73530006e-001 2.74224997e-001 2.65071988e-001 2.56116003e-001
      2.49409005e-001 2.49142006e-001 2.53969014e-001 2.54229009e-001
      2.54830986e-001 2.51026005e-001 2.69115001e-001 3.11821014e-001</_>
    <_>
      2.92097497e+000 2.89329505e+000 2.88068509e+000 2.89224100e+000
      2.90458989e+000 2.92728090e+000 2.96191597e+000 2.99359393e+000
      3.01198006e+000 3.00893593e+000 2.97794509e+000 2.93541002e+000
      2.92073989e+000 2.89817405e+000 2.89438295e+000 2.89443898e+000
      2.91502810e+000 2.96244407e+000 3.00702190e+000 3.04386210e+000
      1.45439601e+000 1.45085704e+000 1.44023502e+000 1.44364798e+000
      1.43501198e+000 1.42377198e+000 1.42348695e+000 1.41829002e+000
      1.41361904e+000 1.40413105e+000 1.39978600e+000 1.39262295e+000
      1.38825095e+000 1.38085401e+000 1.37918305e+000 1.37292504e+000
      1.37615705e+000 1.37954998e+000 1.37708700e+000 1.37633896e+000
      7.53884017e-001 7.33304024e-001 7.29445994e-001 7.30904996e-001
      7.25169003e-001 7.22769976e-001 7.16323018e-001 7.15013981e-001
      7.23197997e-001 7.23583996e-001 7.25355029e-001 7.23986983e-001
      7.29080975e-001 7.35579014e-001 7.40372002e-001 7.41932988e-001
      7.47004986e-001 7.55447984e-001 7.62127995e-001 7.60948002e-001</_>
    <_>
      3.10158992e+000 2.90835690e+000 2.66864109e+000 2.39324808e+000
      2.10149193e+000 1.80864406e+000 2.05225611e+000 2.26673603e+000
      2.44595194e+000 2.65270400e+000 2.80146003e+000 2.90539908e+000
      2.97707701e+000 2.99662900e+000 2.97552490e+000 2.95599294e+000
      3.00935602e+000 3.05298209e+000 3.10648799e+000 3.15180302e+000
      1.07614195e+000 1.07576096e+000 1.07617903e+000 8.60274971e-001
      8.62121999e-001 8.69350016e-001 9.66472983e-001 9.70301986e-001
      9.83570993e-001 1.08077800e+000 1.08471799e+000 1.11134899e+000
      1.19231606e+000 1.20190299e+000 1.23502600e+000 1.31278801e+000
      1.32961094e+000 1.36634004e+000 1.43997204e+000 1.45656705e+000
      6.03863001e-001 4.53855991e-001 4.49349999e-001 4.56952006e-001
      4.44640011e-001 4.48496997e-001 5.33544004e-001 5.27010024e-001
      5.36617994e-001 5.50018013e-001 5.51697016e-001 6.15118980e-001
      6.19886994e-001 6.28852010e-001 6.43230975e-001 6.57375991e-001
      7.08536029e-001 7.16632009e-001 7.34490991e-001 7.46156991e-001</_>
    <_>
      3.04881907e+000 3.09365892e+000 3.11042690e+000 3.06325603e+000
      2.97571397e+000 2.90751600e+000 2.81212306e+000 2.76978207e+000
      2.73008990e+000 2.76094794e+000 2.86750293e+000 2.95016599e+000
      3.03235412e+000 3.13858604e+000 3.22962904e+000 3.28830600e+000
      3.31328297e+000 3.33036995e+000 3.31693792e+000 3.30317092e+000
      1.22665405e+000 1.18298197e+000 1.17551899e+000 1.21233702e+000
      1.14079905e+000 1.16128397e+000 1.20106602e+000 1.15934598e+000
      1.18744302e+000 1.27338099e+000 1.27570403e+000 1.29321802e+000
      1.36889899e+000 1.40546501e+000 1.43523502e+000 1.46337998e+000
      1.48113406e+000 1.51102805e+000 1.50428796e+000 1.50325406e+000
      6.50479019e-001 6.45008028e-001 6.42310023e-001 6.42688990e-001
      6.28786027e-001 6.41251028e-001 6.39712989e-001 6.62737012e-001
      6.67858005e-001 6.84018016e-001 7.25378990e-001 7.23017991e-001
      7.26251006e-001 7.67005026e-001 7.87410021e-001 8.10159981e-001
      8.10716987e-001 8.12901020e-001 8.25088978e-001 8.33842993e-001</_>
    <_>
      3.21235204e+000 3.20408511e+000 3.16839695e+000 3.11759090e+000
      3.05229592e+000 2.98266792e+000 2.93398809e+000 2.86784005e+000
      2.83259702e+000 2.85015512e+000 2.92229009e+000 3.01566601e+000
      3.08597898e+000 3.15491509e+000 3.20598412e+000 3.24062991e+000
      3.26009297e+000 3.24984503e+000 3.22951102e+000 3.20767903e+000
      1.40622795e+000 1.39460897e+000 1.37745500e+000 1.34960103e+000
      1.33589804e+000 1.32367098e+000 1.31067300e+000 1.28943300e+000
      1.30092502e+000 1.32461095e+000 1.33778799e+000 1.36405599e+000
      1.37727296e+000 1.39412904e+000 1.41324699e+000 1.42166805e+000
